{"learner":{"attributes":{"best_iteration":"533","best_score":"0.8580854528221591","scikit_learn":"{\"_estimator_type\": \"classifier\"}"},"feature_names":["HasMajorDelinquency","DelinquencyScore","HasAnyDelinquency","UtilizationTimesDelinquency","LatePaymentsPerCreditLine","UtilizationPerAge","RevolvingUtilizationCappedLog","DebtToIncomeAgeRisk","IncomePerCreditLine","UtilizationPerCreditLine","HighAgeRiskFlag","DelinquencyBucket","UtilizationBucketLateBucket","WasUtilizationTimesDelinquencyImputed","WasLatePaymentsPerCreditLineImputed","WasUtilizationPerAgeImputed","WasRevolvingUtilizationCappedLogImputed","WasIncomePerCreditLineImputed","WasUtilizationPerCreditLineImputed"],"feature_types":["float","float","float","float","float","float","float","float","float","float","float","float","float","float","float","float","float","float","float"],"gradient_booster":{"model":{"cats":{"enc":[],"feature_segments":[],"sorted_idx":[]},"gbtree_model_param":{"num_parallel_tree":"1","num_trees":"634"},"iteration_indptr":[0,1,2,3,4,5,6,7,8,9,10,11,12,13,14,15,16,17,18,19,20,21,22,23,24,25,26,27,28,29,30,31,32,33,34,35,36,37,38,39,40,41,42,43,44,45,46,47,48,49,50,51,52,53,54,55,56,57,58,59,60,61,62,63,64,65,66,67,68,69,70,71,72,73,74,75,76,77,78,79,80,81,82,83,84,85,86,87,88,89,90,91,92,93,94,95,96,97,98,99,100,101,102,103,104,105,106,107,108,109,110,111,112,113,114,115,116,117,118,119,120,121,122,123,124,125,126,127,128,129,130,131,132,133,134,135,136,137,138,139,140,141,142,143,144,145,146,147,148,149,150,151,152,153,154,155,156,157,158,159,160,161,162,163,164,165,166,167,168,169,170,171,172,173,174,175,176,177,178,179,180,181,182,183,184,185,186,187,188,189,190,191,192,193,194,195,196,197,198,199,200,201,202,203,204,205,206,207,208,209,210,211,212,213,214,215,216,217,218,219,220,221,222,223,224,225,226,227,228,229,230,231,232,233,234,235,236,237,238,239,240,241,242,243,244,245,246,247,248,249,250,251,252,253,254,255,256,257,258,259,260,261,262,263,264,265,266,267,268,269,270,271,272,273,274,275,276,277,278,279,280,281,282,283,284,285,286,287,288,289,290,291,292,293,294,295,296,297,298,299,300,301,302,303,304,305,306,307,308,309,310,311,312,313,314,315,316,317,318,319,320,321,322,323,324,325,326,327,328,329,330,331,332,333,334,335,336,337,338,339,340,341,342,343,344,345,346,347,348,349,350,351,352,353,354,355,356,357,358,359,360,361,362,363,364,365,366,367,368,369,370,371,372,373,374,375,376,377,378,379,380,381,382,383,384,385,386,387,388,389,390,391,392,393,394,395,396,397,398,399,400,401,402,403,404,405,406,407,408,409,410,411,412,413,414,415,416,417,418,419,420,421,422,423,424,425,426,427,428,429,430,431,432,433,434,435,436,437,438,439,440,441,442,443,444,445,446,447,448,449,450,451,452,453,454,455,456,457,458,459,460,461,462,463,464,465,466,467,468,469,470,471,472,473,474,475,476,477,478,479,480,481,482,483,484,485,486,487,488,489,490,491,492,493,494,495,496,497,498,499,500,501,502,503,504,505,506,507,508,509,510,511,512,513,514,515,516,517,518,519,520,521,522,523,524,525,526,527,528,529,530,531,532,533,534,535,536,537,538,539,540,541,542,543,544,545,546,547,548,549,550,551,552,553,554,555,556,557,558,559,560,561,562,563,564,565,566,567,568,569,570,571,572,573,574,575,576,577,578,579,580,581,582,583,584,585,586,587,588,589,590,591,592,593,594,595,596,597,598,599,600,601,602,603,604,605,606,607,608,609,610,611,612,613,614,615,616,617,618,619,620,621,622,623,624,625,626,627,628,629,630,631,632,633,634],"tree_info":[0,0,0,0,0,0,0,0,0,0,0,0,0,0,0,0,0,0,0,0,0,0,0,0,0,0,0,0,0,0,0,0,0,0,0,0,0,0,0,0,0,0,0,0,0,0,0,0,0,0,0,0,0,0,0,0,0,0,0,0,0,0,0,0,0,0,0,0,0,0,0,0,0,0,0,0,0,0,0,0,0,0,0,0,0,0,0,0,0,0,0,0,0,0,0,0,0,0,0,0,0,0,0,0,0,0,0,0,0,0,0,0,0,0,0,0,0,0,0,0,0,0,0,0,0,0,0,0,0,0,0,0,0,0,0,0,0,0,0,0,0,0,0,0,0,0,0,0,0,0,0,0,0,0,0,0,0,0,0,0,0,0,0,0,0,0,0,0,0,0,0,0,0,0,0,0,0,0,0,0,0,0,0,0,0,0,0,0,0,0,0,0,0,0,0,0,0,0,0,0,0,0,0,0,0,0,0,0,0,0,0,0,0,0,0,0,0,0,0,0,0,0,0,0,0,0,0,0,0,0,0,0,0,0,0,0,0,0,0,0,0,0,0,0,0,0,0,0,0,0,0,0,0,0,0,0,0,0,0,0,0,0,0,0,0,0,0,0,0,0,0,0,0,0,0,0,0,0,0,0,0,0,0,0,0,0,0,0,0,0,0,0,0,0,0,0,0,0,0,0,0,0,0,0,0,0,0,0,0,0,0,0,0,0,0,0,0,0,0,0,0,0,0,0,0,0,0,0,0,0,0,0,0,0,0,0,0,0,0,0,0,0,0,0,0,0,0,0,0,0,0,0,0,0,0,0,0,0,0,0,0,0,0,0,0,0,0,0,0,0,0,0,0,0,0,0,0,0,0,0,0,0,0,0,0,0,0,0,0,0,0,0,0,0,0,0,0,0,0,0,0,0,0,0,0,0,0,0,0,0,0,0,0,0,0,0,0,0,0,0,0,0,0,0,0,0,0,0,0,0,0,0,0,0,0,0,0,0,0,0,0,0,0,0,0,0,0,0,0,0,0,0,0,0,0,0,0,0,0,0,0,0,0,0,0,0,0,0,0,0,0,0,0,0,0,0,0,0,0,0,0,0,0,0,0,0,0,0,0,0,0,0,0,0,0,0,0,0,0,0,0,0,0,0,0,0,0,0,0,0,0,0,0,0,0,0,0,0,0,0,0,0,0,0,0,0,0,0,0,0,0,0,0,0,0,0,0,0,0,0,0,0,0,0,0,0,0,0,0,0,0,0,0,0,0,0,0,0,0,0,0,0,0,0,0,0,0,0,0,0,0,0,0,0,0,0,0,0,0,0,0,0,0,0,0,0,0,0,0,0,0,0,0,0,0,0,0,0,0,0,0,0,0,0,0,0,0,0,0,0,0,0,0,0,0,0,0,0,0,0,0,0,0,0,0,0,0,0,0,0,0,0,0,0],"trees":[{"base_weights":[2.1761649E-3,-8.744361E-1,1.1926081E0,-1.3429295E0,4.641517E-3,5.5084056E-1,1.5809851E0,-1.4364605E0,-6.305159E-1,-3.9627153E-1,2.3088613E-1,-1.1307493E-1,1.0432456E0,1.3150266E0,1.7355698E0,-1.6312845E0,-1.1611565E0,-8.234164E-1,-1.6772412E-1,-6.2974477E-1,-9.0359844E-2,3.868382E-1,-5.026235E-2,-3.6074728E-1,4.0755793E-1,8.5989815E-1,1.2962924E0,1.025754E0,1.4693782E0,1.6389492E0,1.8125193E0,-1.667957E-2,-1.3863904E-2,-9.722194E-3,-1.3189547E-2,-1.8204201E-2,-7.4727517E-3,-2.887311E-3,3.9512096E-3,-7.2995606E-3,-9.3672884E-4,9.2760666E-4,-4.1787657E-3,6.8760626E-3,2.7086397E-3,-1.4011905E-3,6.796527E-3,-5.507978E-3,5.7154667E-4,-9.815883E-4,5.269862E-3,4.7881925E-3,1.0605285E-2,1.1220477E-2,1.3716269E-2,9.258854E-3,1.2257842E-2,1.4121773E-2,1.7262645E-2,1.297532E-2,1.6930688E-2,1.7797077E-2,1.8666897E-2],"categories":[],"categories_nodes":[],"categories_segments":[],"categories_sizes":[],"default_left":[0,0,0,0,0,0,0,0,0,0,0,0,0,0,0,0,0,0,0,0,0,0,0,0,0,0,0,0,0,0,0,0,0,0,0,0,0,0,0,0,0,0,0,0,0,0,0,0,0,0,0,0,0,0,0,0,0,0,0,0,0,0,0],"id":0,"left_children":[1,3,5,7,9,11,13,15,17,19,21,23,25,27,29,31,33,35,37,39,41,43,45,47,49,51,53,55,57,59,61,-1,-1,-1,-1,-1,-1,-1,-1,-1,-1,-1,-1,-1,-1,-1,-1,-1,-1,-1,-1,-1,-1,-1,-1,-1,-1,-1,-1,-1,-1,-1,-1],"loss_changes":[4.0592324E4,9.226193E3,4.1110547E3,9.730996E2,7.06492E2,2.0336395E3,4.2106055E2,6.9160547E2,1.5132483E2,2.0057727E2,2.1836798E2,3.4166998E2,1.6493115E2,1.6776611E2,4.6478516E1,6.6458984E1,1.5878369E2,8.996515E1,3.410169E1,8.547485E1,7.303956E1,1.1153906E2,1.16529816E2,1.426742E2,5.165352E1,1.5806323E2,1.8662354E1,2.55271E1,3.4663574E1,5.1934082E1,4.392578E0,0E0,0E0,0E0,0E0,0E0,0E0,0E0,0E0,0E0,0E0,0E0,0E0,0E0,0E0,0E0,0E0,0E0,0E0,0E0,0E0,0E0,0E0,0E0,0E0,0E0,0E0,0E0,0E0,0E0,0E0,0E0,0E0],"parents":[2147483647,0,0,1,1,2,2,3,3,4,4,5,5,6,6,7,7,8,8,9,9,10,10,11,11,12,12,13,13,14,14,15,15,16,16,17,17,18,18,19,19,20,20,21,21,22,22,23,23,24,24,25,25,26,26,27,27,28,28,29,29,30,30],"right_children":[2,4,6,8,10,12,14,16,18,20,22,24,26,28,30,32,34,36,38,40,42,44,46,48,50,52,54,56,58,60,62,-1,-1,-1,-1,-1,-1,-1,-1,-1,-1,-1,-1,-1,-1,-1,-1,-1,-1,-1,-1,-1,-1,-1,-1,-1,-1,-1,-1,-1,-1,-1,-1],"split_conditions":[1E0,4.268074E-1,3E0,1.1112695E0,1.0777143E0,6.410115E-1,5E0,-5.916426E-1,2.0807714E0,5.9351146E-1,8.913191E-1,2E0,2E0,8.879573E-1,8E0,4.9819452E-1,8.913191E-1,-1.0684034E0,1.4186001E-1,9.800718E-1,8.913191E-1,1.0481133E0,1.4614838E0,-4.6191562E-2,-8.7711674E-1,1.3576571E0,1.312697E0,4E0,1.7015934E0,1.1259344E-1,1.3E1,-1.667957E-2,-1.3863904E-2,-9.722194E-3,-1.3189547E-2,-1.8204201E-2,-7.4727517E-3,-2.887311E-3,3.9512096E-3,-7.2995606E-3,-9.3672884E-4,9.2760666E-4,-4.1787657E-3,6.8760626E-3,2.7086397E-3,-1.4011905E-3,6.796527E-3,-5.507978E-3,5.7154667E-4,-9.815883E-4,5.269862E-3,4.7881925E-3,1.0605285E-2,1.1220477E-2,1.3716269E-2,9.258854E-3,1.2257842E-2,1.4121773E-2,1.7262645E-2,1.297532E-2,1.6930688E-2,1.7797077E-2,1.8666897E-2],"split_indices":[1,6,1,7,6,6,1,6,7,7,10,1,1,6,1,7,10,6,6,6,10,9,7,6,6,6,6,1,6,9,1,0,0,0,0,0,0,0,0,0,0,0,0,0,0,0,0,0,0,0,0,0,0,0,0,0,0,0,0,0,0,0,0],"split_type":[0,0,0,0,0,0,0,0,0,0,0,0,0,0,0,0,0,0,0,0,0,0,0,0,0,0,0,0,0,0,0,0,0,0,0,0,0,0,0,0,0,0,0,0,0,0,0,0,0,0,0,0,0,0,0,0,0,0,0,0,0,0,0],"sum_hessian":[3.8897375E4,2.2401424E4,1.649595E4,1.4613299E4,7.7881255E3,6.2197266E3,1.0276223E4,1.2916831E4,1.6964675E3,2.80924E3,4.9788857E3,2.6486726E3,3.571054E3,3.779355E3,6.496868E3,7.562361E3,5.3544707E3,1.19695E3,4.995175E2,1.5927725E3,1.2164675E3,3.2025886E3,1.776297E3,1.7950756E3,8.53597E2,2.0722095E3,1.4988445E3,1.3165186E3,2.4628364E3,2.885797E3,3.611071E3,6.5745225E3,9.878385E2,2.438721E3,2.9157495E3,8.40195E1,1.1129305E3,4.11475E2,8.80425E1,1.3416095E3,2.51163E2,7.80262E2,4.362055E2,8.90315E2,2.3122734E3,1.5820756E3,1.942215E2,1.2339766E3,5.61099E2,1.62929E2,6.90668E2,7.1545703E2,1.3567526E3,4.552195E2,1.043625E3,8.803185E2,4.362E2,2.0172855E3,4.45551E2,3.968135E2,2.4889834E3,2.2605864E3,1.3504845E3],"tree_param":{"num_deleted":"0","num_feature":"19","num_nodes":"63","size_leaf_vector":"1"}},{"base_weights":[-3.3528786E-3,-6.984932E-1,1.4525107E0,-1.2410046E0,1.7803049E-1,1.1781905E0,1.7164866E0,-1.3198739E0,-2.591006E-1,-2.372178E-1,4.7487342E-1,7.594807E-1,1.3965712E0,1.6251318E0,1.7901704E0,-1.5295955E0,-1.0486146E0,-5.095326E-1,2.7961897E-2,-4.4829896E-1,4.405779E-2,2.876815E-1,9.8629546E-1,4.2169115E-1,1.0097941E0,1.342553E0,1.6660439E0,1.3999696E0,1.6837173E0,1.7533103E0,1.8512048E-2,-1.5530106E-2,-8.523189E-3,-8.74894E-3,-1.2144997E-2,-3.4082287E-3,-1.1488395E-2,1.1976308E-2,-4.0276875E-4,-2.058962E-3,-7.846566E-3,2.7170174E-3,-2.8718947E-3,4.46113E-3,4.7206308E-4,3.8923738E-3,1.0616283E-2,-1.520221E-3,5.4616486E-3,9.06893E-3,1.2278276E-2,1.2585391E-2,1.4061865E-2,8.796453E-3,1.676534E-2,6.323268E-3,1.4202362E-2,1.587149E-2,1.7231297E-2,1.6662436E-2,1.7912934E-2],"categories":[],"categories_nodes":[],"categories_segments":[],"categories_sizes":[],"default_left":[0,0,0,0,0,0,0,0,0,0,0,0,0,0,0,0,0,0,0,0,0,0,0,0,0,0,0,0,0,0,0,0,0,0,0,0,0,0,0,0,0,0,0,0,0,0,0,0,0,0,0,0,0,0,0,0,0,0,0,0,0],"id":1,"left_children":[1,3,5,7,9,11,13,15,17,19,21,23,25,27,29,31,33,35,37,39,41,43,45,47,49,51,53,55,57,59,-1,-1,-1,-1,-1,-1,-1,-1,-1,-1,-1,-1,-1,-1,-1,-1,-1,-1,-1,-1,-1,-1,-1,-1,-1,-1,-1,-1,-1,-1,-1],"loss_changes":[3.930299E4,1.2499522E4,9.075332E2,1.2570469E3,1.2388185E3,5.6218945E2,4.1248047E1,8.5391797E2,8.68907E1,2.4878572E2,5.60787E2,1.7818286E2,5.7467773E1,3.625244E1,5.9677734E0,1.3349219E2,1.8815479E2,6.925787E1,4.5082943E1,1.9498074E2,1.354925E2,1.634259E2,7.026306E1,6.4335236E1,2.6428345E1,1.6879395E1,4.5600586E0,8.587402E0,6.9311523E0,5.48291E0,0E0,0E0,0E0,0E0,0E0,0E0,0E0,0E0,0E0,0E0,0E0,0E0,0E0,0E0,0E0,0E0,0E0,0E0,0E0,0E0,0E0,0E0,0E0,0E0,0E0,0E0,0E0,0E0,0E0,0E0,0E0],"parents":[2147483647,0,0,1,1,2,2,3,3,4,4,5,5,6,6,7,7,8,8,9,9,10,10,11,11,12,12,13,13,14,14,15,15,16,16,17,17,18,18,19,19,20,20,21,21,22,22,23,23,24,24,25,25,26,26,27,27,28,28,29,29],"right_children":[2,4,6,8,10,12,14,16,18,20,22,24,26,28,30,32,34,36,38,40,42,44,46,48,50,52,54,56,58,60,-1,-1,-1,-1,-1,-1,-1,-1,-1,-1,-1,-1,-1,-1,-1,-1,-1,-1,-1,-1,-1,-1,-1,-1,-1,-1,-1,-1,-1,-1,-1],"split_conditions":[2E0,4.268074E-1,5E0,7.0017873E-4,3E0,7.300738E-1,8E0,-6.023066E-1,3.685435E-3,9.800718E-1,1.1102607E-2,3E0,1.7015934E0,4.197662E-1,1.3E1,4.1244923E-5,8.913191E-1,-1.0934344E-1,-2.1566166E-1,8.913191E-1,1.1032927E0,8.913191E-1,1.1481198E0,-8.7711674E-1,4E0,1.5007817E0,5.2767026E-1,-1.0953193E0,1.4833505E0,1.4626173E0,1.8512048E-2,-1.5530106E-2,-8.523189E-3,-8.74894E-3,-1.2144997E-2,-3.4082287E-3,-1.1488395E-2,1.1976308E-2,-4.0276875E-4,-2.058962E-3,-7.846566E-3,2.7170174E-3,-2.8718947E-3,4.46113E-3,4.7206308E-4,3.8923738E-3,1.0616283E-2,-1.520221E-3,5.4616486E-3,9.06893E-3,1.2278276E-2,1.2585391E-2,1.4061865E-2,8.796453E-3,1.676534E-2,6.323268E-3,1.4202362E-2,1.587149E-2,1.7231297E-2,1.6662436E-2,1.7912934E-2],"split_indices":[1,6,1,3,12,6,1,6,3,6,3,1,6,9,1,3,10,9,9,10,9,10,6,6,1,6,9,6,6,6,0,0,0,0,0,0,0,0,0,0,0,0,0,0,0,0,0,0,0,0,0,0,0,0,0,0,0,0,0,0,0],"split_type":[0,0,0,0,0,0,0,0,0,0,0,0,0,0,0,0,0,0,0,0,0,0,0,0,0,0,0,0,0,0,0,0,0,0,0,0,0,0,0,0,0,0,0,0,0,0,0,0,0,0,0,0,0,0,0,0,0,0,0,0,0],"sum_hessian":[3.8834887E4,2.6284832E4,1.2550054E4,1.6235818E4,1.0049014E4,6.155965E3,6.3940894E3,1.5028419E4,1.2073995E3,4.1889414E3,5.860072E3,2.111054E3,4.044911E3,2.8604873E3,3.533602E3,8.474077E3,6.5543413E3,6.448213E2,5.6257825E2,2.3931091E3,1.7958324E3,4.2905947E3,1.569477E3,8.992662E2,1.2117877E3,3.3722725E3,6.726383E2,5.9352783E2,2.2669595E3,2.2133884E3,1.3202136E3,8.190131E3,2.8394635E2,3.203387E3,3.3509543E3,5.109162E2,1.3390506E2,3.0636332E1,5.319419E2,1.3914421E3,1.00166693E3,1.0645978E3,7.312346E2,2.5860151E3,1.7045797E3,1.7633414E2,1.3931428E3,1.6015945E2,7.3910675E2,8.253168E2,3.86471E2,1.4585487E3,1.9137239E3,9.538421E0,6.6309985E2,1.5807835E1,5.7772003E2,6.6376746E2,1.6031921E3,6.799172E2,1.5334712E3],"tree_param":{"num_deleted":"0","num_feature":"19","num_nodes":"61","size_leaf_vector":"1"}},{"base_weights":[-2.9044258E-3,-8.70442E-1,1.1701148E0,-1.3600321E0,-3.4358222E-2,2.681452E-1,1.4412577E0,-1.5156949E0,-1.0450623E0,-4.2321795E-1,2.6957858E-1,-3.0718622E-1,8.987447E-1,1.1648622E0,1.7018816E0,-1.4701713E0,-1.7444459E0,-7.3584473E-1,-1.1468886E0,-4.076611E-2,-6.0935867E-1,-5.7970565E-2,3.7042928E-1,-6.7827255E-1,2.0765238E-2,5.011271E-1,1.0416627E0,7.692564E-1,1.3631914E0,1.6123111E0,1.7744186E0,-1.6718702E-2,-1.3803111E-2,-1.7523846E-2,-8.630679E-4,1.207996E-3,-7.830664E-3,-1.02504445E-2,-1.2461425E-2,2.6609923E-3,-3.973311E-3,-8.911802E-3,-3.9819996E-3,1.820628E-3,-2.8486038E-3,9.022649E-3,2.8701224E-3,-1.0267615E-2,-5.056831E-3,8.694887E-3,-3.8260862E-4,4.218497E-3,1.0540595E-2,6.0117305E-3,1.1207516E-2,4.791695E-3,9.968016E-3,1.3112418E-2,1.6285194E-2,1.3754142E-2,1.6729726E-2,1.7369084E-2,1.835844E-2],"categories":[],"categories_nodes":[],"categories_segments":[],"categories_sizes":[],"default_left":[0,0,0,0,0,0,0,0,0,0,0,0,0,0,0,0,0,0,0,0,0,0,0,0,0,0,0,0,0,0,0,0,0,0,0,0,0,0,0,0,0,0,0,0,0,0,0,0,0,0,0,0,0,0,0,0,0,0,0,0,0,0,0],"id":2,"left_children":[1,3,5,7,9,11,13,15,17,19,21,23,25,27,29,31,33,35,37,39,41,43,45,47,49,51,53,55,57,59,61,-1,-1,-1,-1,-1,-1,-1,-1,-1,-1,-1,-1,-1,-1,-1,-1,-1,-1,-1,-1,-1,-1,-1,-1,-1,-1,-1,-1,-1,-1,-1,-1],"loss_changes":[3.9499266E4,9.133305E3,4.0353906E3,6.8890234E2,9.7406696E2,1.384224E3,9.126758E2,9.645508E1,1.4599902E2,2.573274E2,1.528472E2,2.4287437E2,1.0302051E2,4.8251758E2,4.0652344E1,1.4094922E2,2.0273438E1,4.684027E1,4.1480957E1,1.2966042E2,1.4441058E2,5.9353077E1,1.5667184E2,5.5892853E1,5.3174988E1,2.0776558E1,4.611389E1,1.3546045E2,5.5175293E1,4.0614746E1,6.345703E0,0E0,0E0,0E0,0E0,0E0,0E0,0E0,0E0,0E0,0E0,0E0,0E0,0E0,0E0,0E0,0E0,0E0,0E0,0E0,0E0,0E0,0E0,0E0,0E0,0E0,0E0,0E0,0E0,0E0,0E0,0E0,0E0],"parents":[2147483647,0,0,1,1,2,2,3,3,4,4,5,5,6,6,7,7,8,8,9,9,10,10,11,11,12,12,13,13,14,14,15,15,16,16,17,17,18,18,19,19,20,20,21,21,22,22,23,23,24,24,25,25,26,26,27,27,28,28,29,29,30,30],"right_children":[2,4,6,8,10,12,14,16,18,20,22,24,26,28,30,32,34,36,38,40,42,44,46,48,50,52,54,56,58,60,62,-1,-1,-1,-1,-1,-1,-1,-1,-1,-1,-1,-1,-1,-1,-1,-1,-1,-1,-1,-1,-1,-1,-1,-1,-1,-1,-1,-1,-1,-1,-1,-1],"split_conditions":[1E0,3.6320165E-1,2E0,-6.0645994E-2,9.46152E-1,9.123132E-1,5E0,8.7627274E-1,-2.5304591E-2,3.5110667E-1,1.2440822E0,2.8661084E-3,1.0276824E0,6.6608304E-1,8E0,-5.580909E-1,-1.5193133E-1,-2.727778E-1,8.913191E-1,-1.6587879E-1,8.162304E-1,9.620589E-1,6.476689E-1,-9.473411E-1,-2.052353E-1,1.4455353E0,1.3576571E0,3E0,1.7015934E0,4.197662E-1,1.3E1,-1.6718702E-2,-1.3803111E-2,-1.7523846E-2,-8.630679E-4,1.207996E-3,-7.830664E-3,-1.02504445E-2,-1.2461425E-2,2.6609923E-3,-3.973311E-3,-8.911802E-3,-3.9819996E-3,1.820628E-3,-2.8486038E-3,9.022649E-3,2.8701224E-3,-1.0267615E-2,-5.056831E-3,8.694887E-3,-3.8260862E-4,4.218497E-3,1.0540595E-2,6.0117305E-3,1.1207516E-2,4.791695E-3,9.968016E-3,1.3112418E-2,1.6285194E-2,1.3754142E-2,1.6729726E-2,1.7369084E-2,1.835844E-2],"split_indices":[1,5,1,5,5,6,1,8,9,9,6,3,5,6,1,8,6,9,10,8,6,9,9,6,9,8,6,1,6,9,1,0,0,0,0,0,0,0,0,0,0,0,0,0,0,0,0,0,0,0,0,0,0,0,0,0,0,0,0,0,0,0,0],"split_type":[0,0,0,0,0,0,0,0,0,0,0,0,0,0,0,0,0,0,0,0,0,0,0,0,0,0,0,0,0,0,0,0,0,0,0,0,0,0,0,0,0,0,0,0,0,0,0,0,0,0,0,0,0,0,0,0,0,0,0,0,0,0,0],"sum_hessian":[3.8813676E4,2.2312262E4,1.6501414E4,1.4071755E4,8.240507E3,3.8143086E3,1.26871045E4,9.416003E3,4.655752E3,3.6152512E3,4.6252554E3,1.9946107E3,1.8196979E3,6.1587627E3,6.5283423E3,7.8566157E3,1.5593872E3,1.1546129E3,3.501139E3,1.1839038E3,2.4313474E3,1.0886597E3,3.5365955E3,9.356581E2,1.0589526E3,4.8191013E2,1.3377877E3,2.0575417E3,4.101221E3,2.9269988E3,3.6013433E3,2.4183965E3,5.438219E3,1.5518687E3,7.5185356E0,6.017037E1,1.0944426E3,1.5747036E3,1.9264354E3,6.362143E2,5.476895E2,1.0405289E3,1.3908186E3,5.288412E2,5.598185E2,4.7866983E2,3.0579258E3,3.0889328E2,6.267648E2,6.8521774E1,9.904309E2,4.22409E2,5.9501118E1,2.0448187E2,1.1333059E3,9.053479E2,1.152194E3,3.4325073E3,6.687138E2,5.994581E2,2.3275405E3,2.2460383E3,1.355305E3],"tree_param":{"num_deleted":"0","num_feature":"19","num_nodes":"63","size_leaf_vector":"1"}},{"base_weights":[2.3671347E-3,-8.557514E-1,1.1601042E0,-1.2629193E0,9.8310575E-2,2.7390897E-1,1.4290876E0,-1.3400481E0,-3.5387862E-1,-2.6358467E-1,2.1910177E-1,-2.9495972E-1,8.9790547E-1,1.16094E0,1.6843426E0,-1.5510625E0,-1.0598545E0,1.10535756E-1,-5.715776E-1,3.7497446E-2,-4.5289797E-1,1.3365062E-1,7.3395044E-1,-6.794787E-1,3.4510083E-2,3.9273155E-1,1.0120214E0,7.640007E-1,1.3557054E0,1.5968095E0,1.755806E0,-1.4898967E-2,-1.7241228E-2,-8.717175E-3,-1.2312002E-2,-2.5437362E-3,5.464199E-3,-6.82073E-3,-1.3529637E-5,-2.591899E-3,6.0374225E-3,7.367513E-3,-5.229208E-3,6.502894E-4,7.991721E-3,8.697594E-3,-3.7307383E-3,-1.0166053E-2,-5.1115626E-3,-5.461587E-5,1.5560708E-2,-2.6980403E-3,5.04127E-3,9.1580385E-3,1.4272999E-2,4.3435544E-3,1.0078975E-2,1.299595E-2,1.6296765E-2,1.3747953E-2,1.6532846E-2,1.7188901E-2,1.8157898E-2],"categories":[],"categories_nodes":[],"categories_segments":[],"categories_sizes":[],"default_left":[0,0,0,0,0,0,0,0,0,0,0,0,0,0,0,0,0,0,0,0,0,0,0,0,0,0,0,0,0,0,0,0,0,0,0,0,0,0,0,0,0,0,0,0,0,0,0,0,0,0,0,0,0,0,0,0,0,0,0,0,0,0,0],"id":3,"left_children":[1,3,5,7,9,11,13,15,17,19,21,23,25,27,29,31,33,35,37,39,41,43,45,47,49,51,53,55,57,59,61,-1,-1,-1,-1,-1,-1,-1,-1,-1,-1,-1,-1,-1,-1,-1,-1,-1,-1,-1,-1,-1,-1,-1,-1,-1,-1,-1,-1,-1,-1,-1,-1],"loss_changes":[3.86409E4,8.677575E3,3.946334E3,1.0973008E3,2.9211993E2,1.3689583E3,8.6809766E2,8.521758E2,1.2395476E2,9.536215E1,2.202906E2,2.5565337E2,1.0568176E2,4.782881E2,3.8958984E1,8.551953E1,1.9916064E2,6.2341232E1,5.250711E1,1.0860363E2,8.5713715E1,1.9616913E2,1.0739642E2,5.242273E1,6.625768E1,2.5174816E1,5.9036865E1,1.6371692E2,6.2533203E1,3.530078E1,6.004883E0,0E0,0E0,0E0,0E0,0E0,0E0,0E0,0E0,0E0,0E0,0E0,0E0,0E0,0E0,0E0,0E0,0E0,0E0,0E0,0E0,0E0,0E0,0E0,0E0,0E0,0E0,0E0,0E0,0E0,0E0,0E0,0E0],"parents":[2147483647,0,0,1,1,2,2,3,3,4,4,5,5,6,6,7,7,8,8,9,9,10,10,11,11,12,12,13,13,14,14,15,15,16,16,17,17,18,18,19,19,20,20,21,21,22,22,23,23,24,24,25,25,26,26,27,27,28,28,29,29,30,30],"right_children":[2,4,6,8,10,12,14,16,18,20,22,24,26,28,30,32,34,36,38,40,42,44,46,48,50,52,54,56,58,60,62,-1,-1,-1,-1,-1,-1,-1,-1,-1,-1,-1,-1,-1,-1,-1,-1,-1,-1,-1,-1,-1,-1,-1,-1,-1,-1,-1,-1,-1,-1,-1,-1],"split_conditions":[1E0,6.8654835E-1,2E0,1.4614838E0,1.0777143E0,9.123132E-1,5E0,-5.3023815E-1,3.593583E-2,-1.9472727E-1,1.4614838E0,2.8661084E-3,1.1102607E-2,6.6608304E-1,8E0,4.4863635E-1,8.913191E-1,2.0807714E0,3.224669E0,5.4874533E-1,-3.4341547E-1,1.7015934E0,1.12E0,-9.473411E-1,4.798063E0,-3.6443385E-1,1.7015934E0,3E0,1.7015934E0,4.197662E-1,1.3E1,-1.4898967E-2,-1.7241228E-2,-8.717175E-3,-1.2312002E-2,-2.5437362E-3,5.464199E-3,-6.82073E-3,-1.3529637E-5,-2.591899E-3,6.0374225E-3,7.367513E-3,-5.229208E-3,6.502894E-4,7.991721E-3,8.697594E-3,-3.7307383E-3,-1.0166053E-2,-5.1115626E-3,-5.461587E-5,1.5560708E-2,-2.6980403E-3,5.04127E-3,9.1580385E-3,1.4272999E-2,4.3435544E-3,1.0078975E-2,1.299595E-2,1.6296765E-2,1.3747953E-2,1.6532846E-2,1.7188901E-2,1.8157898E-2],"split_indices":[1,6,1,7,6,6,1,6,8,8,7,3,3,6,1,8,10,7,7,7,7,6,8,6,7,7,6,1,6,9,1,0,0,0,0,0,0,0,0,0,0,0,0,0,0,0,0,0,0,0,0,0,0,0,0,0,0,0,0,0,0,0,0],"split_type":[0,0,0,0,0,0,0,0,0,0,0,0,0,0,0,0,0,0,0,0,0,0,0,0,0,0,0,0,0,0,0,0,0,0,0,0,0,0,0,0,0,0,0,0,0,0,0,0,0,0,0,0,0,0,0,0,0,0,0,0,0,0,0],"sum_hessian":[3.8893637E4,2.2337242E4,1.6556395E4,1.5655738E4,6.6815034E3,3.8554807E3,1.2700913E4,1.4430977E4,1.2247618E3,1.6716761E3,5.009827E3,2.0168843E3,1.8385964E3,6.195573E3,6.50534E3,8.230182E3,6.200795E3,3.908192E2,8.339426E2,6.452883E2,1.0263878E3,4.2973975E3,7.124295E2,9.3058527E2,1.086299E3,3.3936713E2,1.4992292E3,2.0403119E3,4.1552617E3,2.9298E3,3.57554E3,6.0849326E3,2.1452488E3,2.9573086E3,3.2434863E3,2.1271732E2,1.7810188E2,6.9834686E2,1.3559573E2,4.234918E2,2.2179652E2,5.671099E1,9.696769E2,3.896346E3,4.010517E2,6.347556E2,7.7673874E1,3.0886252E2,6.217228E2,1.0589136E3,2.7385365E1,4.8615135E1,2.9075198E2,1.2187059E3,2.8052338E2,8.684011E2,1.1719108E3,3.4515972E3,7.0366437E2,5.9706464E2,2.3327356E3,2.2235786E3,1.3519613E3],"tree_param":{"num_deleted":"0","num_feature":"19","num_nodes":"63","size_leaf_vector":"1"}},{"base_weights":[7.2157965E-3,-6.7913574E-1,1.4179875E0,-1.2303935E0,1.504747E-1,1.1065375E0,1.6162589E0,-1.3154498E0,-3.6083826E-1,-2.932949E-1,4.3254748E-1,6.772166E-1,1.3351755E0,1.435625E0,1.6703188E0,-1.4063582E0,-5.912077E-1,-6.0932434E-1,3.8052686E-2,-7.0268326E-3,-4.7135657E-1,2.616502E-1,9.587289E-1,4.039968E-1,8.02897E-1,1.1369065E0,1.3863102E0,1.3326154E0,1.6514125E0,1.6031313E0,1.7042607E0,-1.5479531E-2,-1.1045609E-2,-4.1082185E-3,-1.1074551E-2,-4.6743704E-3,-1.2483431E-2,-1.05028324E-4,1.7057706E-2,-2.7785024E-3,4.8144558E-3,-6.0283584E-3,4.9694518E-5,2.0409077E-3,8.865503E-3,1.08797895E-2,7.917977E-3,4.880491E-3,-3.06287E-3,7.5314515E-3,1.3323473E-2,1.2184822E-2,5.438781E-3,1.3553032E-2,1.574389E-2,1.3468804E-2,-4.9585644E-3,1.6691476E-2,6.2950454E-3,1.6378786E-2,1.3819043E-2,1.6563855E-2,1.751442E-2],"categories":[],"categories_nodes":[],"categories_segments":[],"categories_sizes":[],"default_left":[0,0,0,0,0,0,0,0,0,0,0,0,0,0,0,0,0,0,0,0,0,0,0,0,0,0,0,0,0,0,0,0,0,0,0,0,0,0,0,0,0,0,0,0,0,0,0,0,0,0,0,0,0,0,0,0,0,0,0,0,0,0,0],"id":4,"left_children":[1,3,5,7,9,11,13,15,17,19,21,23,25,27,29,31,33,35,37,39,41,43,45,47,49,51,53,55,57,59,61,-1,-1,-1,-1,-1,-1,-1,-1,-1,-1,-1,-1,-1,-1,-1,-1,-1,-1,-1,-1,-1,-1,-1,-1,-1,-1,-1,-1,-1,-1,-1,-1],"loss_changes":[3.7750633E4,1.1994673E4,7.8677344E2,1.1650117E3,1.3107335E3,4.867163E2,7.461133E1,9.443711E2,1.3930714E2,2.0736987E2,5.754298E2,5.9002808E1,3.179834E1,3.8602295E1,1.19765625E1,5.438008E2,1.4877386E2,7.803299E1,4.3866615E1,2.0657379E2,1.5716113E2,1.7364606E2,3.3237427E1,3.2643448E1,3.0419495E1,3.1773376E1,1.3641602E1,3.2266113E1,9.739502E0,1.4108887E1,7.1875E0,0E0,0E0,0E0,0E0,0E0,0E0,0E0,0E0,0E0,0E0,0E0,0E0,0E0,0E0,0E0,0E0,0E0,0E0,0E0,0E0,0E0,0E0,0E0,0E0,0E0,0E0,0E0,0E0,0E0,0E0,0E0,0E0],"parents":[2147483647,0,0,1,1,2,2,3,3,4,4,5,5,6,6,7,7,8,8,9,9,10,10,11,11,12,12,13,13,14,14,15,15,16,16,17,17,18,18,19,19,20,20,21,21,22,22,23,23,24,24,25,25,26,26,27,27,28,28,29,29,30,30],"right_children":[2,4,6,8,10,12,14,16,18,20,22,24,26,28,30,32,34,36,38,40,42,44,46,48,50,52,54,56,58,60,62,-1,-1,-1,-1,-1,-1,-1,-1,-1,-1,-1,-1,-1,-1,-1,-1,-1,-1,-1,-1,-1,-1,-1,-1,-1,-1,-1,-1,-1,-1,-1,-1],"split_conditions":[2E0,3.7625507E-1,3E0,4.1244923E-5,9.143947E-1,6.0356075E-1,9.573913E-3,1.1112695E0,-4.4108923E-3,-1.9472727E-1,1.1102607E-2,-1.384124E-1,9.3150085E-1,6.923077E-1,5.294118E-1,-6.0645994E-2,8.509091E-1,1.5E-1,4.798063E0,4.0884742E-1,1.3790632E0,1.9376829E0,1.6208322E-1,-2.0741813E-1,1.668843E0,7.054545E-1,2.3643626E-2,1.6394318E0,2.4372728E0,2.9818183E-1,-5.8609486E-2,-1.5479531E-2,-1.1045609E-2,-4.1082185E-3,-1.1074551E-2,-4.6743704E-3,-1.2483431E-2,-1.05028324E-4,1.7057706E-2,-2.7785024E-3,4.8144558E-3,-6.0283584E-3,4.9694518E-5,2.0409077E-3,8.865503E-3,1.08797895E-2,7.917977E-3,4.880491E-3,-3.06287E-3,7.5314515E-3,1.3323473E-2,1.2184822E-2,5.438781E-3,1.3553032E-2,1.574389E-2,1.3468804E-2,-4.9585644E-3,1.6691476E-2,6.2950454E-3,1.6378786E-2,1.3819043E-2,1.6563855E-2,1.751442E-2],"split_indices":[11,5,11,3,5,5,3,7,5,8,3,5,5,4,4,5,8,4,7,7,7,7,7,5,7,8,3,8,8,8,7,0,0,0,0,0,0,0,0,0,0,0,0,0,0,0,0,0,0,0,0,0,0,0,0,0,0,0,0,0,0,0,0],"split_type":[0,0,0,0,0,0,0,0,0,0,0,0,0,0,0,0,0,0,0,0,0,0,0,0,0,0,0,0,0,0,0,0,0,0,0,0,0,0,0,0,0,0,0,0,0,0,0,0,0,0,0,0,0,0,0,0,0,0,0,0,0,0,0],"sum_hessian":[3.8986023E4,2.622671E4,1.2759314E4,1.5756646E4,1.0470064E4,4.964595E3,7.7947188E3,1.4352384E4,1.4042626E3,4.068672E3,6.401392E3,1.7260167E3,3.2385784E3,1.799054E3,5.995665E3,1.2751217E4,1.601167E3,8.652492E2,5.390134E2,1.5606735E3,2.5079988E3,4.8327217E3,1.5686702E3,5.447259E2,1.1812909E3,6.667818E2,2.5717966E3,1.2204868E3,5.7856714E2,2.0213958E3,3.974269E3,8.677555E3,4.073662E3,1.1873706E3,4.137964E2,7.0887366E2,1.5637555E2,5.241886E2,1.4824834E1,1.0042874E3,5.5638605E2,1.9655336E3,5.424651E2,4.4258784E3,4.0684354E2,8.8222815E2,6.8644196E2,4.873517E2,5.7374157E1,1.0811012E3,1.001896E2,5.8554016E2,8.124164E1,2.2117903E3,3.6000635E2,1.2112238E3,9.263099E0,5.6829004E2,1.0277135E1,1.7438429E3,2.7755286E2,1.9826473E3,1.9916217E3],"tree_param":{"num_deleted":"0","num_feature":"19","num_nodes":"63","size_leaf_vector":"1"}},{"base_weights":[7.2652567E-3,-8.278856E-1,1.1376164E0,-1.2801052E0,1.41777415E-2,2.8157634E-1,1.4004529E0,-1.3514106E0,-3.7125364E-1,-3.9618015E-1,2.3920503E-1,-2.6285973E-1,8.7927204E-1,1.1354386E0,1.6534791E0,-1.5508709E0,-1.0838219E0,3.7010938E-1,-5.0509167E-1,-6.096848E-1,-1.1408414E-1,4.0644252E-1,1.1154806E-3,-5.333851E-1,1.5178616E-1,7.843064E-1,1.3996857E0,7.322054E-1,1.3316355E0,1.5642222E0,1.7266811E0,-1.4959112E-2,-1.7868092E-2,-9.244943E-3,-1.2212045E-2,-3.845252E-3,9.645597E-3,-3.2794587E-3,-8.202887E-3,-4.9974546E-3,-9.7197015E-3,3.375137E-3,-4.5378297E-3,3.4198884E-3,1.0659946E-2,4.966162E-3,-1.4599434E-3,-6.166837E-3,6.7680953E-3,4.8803664E-3,-1.4141304E-4,5.825138E-3,9.081837E-3,1.582981E-2,1.209717E-2,4.313362E-3,9.613188E-3,1.2741278E-2,1.6146863E-2,1.2670916E-2,1.611631E-2,1.6904682E-2,1.784844E-2],"categories":[],"categories_nodes":[],"categories_segments":[],"categories_sizes":[],"default_left":[0,0,0,0,0,0,0,0,0,0,0,0,0,0,0,0,0,0,0,0,0,0,0,0,0,0,0,0,0,0,0,0,0,0,0,0,0,0,0,0,0,0,0,0,0,0,0,0,0,0,0,0,0,0,0,0,0,0,0,0,0,0,0],"id":5,"left_children":[1,3,5,7,9,11,13,15,17,19,21,23,25,27,29,31,33,35,37,39,41,43,45,47,49,51,53,55,57,59,61,-1,-1,-1,-1,-1,-1,-1,-1,-1,-1,-1,-1,-1,-1,-1,-1,-1,-1,-1,-1,-1,-1,-1,-1,-1,-1,-1,-1,-1,-1,-1,-1],"loss_changes":[3.6784406E4,8.533459E3,3.7249043E3,9.4441406E2,7.230766E2,1.2660444E3,8.481914E2,7.2042773E2,1.05425186E2,1.6691516E2,2.0133481E2,2.2846698E2,9.088745E1,4.8892432E2,4.065039E1,9.874805E1,1.2563281E2,7.3135994E1,4.99718E1,6.2466736E1,1.8348363E2,1.259552E2,1.522322E2,1.2443945E2,4.4916077E1,3.8823914E1,8.700867E0,1.3937573E2,6.643652E1,3.9898926E1,5.629883E0,0E0,0E0,0E0,0E0,0E0,0E0,0E0,0E0,0E0,0E0,0E0,0E0,0E0,0E0,0E0,0E0,0E0,0E0,0E0,0E0,0E0,0E0,0E0,0E0,0E0,0E0,0E0,0E0,0E0,0E0,0E0,0E0],"parents":[2147483647,0,0,1,1,2,2,3,3,4,4,5,5,6,6,7,7,8,8,9,9,10,10,11,11,12,12,13,13,14,14,15,15,16,16,17,17,18,18,19,19,20,20,21,21,22,22,23,23,24,24,25,25,26,26,27,27,28,28,29,29,30,30],"right_children":[2,4,6,8,10,12,14,16,18,20,22,24,26,28,30,32,34,36,38,40,42,44,46,48,50,52,54,56,58,60,62,-1,-1,-1,-1,-1,-1,-1,-1,-1,-1,-1,-1,-1,-1,-1,-1,-1,-1,-1,-1,-1,-1,-1,-1,-1,-1,-1,-1,-1,-1,-1,-1],"split_conditions":[1E0,4.268074E-1,2E0,1.4614838E0,1.0777143E0,9.123132E-1,5E0,-6.023066E-1,-2.2081818E-1,5.9351146E-1,2.2060606E-1,-4.6191562E-2,1.7015934E0,6.6608304E-1,8E0,7.1909094E-1,8.913191E-1,2.0807714E0,7.054545E-1,3.4777272E-1,-1.8512396E-2,1.7629597E0,-2.7931023E-1,2.0109215E0,-3.1676766E-1,1.421022E0,-3.3939395E-2,3E0,1.7015934E0,1.1259344E-1,1.3E1,-1.4959112E-2,-1.7868092E-2,-9.244943E-3,-1.2212045E-2,-3.845252E-3,9.645597E-3,-3.2794587E-3,-8.202887E-3,-4.9974546E-3,-9.7197015E-3,3.375137E-3,-4.5378297E-3,3.4198884E-3,1.0659946E-2,4.966162E-3,-1.4599434E-3,-6.166837E-3,6.7680953E-3,4.8803664E-3,-1.4141304E-4,5.825138E-3,9.081837E-3,1.582981E-2,1.209717E-2,4.313362E-3,9.613188E-3,1.2741278E-2,1.6146863E-2,1.2670916E-2,1.611631E-2,1.6904682E-2,1.784844E-2],"split_indices":[1,6,1,7,6,6,1,6,8,7,8,6,6,6,1,8,10,7,8,8,8,7,7,7,8,6,8,1,6,9,1,0,0,0,0,0,0,0,0,0,0,0,0,0,0,0,0,0,0,0,0,0,0,0,0,0,0,0,0,0,0,0,0],"split_type":[0,0,0,0,0,0,0,0,0,0,0,0,0,0,0,0,0,0,0,0,0,0,0,0,0,0,0,0,0,0,0,0,0,0,0,0,0,0,0,0,0,0,0,0,0,0,0,0,0,0,0,0,0,0,0,0,0,0,0,0,0,0,0],"sum_hessian":[3.8964934E4,2.240858E4,1.6556355E4,1.457898E4,7.8296E3,3.8896038E3,1.2666751E4,1.3518047E4,1.0609341E3,2.7726301E3,5.0569697E3,2.0355504E3,1.8540533E3,6.188347E3,6.4784043E3,7.7433745E3,5.774672E3,1.6199156E2,8.9894257E2,1.5776493E3,1.1949807E3,2.9700151E3,2.0869546E3,1.2319156E3,8.0363464E2,1.5691575E3,2.848958E2,2.0264229E3,4.1619243E3,2.9247446E3,3.55366E3,6.2837314E3,1.4596432E3,2.6759124E3,3.0987593E3,7.1382385E1,9.060918E1,5.763578E2,3.2258478E2,1.2114789E3,3.6617044E2,5.128729E2,6.8210785E2,2.706443E3,2.635719E2,4.776404E2,1.6093143E3,1.1528893E3,7.9026375E1,2.6541193E2,5.382228E2,5.9826294E2,9.7089453E2,1.4286073E2,1.4203506E2,8.7684174E2,1.149581E3,3.4617112E3,7.002131E2,4.046449E2,2.5200996E3,2.200413E3,1.3532467E3],"tree_param":{"num_deleted":"0","num_feature":"19","num_nodes":"63","size_leaf_vector":"1"}},{"base_weights":[-1.966105E-4,-8.284194E-1,1.1269273E0,-1.3006475E0,-2.3078837E-2,2.6439312E-1,1.3880324E0,-1.3896743E0,-5.929537E-1,-3.716931E-1,2.54885E-1,-2.26323E-1,9.533113E-1,1.1272377E0,1.6392543E0,-1.5239121E0,-1.0925478E0,-7.528753E-1,7.971839E-2,-4.8512065E-1,1.6614538E-1,1.8223462E-1,6.8014187E-1,-5.9001285E-1,1.181477E-1,1.1347876E0,8.322476E-1,7.478325E-1,1.3228508E0,1.5533258E0,1.7090012E0,-1.4555107E-2,-1.679469E-2,-9.701103E-3,-1.3341861E-2,-5.994835E-3,-1.40754245E-2,9.207246E-3,-2.6080166E-3,-2.3465622E-3,-7.434322E-3,4.9103796E-3,-1.8776077E-3,-1.067189E-3,3.1595689E-3,8.212012E-3,-3.8605293E-3,-2.2360426E-3,-7.2857067E-3,2.6569012E-4,6.2042247E-3,9.296056E-3,1.3182585E-2,1.0860887E-2,6.4225285E-3,4.079692E-3,9.894748E-3,1.2325556E-2,1.4190074E-2,1.2883448E-2,1.61371E-2,1.6722614E-2,1.7690895E-2],"categories":[],"categories_nodes":[],"categories_segments":[],"categories_sizes":[],"default_left":[0,0,0,0,0,0,0,0,0,0,0,0,0,0,0,0,0,0,0,0,0,0,0,0,0,0,0,0,0,0,0,0,0,0,0,0,0,0,0,0,0,0,0,0,0,0,0,0,0,0,0,0,0,0,0,0,0,0,0,0,0,0,0],"id":6,"left_children":[1,3,5,7,9,11,13,15,17,19,21,23,25,27,29,31,33,35,37,39,41,43,45,47,49,51,53,55,57,59,61,-1,-1,-1,-1,-1,-1,-1,-1,-1,-1,-1,-1,-1,-1,-1,-1,-1,-1,-1,-1,-1,-1,-1,-1,-1,-1,-1,-1,-1,-1,-1,-1],"loss_changes":[3.623588E4,8.509287E3,3.7024863E3,8.880332E2,8.0155444E2,1.2920225E3,8.256758E2,4.985957E2,1.6975037E2,2.2394125E2,1.420322E2,2.7970786E2,3.4259277E1,4.5900928E2,3.6865234E1,9.026758E1,1.1452588E2,1.2734546E2,8.703064E1,1.959013E2,7.35888E1,1.5194655E2,1.0113425E2,5.4954956E1,5.2666233E1,2.3046875E1,4.5577026E1,1.7281958E2,3.4338867E1,4.4841797E1,5.9960938E0,0E0,0E0,0E0,0E0,0E0,0E0,0E0,0E0,0E0,0E0,0E0,0E0,0E0,0E0,0E0,0E0,0E0,0E0,0E0,0E0,0E0,0E0,0E0,0E0,0E0,0E0,0E0,0E0,0E0,0E0,0E0,0E0],"parents":[2147483647,0,0,1,1,2,2,3,3,4,4,5,5,6,6,7,7,8,8,9,9,10,10,11,11,12,12,13,13,14,14,15,15,16,16,17,17,18,18,19,19,20,20,21,21,22,22,23,23,24,24,25,25,26,26,27,27,28,28,29,29,30,30],"right_children":[2,4,6,8,10,12,14,16,18,20,22,24,26,28,30,32,34,36,38,40,42,44,46,48,50,52,54,56,58,60,62,-1,-1,-1,-1,-1,-1,-1,-1,-1,-1,-1,-1,-1,-1,-1,-1,-1,-1,-1,-1,-1,-1,-1,-1,-1,-1,-1,-1,-1,-1,-1,-1],"split_conditions":[1E0,3.6320165E-1,2E0,1.1112695E0,9.46152E-1,9.143947E-1,5E0,-6.0645994E-2,2.5307732E0,1.3790632E0,1.4354786E0,3.2884296E-2,-1.1767846E-1,6.0356075E-1,8E0,3.0545455E-1,2.8954545E-1,1.0582727E0,-5.818182E-2,-5.818182E-2,2.0646465E-1,3E0,1.0228099E0,7.4074075E-2,1.4354786E0,-3.5060224E-1,-1.2727273E-2,3E0,1.47478115E-2,3.9207485E-1,1.3E1,-1.4555107E-2,-1.679469E-2,-9.701103E-3,-1.3341861E-2,-5.994835E-3,-1.40754245E-2,9.207246E-3,-2.6080166E-3,-2.3465622E-3,-7.434322E-3,4.9103796E-3,-1.8776077E-3,-1.067189E-3,3.1595689E-3,8.212012E-3,-3.8605293E-3,-2.2360426E-3,-7.2857067E-3,2.6569012E-4,6.2042247E-3,9.296056E-3,1.3182585E-2,1.0860887E-2,6.4225285E-3,4.079692E-3,9.894748E-3,1.2325556E-2,1.4190074E-2,1.2883448E-2,1.61371E-2,1.6722614E-2,1.7690895E-2],"split_indices":[1,5,1,7,5,5,1,5,7,7,7,5,7,5,1,8,8,8,8,8,8,12,8,4,7,7,8,1,3,9,1,0,0,0,0,0,0,0,0,0,0,0,0,0,0,0,0,0,0,0,0,0,0,0,0,0,0,0,0,0,0,0,0],"split_type":[0,0,0,0,0,0,0,0,0,0,0,0,0,0,0,0,0,0,0,0,0,0,0,0,0,0,0,0,0,0,0,0,0,0,0,0,0,0,0,0,0,0,0,0,0,0,0,0,0,0,0,0,0,0,0,0,0,0,0,0,0,0,0],"sum_hessian":[3.8815855E4,2.2374818E4,1.6441037E4,1.4104135E4,8.270683E3,3.820802E3,1.2620234E4,1.2527564E4,1.5765703E3,3.6691416E3,4.6015415E3,2.2314978E3,1.5893043E3,6.1936816E3,6.426553E3,8.627412E3,3.9001519E3,1.2738203E3,3.0275E2,3.0303008E3,6.3884094E2,3.9309348E3,6.7060657E2,1.0854358E3,1.1460619E3,6.3396643E2,9.553379E2,2.107998E3,4.0856838E3,2.8851267E3,3.5414263E3,5.9964707E3,2.6309414E3,2.5904834E3,1.3096685E3,1.032914E3,2.4090633E2,8.709273E1,2.1565726E2,1.5392004E3,1.4911003E3,3.331196E2,3.057213E2,1.2434283E3,2.6875063E3,5.924351E2,7.817147E1,2.9838962E2,7.870462E2,9.699403E2,1.761216E2,3.0096512E2,3.330013E2,4.0772083E2,5.4761707E2,8.767007E2,1.2312972E3,2.1111619E3,1.974522E3,5.3782855E2,2.3472983E3,2.207671E3,1.3337552E3],"tree_param":{"num_deleted":"0","num_feature":"19","num_nodes":"63","size_leaf_vector":"1"}},{"base_weights":[1.0202194E-2,-8.220598E-1,1.1278899E0,-1.2963603E0,-1.8836703E-2,2.9718E-1,1.3812716E0,-1.3903835E0,-5.6312025E-1,-3.0855203E-1,3.5230234E-1,-2.454458E-1,8.868636E-1,1.119525E0,1.6293671E0,-1.569675E0,-1.1783766E0,-6.9792956E-1,3.0645195E-2,-4.197311E-1,2.6545656E-1,5.120529E-1,1.1988796E-1,-6.0373783E-1,6.2095154E-2,3.8323072E-1,9.98522E-1,7.129805E-1,1.3134872E0,1.5150012E0,1.6869704E0,-1.6019832E-2,-1.3220346E-2,-1.0646549E-2,-1.409054E-2,-5.543409E-3,-1.332983E-2,9.030571E-3,-3.354568E-3,-1.1379702E-3,-6.370028E-3,6.3991603E-3,-4.7355876E-4,5.2623088E-3,-1.9357275E-2,6.47282E-3,-2.8475364E-5,-3.3811822E-3,-8.093884E-3,2.422832E-4,1.49113815E-2,2.5574851E-3,9.537249E-3,9.265034E-3,1.3422461E-2,4.134974E-3,9.434084E-3,1.2602918E-2,1.5802741E-2,1.204641E-2,1.5756113E-2,1.6535899E-2,1.7589556E-2],"categories":[],"categories_nodes":[],"categories_segments":[],"categories_sizes":[],"default_left":[0,0,0,0,0,0,0,0,0,0,0,0,0,0,0,0,0,0,0,0,0,0,0,0,0,0,0,0,0,0,0,0,0,0,0,0,0,0,0,0,0,0,0,0,0,0,0,0,0,0,0,0,0,0,0,0,0,0,0,0,0,0,0],"id":7,"left_children":[1,3,5,7,9,11,13,15,17,19,21,23,25,27,29,31,33,35,37,39,41,43,45,47,49,51,53,55,57,59,61,-1,-1,-1,-1,-1,-1,-1,-1,-1,-1,-1,-1,-1,-1,-1,-1,-1,-1,-1,-1,-1,-1,-1,-1,-1,-1,-1,-1,-1,-1,-1,-1],"loss_changes":[3.632302E4,8.526672E3,3.507662E3,9.6957227E2,8.9360333E2,1.2468363E3,8.2811914E2,4.7288867E2,1.2817737E2,2.979389E2,1.3517355E2,2.2368163E2,1.04677E2,4.895E2,4.1583984E1,5.270117E1,1.4897803E2,1.1838464E2,9.489398E1,2.598208E2,8.880564E1,7.52865E1,9.618951E1,5.095993E1,5.8938263E1,2.447256E1,3.6975098E1,1.383136E2,5.8433594E1,4.0179688E1,8.666992E0,0E0,0E0,0E0,0E0,0E0,0E0,0E0,0E0,0E0,0E0,0E0,0E0,0E0,0E0,0E0,0E0,0E0,0E0,0E0,0E0,0E0,0E0,0E0,0E0,0E0,0E0,0E0,0E0,0E0,0E0,0E0,0E0],"parents":[2147483647,0,0,1,1,2,2,3,3,4,4,5,5,6,6,7,7,8,8,9,9,10,10,11,11,12,12,13,13,14,14,15,15,16,16,17,17,18,18,19,19,20,20,21,21,22,22,23,23,24,24,25,25,26,26,27,27,28,28,29,29,30,30],"right_children":[2,4,6,8,10,12,14,16,18,20,22,24,26,28,30,32,34,36,38,40,42,44,46,48,50,52,54,56,58,60,62,-1,-1,-1,-1,-1,-1,-1,-1,-1,-1,-1,-1,-1,-1,-1,-1,-1,-1,-1,-1,-1,-1,-1,-1,-1,-1,-1,-1,-1,-1,-1,-1],"split_conditions":[1E0,3.6320165E-1,2E0,1.1112695E0,1.1339931E0,9.123132E-1,5E0,-2.1764821E-1,2.5307732E0,1.4354786E0,2.3603305E-1,2.8661084E-3,1.1102607E-2,6.6608304E-1,7E0,4.9819452E-1,2.8954545E-1,1.0582727E0,-5.818182E-2,-1.7538182E-1,1.10981815E-1,4.404912E0,-3.5060224E-1,-1.3396846E-1,4.798063E0,9.672727E-1,1.7015934E0,3E0,1.7015934E0,7.539489E-3,1.3E1,-1.6019832E-2,-1.3220346E-2,-1.0646549E-2,-1.409054E-2,-5.543409E-3,-1.332983E-2,9.030571E-3,-3.354568E-3,-1.1379702E-3,-6.370028E-3,6.3991603E-3,-4.7355876E-4,5.2623088E-3,-1.9357275E-2,6.47282E-3,-2.8475364E-5,-3.3811822E-3,-8.093884E-3,2.422832E-4,1.49113815E-2,2.5574851E-3,9.537249E-3,9.265034E-3,1.3422461E-2,4.134974E-3,9.434084E-3,1.2602918E-2,1.5802741E-2,1.204641E-2,1.5756113E-2,1.6535899E-2,1.7589556E-2],"split_indices":[1,5,1,7,5,6,1,5,7,7,8,3,3,6,1,7,8,8,8,8,8,6,7,7,7,8,6,1,6,3,1,0,0,0,0,0,0,0,0,0,0,0,0,0,0,0,0,0,0,0,0,0,0,0,0,0,0,0,0,0,0,0,0],"split_type":[0,0,0,0,0,0,0,0,0,0,0,0,0,0,0,0,0,0,0,0,0,0,0,0,0,0,0,0,0,0,0,0,0,0,0,0,0,0,0,0,0,0,0,0,0,0,0,0,0,0,0,0,0,0,0,0,0,0,0,0,0,0,0],"sum_hessian":[3.9047203E4,2.238141E4,1.6665793E4,1.4071693E4,8.309718E3,3.8955964E3,1.2770196E4,1.2471847E4,1.5998473E3,4.6669766E3,3.642741E3,2.0288107E3,1.8667858E3,6.2156733E3,6.5545225E3,6.755304E3,5.7165425E3,1.3038909E3,2.9595645E2,3.909968E3,7.5700867E2,2.1582388E3,1.4845021E3,9.370131E2,1.0917975E3,3.3933487E2,1.5274509E3,2.0085688E3,4.2071045E3,2.2006714E3,4.3538516E3,5.972913E3,7.823909E2,3.8310942E3,1.885448E3,1.0643337E3,2.3955713E2,8.7348045E1,2.0860841E2,1.6242003E3,2.2857676E3,3.4446072E2,4.1254797E2,2.1462407E3,1.1998048E1,2.8000394E2,1.2044982E3,4.0967834E2,5.273348E2,1.0641774E3,2.7620155E1,2.7809204E2,6.1242813E1,1.2646208E3,2.6282996E2,8.742077E2,1.1343612E3,3.510395E3,6.9670953E2,3.61527E2,1.8391443E3,2.983663E3,1.3701885E3],"tree_param":{"num_deleted":"0","num_feature":"19","num_nodes":"63","size_leaf_vector":"1"}},{"base_weights":[9.190477E-4,-8.088773E-1,1.104145E0,-1.2781925E0,-1.2216018E-2,2.6099667E-1,1.3602922E0,-1.358606E0,-5.5468893E-1,-3.8378328E-1,2.5477248E-1,-3.6089036E-1,7.7658707E-1,1.0978112E0,1.6096942E0,-1.4947082E0,-1.0602388E0,-6.8953973E-1,-3.6739413E-2,-2.5485475E-2,-5.6486857E-1,-1.9168086E-2,3.980673E-1,-6.7439085E-1,-1.1303753E-2,4.5434725E-1,9.9238425E-1,7.073263E-1,1.2875502E0,1.4988508E0,1.6665987E0,-1.5402149E-2,-1.3266404E-2,-7.964016E-3,-1.1241098E-2,-8.0041075E-3,-1.3460505E-3,1.6880583E-4,-1.8410333E-2,-4.408353E-3,1.5397575E-3,-7.861092E-3,-2.5998396E-3,2.7803513E-3,-2.9507705E-3,6.8161404E-3,2.768886E-3,-1.8897519E-2,-6.360263E-3,-5.0190405E-4,1.5800688E-2,4.0411414E-3,1.450856E-2,3.3485314E-3,1.0456854E-2,4.327047E-3,9.216382E-3,1.1813553E-2,1.4046712E-2,1.2346694E-2,1.5678197E-2,1.5823072E-2,1.6951306E-2],"categories":[],"categories_nodes":[],"categories_segments":[],"categories_sizes":[],"default_left":[0,0,0,0,0,0,0,0,0,0,0,0,0,0,0,0,0,0,0,0,0,0,0,0,0,0,0,0,0,0,0,0,0,0,0,0,0,0,0,0,0,0,0,0,0,0,0,0,0,0,0,0,0,0,0,0,0,0,0,0,0,0,0],"id":8,"left_children":[1,3,5,7,9,11,13,15,17,19,21,23,25,27,29,31,33,35,37,39,41,43,45,47,49,51,53,55,57,59,61,-1,-1,-1,-1,-1,-1,-1,-1,-1,-1,-1,-1,-1,-1,-1,-1,-1,-1,-1,-1,-1,-1,-1,-1,-1,-1,-1,-1,-1,-1,-1,-1],"loss_changes":[3.4731914E4,8.38229E3,3.553834E3,8.2025E2,8.2463824E2,1.2299321E3,8.2512305E2,5.145449E2,9.855032E1,2.2544409E2,1.8990433E2,1.9048206E2,1.4545935E2,4.5511133E2,3.9248047E1,6.536914E1,6.641748E1,6.8779785E1,2.848669E1,8.709353E1,1.5551416E2,1.3627603E2,1.0893231E2,4.1880096E1,5.0797977E1,4.168103E1,4.3684692E1,1.18132935E2,5.0393066E1,3.884912E1,8.603516E0,0E0,0E0,0E0,0E0,0E0,0E0,0E0,0E0,0E0,0E0,0E0,0E0,0E0,0E0,0E0,0E0,0E0,0E0,0E0,0E0,0E0,0E0,0E0,0E0,0E0,0E0,0E0,0E0,0E0,0E0,0E0,0E0],"parents":[2147483647,0,0,1,1,2,2,3,3,4,4,5,5,6,6,7,7,8,8,9,9,10,10,11,11,12,12,13,13,14,14,15,15,16,16,17,17,18,18,19,19,20,20,21,21,22,22,23,23,24,24,25,25,26,26,27,27,28,28,29,29,30,30],"right_children":[2,4,6,8,10,12,14,16,18,20,22,24,26,28,30,32,34,36,38,40,42,44,46,48,50,52,54,56,58,60,62,-1,-1,-1,-1,-1,-1,-1,-1,-1,-1,-1,-1,-1,-1,-1,-1,-1,-1,-1,-1,-1,-1,-1,-1,-1,-1,-1,-1,-1,-1,-1,-1],"split_conditions":[1E0,3.6320165E-1,2E0,1.1895106E0,9.143947E-1,5.9422696E-1,5E0,-6.0645994E-2,2.5307732E0,3.5110667E-1,1.4012333E0,2.8661084E-3,1.26779275E-2,6.6608304E-1,7E0,-2.1764821E-1,-3.983314E-2,2.8711563E-2,3.2113475E-1,3.845806E-1,1.0067331E0,9.620589E-1,1.3098705E0,-4.1193157E-1,4.798063E0,1.7015934E0,1.1481198E0,3E0,1.6577715E0,4.197662E-1,1.0983982E-2,-1.5402149E-2,-1.3266404E-2,-7.964016E-3,-1.1241098E-2,-8.0041075E-3,-1.3460505E-3,1.6880583E-4,-1.8410333E-2,-4.408353E-3,1.5397575E-3,-7.861092E-3,-2.5998396E-3,2.7803513E-3,-2.9507705E-3,6.8161404E-3,2.768886E-3,-1.8897519E-2,-6.360263E-3,-5.0190405E-4,1.5800688E-2,4.0411414E-3,1.450856E-2,3.3485314E-3,1.0456854E-2,4.327047E-3,9.216382E-3,1.1813553E-2,1.4046712E-2,1.2346694E-2,1.5678197E-2,1.5823072E-2,1.6951306E-2],"split_indices":[1,5,1,7,5,6,1,5,7,9,6,3,3,6,1,5,9,6,6,6,6,9,9,5,7,6,6,1,6,9,3,0,0,0,0,0,0,0,0,0,0,0,0,0,0,0,0,0,0,0,0,0,0,0,0,0,0,0,0,0,0,0,0],"split_type":[0,0,0,0,0,0,0,0,0,0,0,0,0,0,0,0,0,0,0,0,0,0,0,0,0,0,0,0,0,0,0,0,0,0,0,0,0,0,0,0,0,0,0,0,0,0,0,0,0,0,0,0,0,0,0,0,0,0,0,0,0,0,0],"sum_hessian":[3.887558E4,2.2419287E4,1.6456293E4,1.4107874E4,8.311412E3,3.8348115E3,1.2621481E4,1.2696185E4,1.4116897E3,3.475175E3,4.8362373E3,1.7382053E3,2.0966062E3,6.1510093E3,6.4704717E3,8.717363E3,3.9788215E3,1.1197883E3,2.919014E2,1.1670858E3,2.3080894E3,1.6608608E3,3.1753765E3,9.1600464E2,8.222007E2,8.4172064E2,1.2548856E3,2.0123865E3,4.138623E3,2.2001848E3,4.270287E3,6.8562495E3,1.8611134E3,7.7709875E2,3.201723E3,9.3298486E2,1.8680345E2,2.8390424E2,7.9971657E0,3.520714E2,8.1501447E2,1.3368687E3,9.7122064E2,7.9939905E2,8.614618E2,9.49799E2,2.2255774E3,2.7212015E1,8.8879266E2,8.031227E2,1.9077972E1,8.02091E2,3.9629593E1,9.451026E1,1.1603754E3,8.8294635E2,1.1294401E3,2.1739114E3,1.9647117E3,4.577399E2,1.7424448E3,1.0879442E3,3.1823428E3],"tree_param":{"num_deleted":"0","num_feature":"19","num_nodes":"63","size_leaf_vector":"1"}},{"base_weights":[-1.0355276E-3,-8.0221665E-1,1.0916187E0,-1.2705688E0,-9.911346E-3,2.5893018E-1,1.3466552E0,-1.4173471E0,-9.742411E-1,-3.5330197E-1,2.8634742E-1,-2.7037492E-1,8.3954376E-1,1.0257578E0,1.5490072E0,-1.4650759E0,-1.2477088E0,-6.2781507E-1,-1.0904994E0,-1.2263768E-1,-6.270162E-1,5.1142607E-2,4.003129E-1,-5.8969855E-1,1.2214335E-2,3.4084034E-1,9.5189387E-1,6.356545E-1,1.2540802E0,1.4295955E0,1.6480805E0,-1.4299276E-2,-1.6443714E-2,-9.566096E-3,-1.4085549E-2,1.3202674E-2,-6.423185E-3,-9.916026E-3,-1.2145154E-2,-6.2339883E-3,5.744497E-4,-8.341557E-3,-4.4619017E-3,2.988382E-3,-1.4463682E-3,5.5132727E-3,1.562859E-3,-5.181585E-3,-1.5090552E-2,8.538768E-3,-4.9996655E-4,1.9204641E-3,9.499908E-3,8.590145E-3,1.3614446E-2,4.142476E-3,8.7690735E-3,1.2049641E-2,1.5092916E-2,1.2498951E-2,1.515E-2,1.6147777E-2,1.7191732E-2],"categories":[],"categories_nodes":[],"categories_segments":[],"categories_sizes":[],"default_left":[0,0,0,0,0,0,0,0,0,0,0,0,0,0,0,0,0,0,0,0,0,0,0,0,0,0,0,0,0,0,0,0,0,0,0,0,0,0,0,0,0,0,0,0,0,0,0,0,0,0,0,0,0,0,0,0,0,0,0,0,0,0,0],"id":9,"left_children":[1,3,5,7,9,11,13,15,17,19,21,23,25,27,29,31,33,35,37,39,41,43,45,47,49,51,53,55,57,59,61,-1,-1,-1,-1,-1,-1,-1,-1,-1,-1,-1,-1,-1,-1,-1,-1,-1,-1,-1,-1,-1,-1,-1,-1,-1,-1,-1,-1,-1,-1,-1,-1],"loss_changes":[3.3994504E4,8.313719E3,3.4883984E3,6.115117E2,8.469E2,1.1841376E3,8.1555273E2,7.504883E1,1.874126E2,2.4332718E2,1.1973471E2,1.8194398E2,1.0265857E2,4.3273828E2,8.974414E1,4.480078E1,9.6068115E1,3.352188E1,4.2015137E1,1.8884264E2,6.572235E1,7.0811806E1,1.1080728E2,6.1656494E1,5.610823E1,3.0500729E1,5.621936E1,9.56947E1,3.7279297E1,5.2507324E1,8.248047E0,0E0,0E0,0E0,0E0,0E0,0E0,0E0,0E0,0E0,0E0,0E0,0E0,0E0,0E0,0E0,0E0,0E0,0E0,0E0,0E0,0E0,0E0,0E0,0E0,0E0,0E0,0E0,0E0,0E0,0E0,0E0,0E0],"parents":[2147483647,0,0,1,1,2,2,3,3,4,4,5,5,6,6,7,7,8,8,9,9,10,10,11,11,12,12,13,13,14,14,15,15,16,16,17,17,18,18,19,19,20,20,21,21,22,22,23,23,24,24,25,25,26,26,27,27,28,28,29,29,30,30],"right_children":[2,4,6,8,10,12,14,16,18,20,22,24,26,28,30,32,34,36,38,40,42,44,46,48,50,52,54,56,58,60,62,-1,-1,-1,-1,-1,-1,-1,-1,-1,-1,-1,-1,-1,-1,-1,-1,-1,-1,-1,-1,-1,-1,-1,-1,-1,-1,-1,-1,-1,-1,-1,-1],"split_conditions":[1E0,3.6320165E-1,2E0,-6.0645994E-2,9.7892195E-1,9.123132E-1,4E0,-2.1764821E-1,-2.5304591E-2,3.593583E-2,1.4012333E0,2.8661084E-3,1.1102607E-2,7.7173585E-1,7E0,8.7627274E-1,-2.0015949E-1,-3.402883E-1,2.6727274E-1,-5.580909E-1,6.491367E-1,9.620589E-1,3.6940908E-1,1.2663636E0,-2.052353E-1,9.672727E-1,1.7015934E0,3E0,1.7015934E0,1.0377661E-2,1.3E1,-1.4299276E-2,-1.6443714E-2,-9.566096E-3,-1.4085549E-2,1.3202674E-2,-6.423185E-3,-9.916026E-3,-1.2145154E-2,-6.2339883E-3,5.744497E-4,-8.341557E-3,-4.4619017E-3,2.988382E-3,-1.4463682E-3,5.5132727E-3,1.562859E-3,-5.181585E-3,-1.5090552E-2,8.538768E-3,-4.9996655E-4,1.9204641E-3,9.499908E-3,8.590145E-3,1.3614446E-2,4.142476E-3,8.7690735E-3,1.2049641E-2,1.5092916E-2,1.2498951E-2,1.515E-2,1.6147777E-2,1.7191732E-2],"split_indices":[1,5,1,5,5,6,1,5,9,8,6,3,3,6,1,8,9,9,8,8,5,9,8,8,9,8,6,1,6,3,1,0,0,0,0,0,0,0,0,0,0,0,0,0,0,0,0,0,0,0,0,0,0,0,0,0,0,0,0,0,0,0,0],"split_type":[0,0,0,0,0,0,0,0,0,0,0,0,0,0,0,0,0,0,0,0,0,0,0,0,0,0,0,0,0,0,0,0,0,0,0,0,0,0,0,0,0,0,0,0,0,0,0,0,0,0,0,0,0,0,0,0,0,0,0,0,0,0,0],"sum_hessian":[3.883153E4,2.2404102E4,1.6427428E4,1.408039E4,8.323712E3,3.852033E3,1.25753955E4,9.41479E3,4.6655996E3,3.8553062E3,4.4684062E3,2.0151007E3,1.8369324E3,4.864544E3,7.710852E3,7.344083E3,2.070707E3,1.1733419E3,3.4922578E3,2.0927742E3,1.7625319E3,1.4589633E3,3.0094429E3,9.459712E2,1.0691294E3,3.382783E2,1.4986542E3,1.796847E3,3.0676968E3,3.500487E3,4.2103647E3,6.14458E3,1.199503E3,7.384167E2,1.3322903E3,8.28736E0,1.1650546E3,1.9458458E3,1.546412E3,5.5335846E2,1.5394158E3,8.2039484E2,9.42137E2,6.4419293E2,8.147703E2,1.8583666E3,1.1510763E3,8.785009E2,6.747027E1,7.325779E1,9.9587164E2,2.7253052E2,6.574776E1,1.223074E3,2.755801E2,9.3788617E2,8.589609E2,2.5753225E3,4.9237408E2,1.1305922E3,2.3698948E3,2.8762673E3,1.3340974E3],"tree_param":{"num_deleted":"0","num_feature":"19","num_nodes":"63","size_leaf_vector":"1"}},{"base_weights":[-7.816988E-3,-7.974505E-1,1.0745963E0,-1.2565969E0,-1.9497084E-2,2.3864153E-1,1.331445E0,-1.3381374E0,-5.2426803E-1,-3.8798115E-1,2.4198413E-1,-2.0751072E-1,8.908189E-1,1.0132296E0,1.530454E0,-1.4775244E0,-1.0352018E0,-6.600785E-1,-1.3575743E-1,-5.4905314E-2,-5.5532223E-1,-5.1055532E-2,3.8763747E-1,-5.4669344E-1,9.895164E-2,1.0833328E0,7.7049047E-1,6.0555255E-1,1.2383958E0,1.3810897E0,1.5848156E0,-1.5256311E-2,-1.3003094E-2,-7.2809523E-3,-1.0984133E-2,-1.5608243E-2,-5.776342E-3,5.1702834E-3,-2.579185E-3,7.5776987E-3,-1.3045226E-3,-7.308544E-3,-3.3615003E-3,2.4319862E-3,-3.2722333E-3,9.364013E-3,3.1302532E-3,-1.8653186E-2,-5.1356694E-3,5.8773408E-6,6.339684E-3,7.2432742E-3,1.2830193E-2,1.0811639E-2,6.1446284E-3,3.4430781E-3,7.1799974E-3,1.0457675E-2,1.2942093E-2,1.301746E-2,1.5863627E-2,1.5232598E-2,1.61525E-2],"categories":[],"categories_nodes":[],"categories_segments":[],"categories_sizes":[],"default_left":[0,0,0,0,0,0,0,0,0,0,0,0,0,0,0,0,0,0,0,0,0,0,0,0,0,0,0,0,0,0,0,0,0,0,0,0,0,0,0,0,0,0,0,0,0,0,0,0,0,0,0,0,0,0,0,0,0,0,0,0,0,0,0],"id":10,"left_children":[1,3,5,7,9,11,13,15,17,19,21,23,25,27,29,31,33,35,37,39,41,43,45,47,49,51,53,55,57,59,61,-1,-1,-1,-1,-1,-1,-1,-1,-1,-1,-1,-1,-1,-1,-1,-1,-1,-1,-1,-1,-1,-1,-1,-1,-1,-1,-1,-1,-1,-1,-1,-1],"loss_changes":[3.299748E4,7.973283E3,3.4961562E3,8.376953E2,7.9838043E2,1.1140283E3,7.878242E2,5.3231445E2,7.4131744E1,1.9162775E2,2.06905E2,2.3638547E2,3.542334E1,4.3955762E2,6.0828125E1,7.2458984E1,7.672119E1,7.6751465E1,2.9175545E1,7.064689E1,8.7832825E1,1.3082953E2,1.3229434E2,4.642978E1,6.2802746E1,4.2105835E1,4.598816E1,4.9916687E1,3.229004E1,3.2051758E1,8.974609E0,0E0,0E0,0E0,0E0,0E0,0E0,0E0,0E0,0E0,0E0,0E0,0E0,0E0,0E0,0E0,0E0,0E0,0E0,0E0,0E0,0E0,0E0,0E0,0E0,0E0,0E0,0E0,0E0,0E0,0E0,0E0,0E0],"parents":[2147483647,0,0,1,1,2,2,3,3,4,4,5,5,6,6,7,7,8,8,9,9,10,10,11,11,12,12,13,13,14,14,15,15,16,16,17,17,18,18,19,19,20,20,21,21,22,22,23,23,24,24,25,25,26,26,27,27,28,28,29,29,30,30],"right_children":[2,4,6,8,10,12,14,16,18,20,22,24,26,28,30,32,34,36,38,40,42,44,46,48,50,52,54,56,58,60,62,-1,-1,-1,-1,-1,-1,-1,-1,-1,-1,-1,-1,-1,-1,-1,-1,-1,-1,-1,-1,-1,-1,-1,-1,-1,-1,-1,-1,-1,-1,-1,-1],"split_conditions":[1E0,3.6320165E-1,2E0,1.1895106E0,9.143947E-1,9.143947E-1,3E0,-6.0645994E-2,2.2749176E0,3.5110667E-1,3E0,1.4244947E-2,-1.4015998E-1,6.0356075E-1,8.3310866E-1,-2.1764821E-1,-6.1966546E-2,-3.703502E-1,-3.7520334E-1,-7.495086E-2,6.962153E-1,9.620589E-1,6.476689E-1,-4.1193157E-1,1.4354786E0,-4.2864752E-1,9.52381E-2,-1.5714408E-1,9.5925075E-1,7.8571427E-1,5.3846157E-1,-1.5256311E-2,-1.3003094E-2,-7.2809523E-3,-1.0984133E-2,-1.5608243E-2,-5.776342E-3,5.1702834E-3,-2.579185E-3,7.5776987E-3,-1.3045226E-3,-7.308544E-3,-3.3615003E-3,2.4319862E-3,-3.2722333E-3,9.364013E-3,3.1302532E-3,-1.8653186E-2,-5.1356694E-3,5.8773408E-6,6.339684E-3,7.2432742E-3,1.2830193E-2,1.0811639E-2,6.1446284E-3,3.4430781E-3,7.1799974E-3,1.0457675E-2,1.2942093E-2,1.301746E-2,1.5863627E-2,1.5232598E-2,1.61525E-2],"split_indices":[2,5,11,7,5,5,11,5,7,9,12,5,7,5,5,5,9,5,5,9,5,9,9,5,7,7,4,5,5,4,4,0,0,0,0,0,0,0,0,0,0,0,0,0,0,0,0,0,0,0,0,0,0,0,0,0,0,0,0,0,0,0,0],"split_type":[0,0,0,0,0,0,0,0,0,0,0,0,0,0,0,0,0,0,0,0,0,0,0,0,0,0,0,0,0,0,0,0,0,0,0,0,0,0,0,0,0,0,0,0,0,0,0,0,0,0,0,0,0,0,0,0,0,0,0,0,0,0,0],"sum_hessian":[3.860568E4,2.232185E4,1.6283832E4,1.4036877E4,8.284972E3,3.827613E3,1.2456219E4,1.2630047E4,1.4068301E3,3.4389216E3,4.8460503E3,2.2729104E3,1.5547025E3,4.7940625E3,7.6621567E3,8.648446E3,3.981601E3,1.041981E3,3.6484918E2,1.1504087E3,2.288513E3,1.6088486E3,3.2372014E3,1.0788301E3,1.1940803E3,5.96126E2,9.585766E2,1.7065465E3,3.087516E3,2.0485596E3,5.613597E3,6.798548E3,1.8498982E3,6.809784E2,3.3006226E3,8.652066E1,9.5546027E2,5.713029E1,3.077189E2,9.735037E1,1.0530583E3,1.2698679E3,1.01864496E3,7.787721E2,8.300766E2,3.8661035E2,2.850591E3,2.568649E1,1.0531437E3,1.0092205E3,1.8485976E2,2.1407214E2,3.8205383E2,3.1926605E2,6.3931055E2,5.143935E2,1.1921531E3,6.962435E2,2.3912725E3,1.4804733E3,5.6808636E2,1.8667489E3,3.746848E3],"tree_param":{"num_deleted":"0","num_feature":"19","num_nodes":"63","size_leaf_vector":"1"}},{"base_weights":[3.8622273E-3,-6.409766E-1,1.3323354E0,-1.1629329E0,1.3175659E-1,1.0822967E0,1.5721728E0,-1.2544688E0,-3.472829E-1,-3.0804053E-1,4.1425985E-1,7.1174234E-1,1.2766961E0,1.4862144E0,1.6413312E0,-1.3348118E0,-6.066658E-1,-4.9942625E-1,1.7315E-1,1.3687316E-3,-4.6582764E-1,2.6098567E-1,8.956128E-1,4.5411742E-1,9.1227883E-1,1.2214228E0,1.5383061E0,1.2443138E0,1.5469816E0,1.5905826E0,1.6744667E0,-1.4618912E-2,-1.0531787E-2,4.073964E-4,-7.663617E-3,-5.715758E-3,5.648377E-3,4.3430035E-3,-1.6970347E-3,-5.2873427E-3,2.1115157E-3,-7.625982E-3,-2.9898037E-3,4.06308E-3,4.6770336E-4,2.3793646E-3,9.807433E-3,-1.2934734E-3,5.571642E-3,1.3135786E-3,9.418598E-3,1.2939751E-2,1.1364694E-2,1.574532E-2,1.3880225E-2,4.359294E-3,1.2669084E-2,1.4602835E-2,1.5834687E-2,1.5487896E-2,1.6592307E-2,1.6361337E-2,1.7026477E-2],"categories":[],"categories_nodes":[],"categories_segments":[],"categories_sizes":[],"default_left":[0,0,0,0,0,0,0,0,0,0,0,0,0,0,0,0,0,0,0,0,0,0,0,0,0,0,0,0,0,0,0,0,0,0,0,0,0,0,0,0,0,0,0,0,0,0,0,0,0,0,0,0,0,0,0,0,0,0,0,0,0,0,0],"id":11,"left_children":[1,3,5,7,9,11,13,15,17,19,21,23,25,27,29,31,33,35,37,39,41,43,45,47,49,51,53,55,57,59,61,-1,-1,-1,-1,-1,-1,-1,-1,-1,-1,-1,-1,-1,-1,-1,-1,-1,-1,-1,-1,-1,-1,-1,-1,-1,-1,-1,-1,-1,-1,-1,-1],"loss_changes":[3.3219617E4,1.0529727E4,7.5881055E2,1.1629707E3,1.3077672E3,4.463911E2,3.6911133E1,7.285254E2,1.2462709E2,2.0102826E2,4.7261487E2,1.1004712E2,5.7631836E1,4.1226074E1,4.357422E0,4.4502148E2,1.6000989E2,9.364572E1,3.1942886E1,1.5467134E2,1.3478778E2,1.5129898E2,8.640454E1,5.6382812E1,2.7569336E1,1.974707E1,2.463501E0,1.0200867E1,5.836914E0,2.4812012E0,6.010742E-1,0E0,0E0,0E0,0E0,0E0,0E0,0E0,0E0,0E0,0E0,0E0,0E0,0E0,0E0,0E0,0E0,0E0,0E0,0E0,0E0,0E0,0E0,0E0,0E0,0E0,0E0,0E0,0E0,0E0,0E0,0E0,0E0],"parents":[2147483647,0,0,1,1,2,2,3,3,4,4,5,5,6,6,7,7,8,8,9,9,10,10,11,11,12,12,13,13,14,14,15,15,16,16,17,17,18,18,19,19,20,20,21,21,22,22,23,23,24,24,25,25,26,26,27,27,28,28,29,29,30,30],"right_children":[2,4,6,8,10,12,14,16,18,20,22,24,26,28,30,32,34,36,38,40,42,44,46,48,50,52,54,56,58,60,62,-1,-1,-1,-1,-1,-1,-1,-1,-1,-1,-1,-1,-1,-1,-1,-1,-1,-1,-1,-1,-1,-1,-1,-1,-1,-1,-1,-1,-1,-1,-1,-1],"split_conditions":[2E0,3.6320165E-1,5E0,3.125E-2,9.143947E-1,7.300738E-1,8E0,1.1112695E0,-4.6191562E-2,3.5110667E-1,4E-2,3E0,1.7015934E0,4.197662E-1,1.1585878E0,-6.0645994E-2,-1.4979021E-1,2.0109215E0,2.2018015E-1,3.845806E-1,7.300738E-1,2.2909091E-1,1.1481198E0,-3.1966022E-1,-3.9368775E-1,5.090909E-2,6.554545E-1,-3.8831425E-1,1.4833505E0,1.3E1,-1.1160963E-1,-1.4618912E-2,-1.0531787E-2,4.073964E-4,-7.663617E-3,-5.715758E-3,5.648377E-3,4.3430035E-3,-1.6970347E-3,-5.2873427E-3,2.1115157E-3,-7.625982E-3,-2.9898037E-3,4.06308E-3,4.6770336E-4,2.3793646E-3,9.807433E-3,-1.2934734E-3,5.571642E-3,1.3135786E-3,9.418598E-3,1.2939751E-2,1.1364694E-2,1.574532E-2,1.3880225E-2,4.359294E-3,1.2669084E-2,1.4602835E-2,1.5834687E-2,1.5487896E-2,1.6592307E-2,1.6361337E-2,1.7026477E-2],"split_indices":[1,5,1,4,5,6,1,7,6,9,4,1,6,9,5,5,8,7,6,6,6,8,6,5,5,8,8,5,6,1,7,0,0,0,0,0,0,0,0,0,0,0,0,0,0,0,0,0,0,0,0,0,0,0,0,0,0,0,0,0,0,0,0],"split_type":[0,0,0,0,0,0,0,0,0,0,0,0,0,0,0,0,0,0,0,0,0,0,0,0,0,0,0,0,0,0,0,0,0,0,0,0,0,0,0,0,0,0,0,0,0,0,0,0,0,0,0,0,0,0,0,0,0,0,0,0,0,0,0],"sum_hessian":[3.8777395E4,2.6105844E4,1.2671553E4,1.5581154E4,1.0524688E4,6.2053936E3,6.466159E3,1.4008648E4,1.5725056E3,4.1162183E3,6.40847E3,2.1362407E3,4.069153E3,2.8885793E3,3.5775796E3,1.2462338E4,1.5463107E3,1.2169537E3,3.5555194E2,1.3901315E3,2.726087E3,4.8614487E3,1.5470217E3,9.3596185E2,1.2002788E3,3.3620356E3,7.071174E2,5.82432E2,2.3061475E3,1.4240721E3,2.1535076E3,8.585782E3,3.8765554E3,3.0590836E2,1.2404023E3,1.1399955E3,7.695818E1,2.0191345E2,1.536385E2,3.9379892E2,9.963325E2,9.8020874E2,1.7458782E3,2.8959436E3,1.9655049E3,1.7765086E2,1.3693708E3,1.4032494E2,7.956369E2,4.4029453E1,1.1562494E3,1.8088994E3,1.5531364E3,5.65419E2,1.4169836E2,1.6232727E1,5.661993E2,6.899619E2,1.6161855E3,8.934053E2,5.306669E2,9.2642413E2,1.2270834E3],"tree_param":{"num_deleted":"0","num_feature":"19","num_nodes":"63","size_leaf_vector":"1"}},{"base_weights":[6.579062E-3,-7.78059E-1,1.0662826E0,-1.226041E0,-1.871307E-2,2.5688648E-1,1.312579E0,-1.3173716E0,-5.0787044E-1,-3.7409627E-1,2.623789E-1,-1.9459051E-1,9.037779E-1,9.96282E-1,1.5081946E0,-1.4513339E0,-1.0235103E0,-3.577572E-1,-1.1193556E0,-9.385445E-3,-5.557035E-1,2.2601394E-2,3.773481E-1,-5.174792E-1,1.2613244E-1,1.0310998E0,7.459943E-1,5.754264E-1,1.2051766E0,1.3453164E0,1.557862E0,-1.4075665E-2,-1.6418507E-2,-9.019936E-3,-1.253884E-2,2.7174815E-3,-4.688103E-3,-1.6175848E-2,-5.2949046E-3,2.9803403E-3,-3.3119917E-3,-6.869514E-3,-1.3087831E-3,2.8917615E-3,-2.1453714E-3,5.538963E-3,1.6056664E-3,-5.8425204E-3,5.3510023E-3,1.2983822E-2,9.474495E-4,7.7850726E-3,1.1143018E-2,8.405235E-3,1.268151E-3,5.9058317E-3,-1.0772711E-2,1.1263198E-2,1.3337501E-2,1.2647131E-2,1.5564081E-2,1.50208315E-2,1.5876982E-2],"categories":[],"categories_nodes":[],"categories_segments":[],"categories_sizes":[],"default_left":[0,0,0,0,0,0,0,0,0,0,0,0,0,0,0,0,0,0,0,0,0,0,0,0,0,0,0,0,0,0,0,0,0,0,0,0,0,0,0,0,0,0,0,0,0,0,0,0,0,0,0,0,0,0,0,0,0,0,0,0,0,0,0],"id":12,"left_children":[1,3,5,7,9,11,13,15,17,19,21,23,25,27,29,31,33,35,37,39,41,43,45,47,49,51,53,55,57,59,61,-1,-1,-1,-1,-1,-1,-1,-1,-1,-1,-1,-1,-1,-1,-1,-1,-1,-1,-1,-1,-1,-1,-1,-1,-1,-1,-1,-1,-1,-1,-1,-1],"loss_changes":[3.2296025E4,7.591532E3,3.2938281E3,9.201289E2,8.2733276E2,1.1262996E3,7.828594E2,4.8920312E2,1.4510062E2,2.4220837E2,1.2742972E2,2.3528035E2,3.128186E1,4.25229E2,6.1976562E1,6.984766E1,1.0842456E2,8.9083435E1,9.103604E1,1.2041315E2,1.3601306E2,9.482611E1,1.1949292E2,7.972745E1,4.1733547E1,1.7778381E1,4.1408936E1,4.0537415E1,3.180957E1,2.9922363E1,8.472656E0,0E0,0E0,0E0,0E0,0E0,0E0,0E0,0E0,0E0,0E0,0E0,0E0,0E0,0E0,0E0,0E0,0E0,0E0,0E0,0E0,0E0,0E0,0E0,0E0,0E0,0E0,0E0,0E0,0E0,0E0,0E0,0E0],"parents":[2147483647,0,0,1,1,2,2,3,3,4,4,5,5,6,6,7,7,8,8,9,9,10,10,11,11,12,12,13,13,14,14,15,15,16,16,17,17,18,18,19,19,20,20,21,21,22,22,23,23,24,24,25,25,26,26,27,27,28,28,29,29,30,30],"right_children":[2,4,6,8,10,12,14,16,18,20,22,24,26,28,30,32,34,36,38,40,42,44,46,48,50,52,54,56,58,60,62,-1,-1,-1,-1,-1,-1,-1,-1,-1,-1,-1,-1,-1,-1,-1,-1,-1,-1,-1,-1,-1,-1,-1,-1,-1,-1,-1,-1,-1,-1,-1,-1],"split_conditions":[1E0,3.6320165E-1,2E0,1.1112695E0,9.46152E-1,9.143947E-1,3E0,-6.0645994E-2,1.0582727E0,3.5110667E-1,3E0,5.257581E-2,1.6208322E-1,5.169576E-1,9.573913E-3,7.1909094E-1,2.6727274E-1,-2.7363637E-1,1.8682915E0,-1.89E-1,8.26299E-1,9.620589E-1,2.2909091E-1,2.0109215E0,-2.1566166E-1,-4.2864752E-1,1.7391305E-1,4.8851913E-1,1.4968791E0,7.8571427E-1,5.555556E-1,-1.4075665E-2,-1.6418507E-2,-9.019936E-3,-1.253884E-2,2.7174815E-3,-4.688103E-3,-1.6175848E-2,-5.2949046E-3,2.9803403E-3,-3.3119917E-3,-6.869514E-3,-1.3087831E-3,2.8917615E-3,-2.1453714E-3,5.538963E-3,1.6056664E-3,-5.8425204E-3,5.3510023E-3,1.2983822E-2,9.474495E-4,7.7850726E-3,1.1143018E-2,8.405235E-3,1.268151E-3,5.9058317E-3,-1.0772711E-2,1.1263198E-2,1.3337501E-2,1.2647131E-2,1.5564081E-2,1.50208315E-2,1.5876982E-2],"split_indices":[11,5,11,7,5,5,11,5,8,9,12,5,7,5,3,8,8,8,7,8,7,9,8,7,9,7,4,5,5,4,4,0,0,0,0,0,0,0,0,0,0,0,0,0,0,0,0,0,0,0,0,0,0,0,0,0,0,0,0,0,0,0,0],"split_type":[0,0,0,0,0,0,0,0,0,0,0,0,0,0,0,0,0,0,0,0,0,0,0,0,0,0,0,0,0,0,0,0,0,0,0,0,0,0,0,0,0,0,0,0,0,0,0,0,0,0,0,0,0,0,0,0,0,0,0,0,0,0,0],"sum_hessian":[3.884041E4,2.231656E4,1.652385E4,1.403567E4,8.280891E3,3.8553994E3,1.266845E4,1.2451625E4,1.5840453E3,3.6572444E3,4.623646E3,2.270778E3,1.5846213E3,4.842315E3,7.8261353E3,8.551124E3,3.9005007E3,1.272593E3,3.1145224E2,1.2161002E3,2.4411443E3,1.4989448E3,3.1247012E3,1.131571E3,1.139207E3,8.750815E2,7.095398E2,1.6070272E3,3.2352878E3,1.8325548E3,5.99358E3,6.9575005E3,1.5936235E3,2.5554531E3,1.3450476E3,1.9059268E2,1.0820004E3,1.6827675E2,1.4317549E2,6.2181976E2,5.942805E2,1.8645543E3,5.765899E2,7.058213E2,7.9312354E2,1.7214791E3,1.4032222E3,1.0643678E3,6.720324E1,2.9097929E1,1.1101091E3,2.1840547E2,6.56676E2,6.152676E2,9.427221E1,1.5928015E3,1.4225665E1,2.0088676E3,1.2264203E3,1.329043E3,5.0351187E2,2.098835E3,3.8947454E3],"tree_param":{"num_deleted":"0","num_feature":"19","num_nodes":"63","size_leaf_vector":"1"}},{"base_weights":[3.4800638E-3,-7.6515174E-1,1.0520557E0,-1.218697E0,-2.1154594E-3,4.8008862E-1,1.3988111E0,-1.3044075E0,-5.374204E-1,-3.347044E-1,2.614656E-1,-4.1289523E-2,9.7433007E-1,1.1503603E0,1.542316E0,-1.4840758E0,-1.09247E0,-2.809864E-1,-9.2124903E-1,-1.08511545E-1,-6.044164E-1,1.891781E-1,6.8162596E-1,-2.627331E-1,4.073119E-1,8.1696784E-1,1.180546E0,9.7865796E-1,1.346577E0,1.4304929E0,1.5998199E0,-1.5172603E-2,-1.2344408E-2,-9.820021E-3,-1.3203095E-2,-4.463232E-3,3.8550105E-3,-1.0896394E-2,-5.517437E-3,-6.89096E-3,1.2257433E-3,-7.1577146E-3,3.407266E-3,1.2399664E-3,7.877178E-3,8.119244E-3,-2.7609435E-3,-5.78301E-3,1.0234613E-4,-2.1652635E-3,5.225539E-3,3.2607343E-3,9.239523E-3,1.1279487E-2,1.4196232E-2,1.4661844E-3,9.999273E-3,1.2746774E-2,1.5491952E-2,1.1866055E-2,1.4937912E-2,1.5660187E-2,1.6736146E-2],"categories":[],"categories_nodes":[],"categories_segments":[],"categories_sizes":[],"default_left":[0,0,0,0,0,0,0,0,0,0,0,0,0,0,0,0,0,0,0,0,0,0,0,0,0,0,0,0,0,0,0,0,0,0,0,0,0,0,0,0,0,0,0,0,0,0,0,0,0,0,0,0,0,0,0,0,0,0,0,0,0,0,0],"id":13,"left_children":[1,3,5,7,9,11,13,15,17,19,21,23,25,27,29,31,33,35,37,39,41,43,45,47,49,51,53,55,57,59,61,-1,-1,-1,-1,-1,-1,-1,-1,-1,-1,-1,-1,-1,-1,-1,-1,-1,-1,-1,-1,-1,-1,-1,-1,-1,-1,-1,-1,-1,-1,-1,-1],"loss_changes":[3.1114646E4,7.7090244E3,3.2380625E3,8.152949E2,7.2811993E2,1.5884908E3,3.612871E2,4.7147266E2,1.5352106E2,2.2393277E2,1.4057532E2,2.980613E2,1.0200659E2,1.2457666E2,3.997754E1,5.4410156E1,1.4247656E2,1.0339375E2,3.8444702E1,2.681745E2,1.7641699E2,1.541255E2,8.4991394E1,1.731146E2,7.137045E1,9.408508E1,1.6149902E1,3.499756E1,2.4025879E1,3.2700684E1,8.964844E0,0E0,0E0,0E0,0E0,0E0,0E0,0E0,0E0,0E0,0E0,0E0,0E0,0E0,0E0,0E0,0E0,0E0,0E0,0E0,0E0,0E0,0E0,0E0,0E0,0E0,0E0,0E0,0E0,0E0,0E0,0E0,0E0],"parents":[2147483647,0,0,1,1,2,2,3,3,4,4,5,5,6,6,7,7,8,8,9,9,10,10,11,11,12,12,13,13,14,14,15,15,16,16,17,17,18,18,19,19,20,20,21,21,22,22,23,23,24,24,25,25,26,26,27,27,28,28,29,29,30,30],"right_children":[2,4,6,8,10,12,14,16,18,20,22,24,26,28,30,32,34,36,38,40,42,44,46,48,50,52,54,56,58,60,62,-1,-1,-1,-1,-1,-1,-1,-1,-1,-1,-1,-1,-1,-1,-1,-1,-1,-1,-1,-1,-1,-1,-1,-1,-1,-1,-1,-1,-1,-1,-1,-1],"split_conditions":[1E0,3.6320165E-1,3E0,1.1112695E0,9.46152E-1,9.123132E-1,5E0,-2.1764821E-1,4.9636364E-1,3.593583E-2,1.4354786E0,2E0,2E0,1.5007817E0,7E0,4.9819452E-1,2.8954545E-1,2.3966327E0,2.0807714E0,-2.4364807E-1,2.167703E0,1.7015934E0,1.0228099E0,2.8661084E-3,-8.7711674E-1,1.1102607E-2,1.7015934E0,-1.0881966E0,1.7015934E0,4.197662E-1,1.3E1,-1.5172603E-2,-1.2344408E-2,-9.820021E-3,-1.3203095E-2,-4.463232E-3,3.8550105E-3,-1.0896394E-2,-5.517437E-3,-6.89096E-3,1.2257433E-3,-7.1577146E-3,3.407266E-3,1.2399664E-3,7.877178E-3,8.119244E-3,-2.7609435E-3,-5.78301E-3,1.0234613E-4,-2.1652635E-3,5.225539E-3,3.2607343E-3,9.239523E-3,1.1279487E-2,1.4196232E-2,1.4661844E-3,9.999273E-3,1.2746774E-2,1.5491952E-2,1.1866055E-2,1.4937912E-2,1.5660187E-2,1.6736146E-2],"split_indices":[1,5,1,7,5,6,1,5,8,8,7,1,1,6,1,7,8,7,7,7,7,6,8,3,6,3,6,6,6,9,1,0,0,0,0,0,0,0,0,0,0,0,0,0,0,0,0,0,0,0,0,0,0,0,0,0,0,0,0,0,0,0,0],"split_type":[0,0,0,0,0,0,0,0,0,0,0,0,0,0,0,0,0,0,0,0,0,0,0,0,0,0,0,0,0,0,0,0,0,0,0,0,0,0,0,0,0,0,0,0,0,0,0,0,0,0,0,0,0,0,0,0,0,0,0,0,0,0,0],"sum_hessian":[3.8604246E4,2.227567E4,1.6328574E4,1.3970964E4,8.304706E3,6.163487E3,1.0165088E4,1.2409177E4,1.5617864E3,3.671818E3,4.632888E3,2.9995256E3,3.1639614E3,3.723602E3,6.441486E3,6.7139805E3,5.695197E3,9.369448E2,6.2484155E2,1.997606E3,1.6742122E3,3.953638E3,6.7925024E2,2.0084985E3,9.9102716E2,1.7962325E3,1.3677288E3,1.9877202E3,1.7358817E3,2.1925295E3,4.248956E3,5.9236055E3,7.9037524E2,3.837621E3,1.8575756E3,7.509664E2,1.8597845E2,4.2837708E2,1.9646445E2,5.685677E2,1.4290383E3,1.4979531E3,1.7625912E2,3.5660618E3,3.8757632E2,5.980638E2,8.118646E1,9.314688E2,1.0770297E3,1.543234E2,8.367038E2,3.2194736E2,1.4742853E3,1.1237745E3,2.4395416E2,4.9761063E1,1.9379591E3,1.2842874E3,4.5159445E2,4.541509E2,1.7383787E3,2.9227014E3,1.3262546E3],"tree_param":{"num_deleted":"0","num_feature":"19","num_nodes":"63","size_leaf_vector":"1"}},{"base_weights":[-5.136524E-4,-7.748934E-1,1.0467715E0,-1.2169799E0,-1.644799E-2,2.4354509E-1,1.2898849E0,-1.3000447E0,-5.5565363E-1,-3.5569042E-1,2.4243806E-1,-1.9667946E-1,8.77973E-1,1.0373667E0,1.5303766E0,-1.4728854E0,-1.0971863E0,-3.2231215E-1,-9.0945387E-1,-8.834378E-2,-5.81907E-1,-9.915236E-3,3.6389488E-1,-5.036803E-1,1.10808E-1,1.0583776E0,7.673438E-1,6.3879263E-1,1.2191902E0,1.4583361E0,1.6131339E0,-1.4355804E-2,-1.6759433E-2,-1.0003043E-2,-1.2924098E-2,-4.6445094E-3,2.6884922E-3,-1.1284518E-2,-4.5754113E-3,-5.876699E-3,1.5964913E-3,-7.6007694E-3,6.5746855E-7,2.2812132E-3,-2.1531547E-3,8.793313E-3,2.953239E-3,-5.619809E-3,4.7388556E-3,1.3145285E-2,7.849913E-4,7.808942E-3,1.2284524E-2,1.0428069E-2,6.2338123E-3,3.524688E-3,8.549485E-3,1.1382925E-2,1.3148357E-2,1.2367029E-2,1.5111754E-2,1.5781138E-2,1.6552396E-2],"categories":[],"categories_nodes":[],"categories_segments":[],"categories_sizes":[],"default_left":[0,0,0,0,0,0,0,0,0,0,0,0,0,0,0,0,0,0,0,0,0,0,0,0,0,0,0,0,0,0,0,0,0,0,0,0,0,0,0,0,0,0,0,0,0,0,0,0,0,0,0,0,0,0,0,0,0,0,0,0,0,0,0],"id":14,"left_children":[1,3,5,7,9,11,13,15,17,19,21,23,25,27,29,31,33,35,37,39,41,43,45,47,49,51,53,55,57,59,61,-1,-1,-1,-1,-1,-1,-1,-1,-1,-1,-1,-1,-1,-1,-1,-1,-1,-1,-1,-1,-1,-1,-1,-1,-1,-1,-1,-1,-1,-1,-1,-1],"loss_changes":[3.1346576E4,7.450628E3,3.2081953E3,7.7062305E2,7.187629E2,1.0665774E3,7.6491016E2,4.3620703E2,1.2913867E2,2.141434E2,1.4230045E2,2.128884E2,3.0632324E1,4.4543164E2,3.7023438E1,4.9484375E1,1.0768262E2,7.952951E1,6.1192444E1,2.0123526E2,1.9900427E2,7.37696E1,1.105105E2,6.445187E1,4.3623466E1,2.7303955E1,3.8048645E1,1.1912903E2,3.1702148E1,3.929834E1,2.7954102E0,0E0,0E0,0E0,0E0,0E0,0E0,0E0,0E0,0E0,0E0,0E0,0E0,0E0,0E0,0E0,0E0,0E0,0E0,0E0,0E0,0E0,0E0,0E0,0E0,0E0,0E0,0E0,0E0,0E0,0E0,0E0,0E0],"parents":[2147483647,0,0,1,1,2,2,3,3,4,4,5,5,6,6,7,7,8,8,9,9,10,10,11,11,12,12,13,13,14,14,15,15,16,16,17,17,18,18,19,19,20,20,21,21,22,22,23,23,24,24,25,25,26,26,27,27,28,28,29,29,30,30],"right_children":[2,4,6,8,10,12,14,16,18,20,22,24,26,28,30,32,34,36,38,40,42,44,46,48,50,52,54,56,58,60,62,-1,-1,-1,-1,-1,-1,-1,-1,-1,-1,-1,-1,-1,-1,-1,-1,-1,-1,-1,-1,-1,-1,-1,-1,-1,-1,-1,-1,-1,-1,-1,-1],"split_conditions":[1E0,3.7625507E-1,2E0,1.1112695E0,9.46152E-1,1.1102607E-2,5E0,-2.1764821E-1,4.9636364E-1,-7.636364E-2,3E0,5.257581E-2,-1.4015998E-1,5.169576E-1,9E0,8.7627274E-1,2.8954545E-1,2.3966327E0,2.0807714E0,-2.4364807E-1,1.3790632E0,9.620589E-1,6.476689E-1,2.0109215E0,-2.1566166E-1,-4.2864752E-1,-1.0181818E-1,3E0,1.4722383E-2,4.197662E-1,1.3E1,-1.4355804E-2,-1.6759433E-2,-1.0003043E-2,-1.2924098E-2,-4.6445094E-3,2.6884922E-3,-1.1284518E-2,-4.5754113E-3,-5.876699E-3,1.5964913E-3,-7.6007694E-3,6.5746855E-7,2.2812132E-3,-2.1531547E-3,8.793313E-3,2.953239E-3,-5.619809E-3,4.7388556E-3,1.3145285E-2,7.849913E-4,7.808942E-3,1.2284524E-2,1.0428069E-2,6.2338123E-3,3.524688E-3,8.549485E-3,1.1382925E-2,1.3148357E-2,1.2367029E-2,1.5111754E-2,1.5781138E-2,1.6552396E-2],"split_indices":[1,5,1,7,5,3,1,5,8,8,12,5,7,5,1,8,8,7,7,7,7,9,9,7,9,7,8,1,3,9,1,0,0,0,0,0,0,0,0,0,0,0,0,0,0,0,0,0,0,0,0,0,0,0,0,0,0,0,0,0,0,0,0],"split_type":[0,0,0,0,0,0,0,0,0,0,0,0,0,0,0,0,0,0,0,0,0,0,0,0,0,0,0,0,0,0,0,0,0,0,0,0,0,0,0,0,0,0,0,0,0,0,0,0,0,0,0,0,0,0,0,0,0,0,0,0,0,0,0],"sum_hessian":[3.8650965E4,2.2220781E4,1.6430184E4,1.4037879E4,8.1829023E3,3.817825E3,1.2612358E4,1.2470862E4,1.567017E3,3.541866E3,4.6410366E3,2.253988E3,1.563837E3,6.153843E3,6.4585156E3,6.7316733E3,5.739189E3,9.4500006E2,6.2201685E2,1.6238772E3,1.9179888E3,1.5078279E3,3.1332087E3,1.1278895E3,1.1260984E3,5.9248157E2,9.7135547E2,1.9287188E3,4.225124E3,3.45845E3,3.0000657E3,5.6907246E3,1.0409484E3,3.8380754E3,1.9011135E3,7.6204926E2,1.8295078E2,4.183255E2,2.0369135E2,5.387795E2,1.0850977E3,1.4684454E3,4.4954327E2,6.9817584E2,8.096521E2,3.6701898E2,2.7661897E3,1.0647069E3,6.31827E1,2.8835772E1,1.0972626E3,2.2643227E2,3.6604932E2,3.3209558E2,6.392599E2,8.3045807E2,1.0982606E3,2.2930994E3,1.9320248E3,6.685072E2,2.7899429E3,1.6496439E3,1.3504218E3],"tree_param":{"num_deleted":"0","num_feature":"19","num_nodes":"63","size_leaf_vector":"1"}},{"base_weights":[6.5296544E-3,-7.544281E-1,1.0379683E0,-1.1917427E0,-1.6368201E-2,2.4182585E-1,1.2805662E0,-1.2736577E0,-5.3974164E-1,-3.5616654E-1,2.4991497E-1,-1.802187E-1,8.5238105E-1,1.0289297E0,1.5192194E0,-1.4451516E0,-1.0708396E0,-6.69011E-1,2.0375842E-2,-5.284592E-1,-1.15229964E-1,1.7919797E-1,6.954879E-1,-4.8104376E-1,9.470003E-2,3.366114E-1,9.2126065E-1,6.6705817E-1,1.224134E0,1.4470514E0,1.6030215E0,-1.4760462E-2,-1.2106699E-2,-1.22257145E-2,-9.9939685E-3,-1.541504E-2,-6.0107387E-3,7.126721E-4,-1.7937277E-2,-7.1931877E-3,-2.5543147E-3,-5.604857E-3,-2.921032E-4,1.5038418E-4,4.00096E-3,8.271455E-3,1.3021825E-4,-8.789876E-3,-3.169378E-3,2.3171975E-5,5.8678472E-3,8.54171E-3,-6.6263916E-4,8.494412E-3,1.2438781E-2,4.0902602E-3,8.680624E-3,1.1727367E-2,1.4714799E-2,1.2525938E-2,1.493445E-2,1.5654199E-2,1.6481377E-2],"categories":[],"categories_nodes":[],"categories_segments":[],"categories_sizes":[],"default_left":[0,0,0,0,0,0,0,0,0,0,0,0,0,0,0,0,0,0,0,0,0,0,0,0,0,0,0,0,0,0,0,0,0,0,0,0,0,0,0,0,0,0,0,0,0,0,0,0,0,0,0,0,0,0,0,0,0,0,0,0,0,0,0],"id":15,"left_children":[1,3,5,7,9,11,13,15,17,19,21,23,25,27,29,31,33,35,37,39,41,43,45,47,49,51,53,55,57,59,61,-1,-1,-1,-1,-1,-1,-1,-1,-1,-1,-1,-1,-1,-1,-1,-1,-1,-1,-1,-1,-1,-1,-1,-1,-1,-1,-1,-1,-1,-1,-1,-1],"loss_changes":[3.0454545E4,7.2066553E3,3.1813516E3,7.483008E2,7.5179865E2,9.917049E2,7.571797E2,4.321953E2,1.1345236E2,1.514465E2,1.4662439E2,1.8825623E2,5.5599487E1,4.3364697E2,3.7716797E1,4.7714844E1,6.104883E1,7.474536E1,2.7031418E1,1.1070685E2,5.826336E1,1.4576427E2,5.720517E1,7.0717316E1,5.400269E1,3.8947254E1,3.1403442E1,1.1148462E2,4.9628906E1,3.0246582E1,3.4648438E0,0E0,0E0,0E0,0E0,0E0,0E0,0E0,0E0,0E0,0E0,0E0,0E0,0E0,0E0,0E0,0E0,0E0,0E0,0E0,0E0,0E0,0E0,0E0,0E0,0E0,0E0,0E0,0E0,0E0,0E0,0E0,0E0],"parents":[2147483647,0,0,1,1,2,2,3,3,4,4,5,5,6,6,7,7,8,8,9,9,10,10,11,11,12,12,13,13,14,14,15,15,16,16,17,17,18,18,19,19,20,20,21,21,22,22,23,23,24,24,25,25,26,26,27,27,28,28,29,29,30,30],"right_children":[2,4,6,8,10,12,14,16,18,20,22,24,26,28,30,32,34,36,38,40,42,44,46,48,50,52,54,56,58,60,62,-1,-1,-1,-1,-1,-1,-1,-1,-1,-1,-1,-1,-1,-1,-1,-1,-1,-1,-1,-1,-1,-1,-1,-1,-1,-1,-1,-1,-1,-1,-1,-1],"split_conditions":[1E0,3.6320165E-1,2E0,1.1112695E0,9.46152E-1,9.143947E-1,5E0,-2.1764821E-1,2.5307732E0,5.9351146E-1,1.4946371E0,1.4244947E-2,1.1481198E0,7.7173585E-1,9E0,4.9819452E-1,-6.0645994E-2,-1.0751932E0,3.2113475E-1,9.800718E-1,3.625835E-1,1.6041417E0,1.4427565E0,-9.473411E-1,1.4354786E0,6.476689E-1,1.7015934E0,3E0,1.7015934E0,3.7839088E-1,1.3E1,-1.4760462E-2,-1.2106699E-2,-1.22257145E-2,-9.9939685E-3,-1.541504E-2,-6.0107387E-3,7.126721E-4,-1.7937277E-2,-7.1931877E-3,-2.5543147E-3,-5.604857E-3,-2.921032E-4,1.5038418E-4,4.00096E-3,8.271455E-3,1.3021825E-4,-8.789876E-3,-3.169378E-3,2.3171975E-5,5.8678472E-3,8.54171E-3,-6.6263916E-4,8.494412E-3,1.2438781E-2,4.0902602E-3,8.680624E-3,1.1727367E-2,1.4714799E-2,1.2525938E-2,1.493445E-2,1.5654199E-2,1.6481377E-2],"split_indices":[1,5,1,7,5,5,1,5,7,7,7,5,6,6,1,7,5,6,6,6,6,5,9,6,7,9,6,1,6,9,1,0,0,0,0,0,0,0,0,0,0,0,0,0,0,0,0,0,0,0,0,0,0,0,0,0,0,0,0,0,0,0,0],"split_type":[0,0,0,0,0,0,0,0,0,0,0,0,0,0,0,0,0,0,0,0,0,0,0,0,0,0,0,0,0,0,0,0,0,0,0,0,0,0,0,0,0,0,0,0,0,0,0,0,0,0,0,0,0,0,0,0,0,0,0,0,0,0,0],"sum_hessian":[3.8800434E4,2.232782E4,1.6472613E4,1.4020164E4,8.307657E3,3.8475093E3,1.2625104E4,1.2454763E4,1.5654006E3,3.6500774E3,4.6575796E3,2.2750654E3,1.5724438E3,6.146886E3,6.4782173E3,6.7465913E3,5.7081714E3,1.271933E3,2.9346765E2,2.1276167E3,1.5224607E3,4.0204229E3,6.3715686E2,1.0863427E3,1.1887228E3,1.8577304E2,1.3866709E3,2.154877E3,3.9920095E3,3.4862703E3,2.991947E3,5.9584497E3,7.8814166E2,1.8242758E3,3.8838958E3,9.099521E1,1.1809379E3,2.859805E2,7.4871798E0,1.2515433E3,8.7607324E2,2.4586923E2,1.2765914E3,2.3069834E3,1.7134395E3,5.339062E2,1.0325073E2,3.163738E2,7.699688E2,1.00142346E3,1.8729933E2,8.1176544E1,1.04596504E2,1.1359237E3,2.5074712E2,9.444665E2,1.2104104E3,3.307916E3,6.840936E2,6.7464954E2,2.8116206E3,1.6428209E3,1.3491262E3],"tree_param":{"num_deleted":"0","num_feature":"19","num_nodes":"63","size_leaf_vector":"1"}},{"base_weights":[3.8112907E-3,-7.419097E-1,1.024059E0,-1.1944636E0,3.813381E-4,2.4857555E-1,1.2646335E0,-1.2710546E0,-5.7832205E-1,-3.2975888E-1,2.6720417E-1,-1.7858796E-1,8.608429E-1,1.0113592E0,1.5051024E0,-1.3958551E0,-9.914072E-1,2.022417E-1,-6.7226934E-1,-4.3428463E-1,2.1417235E-1,4.0840173E-1,6.869735E-2,-5.435457E-1,1.387084E-1,1.0379964E0,7.4297416E-1,6.414155E-1,1.2040656E0,1.420289E0,1.5748377E0,-1.3343322E-2,-1.534824E-2,-8.752823E-3,-1.2217122E-2,-2.0635559E-3,9.750393E-3,-7.44113E-3,1.17631505E-4,-2.4200666E-3,-6.7448174E-3,5.335251E-3,-8.3507E-4,3.4575053E-3,1.148524E-2,5.518712E-3,-8.03196E-4,-1.83729E-2,-5.0402205E-3,6.082341E-4,5.7861786E-3,7.698832E-3,1.19577795E-2,9.843548E-3,5.651481E-3,3.682599E-3,8.481317E-3,1.1399597E-2,1.3019951E-2,1.1512795E-2,1.4652836E-2,1.5425083E-2,1.6295997E-2],"categories":[],"categories_nodes":[],"categories_segments":[],"categories_sizes":[],"default_left":[0,0,0,0,0,0,0,0,0,0,0,0,0,0,0,0,0,0,0,0,0,0,0,0,0,0,0,0,0,0,0,0,0,0,0,0,0,0,0,0,0,0,0,0,0,0,0,0,0,0,0,0,0,0,0,0,0,0,0,0,0,0,0],"id":16,"left_children":[1,3,5,7,9,11,13,15,17,19,21,23,25,27,29,31,33,35,37,39,41,43,45,47,49,51,53,55,57,59,61,-1,-1,-1,-1,-1,-1,-1,-1,-1,-1,-1,-1,-1,-1,-1,-1,-1,-1,-1,-1,-1,-1,-1,-1,-1,-1,-1,-1,-1,-1,-1,-1],"loss_changes":[2.9371713E4,7.4923857E3,3.0410254E3,6.533164E2,7.4420435E2,1.00983777E3,7.5675977E2,4.2915625E2,1.1253381E2,2.1475162E2,1.3089972E2,2.6344916E2,3.2568604E1,4.315464E2,3.6323242E1,7.152539E1,1.0100586E2,5.2265526E1,6.733319E1,1.4612354E2,5.7946274E1,1.26237854E2,1.3996567E2,5.340149E1,4.1611492E1,2.609314E1,4.055432E1,1.1701544E2,2.4028809E1,3.381494E1,4.616211E0,0E0,0E0,0E0,0E0,0E0,0E0,0E0,0E0,0E0,0E0,0E0,0E0,0E0,0E0,0E0,0E0,0E0,0E0,0E0,0E0,0E0,0E0,0E0,0E0,0E0,0E0,0E0,0E0,0E0,0E0,0E0,0E0],"parents":[2147483647,0,0,1,1,2,2,3,3,4,4,5,5,6,6,7,7,8,8,9,9,10,10,11,11,12,12,13,13,14,14,15,15,16,16,17,17,18,18,19,19,20,20,21,21,22,22,23,23,24,24,25,25,26,26,27,27,28,28,29,29,30,30],"right_children":[2,4,6,8,10,12,14,16,18,20,22,24,26,28,30,32,34,36,38,40,42,44,46,48,50,52,54,56,58,60,62,-1,-1,-1,-1,-1,-1,-1,-1,-1,-1,-1,-1,-1,-1,-1,-1,-1,-1,-1,-1,-1,-1,-1,-1,-1,-1,-1,-1,-1,-1,-1,-1],"split_conditions":[1E0,3.4917226E-1,2E0,1.1112695E0,9.46152E-1,9.143947E-1,5E0,-6.0645994E-2,-3.0049092E-1,1.4614838E0,2.2060606E-1,1.4244947E-2,-1.1767846E-1,6.0356075E-1,8E0,3.0545455E-1,2.8954545E-1,2.167703E0,3.224669E0,2.7045455E-2,1.9636364E-1,1.9376829E0,-2.7931023E-1,-4.335811E-1,1.4354786E0,-4.267094E-1,-1.2727273E-2,3E0,1.4968791E0,1.1259344E-1,1.3E1,-1.3343322E-2,-1.534824E-2,-8.752823E-3,-1.2217122E-2,-2.0635559E-3,9.750393E-3,-7.44113E-3,1.17631505E-4,-2.4200666E-3,-6.7448174E-3,5.335251E-3,-8.3507E-4,3.4575053E-3,1.148524E-2,5.518712E-3,-8.03196E-4,-1.83729E-2,-5.0402205E-3,6.082341E-4,5.7861786E-3,7.698832E-3,1.19577795E-2,9.843548E-3,5.651481E-3,3.682599E-3,8.481317E-3,1.1399597E-2,1.3019951E-2,1.1512795E-2,1.4652836E-2,1.5425083E-2,1.6295997E-2],"split_indices":[1,5,1,7,5,5,1,5,8,7,8,5,7,5,1,8,8,7,7,8,8,7,7,9,7,7,8,1,5,9,1,0,0,0,0,0,0,0,0,0,0,0,0,0,0,0,0,0,0,0,0,0,0,0,0,0,0,0,0,0,0,0,0],"split_type":[0,0,0,0,0,0,0,0,0,0,0,0,0,0,0,0,0,0,0,0,0,0,0,0,0,0,0,0,0,0,0,0,0,0,0,0,0,0,0,0,0,0,0,0,0,0,0,0,0,0,0,0,0,0,0,0,0,0,0,0,0,0,0],"sum_hessian":[3.86043E4,2.2302768E4,1.6301533E4,1.3855368E4,8.447399E3,3.8600928E3,1.244144E4,1.2322853E4,1.5325156E3,3.775489E3,4.67191E3,2.273865E3,1.5862277E3,6.0608525E3,6.3805874E3,8.518763E3,3.8040898E3,1.6445932E2,1.3680563E3,3.1671511E3,6.083378E2,2.729435E3,1.9424749E3,1.0574886E3,1.2163765E3,6.318391E2,9.543885E2,2.0767473E3,3.9841052E3,2.8845083E3,3.4960793E3,5.9088716E3,2.6098914E3,2.5308257E3,1.2732643E3,1.077345E2,5.672482E1,1.2381193E3,1.2993704E2,1.7598279E3,1.4073231E3,2.9345587E2,3.1488196E2,2.5172217E3,2.1221352E2,4.5771027E2,1.4847646E3,3.059921E1,1.0268895E3,1.0340896E3,1.822868E2,2.3540189E2,3.9643723E2,4.0364783E2,5.507407E2,8.954161E2,1.1813313E3,2.412316E3,1.5717894E3,4.1555356E2,2.4689546E3,2.2086143E3,1.2874651E3],"tree_param":{"num_deleted":"0","num_feature":"19","num_nodes":"63","size_leaf_vector":"1"}},{"base_weights":[-4.1027563E-3,-7.560279E-1,1.0169821E0,-1.1915658E0,-1.8097907E-1,2.374354E-1,1.255528E0,-1.2706871E0,-4.869869E-1,-6.4840846E-2,-1.0618081E0,-1.8708913E-1,8.497936E-1,9.60172E-1,1.4455028E0,-1.0303085E0,-1.4079936E0,1.3219038E-1,-5.9588724E-1,-2.942858E-1,2.4238473E-1,-5.6549317E-1,-1.2163681E0,-5.6538755E-1,1.1830574E-1,9.844727E-1,6.7262787E-1,5.7298166E-1,1.1720046E0,1.2991393E0,1.5019485E0,-9.417351E-3,-1.239664E-2,-1.3575231E-2,-1.6280102E-2,-2.89652E-3,8.8250125E-3,-1.5082725E-2,-5.2846065E-3,-4.1694357E-3,1.9320633E-3,3.9570504E-3,-5.9009314E-4,1.6163593E-5,-1.326565E-2,-1.2559361E-2,1.3023406E-2,-4.9418695E-3,-1.3667869E-2,6.0455636E-3,6.255412E-4,1.2639353E-2,8.993653E-3,9.213042E-3,4.931065E-3,4.1883346E-3,7.3436103E-3,1.0982141E-2,1.2860985E-2,1.2192007E-2,1.5008353E-2,1.3044504E-2,1.509599E-2],"categories":[],"categories_nodes":[],"categories_segments":[],"categories_sizes":[],"default_left":[0,0,0,0,0,0,0,0,0,0,0,0,0,0,0,0,0,0,0,0,0,0,0,0,0,0,0,0,0,0,0,0,0,0,0,0,0,0,0,0,0,0,0,0,0,0,0,0,0,0,0,0,0,0,0,0,0,0,0,0,0,0,0],"id":17,"left_children":[1,3,5,7,9,11,13,15,17,19,21,23,25,27,29,31,33,35,37,39,41,43,45,47,49,51,53,55,57,59,61,-1,-1,-1,-1,-1,-1,-1,-1,-1,-1,-1,-1,-1,-1,-1,-1,-1,-1,-1,-1,-1,-1,-1,-1,-1,-1,-1,-1,-1,-1,-1,-1],"loss_changes":[2.9489229E4,5.539755E3,3.0287285E3,7.011758E2,9.7513354E2,9.924928E2,6.9887305E2,3.7249805E2,8.583139E1,5.9384344E2,8.466235E1,2.6056616E2,3.6799072E1,4.000459E2,6.1439453E1,7.5518555E1,7.854785E1,6.0475124E1,6.5941315E1,2.8843628E2,1.6647162E2,1.1441761E2,8.514392E1,5.6957245E1,3.3742313E1,2.0302979E1,2.9852661E1,4.272107E1,2.5625977E1,3.293506E1,7.0039062E0,0E0,0E0,0E0,0E0,0E0,0E0,0E0,0E0,0E0,0E0,0E0,0E0,0E0,0E0,0E0,0E0,0E0,0E0,0E0,0E0,0E0,0E0,0E0,0E0,0E0,0E0,0E0,0E0,0E0,0E0,0E0,0E0],"parents":[2147483647,0,0,1,1,2,2,3,3,4,4,5,5,6,6,7,7,8,8,9,9,10,10,11,11,12,12,13,13,14,14,15,15,16,16,17,17,18,18,19,19,20,20,21,21,22,22,23,23,24,24,25,25,26,26,27,27,28,28,29,29,30,30],"right_children":[2,4,6,8,10,12,14,16,18,20,22,24,26,28,30,32,34,36,38,40,42,44,46,48,50,52,54,56,58,60,62,-1,-1,-1,-1,-1,-1,-1,-1,-1,-1,-1,-1,-1,-1,-1,-1,-1,-1,-1,-1,-1,-1,-1,-1,-1,-1,-1,-1,-1,-1,-1,-1],"split_conditions":[1E0,2E0,2E0,1.1895106E0,5E0,1.1102607E-2,3E0,1E0,-2.2081818E-1,3E0,-1.4979021E-1,3.3577166E-3,1.6208322E-1,8.356106E-3,1.0490535E-2,2.8954545E-1,7.1909094E-1,2.0807714E0,-7.636364E-2,1.2758383E0,8.913191E-1,8.913191E-1,4.798063E0,1.1675152E0,5.5555556E-2,1.15384616E-1,-1.2727273E-2,3.1896457E-3,1.584335E-2,7.8571427E-1,1E0,-9.417351E-3,-1.239664E-2,-1.3575231E-2,-1.6280102E-2,-2.89652E-3,8.8250125E-3,-1.5082725E-2,-5.2846065E-3,-4.1694357E-3,1.9320633E-3,3.9570504E-3,-5.9009314E-4,1.6163593E-5,-1.326565E-2,-1.2559361E-2,1.3023406E-2,-4.9418695E-3,-1.3667869E-2,6.0455636E-3,6.255412E-4,1.2639353E-2,8.993653E-3,9.213042E-3,4.931065E-3,4.1883346E-3,7.3436103E-3,1.0982141E-2,1.2860985E-2,1.2192007E-2,1.5008353E-2,1.3044504E-2,1.509599E-2],"split_indices":[2,12,11,7,12,3,11,12,8,12,8,3,7,3,3,8,8,7,8,7,10,10,7,8,4,4,8,3,3,4,0,0,0,0,0,0,0,0,0,0,0,0,0,0,0,0,0,0,0,0,0,0,0,0,0,0,0,0,0,0,0,0,0],"split_type":[0,0,0,0,0,0,0,0,0,0,0,0,0,0,0,0,0,0,0,0,0,0,0,0,0,0,0,0,0,0,0,0,0,0,0,0,0,0,0,0,0,0,0,0,0,0,0,0,0,0,0,0,0,0,0,0,0,0,0,0,0,0,0],"sum_hessian":[3.84075E4,2.2119193E4,1.6288307E4,1.2585963E4,9.5332295E3,3.816791E3,1.2471517E4,1.13148125E4,1.2711504E3,8.423264E3,1.1099658E3,2.2542144E3,1.5625767E3,4.883161E3,7.588355E3,4.1152827E3,7.19953E3,1.8997571E2,1.0811747E3,4.8222295E3,3.6010344E3,2.642848E2,8.45681E2,1.0068777E3,1.2473367E3,8.8611816E2,6.764585E2,1.7276554E3,3.1555056E3,2.1158196E3,5.4725356E3,2.8940894E3,1.2211934E3,5.859449E3,1.3400808E3,1.2171716E2,6.8258545E1,7.3564606E1,1.0076101E3,3.8530437E3,9.6918585E2,2.386956E3,1.2140785E3,1.5165054E2,1.1263423E2,8.32887E2,1.2794004E1,9.255776E2,8.13001E1,1.2761319E2,1.1197234E3,2.0496979E2,6.811484E2,2.8250473E2,3.939538E2,8.848611E2,8.4279425E2,1.9199583E3,1.2355474E3,1.5181476E3,5.9767194E2,2.0777283E2,5.2647627E3],"tree_param":{"num_deleted":"0","num_feature":"19","num_nodes":"63","size_leaf_vector":"1"}},{"base_weights":[-8.240177E-3,-7.4622095E-1,1.0033497E0,-1.1751602E0,-3.296125E-2,4.664574E-1,1.3384972E0,-1.2577125E0,-5.175427E-1,-3.7085342E-1,2.380713E-1,-9.747256E-2,8.853993E-1,1.1057091E0,1.4774939E0,-1.3818705E0,-9.8083043E-1,-3.6257556E-1,-1.0837065E0,-5.742592E-1,-9.647228E-2,1.8333477E-1,8.4128296E-1,-7.271023E-1,2.9177044E-2,5.90819E-1,1.0169443E0,9.2410976E-1,1.2670319E0,1.389359E0,1.5477746E0,-1.3181131E-2,-1.521644E-2,-8.762484E-3,-1.1859575E-2,-4.789801E-3,1.971208E-3,-1.3918832E-2,-4.110531E-3,-8.086579E-3,-3.7415149E-3,5.287356E-3,-3.169472E-3,-7.4685714E-4,3.174569E-3,1.0253086E-2,-8.7001575E-3,-4.106496E-3,-1.2537182E-2,-1.4442458E-3,4.0513244E-3,3.5565002E-3,9.236508E-3,8.856048E-3,1.1894677E-2,3.3618012E-3,9.5369695E-3,1.2067558E-2,1.47583205E-2,1.1398503E-2,1.4500368E-2,1.5153223E-2,1.6006239E-2],"categories":[],"categories_nodes":[],"categories_segments":[],"categories_sizes":[],"default_left":[0,0,0,0,0,0,0,0,0,0,0,0,0,0,0,0,0,0,0,0,0,0,0,0,0,0,0,0,0,0,0,0,0,0,0,0,0,0,0,0,0,0,0,0,0,0,0,0,0,0,0,0,0,0,0,0,0,0,0,0,0,0,0],"id":18,"left_children":[1,3,5,7,9,11,13,15,17,19,21,23,25,27,29,31,33,35,37,39,41,43,45,47,49,51,53,55,57,59,61,-1,-1,-1,-1,-1,-1,-1,-1,-1,-1,-1,-1,-1,-1,-1,-1,-1,-1,-1,-1,-1,-1,-1,-1,-1,-1,-1,-1,-1,-1,-1,-1],"loss_changes":[2.8654902E4,6.7898174E3,2.9128057E3,7.5186523E2,7.6338104E2,1.4704086E3,3.2144727E2,4.2235938E2,1.3535983E2,2.0697974E2,1.5253622E2,2.1163678E2,1.3791064E2,1.0843555E2,3.727832E1,7.445508E1,8.1091064E1,7.924701E1,6.835251E1,9.965796E1,2.179061E2,1.4681062E2,1.2154855E2,7.3640564E1,1.4423325E2,8.609982E1,5.5179443E1,3.0261963E1,2.3672852E1,4.090625E1,4.4208984E0,0E0,0E0,0E0,0E0,0E0,0E0,0E0,0E0,0E0,0E0,0E0,0E0,0E0,0E0,0E0,0E0,0E0,0E0,0E0,0E0,0E0,0E0,0E0,0E0,0E0,0E0,0E0,0E0,0E0,0E0,0E0,0E0],"parents":[2147483647,0,0,1,1,2,2,3,3,4,4,5,5,6,6,7,7,8,8,9,9,10,10,11,11,12,12,13,13,14,14,15,15,16,16,17,17,18,18,19,19,20,20,21,21,22,22,23,23,24,24,25,25,26,26,27,27,28,28,29,29,30,30],"right_children":[2,4,6,8,10,12,14,16,18,20,22,24,26,28,30,32,34,36,38,40,42,44,46,48,50,52,54,56,58,60,62,-1,-1,-1,-1,-1,-1,-1,-1,-1,-1,-1,-1,-1,-1,-1,-1,-1,-1,-1,-1,-1,-1,-1,-1,-1,-1,-1,-1,-1,-1,-1,-1],"split_conditions":[1E0,3.4917226E-1,3E0,1.1112695E0,9.46152E-1,6.410115E-1,5E0,-6.0645994E-2,1.0014772E0,5.9351146E-1,1.9376829E0,-9.473411E-1,1.312697E0,1.3337715E0,8E0,2.815909E-1,2.8954545E-1,2.5307732E0,2.2749176E0,7.7173585E-1,-1.9472727E-1,1.421022E0,1.0228099E0,-3.7823516E-1,2E0,2E0,2E0,-1.0415303E0,1.7015934E0,4.197662E-1,1.3E1,-1.3181131E-2,-1.521644E-2,-8.762484E-3,-1.1859575E-2,-4.789801E-3,1.971208E-3,-1.3918832E-2,-4.110531E-3,-8.086579E-3,-3.7415149E-3,5.287356E-3,-3.169472E-3,-7.4685714E-4,3.174569E-3,1.0253086E-2,-8.7001575E-3,-4.106496E-3,-1.2537182E-2,-1.4442458E-3,4.0513244E-3,3.5565002E-3,9.236508E-3,8.856048E-3,1.1894677E-2,3.3618012E-3,9.5369695E-3,1.2067558E-2,1.47583205E-2,1.1398503E-2,1.4500368E-2,1.5153223E-2,1.6006239E-2],"split_indices":[1,5,1,7,5,6,1,5,8,7,7,6,6,6,1,8,8,7,7,6,8,6,8,5,1,1,1,6,6,9,1,0,0,0,0,0,0,0,0,0,0,0,0,0,0,0,0,0,0,0,0,0,0,0,0,0,0,0,0,0,0,0,0],"split_type":[0,0,0,0,0,0,0,0,0,0,0,0,0,0,0,0,0,0,0,0,0,0,0,0,0,0,0,0,0,0,0,0,0,0,0,0,0,0,0,0,0,0,0,0,0,0,0,0,0,0,0,0,0,0,0,0,0,0,0,0,0,0,0],"sum_hessian":[3.8382957E4,2.2192898E4,1.619006E4,1.3858331E4,8.334568E3,6.2228335E3,9.967227E3,1.2312148E4,1.5461819E3,3.7098008E3,4.6247676E3,2.6524988E3,3.5703345E3,3.7283245E3,6.238902E3,8.498802E3,3.8133467E3,1.2146984E3,3.3148352E2,2.129923E3,1.5798777E3,4.24077E3,3.839974E2,4.4393344E2,2.2085652E3,1.1032452E3,2.4670894E3,1.7558105E3,1.9725139E3,2.773111E3,3.4657905E3,5.8405747E3,2.6582275E3,2.5277314E3,1.2856152E3,1.0057709E3,2.0892744E2,2.2686284E2,1.0462069E2,9.799848E2,1.1499382E3,4.115837E2,1.168294E3,1.4502653E3,2.7905046E3,3.4694708E2,3.7050316E1,2.7797388E2,1.6595955E2,1.510922E3,6.9764325E2,6.472516E2,4.559937E2,1.4028026E3,1.0642867E3,8.458445E1,1.6712261E3,1.5336517E3,4.3886224E2,5.44726E2,2.2283853E3,2.1576282E3,1.3081625E3],"tree_param":{"num_deleted":"0","num_feature":"19","num_nodes":"63","size_leaf_vector":"1"}},{"base_weights":[1.2556446E-3,-5.9727067E-1,1.2422264E0,-1.066249E0,1.4975308E-1,1.0052469E0,1.4701884E0,-1.1381564E0,-1.7863944E-1,-2.4701221E-1,3.745732E-1,6.234154E-1,1.1865885E0,1.4023488E0,1.5508733E0,-1.2159076E0,-4.7302285E-1,-3.2613045E-1,3.3544564E-1,4.386005E-2,-4.33149E-1,2.2265455E-1,8.4528065E-1,3.5476843E-1,8.315204E-1,1.081889E0,1.2884598E0,1.2661884E0,1.4542531E0,1.5176102E0,1.5904005E0,-1.3935838E-2,-1.0174928E-2,-3.2863328E-3,-8.904126E-3,-1.0215254E-3,-8.735337E-3,-1.788622E-2,4.0701814E-3,-4.759931E-3,3.7361744E-3,-5.568164E-3,-3.1743507E-4,1.679513E-3,7.6378016E-3,3.510815E-3,9.132003E-3,4.1772886E-3,-1.2091003E-2,-1.7186917E-3,8.649281E-3,1.1202341E-2,6.5237274E-3,-8.23548E-3,1.2989244E-2,1.2781719E-2,-2.9988508E-3,1.123558E-2,1.4634248E-2,6.259299E-3,1.5226136E-2,1.5967194E-2,1.39233265E-2],"categories":[],"categories_nodes":[],"categories_segments":[],"categories_sizes":[],"default_left":[0,0,0,0,0,0,0,0,0,0,0,0,0,0,0,0,0,0,0,0,0,0,0,0,0,0,0,0,0,0,0,0,0,0,0,0,0,0,0,0,0,0,0,0,0,0,0,0,0,0,0,0,0,0,0,0,0,0,0,0,0,0,0],"id":19,"left_children":[1,3,5,7,9,11,13,15,17,19,21,23,25,27,29,31,33,35,37,39,41,43,45,47,49,51,53,55,57,59,61,-1,-1,-1,-1,-1,-1,-1,-1,-1,-1,-1,-1,-1,-1,-1,-1,-1,-1,-1,-1,-1,-1,-1,-1,-1,-1,-1,-1,-1,-1,-1,-1],"loss_changes":[2.8537572E4,9.080889E3,6.7436523E2,1.0160879E3,8.917936E2,4.2398877E2,3.3489258E1,7.613008E2,9.058776E1,1.9582126E2,4.5613672E2,1.10177185E2,4.3395508E1,2.3307617E1,2.3007812E0,4.639668E2,9.269943E1,1.1366466E2,4.0708298E1,2.4199992E2,1.0939914E2,1.426777E2,5.196631E1,8.518493E1,3.7439026E1,3.327466E1,4.707202E1,1.832788E1,6.5200195E0,6.4001465E0,2.3583984E-1,0E0,0E0,0E0,0E0,0E0,0E0,0E0,0E0,0E0,0E0,0E0,0E0,0E0,0E0,0E0,0E0,0E0,0E0,0E0,0E0,0E0,0E0,0E0,0E0,0E0,0E0,0E0,0E0,0E0,0E0,0E0,0E0],"parents":[2147483647,0,0,1,1,2,2,3,3,4,4,5,5,6,6,7,7,8,8,9,9,10,10,11,11,12,12,13,13,14,14,15,15,16,16,17,17,18,18,19,19,20,20,21,21,22,22,23,23,24,24,25,25,26,26,27,27,28,28,29,29,30,30],"right_children":[2,4,6,8,10,12,14,16,18,20,22,24,26,28,30,32,34,36,38,40,42,44,46,48,50,52,54,56,58,60,62,-1,-1,-1,-1,-1,-1,-1,-1,-1,-1,-1,-1,-1,-1,-1,-1,-1,-1,-1,-1,-1,-1,-1,-1,-1,-1,-1,-1,-1,-1,-1,-1],"split_conditions":[2E0,4.3099368E-1,5E0,7.525059E-4,9.143947E-1,6.6608304E-1,9E0,1.1895106E0,2.6127985E-1,-1.9472727E-1,4E-2,3E0,1.6318455E0,1.0094791E-2,1.3E1,-2.1764821E-1,8.509091E-1,1.0344828E-1,-5.168751E-1,-2.3790881E-1,1.2991257E0,1.7015934E0,1.1481198E0,1.2315757E0,-3.9368775E-1,1.0406667E0,9.65249E-3,2.4372728E0,3.8258366E-2,-3.7301156E-1,4.3333335E0,-1.3935838E-2,-1.0174928E-2,-3.2863328E-3,-8.904126E-3,-1.0215254E-3,-8.735337E-3,-1.788622E-2,4.0701814E-3,-4.759931E-3,3.7361744E-3,-5.568164E-3,-3.1743507E-4,1.679513E-3,7.6378016E-3,3.510815E-3,9.132003E-3,4.1772886E-3,-1.2091003E-2,-1.7186917E-3,8.649281E-3,1.1202341E-2,6.5237274E-3,-8.23548E-3,1.2989244E-2,1.2781719E-2,-2.9988508E-3,1.123558E-2,1.4634248E-2,6.259299E-3,1.5226136E-2,1.5967194E-2,1.39233265E-2],"split_indices":[1,5,1,3,5,6,1,7,9,8,4,1,6,3,1,5,8,4,6,7,7,6,6,8,5,8,3,8,9,9,4,0,0,0,0,0,0,0,0,0,0,0,0,0,0,0,0,0,0,0,0,0,0,0,0,0,0,0,0,0,0,0,0],"split_type":[0,0,0,0,0,0,0,0,0,0,0,0,0,0,0,0,0,0,0,0,0,0,0,0,0,0,0,0,0,0,0,0,0,0,0,0,0,0,0,0,0,0,0,0,0,0,0,0,0,0,0,0,0,0,0,0,0,0,0,0,0,0,0],"sum_hessian":[3.842023E4,2.591937E4,1.2500861E4,1.5922937E4,9.996432E3,6.130747E3,6.3701147E3,1.4729418E4,1.1935188E3,3.615413E3,6.381019E3,1.9749918E3,4.1557554E3,3.466183E3,2.9039314E3,1.3187314E4,1.5421033E3,9.277303E2,2.6578848E2,1.4107332E3,2.20468E3,4.8247896E3,1.5562296E3,8.6289526E2,1.1120966E3,2.0527795E3,2.102976E3,9.606752E2,2.5055078E3,1.5889885E3,1.3149429E3,6.9553896E3,6.231925E3,1.146591E3,3.955123E2,6.589056E2,2.6882468E2,8.227497E0,2.5756097E2,5.473408E2,8.633923E2,1.6850859E3,5.19594E2,4.3825864E3,4.4220276E2,1.8858687E2,1.3676427E3,8.299138E2,3.2981457E1,3.5670826E1,1.0764257E3,1.8835853E3,1.6919415E2,1.0129804E1,2.0928462E3,9.5353455E2,7.140637E0,6.957471E1,2.435933E3,9.329772E0,1.5796588E3,1.2703778E3,4.4565086E1],"tree_param":{"num_deleted":"0","num_feature":"19","num_nodes":"63","size_leaf_vector":"1"}},{"base_weights":[-3.8489262E-3,-5.953704E-1,1.2290694E0,-1.0047544E0,2.3371002E-1,9.9240774E-1,1.4604397E0,-1.239954E0,-6.8201417E-1,1.0190914E-1,6.8560565E-1,6.429071E-1,1.159737E0,1.374131E0,1.530102E0,-1.296554E0,-3.780867E-1,-7.8580713E-1,-5.9024323E-2,-1.1212277E-1,3.1754014E-1,2.780281E-1,8.45279E-1,3.418183E-1,8.611954E-1,9.337141E-1,1.1969489E0,1.1497667E0,1.4295008E0,1.5001522E0,1.5798088E-2,-1.350176E-2,-6.665431E-3,7.8859346E-5,-1.0099745E-2,-8.79042E-3,-3.3179661E-3,-8.8544685E-4,1.4690881E-2,1.2073021E-3,-3.5890692E-3,6.197388E-3,2.024209E-3,-3.5407091E-4,4.742676E-3,8.092701E-3,1.2613681E-2,3.9944006E-3,-7.310832E-3,2.0731005E-3,8.892084E-3,1.0566328E-2,5.709387E-3,1.1404673E-2,1.268542E-2,1.1090553E-2,1.3836671E-2,1.3890942E-2,1.4836471E-2,6.208396E-3,1.5037452E-2],"categories":[],"categories_nodes":[],"categories_segments":[],"categories_sizes":[],"default_left":[0,0,0,0,0,0,0,0,0,0,0,0,0,0,0,0,0,0,0,0,0,0,0,0,0,0,0,0,0,0,0,0,0,0,0,0,0,0,0,0,0,0,0,0,0,0,0,0,0,0,0,0,0,0,0,0,0,0,0,0,0],"id":20,"left_children":[1,3,5,7,9,11,13,15,17,19,21,23,25,27,29,31,33,35,37,39,41,43,45,47,49,51,53,55,57,59,-1,-1,-1,-1,-1,-1,-1,-1,-1,-1,-1,-1,-1,-1,-1,-1,-1,-1,-1,-1,-1,-1,-1,-1,-1,-1,-1,-1,-1,-1,-1],"loss_changes":[2.7940123E4,8.787538E3,6.791719E2,1.3150273E3,5.0962827E2,3.586504E2,3.6416016E1,4.8861816E2,4.724148E2,3.058714E2,1.2552051E2,1.305174E2,3.4155273E1,3.3831055E1,3.6723633E0,3.171338E2,1.5097334E2,2.6487744E2,4.703514E1,1.9116055E2,1.1470575E2,3.356374E1,2.007782E1,5.188031E1,2.0918945E1,2.5831604E1,1.3446289E1,4.3079834E0,3.6088867E0,6.1967773E0,0E0,0E0,0E0,0E0,0E0,0E0,0E0,0E0,0E0,0E0,0E0,0E0,0E0,0E0,0E0,0E0,0E0,0E0,0E0,0E0,0E0,0E0,0E0,0E0,0E0,0E0,0E0,0E0,0E0,0E0,0E0],"parents":[2147483647,0,0,1,1,2,2,3,3,4,4,5,5,6,6,7,7,8,8,9,9,10,10,11,11,12,12,13,13,14,14,15,15,16,16,17,17,18,18,19,19,20,20,21,21,22,22,23,23,24,24,25,25,26,26,27,27,28,28,29,29],"right_children":[2,4,6,8,10,12,14,16,18,20,22,24,26,28,30,32,34,36,38,40,42,44,46,48,50,52,54,56,58,60,-1,-1,-1,-1,-1,-1,-1,-1,-1,-1,-1,-1,-1,-1,-1,-1,-1,-1,-1,-1,-1,-1,-1,-1,-1,-1,-1,-1,-1,-1,-1],"split_conditions":[2E0,6.1786276E-1,5E0,-6.0645994E-2,1E0,5.169576E-1,8E0,1.3790632E0,1E0,1.1952962E0,1.0276824E0,3E0,8.036699E-1,4.197662E-1,1.3E1,1E0,4.9636364E-1,1.1694773E0,4.798063E0,2.7045455E-2,1.1032927E0,8.913191E-1,1.49798565E1,1.2315757E0,-3.9368775E-1,2.509091E-1,1.4968791E0,1.2094302E0,1.4702463E0,-3.7974262E-1,1.5798088E-2,-1.350176E-2,-6.665431E-3,7.8859346E-5,-1.0099745E-2,-8.79042E-3,-3.3179661E-3,-8.8544685E-4,1.4690881E-2,1.2073021E-3,-3.5890692E-3,6.197388E-3,2.024209E-3,-3.5407091E-4,4.742676E-3,8.092701E-3,1.2613681E-2,3.9944006E-3,-7.310832E-3,2.0731005E-3,8.892084E-3,1.0566328E-2,5.709387E-3,1.1404673E-2,1.268542E-2,1.1090553E-2,1.3836671E-2,1.3890942E-2,1.4836471E-2,6.208396E-3,1.5037452E-2],"split_indices":[1,5,1,5,1,5,1,7,1,5,5,1,5,9,1,1,8,7,7,8,9,10,9,8,5,8,5,7,5,5,0,0,0,0,0,0,0,0,0,0,0,0,0,0,0,0,0,0,0,0,0,0,0,0,0,0,0,0,0,0,0],"split_type":[0,0,0,0,0,0,0,0,0,0,0,0,0,0,0,0,0,0,0,0,0,0,0,0,0,0,0,0,0,0,0,0,0,0,0,0,0,0,0,0,0,0,0,0,0,0,0,0,0,0,0,0,0,0,0,0,0,0,0,0,0],"sum_hessian":[3.8310086E4,2.5889387E4,1.2420701E4,1.733146E4,8.557926E3,6.141659E3,6.279042E3,1.0024379E4,7.3070815E3,6.6261597E3,1.9317664E3,1.9894058E3,4.1522534E3,2.8097197E3,3.469322E3,9.406287E3,6.180914E2,6.2632964E3,1.0437852E3,3.3252979E3,3.3008616E3,5.443277E2,1.3874386E3,8.3685645E2,1.1525493E3,5.892034E2,3.56305E3,5.586603E2,2.2510596E3,2.1758875E3,1.2934346E3,8.667815E3,7.38472E2,3.8391946E2,2.341719E2,5.1956396E3,1.0676566E3,1.0245295E3,1.9255589E1,1.710864E3,1.614434E3,9.0971497E2,2.3911467E3,2.095435E2,3.347842E2,1.2785082E3,1.08930504E2,7.945889E2,4.2267525E1,4.7667E1,1.1048823E3,4.3916858E2,1.5003487E2,1.9972385E3,1.5658115E3,4.7864816E2,8.001213E1,1.2977721E3,9.532874E2,9.321481E0,2.166566E3],"tree_param":{"num_deleted":"0","num_feature":"19","num_nodes":"61","size_leaf_vector":"1"}},{"base_weights":[1.1258998E-3,-7.181802E-1,9.80475E-1,-1.0741007E0,9.7699806E-2,4.46615E-1,1.3122456E0,-1.1463556E0,-2.4812005E-1,-2.1087378E-1,2.093389E-1,-3.532986E-2,9.054567E-1,1.0831113E0,1.4477175E0,-1.3414711E0,-9.212963E-1,2.3248515E-1,-4.8210472E-1,-1.0419524E-1,-8.596822E-1,6.09512E-1,1.2409417E-1,-2.509995E-1,3.9568263E-1,7.6267016E-1,1.0985873E0,8.4941334E-1,1.2105631E0,1.3807384E0,1.5270284E0,-1.280049E-2,-1.5147317E-2,-7.6771067E-3,-1.0603365E-2,-7.5468083E-4,6.586978E-3,-4.0567885E-3,-9.712898E-3,-2.2608982E-3,6.287994E-3,7.988915E-3,-1.0072578E-2,7.070159E-3,1.1627659E-3,5.0726876E-4,7.4572223E-3,-9.00437E-3,-1.341936E-3,-1.9746905E-3,5.063824E-3,6.777478E-3,1.2429631E-2,1.1877231E-2,1.0039732E-2,1.1821301E-3,8.777894E-3,1.1599797E-2,1.44189065E-2,1.1864127E-2,1.4274347E-2,1.4874284E-2,1.5742147E-2],"categories":[],"categories_nodes":[],"categories_segments":[],"categories_sizes":[],"default_left":[0,0,0,0,0,0,0,0,0,0,0,0,0,0,0,0,0,0,0,0,0,0,0,0,0,0,0,0,0,0,0,0,0,0,0,0,0,0,0,0,0,0,0,0,0,0,0,0,0,0,0,0,0,0,0,0,0,0,0,0,0,0,0],"id":21,"left_children":[1,3,5,7,9,11,13,15,17,19,21,23,25,27,29,31,33,35,37,39,41,43,45,47,49,51,53,55,57,59,61,-1,-1,-1,-1,-1,-1,-1,-1,-1,-1,-1,-1,-1,-1,-1,-1,-1,-1,-1,-1,-1,-1,-1,-1,-1,-1,-1,-1,-1,-1,-1,-1],"loss_changes":[2.7022225E4,6.422293E3,2.8765664E3,9.1871484E2,2.3144101E2,1.3770145E3,3.0991602E2,6.209375E2,1.3945836E2,1.2338742E2,1.6818423E2,2.8236066E2,8.7359375E1,1.1020947E2,3.208789E1,7.944824E1,1.3985986E2,5.337606E1,3.0841202E1,1.3703926E2,6.205806E1,4.1526794E1,1.854301E2,1.5342905E2,6.659268E1,7.426807E1,1.06073E1,2.7159546E1,2.7086426E1,2.9907715E1,3.8979492E0,0E0,0E0,0E0,0E0,0E0,0E0,0E0,0E0,0E0,0E0,0E0,0E0,0E0,0E0,0E0,0E0,0E0,0E0,0E0,0E0,0E0,0E0,0E0,0E0,0E0,0E0,0E0,0E0,0E0,0E0,0E0,0E0],"parents":[2147483647,0,0,1,1,2,2,3,3,4,4,5,5,6,6,7,7,8,8,9,9,10,10,11,11,12,12,13,13,14,14,15,15,16,16,17,17,18,18,19,19,20,20,21,21,22,22,23,23,24,24,25,25,26,26,27,27,28,28,29,29,30,30],"right_children":[2,4,6,8,10,12,14,16,18,20,22,24,26,28,30,32,34,36,38,40,42,44,46,48,50,52,54,56,58,60,62,-1,-1,-1,-1,-1,-1,-1,-1,-1,-1,-1,-1,-1,-1,-1,-1,-1,-1,-1,-1,-1,-1,-1,-1,-1,-1,-1,-1,-1,-1,-1,-1],"split_conditions":[1E0,6.8654835E-1,3E0,1.4614838E0,1.1014906E0,9.123132E-1,5E0,-6.023066E-1,3.593583E-2,7.054545E-1,6.476689E-1,2E0,2E0,8.879573E-1,9E0,4.4863635E-1,8.913191E-1,2.167703E0,1.8040909E0,1.5940018E0,-3.9877108E-1,1.3045454E-1,1.7015934E0,-9.473411E-1,-8.7711674E-1,1.7015934E0,3.1818182E-3,-1.0881966E0,1.7015934E0,3.7839088E-1,1.3E1,-1.280049E-2,-1.5147317E-2,-7.6771067E-3,-1.0603365E-2,-7.5468083E-4,6.586978E-3,-4.0567885E-3,-9.712898E-3,-2.2608982E-3,6.287994E-3,7.988915E-3,-1.0072578E-2,7.070159E-3,1.1627659E-3,5.0726876E-4,7.4572223E-3,-9.00437E-3,-1.341936E-3,-1.9746905E-3,5.063824E-3,6.777478E-3,1.2429631E-2,1.1877231E-2,1.0039732E-2,1.1821301E-3,8.777894E-3,1.1599797E-2,1.44189065E-2,1.1864127E-2,1.4274347E-2,1.4874284E-2,1.5742147E-2],"split_indices":[1,6,1,7,6,6,1,6,8,8,9,1,1,6,1,8,10,7,8,7,7,8,6,6,6,6,8,6,6,9,1,0,0,0,0,0,0,0,0,0,0,0,0,0,0,0,0,0,0,0,0,0,0,0,0,0,0,0,0,0,0,0,0],"split_type":[0,0,0,0,0,0,0,0,0,0,0,0,0,0,0,0,0,0,0,0,0,0,0,0,0,0,0,0,0,0,0,0,0,0,0,0,0,0,0,0,0,0,0,0,0,0,0,0,0,0,0,0,0,0,0,0,0,0,0,0,0,0,0],"sum_hessian":[3.835819E4,2.2115195E4,1.6242997E4,1.5397941E4,6.7172544E3,6.226026E3,1.0016971E4,1.4159027E4,1.238914E3,1.7842361E3,4.9330186E3,3.0366846E3,3.1893413E3,3.7238196E3,6.2931514E3,7.5824707E3,6.576557E3,4.0553E2,8.33384E2,1.5329237E3,2.5131235E2,8.655466E2,4.0674717E3,2.0242386E3,1.01244586E3,1.8353849E3,1.3539563E3,1.3157858E3,2.4080337E3,3.417495E3,2.8756562E3,5.6014814E3,1.9809891E3,3.12672E3,3.4498374E3,2.3552905E2,1.7000095E2,7.217442E2,1.1163977E2,1.3147649E3,2.1815884E2,2.029839E1,2.3101396E2,7.2233435E2,1.4321223E2,3.638716E3,4.2875568E2,3.0793243E2,1.7163062E3,1.5903088E2,8.53415E2,1.5608239E3,2.7456107E2,6.936423E2,6.603141E2,4.938297E1,1.2664028E3,1.978782E3,4.2925174E2,6.6508704E2,2.7524082E3,1.5735067E3,1.3021494E3],"tree_param":{"num_deleted":"0","num_feature":"19","num_nodes":"63","size_leaf_vector":"1"}},{"base_weights":[2.9127215E-4,-7.1532863E-1,9.7388315E-1,-1.0703452E0,9.96725E-2,2.3685057E-1,1.2040886E0,-1.2729065E0,-7.685346E-1,-1.22356206E-1,3.2685295E-1,-1.6996521E-1,8.298939E-1,9.665727E-1,1.4345809E0,-1.319503E0,-5.0650024E-1,-8.587543E-1,-1.1317608E-1,8.804143E-2,-3.4230357E-1,6.15171E-1,2.168281E-1,-5.491034E-1,9.4320476E-2,9.64078E-1,6.5543365E-1,6.250859E-1,1.1441253E0,1.3477551E0,1.5052441E0,-1.2767431E-2,-1.5023749E-2,-1.8032843E-3,-1.0114224E-2,-7.5131003E-3,-1.1662958E-2,6.2357653E-3,-3.0072075E-3,-3.725944E-3,3.0541653E-3,-4.106197E-3,5.0792657E-3,4.568057E-3,9.094861E-3,4.169975E-3,-2.9558374E-4,-3.3127668E-3,-8.0405325E-3,2.0162942E-4,5.111553E-3,9.080986E-3,1.3070068E-2,1.4034266E-3,7.7122115E-3,3.3490625E-3,8.397427E-3,1.068317E-2,1.2304419E-2,1.1320202E-2,1.4029124E-2,1.4741793E-2,1.5578477E-2],"categories":[],"categories_nodes":[],"categories_segments":[],"categories_sizes":[],"default_left":[0,0,0,0,0,0,0,0,0,0,0,0,0,0,0,0,0,0,0,0,0,0,0,0,0,0,0,0,0,0,0,0,0,0,0,0,0,0,0,0,0,0,0,0,0,0,0,0,0,0,0,0,0,0,0,0,0,0,0,0,0,0,0],"id":22,"left_children":[1,3,5,7,9,11,13,15,17,19,21,23,25,27,29,31,33,35,37,39,41,43,45,47,49,51,53,55,57,59,61,-1,-1,-1,-1,-1,-1,-1,-1,-1,-1,-1,-1,-1,-1,-1,-1,-1,-1,-1,-1,-1,-1,-1,-1,-1,-1,-1,-1,-1,-1,-1,-1],"loss_changes":[2.6688648E4,6.388157E3,2.7531084E3,9.395039E2,3.379643E2,9.321337E2,6.7602734E2,3.2808887E2,3.6512622E2,1.568379E2,1.0490323E2,2.296909E2,3.632129E1,3.688169E2,3.7195312E1,6.658984E1,8.679909E1,1.7879883E2,1.03452484E2,1.7346661E2,9.633351E1,4.2264923E1,1.1831123E2,5.2039307E1,4.1690567E1,1.621576E1,4.0726685E1,1.2962354E2,2.5333496E1,3.2516113E1,4.192871E0,0E0,0E0,0E0,0E0,0E0,0E0,0E0,0E0,0E0,0E0,0E0,0E0,0E0,0E0,0E0,0E0,0E0,0E0,0E0,0E0,0E0,0E0,0E0,0E0,0E0,0E0,0E0,0E0,0E0,0E0,0E0,0E0],"parents":[2147483647,0,0,1,1,2,2,3,3,4,4,5,5,6,6,7,7,8,8,9,9,10,10,11,11,12,12,13,13,14,14,15,15,16,16,17,17,18,18,19,19,20,20,21,21,22,22,23,23,24,24,25,25,26,26,27,27,28,28,29,29,30,30],"right_children":[2,4,6,8,10,12,14,16,18,20,22,24,26,28,30,32,34,36,38,40,42,44,46,48,50,52,54,56,58,60,62,-1,-1,-1,-1,-1,-1,-1,-1,-1,-1,-1,-1,-1,-1,-1,-1,-1,-1,-1,-1,-1,-1,-1,-1,-1,-1,-1,-1,-1,-1,-1,-1],"split_conditions":[1E0,6.0356075E-1,2E0,-6.0645994E-2,1.1952962E0,1.1102607E-2,5E0,1.3790632E0,1.4614838E0,2.7045455E-2,1.1032927E0,2.8661084E-3,1.6208322E-1,5.896225E-1,8E0,7.1909094E-1,5.317172E-1,4.55E-1,-1.7068687E-1,-1.9509873E-1,2.3966327E0,1.6767426E0,-4.722659E-2,-5.818182E-2,1.4094816E0,1.49798565E1,4.5713142E-1,3E0,1.47478115E-2,4.197662E-1,1.3E1,-1.2767431E-2,-1.5023749E-2,-1.8032843E-3,-1.0114224E-2,-7.5131003E-3,-1.1662958E-2,6.2357653E-3,-3.0072075E-3,-3.725944E-3,3.0541653E-3,-4.106197E-3,5.0792657E-3,4.568057E-3,9.094861E-3,4.169975E-3,-2.9558374E-4,-3.3127668E-3,-8.0405325E-3,2.0162942E-4,5.111553E-3,9.080986E-3,1.3070068E-2,1.4034266E-3,7.7122115E-3,3.3490625E-3,8.397427E-3,1.068317E-2,1.2304419E-2,1.1320202E-2,1.4029124E-2,1.4741793E-2,1.5578477E-2],"split_indices":[1,5,1,5,5,3,1,7,7,8,9,3,7,5,1,8,8,8,8,7,7,5,7,8,7,9,7,1,3,9,1,0,0,0,0,0,0,0,0,0,0,0,0,0,0,0,0,0,0,0,0,0,0,0,0,0,0,0,0,0,0,0,0],"split_type":[0,0,0,0,0,0,0,0,0,0,0,0,0,0,0,0,0,0,0,0,0,0,0,0,0,0,0,0,0,0,0,0,0,0,0,0,0,0,0,0,0,0,0,0,0,0,0,0,0,0,0,0,0,0,0,0,0,0,0,0,0,0,0],"sum_hessian":[3.8305E4,2.2077436E4,1.62275625E4,1.5378492E4,6.6989443E3,3.8625503E3,1.2365013E4,9.201159E3,6.177332E3,3.3877795E3,3.311165E3,2.291094E3,1.5714563E3,6.091217E3,6.2737954E3,8.673342E3,5.2781824E2,5.4295654E3,7.477666E2,1.7313995E3,1.65638E3,9.136796E2,2.3974854E3,9.409986E2,1.3500955E3,8.8665765E2,6.847987E2,2.0846448E3,4.006572E3,2.820108E3,3.4536875E3,7.0333223E3,1.6400188E3,3.2120288E2,2.0661539E2,4.0253103E3,1.4042554E3,1.5138164E2,5.9638495E2,5.54837E2,1.1765626E3,1.5335363E3,1.228438E2,5.9508936E2,3.1859027E2,1.3228414E3,1.0746439E3,5.0827524E2,4.3272336E2,1.146831E3,2.0326436E2,7.6405035E2,1.2260727E2,1.26045204E2,5.587535E2,8.8713495E2,1.19751E3,2.137309E3,1.8692631E3,5.767724E2,2.2433354E3,2.1817058E3,1.2719818E3],"tree_param":{"num_deleted":"0","num_feature":"19","num_nodes":"63","size_leaf_vector":"1"}},{"base_weights":[-1.6429495E-3,-7.071415E-1,9.649127E-1,-1.1276923E0,2.7249202E-3,4.4113788E-1,1.2902623E0,-1.2106717E0,-4.839488E-1,-3.2467476E-1,2.5090757E-1,-1.1031034E-2,8.810924E-1,1.0632336E0,1.4237711E0,-1.3229861E0,-9.67717E-1,-3.567762E-1,-1.0009235E0,-3.484711E-2,-5.048105E-1,1.957654E-1,7.966742E-1,-2.2246955E-1,4.1366014E-1,7.330131E-1,1.0793365E0,8.208345E-1,1.1951739E0,1.2758943E0,1.4627023E0,-1.2622788E-2,-1.4610231E-2,-8.760407E-3,-1.1445139E-2,-4.665416E-3,1.7049473E-3,-1.4362393E-2,-5.083529E-3,-6.003874E-3,3.1203427E-3,-6.258255E-3,-6.802746E-4,1.177298E-3,6.5757036E-3,9.620188E-3,-9.257218E-3,-4.868975E-3,1.0335985E-4,-1.7563568E-3,5.1013506E-3,6.4513534E-3,1.2273418E-2,1.0343915E-2,1.2880206E-2,6.486792E-4,8.472693E-3,1.1382326E-2,1.4372975E-2,1.1934508E-2,1.467163E-2,1.4083652E-2,1.5212547E-2],"categories":[],"categories_nodes":[],"categories_segments":[],"categories_sizes":[],"default_left":[0,0,0,0,0,0,0,0,0,0,0,0,0,0,0,0,0,0,0,0,0,0,0,0,0,0,0,0,0,0,0,0,0,0,0,0,0,0,0,0,0,0,0,0,0,0,0,0,0,0,0,0,0,0,0,0,0,0,0,0,0,0,0],"id":23,"left_children":[1,3,5,7,9,11,13,15,17,19,21,23,25,27,29,31,33,35,37,39,41,43,45,47,49,51,53,55,57,59,61,-1,-1,-1,-1,-1,-1,-1,-1,-1,-1,-1,-1,-1,-1,-1,-1,-1,-1,-1,-1,-1,-1,-1,-1,-1,-1,-1,-1,-1,-1,-1,-1],"loss_changes":[2.6063373E4,6.596116E3,2.7477344E3,7.406914E2,6.6797217E2,1.2295148E3,3.005039E2,3.3449414E2,1.0390689E2,1.8499023E2,1.4055417E2,2.7373486E2,9.1379395E1,1.1718799E2,3.484375E1,6.922266E1,6.230542E1,7.3757095E1,6.645587E1,2.6679395E2,1.1543744E2,1.5296948E2,1.22562805E2,1.25353096E2,5.767842E1,7.739014E1,1.1651001E1,2.5879639E1,3.1811035E1,1.9507568E1,1.4394531E1,0E0,0E0,0E0,0E0,0E0,0E0,0E0,0E0,0E0,0E0,0E0,0E0,0E0,0E0,0E0,0E0,0E0,0E0,0E0,0E0,0E0,0E0,0E0,0E0,0E0,0E0,0E0,0E0,0E0,0E0,0E0,0E0],"parents":[2147483647,0,0,1,1,2,2,3,3,4,4,5,5,6,6,7,7,8,8,9,9,10,10,11,11,12,12,13,13,14,14,15,