{"learner":{"attributes":{"best_iteration":"472","best_score":"0.855560072844841","scikit_learn":"{\"_estimator_type\": \"classifier\"}"},"feature_names":["LatePaymentsPerCreditLine","IncomePerCreditLine","DebtToIncomeAgeRisk","DelinquencyDensity","UtilizationPerCreditLine","PaymentStress","UtilizationBucketLateBucket","HighAgeRiskFlag","RevolvingUtilizationCappedLog","DelinquencyScore","HasMajorDelinquency","UtilizationPerAge","UtilizationTimesDelinquency","WasLatePaymentsPerCreditLineImputed","WasUtilizationPerCreditLineImputed","WasUtilizationPerAgeImputed"],"feature_types":["float","float","float","float","float","float","float","float","float","float","float","float","float","float","float","float"],"gradient_booster":{"model":{"cats":{"enc":[],"feature_segments":[],"sorted_idx":[]},"gbtree_model_param":{"num_parallel_tree":"1","num_trees":"573"},"iteration_indptr":[0,1,2,3,4,5,6,7,8,9,10,11,12,13,14,15,16,17,18,19,20,21,22,23,24,25,26,27,28,29,30,31,32,33,34,35,36,37,38,39,40,41,42,43,44,45,46,47,48,49,50,51,52,53,54,55,56,57,58,59,60,61,62,63,64,65,66,67,68,69,70,71,72,73,74,75,76,77,78,79,80,81,82,83,84,85,86,87,88,89,90,91,92,93,94,95,96,97,98,99,100,101,102,103,104,105,106,107,108,109,110,111,112,113,114,115,116,117,118,119,120,121,122,123,124,125,126,127,128,129,130,131,132,133,134,135,136,137,138,139,140,141,142,143,144,145,146,147,148,149,150,151,152,153,154,155,156,157,158,159,160,161,162,163,164,165,166,167,168,169,170,171,172,173,174,175,176,177,178,179,180,181,182,183,184,185,186,187,188,189,190,191,192,193,194,195,196,197,198,199,200,201,202,203,204,205,206,207,208,209,210,211,212,213,214,215,216,217,218,219,220,221,222,223,224,225,226,227,228,229,230,231,232,233,234,235,236,237,238,239,240,241,242,243,244,245,246,247,248,249,250,251,252,253,254,255,256,257,258,259,260,261,262,263,264,265,266,267,268,269,270,271,272,273,274,275,276,277,278,279,280,281,282,283,284,285,286,287,288,289,290,291,292,293,294,295,296,297,298,299,300,301,302,303,304,305,306,307,308,309,310,311,312,313,314,315,316,317,318,319,320,321,322,323,324,325,326,327,328,329,330,331,332,333,334,335,336,337,338,339,340,341,342,343,344,345,346,347,348,349,350,351,352,353,354,355,356,357,358,359,360,361,362,363,364,365,366,367,368,369,370,371,372,373,374,375,376,377,378,379,380,381,382,383,384,385,386,387,388,389,390,391,392,393,394,395,396,397,398,399,400,401,402,403,404,405,406,407,408,409,410,411,412,413,414,415,416,417,418,419,420,421,422,423,424,425,426,427,428,429,430,431,432,433,434,435,436,437,438,439,440,441,442,443,444,445,446,447,448,449,450,451,452,453,454,455,456,457,458,459,460,461,462,463,464,465,466,467,468,469,470,471,472,473,474,475,476,477,478,479,480,481,482,483,484,485,486,487,488,489,490,491,492,493,494,495,496,497,498,499,500,501,502,503,504,505,506,507,508,509,510,511,512,513,514,515,516,517,518,519,520,521,522,523,524,525,526,527,528,529,530,531,532,533,534,535,536,537,538,539,540,541,542,543,544,545,546,547,548,549,550,551,552,553,554,555,556,557,558,559,560,561,562,563,564,565,566,567,568,569,570,571,572,573],"tree_info":[0,0,0,0,0,0,0,0,0,0,0,0,0,0,0,0,0,0,0,0,0,0,0,0,0,0,0,0,0,0,0,0,0,0,0,0,0,0,0,0,0,0,0,0,0,0,0,0,0,0,0,0,0,0,0,0,0,0,0,0,0,0,0,0,0,0,0,0,0,0,0,0,0,0,0,0,0,0,0,0,0,0,0,0,0,0,0,0,0,0,0,0,0,0,0,0,0,0,0,0,0,0,0,0,0,0,0,0,0,0,0,0,0,0,0,0,0,0,0,0,0,0,0,0,0,0,0,0,0,0,0,0,0,0,0,0,0,0,0,0,0,0,0,0,0,0,0,0,0,0,0,0,0,0,0,0,0,0,0,0,0,0,0,0,0,0,0,0,0,0,0,0,0,0,0,0,0,0,0,0,0,0,0,0,0,0,0,0,0,0,0,0,0,0,0,0,0,0,0,0,0,0,0,0,0,0,0,0,0,0,0,0,0,0,0,0,0,0,0,0,0,0,0,0,0,0,0,0,0,0,0,0,0,0,0,0,0,0,0,0,0,0,0,0,0,0,0,0,0,0,0,0,0,0,0,0,0,0,0,0,0,0,0,0,0,0,0,0,0,0,0,0,0,0,0,0,0,0,0,0,0,0,0,0,0,0,0,0,0,0,0,0,0,0,0,0,0,0,0,0,0,0,0,0,0,0,0,0,0,0,0,0,0,0,0,0,0,0,0,0,0,0,0,0,0,0,0,0,0,0,0,0,0,0,0,0,0,0,0,0,0,0,0,0,0,0,0,0,0,0,0,0,0,0,0,0,0,0,0,0,0,0,0,0,0,0,0,0,0,0,0,0,0,0,0,0,0,0,0,0,0,0,0,0,0,0,0,0,0,0,0,0,0,0,0,0,0,0,0,0,0,0,0,0,0,0,0,0,0,0,0,0,0,0,0,0,0,0,0,0,0,0,0,0,0,0,0,0,0,0,0,0,0,0,0,0,0,0,0,0,0,0,0,0,0,0,0,0,0,0,0,0,0,0,0,0,0,0,0,0,0,0,0,0,0,0,0,0,0,0,0,0,0,0,0,0,0,0,0,0,0,0,0,0,0,0,0,0,0,0,0,0,0,0,0,0,0,0,0,0,0,0,0,0,0,0,0,0,0,0,0,0,0,0,0,0,0,0,0,0,0,0,0,0,0,0,0,0,0,0,0,0,0,0,0,0,0,0,0,0,0,0,0,0,0,0,0,0,0,0,0,0,0,0,0,0,0,0,0,0,0,0,0,0,0,0,0,0,0,0,0,0,0],"trees":[{"base_weights":[4.6318523E-3,-1.2280484E0,9.207686E-1,-1.3924752E0,-4.219059E-1,2.4265595E-1,1.4522191E0,-1.4516345E0,-6.1844337E-1,-5.1980805E-1,5.343551E-1,7.776649E-2,1.0386251E0,1.1732942E0,1.7187971E0,-1.6169945E0,-1.250621E0,-3.344898E-1,-1.0077618E0,-2.0304343E-1,-7.871222E-1,-3.4106886E-1,8.5291445E-1,-1.2612526E-1,3.3597007E-1,-4.6888553E-4,1.0539093E0,6.470588E-1,1.3719429E0,1.5603509E0,1.4057482E-2,-1.6549236E0,-1.2758601E0,-1.0656527E0,-1.5154332E0,-4.647042E-1,4.101612E-1,-1.144397E0,3.7586308E-1,4.648977E-3,-6.18713E-1,-8.711691E-1,-0E0,5.492803E-3,-7.706761E-1,-0E0,9.546805E-1,-7.415493E-1,1.0069727E-2,5.293788E-1,3.820223E-2,1.0428127E-2,9.5486903E-1,3.1634268E-1,9.075312E-1,1.0786937E0,1.1555865E-2,1.0965573E0,1.2881369E-2,-2.7818268E-3,-1.3271703E-2,-6.523417E-3,-1.1585223E-2,-7.352045E-3,-1.1419263E-2,-1.2531489E-2,-7.776268E-3,-1.0989613E-2,-2.0786794E-3,4.203473E-3,-4.5209166E-4,-0E0,-9.574253E-3,8.289646E-3,-2.945082E-3,-1.8019679E-3,2.5999558E-3,-6.2544956E-3,4.567158E-3,-9.4608485E-4,-7.3628514E-3,2.9483982E-3,-5.364674E-3,-9.588145E-3,3.906804E-3,4.212344E-3,-2.6148974E-3,8.4022265E-3,1.8413689E-3,-6.774907E-3,-3.1092294E-4,1.5412178E-3,-2.4151234E-3,2.8964307E-3,5.539281E-3,-4.232896E-4,4.084537E-3,9.590843E-3,5.838282E-3,-1.6479729E-3,3.5502666E-3,7.41786E-3,1.0198535E-3,9.569133E-3,4.3525593E-3,-0E0,9.74087E-3],"categories":[],"categories_nodes":[],"categories_segments":[],"categories_sizes":[],"default_left":[0,0,0,0,0,0,0,0,0,0,0,0,0,0,0,0,0,0,0,0,0,0,0,0,0,0,0,0,0,0,0,0,0,0,0,0,0,0,0,0,0,0,0,0,0,0,0,0,0,0,0,0,0,0,0,0,0,0,0,0,0,0,0,0,0,0,0,0,0,0,0,0,0,0,0,0,0,0,0,0,0,0,0,0,0,0,0,0,0,0,0,0,0,0,0,0,0,0,0,0,0,0,0,0,0,0,0],"id":0,"left_children":[1,3,5,7,9,11,13,15,17,19,21,23,25,27,29,31,33,35,37,39,41,43,45,47,49,-1,51,53,55,57,-1,59,61,63,65,67,69,71,73,75,77,79,81,-1,83,85,87,89,91,93,95,-1,97,99,101,103,-1,105,-1,-1,-1,-1,-1,-1,-1,-1,-1,-1,-1,-1,-1,-1,-1,-1,-1,-1,-1,-1,-1,-1,-1,-1,-1,-1,-1,-1,-1,-1,-1,-1,-1,-1,-1,-1,-1,-1,-1,-1,-1,-1,-1,-1,-1,-1,-1,-1,-1],"loss_changes":[3.6921336E4,1.8373359E3,6.75176E3,5.164121E2,2.2460226E2,1.0792334E3,7.567754E2,3.3217773E2,8.603198E1,1.7882562E2,6.570188E1,3.6152777E2,2.7169434E1,5.270303E2,6.660156E-1,5.009375E1,2.1887988E2,5.032657E1,7.105267E1,8.866518E1,7.670874E1,3.2019035E1,1.250943E1,3.229581E2,1.7267007E2,0E0,1.7784546E1,1.1767981E2,5.9526367E1,3.875E0,0E0,1.7009766E1,3.364801E1,1.369978E2,3.523242E1,7.3089874E1,5.7047024E0,1.8577454E1,2.2298159E1,5.0490166E1,7.014461E1,3.4966736E1,3.1950844E1,0E0,3.364232E1,6.6279793E0,4.428543E0,4.8689972E1,1.7880446E2,4.4766174E1,5.358319E1,0E0,4.4227173E1,4.4698486E1,8.086426E0,3.8643738E1,0E0,1.8566574E1,0E0,0E0,0E0,0E0,0E0,0E0,0E0,0E0,0E0,0E0,0E0,0E0,0E0,0E0,0E0,0E0,0E0,0E0,0E0,0E0,0E0,0E0,0E0,0E0,0E0,0E0,0E0,0E0,0E0,0E0,0E0,0E0,0E0,0E0,0E0,0E0,0E0,0E0,0E0,0E0,0E0,0E0,0E0,0E0,0E0,0E0,0E0,0E0,0E0],"parents":[2147483647,0,0,1,1,2,2,3,3,4,4,5,5,6,6,7,7,8,8,9,9,10,10,11,11,12,12,13,13,14,14,15,15,16,16,17,17,18,18,19,19,20,20,21,21,22,22,23,23,24,24,26,26,27,27,28,28,29,29,31,31,32,32,33,33,34,34,35,35,36,36,37,37,38,38,39,39,40,40,41,41,42,42,44,44,45,45,46,46,47,47,48,48,49,49,50,50,52,52,53,53,54,54,55,55,57,57],"right_children":[2,4,6,8,10,12,14,16,18,20,22,24,26,28,30,32,34,36,38,40,42,44,46,48,50,-1,52,54,56,58,-1,60,62,64,66,68,70,72,74,76,78,80,82,-1,84,86,88,90,92,94,96,-1,98,100,102,104,-1,106,-1,-1,-1,-1,-1,-1,-1,-1,-1,-1,-1,-1,-1,-1,-1,-1,-1,-1,-1,-1,-1,-1,-1,-1,-1,-1,-1,-1,-1,-1,-1,-1,-1,-1,-1,-1,-1,-1,-1,-1,-1,-1,-1,-1,-1,-1,-1,-1,-1],"split_conditions":[3E0,3.4052208E-1,2E0,1.3588643E0,2.0555077E0,1.1108264E-2,5E0,-2.1206237E-1,4.9264705E-1,-1.1273572E-1,4.2760804E-1,1.0679213E0,-1.8761383E-1,3.9727405E-1,9.572274E-3,5.9519345E-1,1.1764706E-1,3.1763191E0,4.7531195E0,1.2400786E0,1.1197042E0,3.563422E-1,4.5612276E-1,-1.22104794E-1,2.0975232E-1,-4.6888553E-4,9.52381E-2,3E0,1.0539168E-2,-4.6359107E-1,1.4057482E-2,-4.0967637E-1,-5.888803E-2,7.350694E-1,5.7976983E-2,-1.7308629E-1,6.782614E0,1.3808806E0,-2.1124223E-1,5.450411E-1,6.508586E3,-3.369127E-1,1.310913E0,5.492803E-3,4.0973682E0,3.500361E-1,3.4015741E0,9.3285686E-1,3.0410217E-2,1.6686234E0,1.4781322E0,1.0428127E-2,-1.3751395E-1,-3.1382433E-1,6.390192E-3,3.2460195E-1,1.1555865E-2,4.6511628E-2,1.2881369E-2,-2.7818268E-3,-1.3271703E-2,-6.523417E-3,-1.1585223E-2,-7.352045E-3,-1.1419263E-2,-1.2531489E-2,-7.776268E-3,-1.0989613E-2,-2.0786794E-3,4.203473E-3,-4.5209166E-4,-0E0,-9.574253E-3,8.289646E-3,-2.945082E-3,-1.8019679E-3,2.5999558E-3,-6.2544956E-3,4.567158E-3,-9.4608485E-4,-7.3628514E-3,2.9483982E-3,-5.364674E-3,-9.588145E-3,3.906804E-3,4.212344E-3,-2.6148974E-3,8.4022265E-3,1.8413689E-3,-6.774907E-3,-3.1092294E-4,1.5412178E-3,-2.4151234E-3,2.8964307E-3,5.539281E-3,-4.232896E-4,4.084537E-3,9.590843E-3,5.838282E-3,-1.6479729E-3,3.5502666E-3,7.41786E-3,1.0198535E-3,9.569133E-3,4.3525593E-3,-0E0,9.74087E-3],"split_indices":[6,11,9,2,2,12,9,11,1,1,5,11,5,11,12,2,1,2,2,5,11,11,11,5,1,0,0,9,12,2,0,11,1,5,5,5,2,2,5,2,5,2,11,0,2,11,2,2,1,11,2,0,2,11,12,1,0,3,0,0,0,0,0,0,0,0,0,0,0,0,0,0,0,0,0,0,0,0,0,0,0,0,0,0,0,0,0,0,0,0,0,0,0,0,0,0,0,0,0,0,0,0,0,0,0,0,0],"split_type":[0,0,0,0,0,0,0,0,0,0,0,0,0,0,0,0,0,0,0,0,0,0,0,0,0,0,0,0,0,0,0,0,0,0,0,0,0,0,0,0,0,0,0,0,0,0,0,0,0,0,0,0,0,0,0,0,0,0,0,0,0,0,0,0,0,0,0,0,0,0,0,0,0,0,0,0,0,0,0,0,0,0,0,0,0,0,0,0,0,0,0,0,0,0,0,0,0,0,0,0,0,0,0,0,0,0,0],"sum_hessian":[3.26787E4,1.3929833E4,1.8748867E4,1.1562019E4,2.367815E3,8.245364E3,1.0503503E4,1.073097E4,8.310481E2,2.1540693E3,2.1374539E2,6.8408037E3,1.4045602E3,5.159497E3,5.344006E3,5.84852E3,4.88245E3,4.9360852E2,3.3743958E2,9.974273E2,1.1566421E3,5.4364677E1,1.5938072E2,3.8182092E3,3.0225945E3,1.6288225E1,1.388272E3,1.4273912E3,3.7321057E3,1.1224471E3,4.221559E3,5.2276772E3,6.2084247E2,2.9049197E3,1.9775305E3,4.2612918E2,6.7479355E1,3.1034402E2,2.7095562E1,6.655657E2,3.318616E2,1.0438363E3,1.128058E2,1.2557338E1,4.180734E1,2.0057339E1,1.3932338E2,6.894159E2,3.1287932E3,1.8225189E3,1.2000756E3,3.5812457E2,1.0301475E3,6.4177594E2,7.8561536E2,7.7349915E2,2.9586067E3,1.3257338E2,9.898737E2,2.0538225E1,5.207139E3,1.8628668E2,4.345558E2,2.093058E3,8.118616E2,1.7890321E3,1.8849846E2,6.728822E1,3.5884094E2,5.846024E1,9.019113E0,1.4288225E1,2.960558E2,1.482645E1,1.2269113E1,3.8341742E2,2.821483E2,2.964778E2,3.538379E1,6.942201E1,9.744143E2,7.474847E1,3.805734E1,3.326911E1,8.538225E0,8.288225E0,1.1769113E1,1.16246925E2,2.307645E1,5.944174E2,9.499847E1,1.9816558E3,1.1471376E3,9.2121246E2,9.0130646E2,1.0066567E3,1.9341895E2,4.7131415E2,5.5883325E2,1.2028669E2,5.2148926E2,7.610389E2,2.457645E1,6.21464E2,1.5203516E2,1.4038225E1,1.1853516E2],"tree_param":{"num_deleted":"0","num_feature":"16","num_nodes":"107","size_leaf_vector":"1"}},{"base_weights":[-1.3649367E-3,-1.2150944E0,9.074369E-1,-1.4614428E0,-5.9954655E-1,2.1610817E-1,1.4422027E0,-1.5403666E0,-7.9035836E-1,-6.720023E-1,3.113116E-1,1.1853366E-2,1.0008128E0,1.0938004E0,1.6623968E0,-1.6337838E0,-1.3816282E0,2.1106899E-1,-9.7658646E-1,-9.241632E-1,-4.6989852E-1,8.366733E-1,-0E0,-1.8787839E-1,3.2283193E-1,7.252565E-1,1.134081E0,5.061914E-1,1.3225576E0,1.4240398E0,1.7086536E0,-1.3256367E-2,-1.2755064E0,-1.2210568E0,-1.6384125E0,-8.922645E-3,6.508448E-3,-1.0448307E0,-8.109964E-2,-7.018387E-1,-1.2391924E0,3.2917905E-1,-5.561829E-1,7.7448315E-3,-0E0,-1.1374473E-1,7.728152E-3,-2.93877E-1,3.1341448E-1,5.398211E-1,-1.8677766E-2,9.5055705E-1,5.222748E-1,1.3025233E0,9.946998E-1,2.8310604E-2,5.85508E-1,1.064074E0,1.1181375E-2,1.1165129E0,1.1933236E-2,1.5576377E0,1.3997029E-2,2.9662007E-3,-1.1117432E-2,-1.238419E-2,-8.275258E-3,-1.324981E-2,-8.659114E-4,-6.2380107E-3,2.101757E-3,-7.234232E-3,-1.1977464E-2,-3.249304E-3,3.917629E-3,-4.355361E-3,-9.246812E-3,-1.2665971E-2,-8.346866E-3,6.1186724E-3,-5.11794E-3,-5.917268E-3,-2.0132114E-3,1.1193729E-3,-4.4768476E-3,-7.5741867E-3,-1.757094E-3,8.107172E-3,4.3939488E-4,6.6829775E-3,2.8914548E-3,4.0388065E-3,-1.4336954E-3,8.292752E-3,2.6859727E-3,4.9265698E-3,-2.3665552E-3,5.1656845E-3,1.0892375E-2,-3.111257E-3,8.25103E-3,-1.7066358E-3,5.8187465E-3,3.9597265E-3,8.869377E-3,5.485168E-3,9.713231E-3,9.883781E-3,2.8815812E-3,1.2623963E-2,4.965154E-3],"categories":[],"categories_nodes":[],"categories_segments":[],"categories_sizes":[],"default_left":[0,0,0,0,0,0,0,0,0,0,0,0,0,0,0,0,0,0,0,0,0,0,0,0,0,0,0,0,0,0,0,0,0,0,0,0,0,0,0,0,0,0,0,0,0,0,0,0,0,0,0,0,0,0,0,0,0,0,0,0,0,0,0,0,0,0,0,0,0,0,0,0,0,0,0,0,0,0,0,0,0,0,0,0,0,0,0,0,0,0,0,0,0,0,0,0,0,0,0,0,0,0,0,0,0,0,0,0,0,0,0],"id":1,"left_children":[1,3,5,7,9,11,13,15,17,19,21,23,25,27,29,31,33,35,37,39,41,43,45,47,49,51,53,55,57,59,61,-1,63,65,67,69,-1,71,73,75,77,79,81,-1,-1,83,-1,85,87,89,91,93,95,97,99,101,103,105,-1,107,-1,109,-1,-1,-1,-1,-1,-1,-1,-1,-1,-1,-1,-1,-1,-1,-1,-1,-1,-1,-1,-1,-1,-1,-1,-1,-1,-1,-1,-1,-1,-1,-1,-1,-1,-1,-1,-1,-1,-1,-1,-1,-1,-1,-1,-1,-1,-1,-1,-1,-1],"loss_changes":[3.598915E4,2.1053652E3,6.88941E3,5.112578E2,2.6742053E2,1.3029025E3,7.838496E2,1.04984375E2,2.0339154E2,1.8194263E2,4.7185337E1,4.031703E2,4.952954E1,5.4036865E2,4.1947266E1,2.0560547E1,1.1410742E2,2.5235466E1,5.1293457E1,1.0210486E2,1.4611127E2,1.2380966E1,2.4121706E1,2.1019014E2,1.8999765E2,1.8002472E1,8.820068E0,4.221045E1,3.785742E1,1.7734375E0,1.2431641E0,0E0,7.8807495E1,1.08098145E2,2.7713379E1,3.0426018E1,0E0,3.522986E1,1.5427551E1,6.031195E1,2.3551575E1,9.087813E1,1.01189514E2,0E0,0E0,2.246254E1,0E0,1.530361E2,1.2067977E2,7.6234985E1,8.2941154E1,6.6804047E0,2.7546333E1,5.0618286E0,3.81933E1,3.3141766E1,3.7881866E1,2.7689941E1,0E0,1.3110138E1,0E0,8.947754E0,0E0,0E0,0E0,0E0,0E0,0E0,0E0,0E0,0E0,0E0,0E0,0E0,0E0,0E0,0E0,0E0,0E0,0E0,0E0,0E0,0E0,0E0,0E0,0E0,0E0,0E0,0E0,0E0,0E0,0E0,0E0,0E0,0E0,0E0,0E0,0E0,0E0,0E0,0E0,0E0,0E0,0E0,0E0,0E0,0E0,0E0,0E0,0E0,0E0],"parents":[2147483647,0,0,1,1,2,2,3,3,4,4,5,5,6,6,7,7,8,8,9,9,10,10,11,11,12,12,13,13,14,14,15,15,16,16,17,17,18,18,19,19,20,20,21,21,22,22,23,23,24,24,25,25,26,26,27,27,28,28,29,29,30,30,32,32,33,33,34,34,35,35,37,37,38,38,39,39,40,40,41,41,42,42,45,45,47,47,48,48,49,49,50,50,51,51,52,52,53,53,54,54,55,55,56,56,57,57,59,59,61,61],"right_children":[2,4,6,8,10,12,14,16,18,20,22,24,26,28,30,32,34,36,38,40,42,44,46,48,50,52,54,56,58,60,62,-1,64,66,68,70,-1,72,74,76,78,80,82,-1,-1,84,-1,86,88,90,92,94,96,98,100,102,104,106,-1,108,-1,110,-1,-1,-1,-1,-1,-1,-1,-1,-1,-1,-1,-1,-1,-1,-1,-1,-1,-1,-1,-1,-1,-1,-1,-1,-1,-1,-1,-1,-1,-1,-1,-1,-1,-1,-1,-1,-1,-1,-1,-1,-1,-1,-1,-1,-1,-1,-1,-1,-1],"split_conditions":[3E0,9.540093E-2,2E0,1.0133418E0,2.0368156E0,9.621065E-3,4E0,-2.191598E-1,-2.6205218E-1,3.598013E-1,-2.1826625E-2,1.2027979E0,1.1403323E0,4.046008E-1,5E0,6.278733E-1,1.86726E-1,2.3668375E0,3.2877755E0,6.0629513E-2,4.5057394E-2,8.9491487E-1,1.1155962E0,1.1852213E0,2.2666961E-1,-1.7385092E-1,-1.1787926E-1,-3.4135288E-1,1.07723335E-2,3.0200022E-1,6.7567565E-2,-1.3256367E-2,6.357924E-1,-4.5844942E-1,8.146594E0,-2.638383E-1,6.508448E-3,1.1289252E0,-1.4881238E-2,3.0821684E-1,1.9828102E-1,-3.108069E-1,5.351077E-1,7.7448315E-3,-0E0,2.178885E-1,7.728152E-3,-2.7366394E-1,-1.8724015E-1,9.9634427E-1,-3.035874E-1,1.5E-1,1.2437322E-2,1.3939258E-2,-4.4859147E-1,6.0361195E-1,1.2954941E0,8.9491487E-1,1.1181375E-2,6.557377E-2,1.1933236E-2,6.5789476E-2,1.3997029E-2,2.9662007E-3,-1.1117432E-2,-1.238419E-2,-8.275258E-3,-1.324981E-2,-8.659114E-4,-6.2380107E-3,2.101757E-3,-7.234232E-3,-1.1977464E-2,-3.249304E-3,3.917629E-3,-4.355361E-3,-9.246812E-3,-1.2665971E-2,-8.346866E-3,6.1186724E-3,-5.11794E-3,-5.917268E-3,-2.0132114E-3,1.1193729E-3,-4.4768476E-3,-7.5741867E-3,-1.757094E-3,8.107172E-3,4.3939488E-4,6.6829775E-3,2.8914548E-3,4.0388065E-3,-1.4336954E-3,8.292752E-3,2.6859727E-3,4.9265698E-3,-2.3665552E-3,5.1656845E-3,1.0892375E-2,-3.111257E-3,8.25103E-3,-1.7066358E-3,5.8187465E-3,3.9597265E-3,8.869377E-3,5.485168E-3,9.713231E-3,9.883781E-3,2.8815812E-3,1.2623963E-2,4.965154E-3],"split_indices":[6,11,9,2,2,12,9,11,1,11,1,11,11,11,9,2,1,2,2,1,4,7,4,2,1,1,1,11,12,11,3,0,2,1,1,11,0,1,4,4,4,1,2,0,0,4,0,11,1,4,2,0,12,12,2,1,2,7,0,3,0,3,0,0,0,0,0,0,0,0,0,0,0,0,0,0,0,0,0,0,0,0,0,0,0,0,0,0,0,0,0,0,0,0,0,0,0,0,0,0,0,0,0,0,0,0,0,0,0,0,0],"split_type":[0,0,0,0,0,0,0,0,0,0,0,0,0,0,0,0,0,0,0,0,0,0,0,0,0,0,0,0,0,0,0,0,0,0,0,0,0,0,0,0,0,0,0,0,0,0,0,0,0,0,0,0,0,0,0,0,0,0,0,0,0,0,0,0,0,0,0,0,0,0,0,0,0,0,0,0,0,0,0,0,0,0,0,0,0,0,0,0,0,0,0,0,0,0,0,0,0,0,0,0,0,0,0,0,0,0,0,0,0,0,0],"sum_hessian":[3.2610416E4,1.3963023E4,1.8647393E4,9.960761E3,4.002262E3,8.140477E3,1.0506915E4,8.899312E3,1.0614497E3,3.7123486E3,2.8991354E2,6.46866E3,1.671817E3,4.0926616E3,6.4142534E3,5.5436514E3,3.35566E3,1.6374536E2,8.977044E2,1.6323154E3,2.0800332E3,1.0065027E2,1.8926326E2,3.9349106E3,2.5337495E3,5.691153E2,1.1027018E3,1.1576978E3,2.9349639E3,1.0943433E3,5.31991E3,5.1705674E3,3.7308417E2,2.1001357E3,1.2555243E3,1.2207364E2,4.1671715E1,8.2978314E2,6.792126E1,9.776836E2,6.546318E2,1.9712982E2,1.8829033E3,8.6362144E1,1.4288128E1,1.7393707E2,1.5326192E1,3.255771E3,6.791398E2,1.5518627E3,9.818869E2,2.4875981E2,3.2035547E2,4.5932422E2,6.433775E2,1.7172676E2,9.8597095E2,6.9716046E2,2.2378035E3,2.3049068E2,8.638526E2,1.2176195E3,4.1022905E3,2.1325855E1,3.517583E2,7.361497E2,1.3639861E3,1.2384867E3,1.7037556E1,3.0787897E1,9.128574E1,6.5644244E2,1.733407E2,4.8095104E1,1.9826157E1,7.439401E2,2.3374345E2,2.1133995E2,4.4329187E2,1.3928471E2,5.784512E1,1.1617094E3,7.21194E2,1.100733E2,6.3863766E1,3.1868707E2,2.9370837E3,1.7372614E2,5.0541364E2,5.666953E2,9.8516736E2,2.220145E2,7.598724E2,2.0912665E2,3.963317E1,2.9254855E2,2.7806917E1,4.9939983E1,4.0938425E2,1.25190525E1,6.3085846E2,1.2855505E2,4.31717E1,8.586675E2,1.27303444E2,2.1629863E2,4.8086182E2,1.9135744E2,3.913325E1,1.1832373E3,3.4382217E1],"tree_param":{"num_deleted":"0","num_feature":"16","num_nodes":"111","size_leaf_vector":"1"}},{"base_weights":[6.4697517E-3,-1.201386E0,9.082384E-1,-1.4265919E0,-5.9676E-1,2.4015938E-1,1.4298913E0,-1.5441308E0,-1.1635774E0,-9.136856E-1,-3.76813E-1,6.4176224E-2,1.0064994E0,1.0924747E0,1.6447359E0,-1.3575614E-2,-1.4888375E0,-7.881454E-1,-1.3073888E0,-4.4730547E-1,-1.0987678E0,-4.643714E-2,-6.288764E-1,-1.677805E-1,4.0724576E-1,2.9607657E-1,1.1080741E0,6.265333E-1,1.3469123E0,1.3360488E0,1.6875658E0,-1.5715343E0,-1.2042794E0,3.6730103E-3,-8.2412463E-1,-1.0606334E0,-1.4263483E0,-1.0176251E0,-3.1666714E-1,3.408959E-2,-1.1219649E0,-5.429433E-1,2.920124E-1,-9.883682E-1,-5.0534093E-1,-3.0319625E-1,3.5464367E-1,9.3115085E-1,2.1006654E-1,4.8122385E-1,-8.679729E-1,3.4342176E-1,1.141635E0,7.961242E-2,7.131319E-1,1.1220541E0,1.3994937E0,1.373787E0,4.751383E-1,1.4769033E0,1.3791526E-2,-9.708512E-3,-1.3184243E-2,-6.931055E-3,-1.0975849E-2,-6.8909433E-3,3.4787606E-3,-1.1168392E-2,-6.189986E-3,-1.1505582E-2,-1.7230524E-3,-1.1289808E-2,-0E0,2.8402829E-3,-4.3861475E-3,-1.8260367E-3,3.973865E-3,-4.9708615E-4,-9.139724E-3,-6.2780515E-3,-3.65217E-4,-2.709219E-3,3.6252346E-3,-8.420454E-3,3.95584E-3,-1.3859925E-3,-5.104089E-3,-4.176992E-3,1.9416717E-5,5.596782E-3,5.905511E-4,7.560966E-3,-0E0,8.0068567E-4,6.5611666E-3,7.103245E-3,6.8364845E-4,-8.73962E-3,-0E0,5.3728204E-3,-4.0097954E-3,-0E0,9.2094345E-3,4.643864E-3,-1.7624516E-3,5.9953076E-3,1.7187835E-4,9.460305E-3,5.101007E-3,5.290136E-4,1.1242333E-2,1.1104131E-2,7.430566E-4,-7.258632E-5,7.822035E-3,1.1934737E-2,2.4345592E-3],"categories":[],"categories_nodes":[],"categories_segments":[],"categories_sizes":[],"default_left":[0,0,0,0,0,0,0,0,0,0,0,0,0,0,0,0,0,0,0,0,0,0,0,0,0,0,0,0,0,0,0,0,0,0,0,0,0,0,0,0,0,0,0,0,0,0,0,0,0,0,0,0,0,0,0,0,0,0,0,0,0,0,0,0,0,0,0,0,0,0,0,0,0,0,0,0,0,0,0,0,0,0,0,0,0,0,0,0,0,0,0,0,0,0,0,0,0,0,0,0,0,0,0,0,0,0,0,0,0,0,0,0,0,0,0,0,0],"id":2,"left_children":[1,3,5,7,9,11,13,15,17,19,21,23,25,27,29,-1,31,33,35,37,39,41,43,45,47,49,51,53,55,57,59,61,63,-1,65,67,69,71,73,75,77,79,81,83,85,87,89,91,93,95,97,99,101,103,105,107,109,111,113,115,-1,-1,-1,-1,-1,-1,-1,-1,-1,-1,-1,-1,-1,-1,-1,-1,-1,-1,-1,-1,-1,-1,-1,-1,-1,-1,-1,-1,-1,-1,-1,-1,-1,-1,-1,-1,-1,-1,-1,-1,-1,-1,-1,-1,-1,-1,-1,-1,-1,-1,-1,-1,-1,-1,-1,-1,-1],"loss_changes":[3.5737477E4,1.8966973E3,6.539749E3,2.930996E2,2.5988416E2,1.1088505E3,7.418926E2,2.9578125E1,1.578877E2,1.2566675E2,1.8728943E2,5.360851E2,1.0407019E2,4.7716748E2,5.7796875E1,0E0,9.976758E1,4.497638E1,4.76875E1,2.7685402E1,3.2561035E1,1.698699E2,4.8604004E1,2.844024E2,2.7585196E2,4.6766293E1,2.6746338E1,6.719214E1,1.1338867E1,1.6177734E1,1.2944336E1,8.558594E1,5.3000122E1,0E0,4.6009277E1,6.0351135E1,1.4291504E1,3.395706E1,6.28228E1,5.0266643E0,1.9368408E1,4.667856E1,6.2097317E1,3.5738586E1,3.9822998E1,2.1524747E2,7.714835E1,1.1928833E1,1.3008539E2,2.6386211E1,2.901661E0,2.3012457E1,1.0946045E1,3.4527275E1,2.9443787E1,4.7851562E0,1.1183105E1,8.870117E0,1.5242585E1,6.6153564E0,0E0,0E0,0E0,0E0,0E0,0E0,0E0,0E0,0E0,0E0,0E0,0E0,0E0,0E0,0E0,0E0,0E0,0E0,0E0,0E0,0E0,0E0,0E0,0E0,0E0,0E0,0E0,0E0,0E0,0E0,0E0,0E0,0E0,0E0,0E0,0E0,0E0,0E0,0E0,0E0,0E0,0E0,0E0,0E0,0E0,0E0,0E0,0E0,0E0,0E0,0E0,0E0,0E0,0E0,0E0,0E0,0E0],"parents":[2147483647,0,0,1,1,2,2,3,3,4,4,5,5,6,6,7,7,8,8,9,9,10,10,11,11,12,12,13,13,14,14,16,16,17,17,18,18,19,19,20,20,21,21,22,22,23,23,24,24,25,25,26,26,27,27,28,28,29,29,30,30,31,31,32,32,34,34,35,35,36,36,37,37,38,38,39,39,40,40,41,41,42,42,43,43,44,44,45,45,46,46,47,47,48,48,49,49,50,50,51,51,52,52,53,53,54,54,55,55,56,56,57,57,58,58,59,59],"right_children":[2,4,6,8,10,12,14,16,18,20,22,24,26,28,30,-1,32,34,36,38,40,42,44,46,48,50,52,54,56,58,60,62,64,-1,66,68,70,72,74,76,78,80,82,84,86,88,90,92,94,96,98,100,102,104,106,108,110,112,114,116,-1,-1,-1,-1,-1,-1,-1,-1,-1,-1,-1,-1,-1,-1,-1,-1,-1,-1,-1,-1,-1,-1,-1,-1,-1,-1,-1,-1,-1,-1,-1,-1,-1,-1,-1,-1,-1,-1,-1,-1,-1,-1,-1,-1,-1,-1,-1,-1,-1,-1,-1,-1,-1,-1,-1,-1,-1],"split_conditions":[3E0,1.1663391E-1,2E0,-1.4509739E-1,3.598013E-1,1.0337283E-2,4E0,-6.4759415E-1,-1.029511E-1,2.3314785E-2,3.8572606E-1,1.1830257E0,8.996872E-1,6.395044E-1,3.0508336E-1,-1.3575614E-2,-1.6514282E-1,-1.4341226E-1,-1.2950206E-1,-3.847626E-2,1.1925943E-1,2.9498142E-1,4.1092777E-1,4.787194E-3,9.884999E-1,8.4247357E-1,1.1108264E-2,-3.157962E-1,9.1975474E-1,1.4071379E2,5E0,-2.4945821E-1,-3.0200693E-1,3.6730103E-3,-1.04258426E-1,-5.095459E-1,2.9226413E-1,-8.568178E-3,8.035587E-2,3.7339377E2,-8.756788E-2,4.7032845E-1,-6.1919504E-1,2.7886145E3,-2.3301083E-1,7.350694E-1,-2.5932664E-1,1.1360681E0,1.3129072E0,2.5974026E-2,2.5799793E-1,1.0791327E-2,-2.0778E-1,-2.1167517E-1,1.3018576E0,6.729102E-1,1.6949153E-2,2.894005E-1,8.196721E-2,1.03896104E-1,1.3791526E-2,-9.708512E-3,-1.3184243E-2,-6.931055E-3,-1.0975849E-2,-6.8909433E-3,3.4787606E-3,-1.1168392E-2,-6.189986E-3,-1.1505582E-2,-1.7230524E-3,-1.1289808E-2,-0E0,2.8402829E-3,-4.3861475E-3,-1.8260367E-3,3.973865E-3,-4.9708615E-4,-9.139724E-3,-6.2780515E-3,-3.65217E-4,-2.709219E-3,3.6252346E-3,-8.420454E-3,3.95584E-3,-1.3859925E-3,-5.104089E-3,-4.176992E-3,1.9416717E-5,5.596782E-3,5.905511E-4,7.560966E-3,-0E0,8.0068567E-4,6.5611666E-3,7.103245E-3,6.8364845E-4,-8.73962E-3,-0E0,5.3728204E-3,-4.0097954E-3,-0E0,9.2094345E-3,4.643864E-3,-1.7624516E-3,5.9953076E-3,1.7187835E-4,9.460305E-3,5.101007E-3,5.290136E-4,1.1242333E-2,1.1104131E-2,7.430566E-4,-7.258632E-5,7.822035E-3,1.1934737E-2,2.4345592E-3],"split_indices":[6,11,9,11,11,12,9,1,4,4,4,11,8,8,11,0,5,11,1,5,11,5,8,12,4,8,12,11,11,5,9,1,4,0,4,1,5,4,8,5,8,8,1,5,1,5,1,1,8,3,1,12,5,5,1,1,3,11,3,3,0,0,0,0,0,0,0,0,0,0,0,0,0,0,0,0,0,0,0,0,0,0,0,0,0,0,0,0,0,0,0,0,0,0,0,0,0,0,0,0,0,0,0,0,0,0,0,0,0,0,0,0,0,0,0,0,0],"split_type":[0,0,0,0,0,0,0,0,0,0,0,0,0,0,0,0,0,0,0,0,0,0,0,0,0,0,0,0,0,0,0,0,0,0,0,0,0,0,0,0,0,0,0,0,0,0,0,0,0,0,0,0,0,0,0,0,0,0,0,0,0,0,0,0,0,0,0,0,0,0,0,0,0,0,0,0,0,0,0,0,0,0,0,0,0,0,0,0,0,0,0,0,0,0,0,0,0,0,0,0,0,0,0,0,0,0,0,0,0,0,0,0,0,0,0,0,0],"sum_hessian":[3.279536E4,1.401597E4,1.877939E4,1.0200673E4,3.8152964E3,8.241704E3,1.0537687E4,7.0152437E3,3.1854294E3,1.5471326E3,2.2681638E3,6.7127627E3,1.5289415E3,4.123815E3,6.413871E3,1.7863428E3,5.228901E3,9.023833E2,2.2830461E3,4.519153E2,1.0952173E3,9.9084845E2,1.2773153E3,4.0021594E3,2.7106035E3,1.9887126E2,1.3300703E3,1.4704775E3,2.6533376E3,8.2140137E2,5.5924697E3,4.015277E3,1.2136237E3,2.0324865E1,8.820585E2,7.7663495E2,1.5064113E3,6.982098E1,3.8209436E2,1.9305973E1,1.0759113E3,4.032744E2,5.8757404E2,3.061422E2,9.711731E2,3.185545E3,8.1661444E2,7.289063E2,1.9816971E3,1.7785292E2,2.1018337E1,6.345949E1,1.2666108E3,2.0784048E2,1.2626371E3,5.47555E2,2.1057827E3,7.7900305E2,4.2398327E1,8.8460846E2,4.7078613E3,7.37625E2,3.277652E3,4.2484106E2,7.887826E2,8.614832E2,2.0575254E1,3.389547E2,4.3768024E2,1.4878738E3,1.8537468E1,4.9515465E1,2.0305511E1,9.3552216E1,2.8854214E2,1.0768313E1,8.537661E0,2.3805513E1,1.0521058E3,2.6416443E2,1.3910997E2,1.1399592E2,4.7357816E2,2.9760428E2,8.537919E0,2.8895013E2,6.8222296E2,1.8584365E3,1.3271084E3,3.563166E2,4.6029785E2,7.206372E2,8.269099E0,1.6910723E3,2.906249E2,7.907209E1,9.878083E1,1.2749385E1,8.268951E0,4.944051E1,1.401898E1,1.2788097E1,1.2538228E3,7.878572E1,1.2905476E2,1.1949485E3,6.7688644E1,4.7102316E2,7.65318E1,1.1786702E1,2.0939958E3,7.674664E2,1.1536691E1,2.2555532E1,1.9842796E1,8.688033E2,1.5805168E1],"tree_param":{"num_deleted":"0","num_feature":"16","num_nodes":"117","size_leaf_vector":"1"}},{"base_weights":[3.2752834E-3,-1.1845176E0,8.9503187E-1,-1.3883606E0,-6.078461E-1,2.3274976E-1,1.3847202E0,-1.4477515E0,-5.168819E-1,-6.9061583E-1,3.6590645E-1,5.295935E-2,1.0401714E0,9.6110386E-1,1.5896522E0,-1.5311259E0,-1.2093697E0,-7.914199E-1,-2.0865954E-2,-9.781365E-1,-5.0879437E-1,-3.3008385E-1,7.415353E-1,-1.6919194E-1,3.1636354E-1,5.935858E-1,1.4346294E0,5.817773E-1,1.1355588E0,1.4193246E0,1.3644429E-2,-1.5700659E0,-1.3425028E0,-9.004232E-1,-1.318165E0,-9.764448E-1,2.6457995E-1,4.2266256E-1,-7.8653723E-1,-8.1355506E-1,-1.3277447E0,-2.550113E-1,-6.804444E-1,4.3885422E-1,-8.634257E-1,9.1837645E-1,-0E0,-2.994348E-1,3.966175E-1,7.454362E-1,1.4943899E-1,-4.3873954E-1,6.5164363E-1,1.5990436E-3,1.1566964E-2,3.0428535E-1,9.860135E-1,9.731612E-1,1.3867825E0,9.951726E-1,1.4793191E0,-9.2034205E-4,-1.2589609E-2,8.807918E-5,-1.0928278E-2,-1.055807E-2,-5.7096416E-3,-1.3243069E-5,-1.0747014E-2,-5.163934E-3,-1.1137849E-2,5.9113614E-3,-5.3622373E-3,7.039949E-3,-0E0,-8.875441E-3,-0E0,-5.675143E-3,-1.1077089E-2,-1.0978545E-2,-9.393084E-4,-3.9485567E-3,3.8360924E-4,-6.17046E-3,-7.657916E-4,-6.335929E-4,5.3539276E-3,-7.7743555E-4,-9.701028E-3,1.7779318E-4,8.159626E-3,-3.8385156E-3,2.3996588E-3,-6.4924066E-3,-1.3513528E-3,1.6852461E-3,6.140233E-3,2.3689282E-3,6.942902E-3,-3.8236517E-3,1.8889331E-3,-7.428689E-3,4.1434914E-3,-3.6277664E-3,5.4747616E-3,-1.1956361E-3,3.9884364E-3,5.99652E-3,1.0080825E-2,6.5425417E-4,8.092933E-3,1.1455398E-2,6.4372863E-3,5.8781733E-3,9.70078E-3,8.7894695E-3,1.202379E-2],"categories":[],"categories_nodes":[],"categories_segments":[],"categories_sizes":[],"default_left":[0,0,0,0,0,0,0,0,0,0,0,0,0,0,0,0,0,0,0,0,0,0,0,0,0,0,0,0,0,0,0,0,0,0,0,0,0,0,0,0,0,0,0,0,0,0,0,0,0,0,0,0,0,0,0,0,0,0,0,0,0,0,0,0,0,0,0,0,0,0,0,0,0,0,0,0,0,0,0,0,0,0,0,0,0,0,0,0,0,0,0,0,0,0,0,0,0,0,0,0,0,0,0,0,0,0,0,0,0,0,0,0,0,0,0,0,0],"id":3,"left_children":[1,3,5,7,9,11,13,15,17,19,21,23,25,27,29,31,33,35,37,39,41,43,45,47,49,51,53,55,57,59,-1,61,63,65,67,69,71,73,75,77,79,81,83,85,87,89,91,93,95,97,99,101,103,-1,-1,105,107,109,111,113,115,-1,-1,-1,-1,-1,-1,-1,-1,-1,-1,-1,-1,-1,-1,-1,-1,-1,-1,-1,-1,-1,-1,-1,-1,-1,-1,-1,-1,-1,-1,-1,-1,-1,-1,-1,-1,-1,-1,-1,-1,-1,-1,-1,-1,-1,-1,-1,-1,-1,-1,-1,-1,-1,-1,-1,-1],"loss_changes":[3.466331E4,1.6367539E3,6.055202E3,5.242012E2,2.998191E2,1.1516232E3,9.1275977E2,1.6953125E2,8.955153E1,1.6929529E2,7.924535E1,3.8243613E2,2.4182397E2,2.2300879E2,1.1385742E2,2.6833984E1,6.982886E1,8.848273E1,8.971419E1,5.985266E1,8.754028E1,4.7245766E1,2.6773544E1,2.6126663E2,2.1074426E2,4.460379E1,3.2797852E0,1.2083472E2,8.014331E1,5.6709473E1,0E0,2.4464844E1,4.5271484E1,4.1065002E1,5.792871E1,3.777185E1,3.4405396E1,3.1308683E1,2.5211288E1,4.0097046E1,1.57276E1,6.436839E1,6.2919983E1,7.6703215E0,1.3008247E1,1.1106949E1,7.71774E0,1.8869705E2,4.1354614E1,4.01669E1,1.1814639E2,2.3382095E1,2.7183563E1,0E0,0E0,6.227755E1,1.5789703E1,4.7246582E1,8.175781E0,9.694061E0,2.3115234E0,0E0,0E0,0E0,0E0,0E0,0E0,0E0,0E0,0E0,0E0,0E0,0E0,0E0,0E0,0E0,0E0,0E0,0E0,0E0,0E0,0E0,0E0,0E0,0E0,0E0,0E0,0E0,0E0,0E0,0E0,0E0,0E0,0E0,0E0,0E0,0E0,0E0,0E0,0E0,0E0,0E0,0E0,0E0,0E0,0E0,0E0,0E0,0E0,0E0,0E0,0E0,0E0,0E0,0E0,0E0,0E0],"parents":[2147483647,0,0,1,1,2,2,3,3,4,4,5,5,6,6,7,7,8,8,9,9,10,10,11,11,12,12,13,13,14,14,15,15,16,16,17,17,18,18,19,19,20,20,21,21,22,22,23,23,24,24,25,25,26,26,27,27,28,28,29,29,31,31,32,32,33,33,34,34,35,35,36,36,37,37,38,38,39,39,40,40,41,41,42,42,43,43,44,44,45,45,46,46,47,47,48,48,49,49,50,50,51,51,52,52,55,55,56,56,57,57,58,58,59,59,60,60],"right_children":[2,4,6,8,10,12,14,16,18,20,22,24,26,28,30,32,34,36,38,40,42,44,46,48,50,52,54,56,58,60,-1,62,64,66,68,70,72,74,76,78,80,82,84,86,88,90,92,94,96,98,100,102,104,-1,-1,106,108,110,112,114,116,-1,-1,-1,-1,-1,-1,-1,-1,-1,-1,-1,-1,-1,-1,-1,-1,-1,-1,-1,-1,-1,-1,-1,-1,-1,-1,-1,-1,-1,-1,-1,-1,-1,-1,-1,-1,-1,-1,-1,-1,-1,-1,-1,-1,-1,-1,-1,-1,-1,-1,-1,-1,-1,-1,-1,-1],"split_conditions":[3E0,1.3171381E-1,5.9740515E-3,1.3738148E0,2.0368156E0,1E0,1E0,-1.0190019E-1,-3.9595928E-2,3.500361E-1,4.3796307E-1,1.0679213E0,4E-2,8.996872E-1,5.970149E-2,4.021453E-1,-5.7756715E-2,3.1763191E0,-4.189634E-2,3.4011382E-1,3.9320773E-1,1.9102077E-1,3.5196738E0,2.7027028E-2,9.9634427E-1,-4.105587E-1,-4.2177996E-1,3.529412E-2,4E-2,7.5009054E-1,1.3644429E-2,-4.2618826E-1,4.0570253E-1,-5.771931E-2,-9.699199E-2,-2.9015544E-1,-1.8727963E-1,-2.788589E-1,4.2522963E-2,5.858473E-1,6.752322E-1,3.903112E-1,1.1505673E0,2.1034628E-1,3.7534603E-1,3.972397E-1,5.013716E-1,-1.22104794E-1,7.3826045E-2,1.2246547E0,1.0265565E0,2.9411766E-1,5.263158E-2,1.5990436E-3,1.1566964E-2,5.201771E-1,5.7471264E-2,1.5873017E-2,3.7583253E0,8.9491487E-1,1.7857144E-2,-9.2034205E-4,-1.2589609E-2,8.807918E-5,-1.0928278E-2,-1.055807E-2,-5.7096416E-3,-1.3243069E-5,-1.0747014E-2,-5.163934E-3,-1.1137849E-2,5.9113614E-3,-5.3622373E-3,7.039949E-3,-0E0,-8.875441E-3,-0E0,-5.675143E-3,-1.1077089E-2,-1.0978545E-2,-9.393084E-4,-3.9485567E-3,3.8360924E-4,-6.17046E-3,-7.657916E-4,-6.335929E-4,5.3539276E-3,-7.7743555E-4,-9.701028E-3,1.7779318E-4,8.159626E-3,-3.8385156E-3,2.3996588E-3,-6.4924066E-3,-1.3513528E-3,1.6852461E-3,6.140233E-3,2.3689282E-3,6.942902E-3,-3.8236517E-3,1.8889331E-3,-7.428689E-3,4.1434914E-3,-3.6277664E-3,5.4747616E-3,-1.1956361E-3,3.9884364E-3,5.99652E-3,1.0080825E-2,6.5425417E-4,8.092933E-3,1.1455398E-2,6.4372863E-3,5.8781733E-3,9.70078E-3,8.7894695E-3,1.202379E-2],"split_indices":[6,11,12,2,2,10,10,11,5,11,5,11,3,8,3,2,4,2,8,8,4,8,2,3,4,8,8,3,3,8,0,4,2,11,11,4,5,4,4,4,8,5,11,11,11,8,11,5,5,11,8,0,0,0,0,8,3,3,4,7,3,0,0,0,0,0,0,0,0,0,0,0,0,0,0,0,0,0,0,0,0,0,0,0,0,0,0,0,0,0,0,0,0,0,0,0,0,0,0,0,0,0,0,0,0,0,0,0,0,0,0,0,0,0,0,0,0],"split_type":[0,0,0,0,0,0,0,0,0,0,0,0,0,0,0,0,0,0,0,0,0,0,0,0,0,0,0,0,0,0,0,0,0,0,0,0,0,0,0,0,0,0,0,0,0,0,0,0,0,0,0,0,0,0,0,0,0,0,0,0,0,0,0,0,0,0,0,0,0,0,0,0,0,0,0,0,0,0,0,0,0,0,0,0,0,0,0,0,0,0,0,0,0,0,0,0,0,0,0,0,0,0,0,0,0,0,0,0,0,0,0,0,0,0,0,0,0],"sum_hessian":[3.2710059E4,1.4024225E4,1.8685834E4,1.0349427E4,3.6747976E3,7.9507373E3,1.0735097E4,9.680941E3,6.6848505E2,3.391891E3,2.8290637E2,6.5127656E3,1.4379719E3,3.519686E3,7.215411E3,7.1309224E3,2.5500193E3,4.2335254E2,2.4513249E2,1.2940414E3,2.0978499E3,9.6706154E1,1.8620023E2,3.5284197E3,2.984346E3,6.873887E2,7.505833E2,1.1251306E3,2.3945554E3,2.975093E3,4.240318E3,5.848952E3,1.2819703E3,6.906273E2,1.8593921E3,3.6316492E2,6.0187595E1,1.5500745E2,9.0125046E1,9.0377716E2,3.9026422E2,8.6149695E2,1.2363529E3,3.7882286E1,5.8823864E1,1.5035535E2,3.5844875E1,2.8755657E3,6.528539E2,8.230451E2,2.1613008E3,3.1055922E1,6.563327E2,1.0534834E1,7.4004846E2,6.7987024E2,4.4526038E2,1.48533E3,9.092254E2,3.9229962E2,2.5827935E3,1.7284311E1,5.831668E3,1.9801243E1,1.2621692E3,1.928679E2,4.977594E2,3.7335106E1,1.8220569E3,2.1759827E2,1.4556665E2,4.316951E1,1.7018084E1,7.0034355E1,8.497309E1,6.1802555E1,2.8322487E1,7.839749E2,1.1980227E2,3.7297903E2,1.7285183E1,4.847023E2,3.7679462E2,1.0634188E3,1.729341E2,9.268713E0,2.8613573E1,2.4306362E1,3.45175E1,1.930687E1,1.3104848E2,1.3768867E1,2.207601E1,5.708685E2,2.3046973E3,4.4858246E2,2.0427144E2,1.8733986E2,6.3570526E2,2.5376425E2,1.9075366E3,2.2768518E1,8.287403E0,1.326836E1,6.430644E2,1.9974467E2,4.8012555E2,2.609609E2,1.8429947E2,6.5690025E1,1.41964E3,8.2817035E2,8.1055016E1,2.0072844E2,1.915712E2,1.8074553E2,2.4020479E3],"tree_param":{"num_deleted":"0","num_feature":"16","num_nodes":"117","size_leaf_vector":"1"}},{"base_weights":[-1.16963E-3,-1.1783888E0,8.8150126E-1,-1.3478827E0,-3.6982566E-1,2.3254916E-1,1.4027778E0,-1.4390815E0,-6.8585765E-1,-4.6808347E-1,5.858729E-1,-1.8204793E-1,4.8845944E-1,1.0677317E0,1.6160065E0,-1.5775621E0,-1.1995741E0,-9.5885503E-1,-3.2118967E-1,-1.771691E-1,-6.568143E-1,-1.2680103E-1,8.3707815E-1,-6.617515E-1,-4.818172E-2,2.719483E-1,1.0395772E0,6.3537794E-1,1.3133144E0,1.49552E0,1.376612E-2,-1.2912345E-2,-1.3472328E0,-1.0593184E0,-1.4282539E0,-1.0853072E0,2.0363879E-1,1.408091E-1,-5.5537593E-1,-5.891631E-1,2.8919864E-1,-8.230892E-1,-4.3337393E-1,6.7632496E-3,-8.570899E-1,9.249597E-1,-0E0,-8.8103026E-1,-2.8006E-1,-3.320882E-1,1.710145E-1,4.543426E-1,-0E0,5.6525993E-1,1.1021187E0,4.3747494E-1,8.574318E-1,8.896971E-3,1.3962673E0,1.1375654E0,1.2488243E-2,-7.906849E-3,-1.2312453E-2,2.7626187E-3,-8.598928E-3,-1.002539E-2,-1.2939105E-2,3.2206527E-3,-8.906135E-3,5.9484774E-3,-5.032728E-3,3.1518806E-3,-6.9520175E-3,-6.1256676E-3,6.042479E-4,-8.81101E-3,-1.6975862E-3,3.0567173E-3,-5.526727E-3,-3.7126895E-3,-9.496144E-3,5.5512944E-3,-4.040716E-3,-1.1301553E-2,3.944507E-3,8.022571E-3,-0E0,2.1910127E-3,-9.1351575E-4,-7.96441E-3,-1.3258071E-3,-8.442018E-3,-9.014936E-5,-9.635153E-5,-6.9483942E-3,-9.884702E-5,3.5808098E-3,4.3526064E-3,5.363383E-5,-8.763917E-4,5.5095456E-3,6.222986E-3,-6.4659845E-3,8.23153E-3,1.093561E-2,-1.8614763E-4,4.1960375E-3,7.1294974E-3,-1.3961337E-3,4.9912613E-3,1.135077E-2,9.4898185E-3,5.8039103E-4],"categories":[],"categories_nodes":[],"categories_segments":[],"categories_sizes":[],"default_left":[0,0,0,0,0,0,0,0,0,0,0,0,0,0,0,0,0,0,0,0,0,0,0,0,0,0,0,0,0,0,0,0,0,0,0,0,0,0,0,0,0,0,0,0,0,0,0,0,0,0,0,0,0,0,0,0,0,0,0,0,0,0,0,0,0,0,0,0,0,0,0,0,0,0,0,0,0,0,0,0,0,0,0,0,0,0,0,0,0,0,0,0,0,0,0,0,0,0,0,0,0,0,0,0,0,0,0,0,0,0,0,0,0],"id":4,"left_children":[1,3,5,7,9,11,13,15,17,19,21,23,25,27,29,31,33,35,37,39,41,43,45,47,49,51,53,55,57,59,-1,-1,61,63,65,67,69,71,73,75,77,79,81,-1,83,85,87,89,91,93,95,97,99,101,103,105,107,-1,109,111,-1,-1,-1,-1,-1,-1,-1,-1,-1,-1,-1,-1,-1,-1,-1,-1,-1,-1,-1,-1,-1,-1,-1,-1,-1,-1,-1,-1,-1,-1,-1,-1,-1,-1,-1,-1,-1,-1,-1,-1,-1,-1,-1,-1,-1,-1,-1,-1,-1,-1,-1,-1,-1],"loss_changes":[3.3842992E4,1.9036562E3,6.2884395E3,6.820117E2,2.302963E2,8.8253394E2,7.151992E2,3.123418E2,1.3462323E2,1.18088806E2,4.3711334E1,2.0119177E2,6.071752E2,4.1658545E2,4.907422E1,2.7348633E1,1.0073193E2,1.2213287E2,6.9250015E1,1.729051E2,4.2909363E1,5.0653416E1,9.962227E0,5.197049E1,1.560203E2,1.8315979E2,3.282361E1,5.8325012E1,2.2868652E1,4.7972656E1,0E0,0E0,4.442737E1,5.6783203E1,2.135913E1,3.5913086E1,4.1390713E1,5.5402878E1,5.8162735E1,8.6406296E1,3.9285927E1,8.8340454E1,5.0212013E1,0E0,3.967619E1,9.577087E0,1.581411E0,3.0180267E1,5.2354355E1,1.8517973E2,7.2639145E1,8.728134E1,1.1446402E2,6.046103E1,5.998169E0,3.4004868E1,2.7213837E1,0E0,1.7738281E1,2.145752E1,0E0,0E0,0E0,0E0,0E0,0E0,0E0,0E0,0E0,0E0,0E0,0E0,0E0,0E0,0E0,0E0,0E0,0E0,0E0,0E0,0E0,0E0,0E0,0E0,0E0,0E0,0E0,0E0,0E0,0E0,0E0,0E0,0E0,0E0,0E0,0E0,0E0,0E0,0E0,0E0,0E0,0E0,0E0,0E0,0E0,0E0,0E0,0E0,0E0,0E0,0E0,0E0,0E0],"parents":[2147483647,0,0,1,1,2,2,3,3,4,4,5,5,6,6,7,7,8,8,9,9,10,10,11,11,12,12,13,13,14,14,15,15,16,16,17,17,18,18,19,19,20,20,21,21,22,22,23,23,24,24,25,25,26,26,27,27,28,28,29,29,32,32,33,33,34,34,35,35,36,36,37,37,38,38,39,39,40,40,41,41,42,42,44,44,45,45,46,46,47,47,48,48,49,49,50,50,51,51,52,52,53,53,54,54,55,55,56,56,58,58,59,59],"right_children":[2,4,6,8,10,12,14,16,18,20,22,24,26,28,30,32,34,36,38,40,42,44,46,48,50,52,54,56,58,60,-1,-1,62,64,66,68,70,72,74,76,78,80,82,-1,84,86,88,90,92,94,96,98,100,102,104,106,108,-1,110,112,-1,-1,-1,-1,-1,-1,-1,-1,-1,-1,-1,-1,-1,-1,-1,-1,-1,-1,-1,-1,-1,-1,-1,-1,-1,-1,-1,-1,-1,-1,-1,-1,-1,-1,-1,-1,-1,-1,-1,-1,-1,-1,-1,-1,-1,-1,-1,-1,-1,-1,-1,-1,-1],"split_conditions":[3E0,3.3711225E-1,2E0,1.0133418E0,2.0555077E0,9.05789E-1,4E0,-1.4509739E-1,-3.9595928E-2,-1.9485295E-1,4.0039003E-1,-1.22104794E-1,3.5714287E-2,6.395044E-1,7E0,4.021453E-1,1.740798E-1,3.0259182E0,-4.189634E-2,1.0786902E-1,5.9519345E-1,3.7534603E-1,3.8551235E0,0E0,1.1627907E-2,1.995184E-1,8.996872E-1,3E0,1.1256267E0,3.0508336E-1,1.376612E-2,-1.2912345E-2,1.744463E-2,-1.4341226E-1,1.6413029E-1,1.0171522E0,-1.8727963E-1,2.5791022E-1,2.11896E0,4.7411272E-1,1.4866109E0,1.7343674E-2,6.1571E-1,6.7632496E-3,4.0973682E0,7.08601E-1,-1.8724015E-1,9.3285686E-1,-2.6205218E-1,5.7943113E-2,4.4129333E-1,1.0049191E3,1.8274854E0,8.297169E-1,1.315992E0,-3.157962E-1,5.8653146E-1,8.896971E-3,1.6949153E-2,1.4071379E2,1.2488243E-2,-7.906849E-3,-1.2312453E-2,2.7626187E-3,-8.598928E-3,-1.002539E-2,-1.2939105E-2,3.2206527E-3,-8.906135E-3,5.9484774E-3,-5.032728E-3,3.1518806E-3,-6.9520175E-3,-6.1256676E-3,6.042479E-4,-8.81101E-3,-1.6975862E-3,3.0567173E-3,-5.526727E-3,-3.7126895E-3,-9.496144E-3,5.5512944E-3,-4.040716E-3,-1.1301553E-2,3.944507E-3,8.022571E-3,-0E0,2.1910127E-3,-9.1351575E-4,-7.96441E-3,-1.3258071E-3,-8.442018E-3,-9.014936E-5,-9.635153E-5,-6.9483942E-3,-9.884702E-5,3.5808098E-3,4.3526064E-3,5.363383E-5,-8.763917E-4,5.5095456E-3,6.222986E-3,-6.4659845E-3,8.23153E-3,1.093561E-2,-1.8614763E-4,4.1960375E-3,7.1294974E-3,-1.3961337E-3,4.9912613E-3,1.135077E-2,9.4898185E-3,5.8039103E-4],"split_indices":[6,11,9,2,2,11,9,11,5,1,5,5,0,8,9,2,1,2,8,2,2,11,2,8,3,1,8,9,8,11,0,0,1,11,2,2,5,1,2,8,5,2,2,0,2,1,1,2,1,1,11,5,2,8,8,11,8,0,3,5,0,0,0,0,0,0,0,0,0,0,0,0,0,0,0,0,0,0,0,0,0,0,0,0,0,0,0,0,0,0,0,0,0,0,0,0,0,0,0,0,0,0,0,0,0,0,0,0,0,0,0,0,0],"split_type":[0,0,0,0,0,0,0,0,0,0,0,0,0,0,0,0,0,0,0,0,0,0,0,0,0,0,0,0,0,0,0,0,0,0,0,0,0,0,0,0,0,0,0,0,0,0,0,0,0,0,0,0,0,0,0,0,0,0,0,0,0,0,0,0,0,0,0,0,0,0,0,0,0,0,0,0,0,0,0,0,0,0,0,0,0,0,0,0,0,0,0,0,0,0,0,0,0,0,0,0,0,0,0,0,0,0,0,0,0,0,0,0,0],"sum_hessian":[3.255276E4,1.3949292E4,1.8603467E4,1.1524449E4,2.4248428E3,8.294604E3,1.0308864E4,1.0116856E4,1.4075927E3,2.2053284E3,2.195146E2,3.1621802E3,5.132423E3,4.0333667E3,6.2754976E3,6.374163E3,3.7426934E3,7.9281464E2,6.1477795E2,8.8011005E2,1.3252181E3,5.5129787E1,1.6438481E2,6.7813965E2,2.4840405E3,3.6972996E3,1.4351234E3,1.4759093E3,2.5574573E3,2.9888079E3,3.2866897E3,5.4498906E3,9.242722E2,2.3559192E3,1.386774E3,7.1784204E2,7.497263E1,2.0356595E2,4.11212E2,4.6959302E2,4.1051703E2,7.397966E2,5.854216E2,2.1344973E1,3.3784813E1,1.4482822E2,1.9556604E1,4.1906473E2,2.5907492E2,1.0864366E3,1.397604E3,2.2067683E3,1.4905311E3,1.8212836E2,1.2529951E3,8.0010016E2,6.758091E2,7.908218E2,1.7666356E3,4.921828E2,2.4966252E3,3.445407E2,5.797315E2,2.1821384E1,2.334098E3,7.600602E2,6.267139E2,9.284279E0,7.0855774E2,4.818801E1,2.6784624E1,1.690356E2,3.453035E1,3.106822E2,1.00529816E2,1.8919138E2,2.8040164E2,3.8223026E2,2.8286774E1,3.857313E2,3.540653E2,2.8362186E1,5.570594E2,2.524684E1,8.537976E0,1.3154085E2,1.328736E1,1.0037688E1,9.518915E0,3.549143E2,6.415042E1,5.780302E1,2.012719E2,6.891014E2,3.9733527E2,8.3849677E2,5.5910724E2,1.8312521E3,3.7551633E2,1.2900416E3,2.0048962E2,1.6261041E2,1.9517948E1,1.0212241E3,2.3177094E2,1.22573746E2,6.7752637E2,6.582751E2,1.7534016E1,6.0458298E1,1.7061772E3,4.6711252E2,2.5070269E1],"tree_param":{"num_deleted":"0","num_feature":"16","num_nodes":"113","size_leaf_vector":"1"}},{"base_weights":[1.4278131E-2,-8.1607574E-1,1.1823124E0,-1.3257768E0,-1.1391527E-1,6.377128E-1,1.5123571E0,-1.3989013E0,-6.062642E-1,-5.6773186E-1,1.0286376E-1,-4.709946E-2,1.0027086E0,1.2832562E0,1.6508423E0,-1.4205558E0,-3.4172994E-1,-9.363616E-1,-1.1181367E-1,1.3291958E-1,-6.4777565E-1,2.7659377E-1,-1.7543925E-1,-2.7707985E-1,3.8452724E-1,7.671832E-1,1.2045887E0,8.655E-1,1.4002184E0,1.2114677E0,1.3311982E-2,-1.5297502E0,-1.2497004E0,-6.432328E-1,2.764739E-1,-1.0945953E0,1.0431597E-1,3.750208E-1,-3.3728117E-1,-1.4836429E-1,4.334984E-1,-6.879455E-1,8.279318E-1,4.2650372E-1,-6.7216225E-2,-2.5821012E-1,5.187617E-1,-6.439175E-1,-0E0,4.2262396E-1,-7.5482884E-3,6.192651E-1,1.0539482E0,1.1238484E0,1.1385146E-2,9.0125555E-1,-0E0,1.182971E0,1.1557222E-2,1.3065237E0,-0E0,-1.2300428E-2,2.024597E-3,-8.593749E-3,-1.1379099E-2,3.8872848E-3,-6.4945095E-3,-2.2974072E-3,5.862193E-3,4.9508037E-4,-9.14612E-3,4.9737035E-3,-3.052022E-3,5.5298926E-3,4.7894634E-4,-1.1035255E-2,-1.6054199E-3,1.7469379E-3,-5.0746864E-3,-2.4977943E-3,6.077487E-3,-5.9072967E-3,-1.7504205E-3,7.862618E-3,-0E0,6.7577767E-3,2.4883538E-3,4.8649656E-3,-1.7170147E-3,-2.2481532E-4,-4.2362595E-3,-4.2810086E-3,5.9757004E-3,-6.6660326E-3,4.509188E-5,2.9174907E-3,-1.5920675E-3,6.1536925E-3,2.1312907E-3,6.8766284E-3,3.5223002E-3,1.1925446E-4,8.817712E-3,1.0815932E-2,8.356415E-3,5.9030065E-3,9.198344E-3,-3.7462562E-3,3.1169488E-3,1.0193844E-2,4.7986642E-3,1.0846862E-2,1.2621984E-3],"categories":[],"categories_nodes":[],"categories_segments":[],"categories_sizes":[],"default_left":[0,0,0,0,0,0,0,0,0,0,0,0,0,0,0,0,0,0,0,0,0,0,0,0,0,0,0,0,0,0,0,0,0,0,0,0,0,0,0,0,0,0,0,0,0,0,0,0,0,0,0,0,0,0,0,0,0,0,0,0,0,0,0,0,0,0,0,0,0,0,0,0,0,0,0,0,0,0,0,0,0,0,0,0,0,0,0,0,0,0,0,0,0,0,0,0,0,0,0,0,0,0,0,0,0,0,0,0,0,0,0,0,0],"id":5,"left_children":[1,3,5,7,9,11,13,15,17,19,21,23,25,27,29,31,33,35,37,39,41,43,45,47,49,51,53,55,57,59,-1,61,63,65,67,69,71,73,75,77,79,81,83,85,87,89,91,93,95,97,-1,99,101,103,-1,105,107,109,-1,111,-1,-1,-1,-1,-1,-1,-1,-1,-1,-1,-1,-1,-1,-1,-1,-1,-1,-1,-1,-1,-1,-1,-1,-1,-1,-1,-1,-1,-1,-1,-1,-1,-1,-1,-1,-1,-1,-1,-1,-1,-1,-1,-1,-1,-1,-1,-1,-1,-1,-1,-1,-1,-1],"loss_changes":[3.1930592E4,6.880502E3,2.4448047E3,5.735781E2,7.990837E2,1.2978982E3,2.4421484E2,2.2220117E2,1.6675394E2,1.4946863E2,2.6595428E2,1.797652E2,1.4749707E2,1.4229688E2,5.692383E0,1.6103906E2,4.28171E1,1.0640228E2,4.826287E1,2.436412E1,1.4411511E2,1.7590176E2,1.213475E2,1.2045296E2,3.332312E1,5.7194763E1,1.1330078E1,2.378888E1,2.7749023E0,2.1751587E1,0E0,9.033496E1,9.8893555E1,3.2872524E1,2.184759E1,3.44068E1,2.4478624E1,1.0984995E1,3.622846E1,2.7538095E1,3.6970634E1,5.041211E1,1.0268532E1,1.08684265E2,1.0234224E2,1.1630665E2,5.752161E1,6.528189E1,5.022769E1,2.8643433E1,0E0,3.9313873E1,2.2730347E1,6.163208E0,0E0,1.635315E1,8.123766E0,1.3998718E1,0E0,3.6872559E0,0E0,0E0,0E0,0E0,0E0,0E0,0E0,0E0,0E0,0E0,0E0,0E0,0E0,0E0,0E0,0E0,0E0,0E0,0E0,0E0,0E0,0E0,0E0,0E0,0E0,0E0,0E0,0E0,0E0,0E0,0E0,0E0,0E0,0E0,0E0,0E0,0E0,0E0,0E0,0E0,0E0,0E0,0E0,0E0,0E0,0E0,0E0,0E0,0E0,0E0,0E0,0E0,0E0],"parents":[2147483647,0,0,1,1,2,2,3,3,4,4,5,5,6,6,7,7,8,8,9,9,10,10,11,11,12,12,13,13,14,14,15,15,16,16,17,17,18,18,19,19,20,20,21,21,22,22,23,23,24,24,25,25,26,26,27,27,28,28,29,29,31,31,32,32,33,33,34,34,35,35,36,36,37,37,38,38,39,39,40,40,41,41,42,42,43,43,44,44,45,45,46,46,47,47,48,48,49,49,51,51,52,52,53,53,55,55,56,56,57,57,59,59],"right_children":[2,4,6,8,10,12,14,16,18,20,22,24,26,28,30,32,34,36,38,40,42,44,46,48,50,52,54,56,58,60,-1,62,64,66,68,70,72,74,76,78,80,82,84,86,88,90,92,94,96,98,-1,100,102,104,-1,106,108,110,-1,112,-1,-1,-1,-1,-1,-1,-1,-1,-1,-1,-1,-1,-1,-1,-1,-1,-1,-1,-1,-1,-1,-1,-1,-1,-1,-1,-1,-1,-1,-1,-1,-1,-1,-1,-1,-1,-1,-1,-1,-1,-1,-1,-1,-1,-1,-1,-1,-1,-1,-1,-1,-1,-1],"split_conditions":[1.4925373E-2,2.1553676E-1,3E0,1.1655811E0,6.424601E-1,6.8310443E-3,5E0,3.448276E-2,-3.9595928E-2,-3.8362965E-2,8.9491487E-1,2E0,1.1371043E0,4.0350804E-1,-1.533956E-1,-1.983379E-1,2E0,2.938079E0,-2.1919505E-1,3.451954E-1,3.7262072E-3,4.131936E-1,1.4307785E0,-1.2132465E-1,4.9282473E-1,3.3707865E-2,1.315992E0,6.8973573E-3,1.0516836E-2,6.9234266E0,1.3311982E-2,1.0248333E0,-2.8317854E-2,1.1363637E-2,-1.7308629E-1,-4.2913657E-1,-3.7678924E-1,-4.4287926E-1,-9.870633E-2,1.1802173E-1,-5.0735295E-1,1.5030634E0,4.9916403E-3,4.9276283E-1,-3.356193E-1,-2.5043E-2,6.6131866E-1,2.6666667E-2,-2.0976955E-1,1.0714286E-1,-7.5482884E-3,-2.0691435E-1,7.6843034E-3,8.465336E-1,1.1385146E-2,4E0,8.6887665E-3,3.5392526E-1,1.1557222E-2,2.8071366E-3,-0E0,-1.2300428E-2,2.024597E-3,-8.593749E-3,-1.1379099E-2,3.8872848E-3,-6.4945095E-3,-2.2974072E-3,5.862193E-3,4.9508037E-4,-9.14612E-3,4.9737035E-3,-3.052022E-3,5.5298926E-3,4.7894634E-4,-1.1035255E-2,-1.6054199E-3,1.7469379E-3,-5.0746864E-3,-2.4977943E-3,6.077487E-3,-5.9072967E-3,-1.7504205E-3,7.862618E-3,-0E0,6.7577767E-3,2.4883538E-3,4.8649656E-3,-1.7170147E-3,-2.2481532E-4,-4.2362595E-3,-4.2810086E-3,5.9757004E-3,-6.6660326E-3,4.509188E-5,2.9174907E-3,-1.5920675E-3,6.1536925E-3,2.1312907E-3,6.8766284E-3,3.5223002E-3,1.1925446E-4,8.817712E-3,1.0815932E-2,8.356415E-3,5.9030065E-3,9.198344E-3,-3.7462562E-3,3.1169488E-3,1.0193844E-2,4.7986642E-3,1.0846862E-2,1.2621984E-3],"split_indices":[3,8,9,2,8,12,9,0,5,4,7,9,8,8,4,8,9,2,1,5,12,1,2,5,8,3,8,12,12,5,0,4,1,3,5,1,4,1,1,5,1,2,12,4,2,1,5,3,4,0,0,1,12,4,0,9,12,1,0,12,0,0,0,0,0,0,0,0,0,0,0,0,0,0,0,0,0,0,0,0,0,0,0,0,0,0,0,0,0,0,0,0,0,0,0,0,0,0,0,0,0,0,0,0,0,0,0,0,0,0,0,0,0],"split_type":[0,0,0,0,0,0,0,0,0,0,0,0,0,0,0,0,0,0,0,0,0,0,0,0,0,0,0,0,0,0,0,0,0,0,0,0,0,0,0,0,0,0,0,0,0,0,0,0,0,0,0,0,0,0,0,0,0,0,0,0,0,0,0,0,0,0,0,0,0,0,0,0,0,0,0,0,0,0,0,0,0,0,0,0,0,0,0,0,0,0,0,0,0,0,0,0,0,0,0,0,0,0,0,0,0,0,0,0,0,0,0,0,0],"sum_hessian":[3.290506E4,1.9232525E4,1.3672532E4,1.1136857E4,8.0956675E3,5.171575E3,8.500957E3,1.0098788E4,1.0380695E3,2.61732E3,5.4783477E3,1.7976108E3,3.3739644E3,3.241773E3,5.259184E3,9.890606E3,2.0818149E2,6.145654E2,4.23504E2,2.639662E2,2.3533538E3,3.3795193E3,2.0988284E3,1.1791488E3,6.1846204E2,1.5818016E3,1.7921626E3,7.294017E2,2.5123713E3,1.8116772E2,5.078016E3,5.9846245E3,3.9059827E3,1.4297858E2,6.52029E1,5.3559686E2,7.896856E1,1.2816188E2,2.953421E2,1.3329669E2,1.3066951E2,2.2971277E3,5.6226013E1,2.35812E3,1.0213992E3,1.8835902E3,2.152381E2,5.0232098E2,6.768278E2,6.087136E2,9.748395E0,1.0671074E3,5.146942E2,1.3545995E3,4.375631E2,7.0133954E2,2.806213E1,4.7559644E2,2.0367748E3,1.6738582E2,1.3781906E1,5.9613154E3,2.3308746E1,1.9745812E3,1.9314014E3,1.4305665E1,1.2867291E2,2.7555365E1,3.764754E1,1.9052912E1,5.1654395E2,4.0148148E1,3.882041E1,5.445612E1,7.370576E1,2.3247406E1,2.720947E2,7.496072E1,5.8335976E1,3.706883E1,9.3600685E1,2.064102E3,2.3302565E2,4.8207504E1,8.018509E0,4.9361862E2,1.8645015E3,1.7487674E2,8.4652246E2,1.0299641E3,8.536261E2,3.4055458E1,1.8118265E2,3.9077206E2,1.11548904E2,2.3601178E2,4.4081604E2,1.7339845E2,4.353152E2,4.3536227E2,6.317452E2,2.607125E1,4.8862292E2,3.0651074E2,1.0480887E3,4.4960605E2,2.5173352E2,1.3264122E1,1.4798007E1,3.985923E2,7.700415E1,1.5660635E2,1.077945E1],"tree_param":{"num_deleted":"0","num_feature":"16","num_nodes":"113","size_leaf_vector":"1"}},{"base_weights":[-1.0892844E-3,-1.1711806E0,8.7495303E-1,-1.4114772E0,-6.244095E-1,2.2122635E-1,1.3895398E0,-1.547825E0,-1.1948359E0,-7.742541E-1,-9.142291E-2,4.132408E-2,9.107763E-1,1.0512338E0,1.6016241E0,-1.6966211E0,-1.4912604E0,-1.437536E-1,-1.2345929E0,-5.787058E-1,-1.0206348E0,-3.6029664E-1,1.7251389E-1,-1.8693197E-1,3.7949046E-1,6.2757605E-1,1.0600668E0,5.958156E-1,1.3017247E0,1.4918457E0,1.6949427E0,-1.4758351E-2,-1.5390918E0,-1.5656428E0,-1.0918412E0,-5.0148445E-1,4.469205E-1,-1.166977E0,-1.5335091E0,-7.2405916E-1,-1.2543246E-1,-1.2802404E0,-8.7937087E-1,7.431037E-1,-4.755493E-1,-1.3524048E-1,4.9237674E-1,-6.613175E-1,-7.4233234E-2,5.712557E-1,7.952507E-2,7.4207926E-1,3.8358557E-1,2.2057444E-1,1.0941279E0,3.3502838E-1,8.6811393E-1,1.0527078E0,1.0827471E-2,1.0560611E0,1.2215299E-2,3.6391518E-3,1.3585092E-2,-4.7292905E-3,-1.2707674E-2,-7.802195E-3,-1.2777514E-2,-3.5012134E-3,-9.846876E-3,-1.7340796E-4,-7.7464455E-3,6.347511E-3,-2.7529157E-3,-8.075482E-3,-1.0568707E-2,-1.2569081E-2,1.5724149E-3,-1.9479138E-3,-7.308884E-3,-6.754652E-3,5.4244074E-4,-1.0759479E-2,1.9641428E-3,-7.463827E-3,1.1964834E-3,9.544574E-3,-1.9438247E-3,-4.539282E-4,-7.7083968E-3,4.9143746E-3,-2.5532765E-3,4.946543E-3,-8.215102E-3,-7.141942E-3,-2.704705E-3,2.6163616E-4,-5.8220862E-3,6.262533E-3,3.1558226E-3,4.6727825E-3,-4.1855278E-4,6.2202257E-3,-1.5170636E-3,3.424058E-4,6.952925E-3,6.563209E-3,-5.4669892E-3,2.1409632E-3,8.896611E-3,-3.3753472E-3,3.691338E-3,3.4569947E-3,7.679619E-3,8.666771E-3,-0E0,9.046114E-3,-1.8728775E-3],"categories":[],"categories_nodes":[],"categories_segments":[],"categories_sizes":[],"default_left":[0,0,0,0,0,0,0,0,0,0,0,0,0,0,0,0,0,0,0,0,0,0,0,0,0,0,0,0,0,0,0,0,0,0,0,0,0,0,0,0,0,0,0,0,0,0,0,0,0,0,0,0,0,0,0,0,0,0,0,0,0,0,0,0,0,0,0,0,0,0,0,0,0,0,0,0,0,0,0,0,0,0,0,0,0,0,0,0,0,0,0,0,0,0,0,0,0,0,0,0,0,0,0,0,0,0,0,0,0,0,0,0,0,0,0,0,0],"id":6,"left_children":[1,3,5,7,9,11,13,15,17,19,21,23,25,27,29,31,33,35,37,39,41,43,45,47,49,51,53,55,57,59,61,-1,63,65,67,69,71,73,75,77,79,81,83,85,87,89,91,93,95,97,99,101,103,105,107,109,111,113,-1,115,-1,-1,-1,-1,-1,-1,-1,-1,-1,-1,-1,-1,-1,-1,-1,-1,-1,-1,-1,-1,-1,-1,-1,-1,-1,-1,-1,-1,-1,-1,-1,-1,-1,-1,-1,-1,-1,-1,-1,-1,-1,-1,-1,-1,-1,-1,-1,-1,-1,-1,-1,-1,-1,-1,-1,-1,-1],"loss_changes":[3.3474586E4,1.8240078E3,6.2742383E3,2.6360742E2,3.3923474E2,1.0186047E3,7.279414E2,2.0020508E1,1.5289453E2,1.5144067E2,6.87813E1,5.062784E2,6.1507812E1,4.504912E2,3.576367E1,3.4970703E0,1.0818457E2,3.3651997E1,5.134961E1,1.21107056E2,3.8095825E1,6.318505E1,4.898659E1,2.062825E2,1.498375E2,1.1486008E1,2.5433472E1,9.754932E1,1.4913086E1,2.5527344E1,7.6660156E-1,0E0,2.4003174E1,4.7969727E1,5.605725E1,1.933995E1,1.9333387E1,5.5617188E1,4.82312E1,1.24354675E2,6.850769E1,5.4290527E1,5.747882E1,2.5643772E1,8.699909E1,3.470658E1,5.0258892E1,4.9538605E1,2.2389838E2,5.4067017E1,7.148659E1,1.6175339E1,3.3514698E1,3.5339752E1,9.008423E0,7.4675476E1,2.0624084E1,1.614264E1,0E0,2.9611816E1,0E0,0E0,0E0,0E0,0E0,0E0,0E0,0E0,0E0,0E0,0E0,0E0,0E0,0E0,0E0,0E0,0E0,0E0,0E0,0E0,0E0,0E0,0E0,0E0,0E0,0E0,0E0,0E0,0E0,0E0,0E0,0E0,0E0,0E0,0E0,0E0,0E0,0E0,0E0,0E0,0E0,0E0,0E0,0E0,0E0,0E0,0E0,0E0,0E0,0E0,0E0,0E0,0E0,0E0,0E0,0E0,0E0],"parents":[2147483647,0,0,1,1,2,2,3,3,4,4,5,5,6,6,7,7,8,8,9,9,10,10,11,11,12,12,13,13,14,14,15,15,16,16,17,17,18,18,19,19,20,20,21,21,22,22,23,23,24,24,25,25,26,26,27,27,28,28,29,29,30,30,32,32,33,33,34,34,35,35,36,36,37,37,38,38,39,39,40,40,41,41,42,42,43,43,44,44,45,45,46,46,47,47,48,48,49,49,50,50,51,51,52,52,53,53,54,54,55,55,56,56,57,57,59,59],"right_children":[2,4,6,8,10,12,14,16,18,20,22,24,26,28,30,32,34,36,38,40,42,44,46,48,50,52,54,56,58,60,62,-1,64,66,68,70,72,74,76,78,80,82,84,86,88,90,92,94,96,98,100,102,104,106,108,110,112,114,-1,116,-1,-1,-1,-1,-1,-1,-1,-1,-1,-1,-1,-1,-1,-1,-1,-1,-1,-1,-1,-1,-1,-1,-1,-1,-1,-1,-1,-1,-1,-1,-1,-1,-1,-1,-1,-1,-1,-1,-1,-1,-1,-1,-1,-1,-1,-1,-1,-1,-1,-1,-1,-1,-1,-1,-1,-1,-1],"split_conditions":[3E0,5.520761E-2,2E0,-2.2532E-1,5.896629E-1,9.153489E-3,4E0,-6.4759415E-1,-3.0924413E-1,4.001548E-2,7.0628E-1,1.1965816E0,1.098338E0,6.461996E-1,7E0,2.5593945E1,-1.6703305E-1,-1.6978383E-2,8.487747E-2,5.385058E-1,-4.318238E-2,-6.1509006E-2,4.5333138E-1,-1.1215112E-1,2.2666961E-1,1.0323159E0,1.6129032E-2,3E0,1.1015773E-2,-3.8362965E-2,1E0,-1.4758351E-2,3.0836248E1,-4.5844942E-1,-3.5727572E-1,-2.196612E-1,4.860309E1,3.0410217E-2,8.146594E0,-3.8362965E-2,3.4310752E-1,5.5437737E0,2.2452786E0,7.628225E-1,4.5120525E-1,3.669277E-1,1.7958512E0,-1.608354E-3,6.4527863E-1,1.2191383E0,-6.477446E-2,1.5700862E0,2.3014889E0,1.5151516E-2,-1.6835935E-1,-3.1640372E-1,-1.994303E-1,5.3333335E-2,1.0827471E-2,1.4071379E2,1.2215299E-2,3.6391518E-3,1.3585092E-2,-4.7292905E-3,-1.2707674E-2,-7.802195E-3,-1.2777514E-2,-3.5012134E-3,-9.846876E-3,-1.7340796E-4,-7.7464455E-3,6.347511E-3,-2.7529157E-3,-8.075482E-3,-1.0568707E-2,-1.2569081E-2,1.5724149E-3,-1.9479138E-3,-7.308884E-3,-6.754652E-3,5.4244074E-4,-1.0759479E-2,1.9641428E-3,-7.463827E-3,1.1964834E-3,9.544574E-3,-1.9438247E-3,-4.539282E-4,-7.7083968E-3,4.9143746E-3,-2.5532765E-3,4.946543E-3,-8.215102E-3,-7.141942E-3,-2.704705E-3,2.6163616E-4,-5.8220862E-3,6.262533E-3,3.1558226E-3,4.6727825E-3,-4.1855278E-4,6.2202257E-3,-1.5170636E-3,3.424058E-4,6.952925E-3,6.563209E-3,-5.4669892E-3,2.1409632E-3,8.896611E-3,-3.3753472E-3,3.691338E-3,3.4569947E-3,7.679619E-3,8.666771E-3,-0E0,9.046114E-3,-1.8728775E-3],"split_indices":[6,11,9,11,8,12,9,1,4,1,11,11,8,8,9,5,5,5,4,11,5,5,5,5,1,4,3,9,12,4,10,0,5,1,4,8,5,1,1,4,8,4,1,1,4,4,4,11,1,4,5,11,4,3,5,11,5,3,0,5,0,0,0,0,0,0,0,0,0,0,0,0,0,0,0,0,0,0,0,0,0,0,0,0,0,0,0,0,0,0,0,0,0,0,0,0,0,0,0,0,0,0,0,0,0,0,0,0,0,0,0,0,0,0,0,0,0],"split_type":[0,0,0,0,0,0,0,0,0,0,0,0,0,0,0,0,0,0,0,0,0,0,0,0,0,0,0,0,0,0,0,0,0,0,0,0,0,0,0,0,0,0,0,0,0,0,0,0,0,0,0,0,0,0,0,0,0,0,0,0,0,0,0,0,0,0,0,0,0,0,0,0,0,0,0,0,0,0,0,0,0,0,0,0,0,0,0,0,0,0,0,0,0,0,0,0,0,0,0,0,0,0,0,0,0,0,0,0,0,0,0,0,0,0,0,0,0],"sum_hessian":[3.2639688E4,1.3974838E4,1.866485E4,9.695635E3,4.279203E3,8.228589E3,1.0436261E4,5.911868E3,3.7837666E3,3.3329292E3,9.462742E2,6.53615E3,1.692439E3,4.0452627E3,6.3909985E3,1.549869E3,4.361999E3,1.4199983E2,3.6417668E3,1.8798726E3,1.4530566E3,4.7293677E2,4.7333737E2,3.8990618E3,2.6370881E3,6.0551575E2,1.0869232E3,1.4492968E3,2.5959658E3,3.0137358E3,3.3772625E3,7.446845E2,8.051846E2,3.6511824E3,7.1081665E2,9.2354164E1,4.964567E1,3.0101328E3,6.3163403E2,1.4147878E3,4.650847E2,4.818342E2,9.712225E2,3.8144096E1,4.3479266E2,2.3880801E2,2.3452936E2,7.3589154E2,3.1631702E3,1.5981614E3,1.0389268E3,3.9263004E2,2.1288573E2,4.814693E1,1.0387762E3,7.550378E2,6.94259E2,4.8572528E2,2.1102405E3,2.4935733E2,2.7643784E3,1.4036115E1,3.3632263E3,4.800372E1,7.5718085E2,2.0297989E2,3.4482026E3,1.3417645E2,5.766402E2,5.2841003E1,3.951316E1,3.714308E1,1.2502592E1,1.5279934E3,1.4821395E3,6.2060583E2,1.1028206E1,4.0983514E2,1.0049527E3,9.61074E1,3.6897726E2,4.6503055E2,1.6803667E1,9.266078E2,4.4614662E1,2.7128088E1,1.1016008E1,2.4209836E2,1.926943E2,4.0150055E1,1.9865796E2,2.2278049E2,1.1748872E1,4.1522357E2,3.20668E2,2.7209465E3,4.4222363E2,7.07298E2,8.9086334E2,2.1425957E2,8.246672E2,3.8261636E2,1.0013666E1,1.3383403E2,7.905169E1,3.1381498E1,1.6765432E1,2.8336468E1,1.0104398E3,1.0195911E2,6.530787E2,1.344213E2,5.5983765E2,4.7194815E2,1.3777139E1,2.3884167E2,1.0515653E1],"tree_param":{"num_deleted":"0","num_feature":"16","num_nodes":"117","size_leaf_vector":"1"}},{"base_weights":[-1.3673245E-2,-8.2019085E-1,1.1047226E0,-1.3040087E0,-3.9065592E-2,5.078133E-1,1.4816214E0,-1.3664482E0,-4.3626633E-1,-3.98737E-1,2.286765E-1,-1.16030656E-1,9.60198E-1,1.2284482E0,1.6295414E0,-1.5370984E0,-1.176056E0,-5.7231086E-1,2.7143145E-1,-3.1129885E-1,-8.6996853E-1,4.105436E-1,-6.207618E-2,-3.24986E-1,3.2024488E-1,6.709458E-1,1.1679993E0,9.417902E-1,1.395813E0,2.182729E-3,1.3048719E-2,-1.4917701E0,-1.7570567E0,-1.0048594E0,-1.3886529E0,-3.1734103E-1,-1.1127801E0,7.738498E-1,1.160721E-2,-5.0382584E-1,-2.7998513E-2,-1.0656717E0,-4.9667168E-1,-0E0,5.23536E-1,-1.8767518E-1,5.9713215E-1,-6.358015E-1,-7.2400738E-3,-1.2874855E-1,4.1915506E-1,4.8169106E-1,9.761668E-1,1.0423326E0,1.0549072E-2,9.6464235E-1,-0E0,1.12050725E-2,1.160851E-3,-1.2415251E-2,-1.0270846E-2,-1.4165333E-2,-1.3509465E-3,-1.0660491E-2,-6.828984E-3,-1.1707206E-2,-8.167059E-3,-6.823979E-3,-1.373347E-3,-1.0105881E-2,-2.007932E-3,4.892911E-4,7.627355E-3,-7.590956E-3,3.732575E-3,4.4363607E-3,-4.396254E-3,-6.28234E-3,1.3574336E-3,-2.934585E-3,-9.887465E-3,-4.823893E-4,-6.142609E-3,-1.15263E-2,7.3863677E-4,5.3126067E-3,1.080332E-3,-2.3141052E-3,5.4133274E-3,6.063359E-3,-9.339541E-3,-8.759369E-3,-2.6124557E-3,-1.5711273E-3,3.4671794E-3,3.975765E-3,-1.0569017E-2,2.644703E-3,8.121262E-3,2.6819152E-3,6.607489E-3,9.567828E-3,6.3364124E-3,-2.9044197E-4,8.5017895E-3,6.357228E-3,9.193519E-3,4.7545256E-3,-7.4190116E-3],"categories":[],"categories_nodes":[],"categories_segments":[],"categories_sizes":[],"default_left":[0,0,0,0,0,0,0,0,0,0,0,0,0,0,0,0,0,0,0,0,0,0,0,0,0,0,0,0,0,0,0,0,0,0,0,0,0,0,0,0,0,0,0,0,0,0,0,0,0,0,0,0,0,0,0,0,0,0,0,0,0,0,0,0,0,0,0,0,0,0,0,0,0,0,0,0,0,0,0,0,0,0,0,0,0,0,0,0,0,0,0,0,0,0,0,0,0,0,0,0,0,0,0,0,0,0,0,0,0],"id":7,"left_children":[1,3,5,7,9,11,13,15,17,19,21,23,25,27,29,31,33,35,37,39,41,43,45,47,49,51,53,55,57,-1,-1,59,61,63,65,67,69,71,73,75,77,79,81,83,85,87,89,91,93,95,97,99,101,103,-1,105,107,-1,-1,-1,-1,-1,-1,-1,-1,-1,-1,-1,-1,-1,-1,-1,-1,-1,-1,-1,-1,-1,-1,-1,-1,-1,-1,-1,-1,-1,-1,-1,-1,-1,-1,-1,-1,-1,-1,-1,-1,-1,-1,-1,-1,-1,-1,-1,-1,-1,-1,-1,-1],"loss_changes":[2.9290244E4,7.1265107E3,3.048664E3,6.2099414E2,6.9725165E2,1.4937178E3,2.8743164E2,3.302539E2,7.8873856E1,1.2169119E2,2.2035603E2,2.035946E2,1.7241919E2,1.3180566E2,1.7080078E0,2.6042969E1,1.7002686E2,8.584317E1,1.4590268E1,1.4151573E2,2.571463E1,1.1937338E2,1.3173473E2,1.4740031E2,3.326149E1,6.7308105E1,1.5362305E1,2.5706665E1,5.4470215E0,0E0,0E0,3.537207E1,1.1596924E1,1.2825049E2,4.3269043E1,3.26871E1,2.0054169E1,1.6576385E0,4.4914043E1,7.772351E1,1.6417763E2,2.7116272E1,1.8836521E1,7.716027E1,1.0649811E2,1.1891814E2,7.773518E1,1.0073447E2,6.3374653E1,1.0513113E2,2.4795074E1,3.6046967E1,6.127075E0,2.5649414E1,0E0,2.29729E1,2.4123138E1,0E0,0E0,0E0,0E0,0E0,0E0,0E0,0E0,0E0,0E0,0E0,0E0,0E0,0E0,0E0,0E0,0E0,0E0,0E0,0E0,0E0,0E0,0E0,0E0,0E0,0E0,0E0,0E0,0E0,0E0,0E0,0E0,0E0,0E0,0E0,0E0,0E0,0E0,0E0,0E0,0E0,0E0,0E0,0E0,0E0,0E0,0E0,0E0,0E0,0E0,0E0,0E0],"parents":[2147483647,0,0,1,1,2,2,3,3,4,4,5,5,6,6,7,7,8,8,9,9,10,10,11,11,12,12,13,13,14,14,15,15,16,16,17,17,18,18,19,19,20,20,21,21,22,22,23,23,24,24,25,25,26,26,27,27,28,28,31,31,32,32,33,33,34,34,35,35,36,36,37,37,38,38,39,39,40,40,41,41,42,42,43,43,44,44,45,45,46,46,47,47,48,48,49,49,50,50,51,51,52,52,53,53,55,55,56,56],"right_children":[2,4,6,8,10,12,14,16,18,20,22,24,26,28,30,32,34,36,38,40,42,44,46,48,50,52,54,56,58,-1,-1,60,62,64,66,68,70,72,74,76,78,80,82,84,86,88,90,92,94,96,98,100,102,104,-1,106,108,-1,-1,-1,-1,-1,-1,-1,-1,-1,-1,-1,-1,-1,-1,-1,-1,-1,-1,-1,-1,-1,-1,-1,-1,-1,-1,-1,-1,-1,-1,-1,-1,-1,-1,-1,-1,-1,-1,-1,-1,-1,-1,-1,-1,-1,-1,-1,-1,-1,-1,-1,-1],"split_conditions":[1E0,3.4052208E-1,3E0,1.4307785E0,9.05789E-1,5.2712333E-1,5E0,-2.2640905E-1,3.2877755E0,1.5824646E0,2.2666961E-1,2E0,1.1371043E0,8.229026E-1,-4.2177996E-1,8.528444E-1,6.0629513E-2,7.4314046E-1,-3.5784593E-1,6.060526E-1,3.6178324E0,9.291139E-1,1.6043864E0,0E0,-3.157962E-1,2E0,2E0,2.1211815E0,8.146594E0,2.182729E-3,1.3048719E-2,1.7482336E-1,-1.3509527E-1,-6.121775E-1,-1.428528E-2,-1.7308629E-1,2.6241379E0,8.9491487E-1,-4.6263997E-2,-7.636667E-2,5.046352E-1,-5.641993E-2,1.2159791E0,-1.6978383E-2,2.500236E0,1.3129072E0,2.1571207E0,-1.7012352E-1,1.5E-1,-2.042247E-1,1.6892953E0,1.0807279E0,-1.0010532E-1,-1.9805591E-1,1.0549072E-2,2.4853101E-1,4.001548E-2,1.12050725E-2,1.160851E-3,-1.2415251E-2,-1.0270846E-2,-1.4165333E-2,-1.3509465E-3,-1.0660491E-2,-6.828984E-3,-1.1707206E-2,-8.167059E-3,-6.823979E-3,-1.373347E-3,-1.0105881E-2,-2.007932E-3,4.892911E-4,7.627355E-3,-7.590956E-3,3.732575E-3,4.4363607E-3,-4.396254E-3,-6.28234E-3,1.3574336E-3,-2.934585E-3,-9.887465E-3,-4.823893E-4,-6.142609E-3,-1.15263E-2,7.3863677E-4,5.3126067E-3,1.080332E-3,-2.3141052E-3,5.4133274E-3,6.063359E-3,-9.339541E-3,-8.759369E-3,-2.6124557E-3,-1.5711273E-3,3.4671794E-3,3.975765E-3,-1.0569017E-2,2.644703E-3,8.121262E-3,2.6819152E-3,6.607489E-3,9.567828E-3,6.3364124E-3,-2.9044197E-4,8.5017895E-3,6.357228E-3,9.193519E-3,4.7545256E-3,-7.4190116E-3],"split_indices":[9,11,9,2,11,11,9,11,2,4,1,9,8,11,8,1,1,1,11,5,4,8,2,11,11,9,9,4,1,0,0,2,5,1,5,5,2,7,11,4,11,5,8,5,4,8,1,5,0,5,2,5,2,5,0,11,1,0,0,0,0,0,0,0,0,0,0,0,0,0,0,0,0,0,0,0,0,0,0,0,0,0,0,0,0,0,0,0,0,0,0,0,0,0,0,0,0,0,0,0,0,0,0,0,0,0,0,0,0],"split_type":[0,0,0,0,0,0,0,0,0,0,0,0,0,0,0,0,0,0,0,0,0,0,0,0,0,0,0,0,0,0,0,0,0,0,0,0,0,0,0,0,0,0,0,0,0,0,0,0,0,0,0,0,0,0,0,0,0,0,0,0,0,0,0,0,0,0,0,0,0,0,0,0,0,0,0,0,0,0,0,0,0,0,0,0,0,0,0,0,0,0,0,0,0,0,0,0,0,0,0,0,0,0,0,0,0,0,0,0,0],"sum_hessian":[3.2457252E4,1.8860818E4,1.3596435E4,1.1641218E4,7.2196E3,5.272659E3,8.323775E3,1.0852273E4,7.889436E2,3.0839993E3,4.1356006E3,2.216036E3,3.0566233E3,3.104674E3,5.219102E3,5.684692E3,5.167582E3,6.665741E2,1.2236954E2,2.6178938E3,4.6610553E2,2.5485151E3,1.5870856E3,1.5044111E3,7.116247E2,1.2980498E3,1.7585734E3,1.1706163E3,1.9340576E3,9.774577E0,5.209327E3,4.7763037E3,9.083879E2,2.8957026E3,2.2718794E3,4.653094E2,2.012647E2,3.2381252E1,8.998829E1,1.5486415E3,1.0692523E3,2.907851E2,1.7532042E2,5.489118E2,1.9996034E3,1.3417207E3,2.4536479E2,7.5167847E2,7.527326E2,1.2255481E2,5.890699E2,8.2003485E2,4.7801498E2,1.00414264E3,7.544307E2,1.1430614E3,2.7554962E1,1.9232864E3,1.0771336E1,3.6534553E3,1.1228486E3,8.978855E2,1.0502397E1,8.8839307E2,2.0073097E3,1.8615392E3,4.1034018E2,8.677786E1,3.7853152E2,1.6521324E2,3.605145E1,1.2037477E1,2.0343775E1,2.401389E1,6.5974396E1,5.7705494E1,1.490936E3,2.195525E2,8.4969977E2,6.5361305E1,2.254238E2,7.517804E1,1.0014238E2,2.699396E1,5.2191785E2,1.458564E3,5.410395E2,1.208479E3,1.3324173E2,2.3061514E2,1.4749638E1,2.9044437E2,4.612341E2,5.3452277E2,2.1820987E2,8.178603E1,4.0768784E1,5.280687E2,6.100114E1,5.924817E2,2.2755316E2,1.9041805E2,2.8759695E2,1.5784897E1,9.883577E2,6.255569E2,5.1750446E2,1.8311932E1,9.2430315E0],"tree_param":{"num_deleted":"0","num_feature":"16","num_nodes":"109","size_leaf_vector":"1"}},{"base_weights":[-2.181937E-3,-1.1442335E0,8.577538E-1,-1.3611509E0,-5.474297E-1,1.9635327E-1,1.313075E0,-1.4352235E0,-7.435545E-1,-6.4131105E-1,5.0725025E-1,4.9503338E-2,9.66729E-1,8.797645E-1,1.5276487E0,-1.555611E0,-1.2529584E0,-1.0299631E0,-1.4219369E-1,-8.7129486E-1,-4.2265874E-1,-5.636892E-4,8.2772267E-1,-1.429192E-1,3.4265447E-1,5.94325E-1,1.2355632E0,5.011745E-1,1.0649055E0,1.3230336E0,1.5944401E0,-2.4544965E-1,-1.5594565E0,-1.0996795E0,-1.5330418E0,-1.4038906E0,-6.6541356E-1,2.8993222E-1,-7.25647E-1,-1.8914165E-1,-1.0015717E0,-1.6807695E-1,-6.410048E-1,6.662768E-1,-4.8387435E-1,9.4606066E-1,-0E0,-2.1870907E-1,2.6493713E-1,8.710758E-1,1.5210083E-1,-5.1126695E-1,6.6001713E-1,-1.1669884E-3,1.2609577E0,1.894889E-1,6.6157144E-1,9.842539E-1,1.4092458E0,8.632002E-1,1.4236531E0,8.626314E-3,1.2844782E-2,2.3620096E-3,-6.958523E-3,-1.2555937E-2,-8.395398E-3,-7.876087E-3,-1.1236848E-2,-1.2811809E-2,-6.6377083E-3,-0E0,-1.1951059E-2,-6.332869E-3,8.333609E-4,4.2234464E-3,-6.296654E-3,5.3890515E-4,-9.182148E-3,-3.4404965E-3,3.1378297E-3,-8.321377E-3,-0E0,-3.497957E-3,3.2553815E-3,-5.6834575E-3,4.172383E-3,-2.0599461E-4,7.0203184E-3,7.982171E-5,-7.387655E-3,3.9454806E-3,9.261885E-3,-3.935588E-3,4.451977E-3,-7.257469E-5,-3.2068866E-3,-7.7906568E-3,2.695187E-3,3.2701965E-3,7.5408258E-3,5.6839024E-4,4.9512032E-3,8.3138474E-4,-8.462094E-3,2.0074178E-3,6.5717604E-3,1.0351386E-2,2.2933236E-3,3.8024653E-3,-1.0642773E-3,1.403581E-3,6.2002116E-3,9.074123E-3,6.9619105E-3,1.1484643E-2,2.5341792E-3,7.5323447E-3,6.88841E-4,1.15394695E-2,5.8028353E-3],"categories":[],"categories_nodes":[],"categories_segments":[],"categories_sizes":[],"default_left":[0,0,0,0,0,0,0,0,0,0,0,0,0,0,0,0,0,0,0,0,0,0,0,0,0,0,0,0,0,0,0,0,0,0,0,0,0,0,0,0,0,0,0,0,0,0,0,0,0,0,0,0,0,0,0,0,0,0,0,0,0,0,0,0,0,0,0,0,0,0,0,0,0,0,0,0,0,0,0,0,0,0,0,0,0,0,0,0,0,0,0,0,0,0,0,0,0,0,0,0,0,0,0,0,0,0,0,0,0,0,0,0,0,0,0,0,0,0,0,0,0],"id":8,"left_children":[1,3,5,7,9,11,13,15,17,19,21,23,25,27,29,31,33,35,37,39,41,43,45,47,49,51,53,55,57,59,61,63,65,67,69,71,73,75,77,79,81,83,85,87,89,91,93,95,97,99,101,103,105,-1,107,109,111,113,115,117,119,-1,-1,-1,-1,-1,-1,-1,-1,-1,-1,-1,-1,-1,-1,-1,-1,-1,-1,-1,-1,-1,-1,-1,-1,-1,-1,-1,-1,-1,-1,-1,-1,-1,-1,-1,-1,-1,-1,-1,-1,-1,-1,-1,-1,-1,-1,-1,-1,-1,-1,-1,-1,-1,-1,-1,-1,-1,-1,-1,-1],"loss_changes":[3.197213E4,1.7987598E3,5.585575E3,4.5373242E2,3.738235E2,8.5447534E2,1.00421484E3,1.7647852E2,1.8793976E2,1.6641455E2,5.2604614E1,3.6093497E2,1.0981653E2,2.4789429E2,7.464844E1,1.903125E1,1.3684375E2,8.895398E1,9.715269E1,1.428634E2,9.61163E1,4.184455E1,2.0654114E1,1.1938933E2,2.5134583E2,4.146115E1,2.9052979E1,5.76344E1,4.9726074E1,6.954004E1,9.667969E0,1.3148226E1,6.810547E0,6.665967E1,4.3510986E1,4.5362854E1,4.1619095E1,5.8253067E1,5.8808487E1,4.0753345E1,5.66062E1,1.3195894E2,8.0487976E1,1.0435947E1,1.9934532E1,6.813019E0,1.0295328E1,1.2318054E2,5.429007E1,1.4905182E1,6.865543E1,1.4342829E1,2.8423431E1,0E0,1.4174683E1,4.148753E1,4.0102905E1,2.0597168E1,3.737671E0,1.8201965E1,4.9484863E0,0E0,0E0,0E0,0E0,0E0,0E0,0E0,0E0,0E0,0E0,0E0,0E0,0E0,0E0,0E0,0E0,0E0,0E0,0E0,0E0,0E0,0E0,0E0,0E0,0E0,0E0,0E0,0E0,0E0,0E0,0E0,0E0,0E0,0E0,0E0,0E0,0E0,0E0,0E0,0E0,0E0,0E0,0E0,0E0,0E0,0E0,0E0,0E0,0E0,0E0,0E0,0E0,0E0,0E0,0E0,0E0,0E0,0E0,0E0,0E0],"parents":[2147483647,0,0,1,1,2,2,3,3,4,4,5,5,6,6,7,7,8,8,9,9,10,10,11,11,12,12,13,13,14,14,15,15,16,16,17,17,18,18,19,19,20,20,21,21,22,22,23,23,24,24,25,25,26,26,27,27,28,28,29,29,30,30,31,31,32,32,33,33,34,34,35,35,36,36,37,37,38,38,39,39,40,40,41,41,42,42,43,43,44,44,45,45,46,46,47,47,48,48,49,49,50,50,51,51,52,52,54,54,55,55,56,56,57,57,58,58,59,59,60,60],"right_children":[2,4,6,8,10,12,14,16,18,20,22,24,26,28,30,32,34,36,38,40,42,44,46,48,50,52,54,56,58,60,62,64,66,68,70,72,74,76,78,80,82,84,86,88,90,92,94,96,98,100,102,104,106,-1,108,110,112,114,116,118,120,-1,-1,-1,-1,-1,-1,-1,-1,-1,-1,-1,-1,-1,-1,-1,-1,-1,-1,-1,-1,-1,-1,-1,-1,-1,-1,-1,-1,-1,-1,-1,-1,-1,-1,-1,-1,-1,-1,-1,-1,-1,-1,-1,-1,-1,-1,-1,-1,-1,-1,-1,-1,-1,-1,-1,-1,-1,-1,-1,-1],"split_conditions":[3E0,1.3171381E-1,4.934985E-3,1.0133418E0,2.0555077E0,1E0,1E0,-2.2640905E-1,-3.9595928E-2,4.072699E-1,4.4485652E-1,1.2246547E0,2.173913E-1,1.0337283E-2,2.6666668E-1,-4.2618826E-1,2.3869969E-1,1.4632537E0,-4.189634E-2,-3.8362965E-2,-1.1273572E-1,1.9102077E-1,6.1764705E-1,1.1895806E0,9.884999E-1,-4.1033763E-1,-4.019341E-1,2.3930265E-1,1.315992E0,6.9580996E-1,-1.78732E-1,-4.6263382E-1,8.570037E-1,7.350694E-1,6.087673E-1,-3.351725E-1,3.2877755E0,3.073839E-1,-1.8988578E-2,2.97053E-1,2.9041064E3,5.7101625E-1,3.8822317E0,-8.8020466E-2,3.7534603E-1,6.15354E-1,1.0727999E0,-1.8724015E-1,-3.1139255E-1,9.373136E-1,1.3129072E0,-2.2268231E-1,-1.19262025E-1,-1.1669884E-3,1.4071379E2,1.463552E-1,6.755858E-3,-1.4222136E-1,2.2617784E0,2.173913E-1,1.0661433E0,8.626314E-3,1.2844782E-2,2.3620096E-3,-6.958523E-3,-1.2555937E-2,-8.395398E-3,-7.876087E-3,-1.1236848E-2,-1.2811809E-2,-6.6377083E-3,-0E0,-1.1951059E-2,-6.332869E-3,8.333609E-4,4.2234464E-3,-6.296654E-3,5.3890515E-4,-9.182148E-3,-3.4404965E-3,3.1378297E-3,-8.321377E-3,-0E0,-3.497957E-3,3.2553815E-3,-5.6834575E-3,4.172383E-3,-2.0599461E-4,7.0203184E-3,7.982171E-5,-7.387655E-3,3.9454806E-3,9.261885E-3,-3.935588E-3,4.451977E-3,-7.257469E-5,-3.2068866E-3,-7.7906568E-3,2.695187E-3,3.2701965E-3,7.5408258E-3,5.6839024E-4,4.9512032E-3,8.3138474E-4,-8.462094E-3,2.0074178E-3,6.5717604E-3,1.0351386E-2,2.2933236E-3,3.8024653E-3,-1.0642773E-3,1.403581E-3,6.2002116E-3,9.074123E-3,6.9619105E-3,1.1484643E-2,2.5341792E-3,7.5323447E-3,6.88841E-4,1.15394695E-2,5.8028353E-3],"split_indices":[6,11,12,2,2,10,10,11,5,8,5,11,0,12,0,4,1,2,8,4,1,8,1,2,4,4,11,5,8,8,5,2,2,5,4,1,2,1,11,8,5,2,4,4,11,11,4,1,11,8,8,2,2,0,5,1,12,1,8,0,1,0,0,0,0,0,0,0,0,0,0,0,0,0,0,0,0,0,0,0,0,0,0,0,0,0,0,0,0,0,0,0,0,0,0,0,0,0,0,0,0,0,0,0,0,0,0,0,0,0,0,0,0,0,0,0,0,0,0,0,0],"split_type":[0,0,0,0,0,0,0,0,0,0,0,0,0,0,0,0,0,0,0,0,0,0,0,0,0,0,0,0,0,0,0,0,0,0,0,0,0,0,0,0,0,0,0,0,0,0,0,0,0,0,0,0,0,0,0,0,0,0,0,0,0,0,0,0,0,0,0,0,0,0,0,0,0,0,0,0,0,0,0,0,0,0,0,0,0,0,0,0,0,0,0,0,0,0,0,0,0,0,0,0,0,0,0,0,0,0,0,0,0,0,0,0,0,0,0,0,0,0,0,0,0],"sum_hessian":[3.2538293E4,1.39768955E4,1.8561398E4,1.023981E4,3.7370854E3,7.575397E3,1.0986001E4,9.129408E3,1.1104012E3,3.4371138E3,2.9997156E2,6.3729805E3,1.2024167E3,3.6566145E3,7.3293867E3,5.4517446E3,3.6776636E3,7.4492645E2,3.6547476E2,1.6568253E3,1.7802886E3,1.1552995E2,1.844416E2,3.8438003E3,2.52918E3,5.1955115E2,6.828656E2,1.2159698E3,2.4406445E3,1.8557351E3,5.4736514E3,1.9755213E1,5.4319897E3,2.4092788E3,1.2683848E3,3.5241162E2,3.9251483E2,2.0932452E2,1.5615025E2,2.7251733E2,1.384308E3,8.3482153E2,9.45467E2,4.4666416E1,7.086353E1,1.623859E2,2.2055702E1,3.2507886E3,5.9301196E2,6.585768E2,1.870603E3,2.3534693E1,4.9601648E2,9.508747E0,6.733569E2,4.2542758E2,7.905423E2,2.009546E3,4.3109842E2,3.5227533E2,1.5034597E3,1.3803752E2,5.335614E3,1.0271853E1,9.483359E0,5.3051045E3,1.2688528E2,1.7804738E3,6.28805E2,1.1427164E3,1.2566836E2,2.1787903E1,3.3062372E2,3.4037064E2,5.2144176E1,1.770615E2,3.226302E1,5.4111374E1,1.0203888E2,1.9779373E2,7.47236E1,1.3352074E3,4.9100624E1,5.734931E2,2.6132843E2,8.975568E2,4.7910122E1,8.7684765E0,3.5897938E1,3.3839767E1,3.702377E1,6.472331E1,9.766259E1,1.4018317E1,8.037384E0,1.5229283E3,1.7278601E3,2.4763971E1,5.68248E2,1.01059875E2,5.575169E2,1.607186E3,2.6341702E2,1.153683E1,1.1997862E1,1.5140378E2,3.446127E2,6.458023E2,2.7554556E1,2.284701E2,1.9695749E2,1.5844821E2,6.320941E2,8.2551025E2,1.1840358E3,4.1581644E2,1.5282004E1,3.1496832E2,3.730702E1,1.4515984E3,5.1861378E1],"tree_param":{"num_deleted":"0","num_feature":"16","num_nodes":"121","size_leaf_vector":"1"}},{"base_weights":[4.028379E-3,-1.124258E0,8.4872586E-1,-1.3545091E0,-5.385223E-1,2.0551409E-1,1.356758E0,-1.411274E0,-5.204024E-1,-6.153085E-1,4.1857347E-1,2.3179337E-2,8.9153576E-1,1.0521668E0,1.5535036E0,-1.5295575E0,-1.2276592E0,-6.501553E-1,5.014084E-2,-8.124873E-1,-3.126545E-1,-1.2708098E-1,7.575424E-1,-1.878709E-1,3.3116892E-1,5.3456897E-1,1.0441024E0,5.911804E-1,1.2428583E0,1.2488861E0,1.5950679E0,-1.4768338E0,-1.7345165E0,-1.0915432E0,-1.4685674E0,-1.2982663E0,-3.467654E-1,5.1368016E-1,-3.8843086E-1,-6.3401365E-1,-1.0449368E0,-7.281036E-4,-5.821653E-1,3.4634742E-1,-1.1387177E-2,7.436298E-3,-1.6885087E-1,-6.530974E-1,-8.91347E-2,4.9642128E-1,7.779664E-2,6.038946E-1,-5.5053392E-3,-3.3270655E-4,1.0614537E0,4.9990553E-1,1.0832341E0,2.943384E-1,1.2561362E0,1.0466834E-2,5.0478107E-1,1.3948609E0,1.30386865E-2,-1.2278071E-2,-9.881733E-3,-1.3967786E-2,-2.561801E-4,-9.8438505E-3,-4.8158937E-3,-1.1871789E-2,-1.1830855E-3,-1.1362327E-2,-0E0,-7.706751E-4,-6.4315638E-3,2.3839169E-4,7.206269E-3,-5.888958E-3,2.7787366E-3,-7.999851E-3,-3.9078286E-3,-9.554146E-3,-5.834471E-3,1.3930296E-3,-4.913287E-3,3.2267007E-3,-5.414405E-3,4.949033E-3,-4.2717294E-3,-7.7448403E-3,3.2574548E-3,-6.322195E-3,3.2318443E-5,-1.370578E-3,2.8792266E-3,4.2943885E-3,-7.5695384E-4,5.2725347E-3,-5.5721763E-4,4.0543443E-4,5.4622744E-3,-5.6690713E-3,2.4277973E-3,4.5578307E-3,8.776732E-3,2.1222136E-3,5.9286193E-3,-1.4105999E-3,9.973101E-3,-0E0,5.352938E-3,8.650657E-3,1.0494795E-2,-0E0,6.4296634E-3,1.13046765E-2,4.6467446E-3],"categories":[],"categories_nodes":[],"categories_segments":[],"categories_sizes":[],"default_left":[0,0,0,0,0,0,0,0,0,0,0,0,0,0,0,0,0,0,0,0,0,0,0,0,0,0,0,0,0,0,0,0,0,0,0,0,0,0,0,0,0,0,0,0,0,0,0,0,0,0,0,0,0,0,0,0,0,0,0,0,0,0,0,0,0,0,0,0,0,0,0,0,0,0,0,0,0,0,0,0,0,0,0,0,0,0,0,0,0,0,0,0,0,0,0,0,0,0,0,0,0,0,0,0,0,0,0,0,0,0,0,0,0,0,0,0,0],"id":9,"left_children":[1,3,5,7,9,11,13,15,17,19,21,23,25,27,29,31,33,35,37,39,41,43,45,47,49,51,53,55,57,59,61,63,65,67,69,71,73,75,77,79,81,83,85,87,-1,-1,89,91,93,95,97,99,101,-1,103,105,107,109,111,-1,113,115,-1,-1,-1,-1,-1,-1,-1,-1,-1,-1,-1,-1,-1,-1,-1,-1,-1,-1,-1,-1,-1,-1,-1,-1,-1,-1,-1,-1,-1,-1,-1,-1,-1,-1,-1,-1,-1,-1,-1,-1,-1,-1,-1,-1,-1,-1,-1,-1,-1,-1,-1,-1,-1,-1,-1],"loss_changes":[3.1073371E4,1.8708926E3,6.086422E3,4.6228906E2,2.9334277E2,1.027894E3,6.032012E2,1.8008398E2,5.046666E1,2.1347607E2,5.7341095E1,4.2487122E2,8.48374E1,3.5059717E2,5.535547E1,3.095996E1,1.0145947E2,9.716716E1,2.724044E1,8.134277E1,1.2148401E2,7.881886E1,3.3315895E1,1.7504811E2,1.0937131E2,2.2013626E1,2.5932007E1,4.592621E1,2.8926758E1,2.4786987E1,1.1092773E1,4.036914E1,1.5656738E1,1.5288818E2,2.0036865E1,2.3047089E1,4.0213623E1,9.580381E0,1.9864948E1,5.9680054E1,3.1574219E1,7.647229E1,7.586694E1,2.4528582E1,0E0,0E0,2.0169308E1,6.2858063E1,1.1826672E2,3.995703E1,9.35813E1,1.8599854E1,1.6917341E1,0E0,1.0670776E1,5.5001007E1,4.194362E1,6.798535E0,9.280273E0,0E0,1.1990686E1,5.587158E-1,0E0,0E0,0E0,0E0,0E0,0E0,0E0,0E0,0E0,0E0,0E0,0E0,0E0,0E0,0E0,0E0,0E0,0E0,0E0,0E0,0E0,0E0,0E0,0E0,0E0,0E0,0E0,0E0,0E0,0E0,0E0,0E0,0E0,0E0,0E0,0E0,0E0,0E0,0E0,0E0,0E0,0E0,0E0,0E0,0E0,0E0,0E0,0E0,0E0,0E0,0E0,0E0,0E0,0E0,0E0],"parents":[2147483647,0,0,1,1,2,2,3,3,4,4,5,5,6,6,7,7,8,8,9,9,10,10,11,11,12,12,13,13,14,14,15,15,16,16,17,17,18,18,19,19,20,20,21,21,22,22,23,23,24,24,25,25,26,26,27,27,28,28,29,29,30,30,31,31,32,32,33,33,34,34,35,35,36,36,37,37,38,38,39,39,40,40,41,41,42,42,43,43,46,46,47,47,48,48,49,49,50,50,51,51,52,52,54,54,55,55,56,56,57,57,58,58,60,60,61,61],"right_children":[2,4,6,8,10,12,14,16,18,20,22,24,26,28,30,32,34,36,38,40,42,44,46,48,50,52,54,56,58,60,62,64,66,68,70,72,74,76,78,80,82,84,86,88,-1,-1,90,92,94,96,98,100,102,-1,104,106,108,110,112,-1,114,116,-1,-1,-1,-1,-1,-1,-1,-1,-1,-1,-1,-1,-1,-1,-1,-1,-1,-1,-1,-1,-1,-1,-1,-1,-1,-1,-1,-1,-1,-1,-1,-1,-1,-1,-1,-1,-1,-1,-1,-1,-1,-1,-1,-1,-1,-1,-1,-1,-1,-1,-1,-1,-1,-1,-1],"split_conditions":[3E0,9.540093E-2,2E0,1.3738148E0,2.073528E0,9.153489E-3,4E0,-2.2532E-1,2.938079E0,4.7032845E-1,4.3796307E-1,1.1830257E0,1.051991E0,4.046008E-1,3.0508336E-1,6.8014705E-1,2.7992776E-1,-1.7263763E-1,-1.618457E-1,4.4127323E-2,-1.1273572E-1,2.3390636E-1,8.9491487E-1,-1.3567686E-1,2.0975232E-1,9.982372E-1,-1.8761383E-1,1.2010491E0,3.4674463E-1,6.9234266E0,5E0,2.3097995E-1,1.2954941E0,4.800513E-1,8.146594E0,2.5781329E0,4.9264705E-1,4.7531195E0,5.487208E-1,-6.56789E-1,6.083276E-2,9.055541E2,-3.356193E-1,4.0784886E-1,-1.1387177E-2,7.436298E-3,3.8803422E-1,2.6666667E-2,1.3518109E0,2.8941212E0,-7.803884E-2,5.753431E-1,5.184371E-1,-3.3270655E-4,1.1137423E-2,3E0,-2.933011E-1,1.9274381E-1,1.1084856E-2,1.0466834E-2,6E0,2.7422085E0,1.30386865E-2,-1.2278071E-2,-9.881733E-3,-1.3967786E-2,-2.561801E-4,-9.8438505E-3,-4.8158937E-3,-1.1871789E-2,-1.1830855E-3,-1.1362327E-2,-0E0,-7.706751E-4,-6.4315638E-3,2.3839169E-4,7.206269E-3,-5.888958E-3,2.7787366E-3,-7.999851E-3,-3.9078286E-3,-9.554146E-3,-5.834471E-3,1.3930296E-3,-4.913287E-3,3.2267007E-3,-5.414405E-3,4.949033E-3,-4.2717294E-3,-7.7448403E-3,3.2574548E-3,-6.322195E-3,3.2318443E-5,-1.370578E-3,2.8792266E-3,4.2943885E-3,-7.5695384E-4,5.2725347E-3,-5.5721763E-4,4.0543443E-4,5.4622744E-3,-5.6690713E-3,2.4277973E-3,4.5578307E-3,8.776732E-3,2.1222136E-3,5.9286193E-3,-1.4105999E-3,9.973101E-3,-0E0,5.352938E-3,8.650657E-3,1.0494795E-2,-0E0,6.4296634E-3,1.13046765E-2,4.6467446E-3],"split_indices":[6,11,9,2,2,12,9,11,2,8,5,11,8,11,11,1,1,5,5,1,1,5,7,5,1,8,5,2,8,5,9,2,2,2,1,2,1,2,5,1,5,5,2,11,0,0,11,3,2,11,5,8,5,0,12,9,8,5,12,0,9,1,0,0,0,0,0,0,0,0,0,0,0,0,0,0,0,0,0,0,0,0,0,0,0,0,0,0,0,0,0,0,0,0,0,0,0,0,0,0,0,0,0,0,0,0,0,0,0,0,0,0,0,0,0,0,0],"split_type":[0,0,0,0,0,0,0,0,0,0,0,0,0,0,0,0,0,0,0,0,0,0,0,0,0,0,0,0,0,0,0,0,0,0,0,0,0,0,0,0,0,0,0,0,0,0,0,0,0,0,0,0,0,0,0,0,0,0,0,0,0,0,0,0,0,0,0,0,0,0,0,0,0,0,0,0,0,0,0,0,0,0,0,0,0,0,0,0,0,0,0,0,0,0,0,0,0,0,0,0,0,0,0,0,0,0,0,0,0,0,0,0,0,0,0,0,0],"sum_hessian":[3.2588629E4,1.394958E4,1.8639049E4,1.0002144E4,3.9474365E3,8.232786E3,1.0406264E4,9.356273E3,6.458708E2,3.6598074E3,2.8762918E2,6.51408E3,1.718706E3,4.1097676E3,6.2964956E3,5.644889E3,3.711384E3,5.295764E2,1.1629439E2,2.20189E3,1.4579175E3,1.0873831E2,1.7889085E2,3.861418E3,2.6526619E3,5.3129865E2,1.1874075E3,1.2167863E3,2.8929814E3,7.9447327E2,5.502022E3,4.553761E3,1.0911279E3,2.4077034E3,1.3036807E3,1.5733998E2,3.7223642E2,5.9197327E1,5.7097065E1,1.2697261E3,9.321639E2,6.8465936E2,7.7325806E2,8.224858E1,2.6489733E1,1.53587E2,2.5303858E1,6.628575E2,3.1985605E3,1.5937109E3,1.058951E3,4.7494296E2,5.6355698E1,1.5782798E1,1.1716246E3,1.0451398E3,1.7164653E2,4.5616417E1,2.847365E3,7.26328E2,6.814528E1,8.755441E2,4.626478E3,3.628611E3,9.251502E2,1.0818812E3,9.246708E0,1.86124E3,5.4646326E2,1.2854252E3,1.8255487E1,1.415751E2,1.5764868E1,2.5099548E2,1.2124094E2,3.3583496E1,2.5613832E1,4.1540646E1,1.5556417E1,3.420395E2,9.276866E2,6.1120996E2,3.2095392E2,5.334422E2,1.5121716E2,6.268448E1,7.105736E2,6.723784E1,1.501074E1,1.0499097E1,1.4804761E1,5.5081885E2,1.1203864E2,2.713531E3,4.850296E2,1.4972363E3,9.647453E1,2.1276811E2,8.461829E2,6.566099E1,4.0928198E2,1.700959E1,3.934611E1,9.4047165E1,1.0775775E3,5.4457654E2,5.005633E2,1.7529816E1,1.5411671E2,2.8056572E1,1.7559845E1,7.4064667E2,2.1067183E3,2.7545576E1,4.05997E1,8.470089E2,2.8535162E1],"tree_param":{"num_deleted":"0","num_feature":"16","num_nodes":"117","size_leaf_vector":"1"}},{"base_weights":[5.9297387E-3,-1.1280525E0,8.5128415E-1,-1.344498E0,-5.756509E-1,2.1222076E-1,1.348535E0,-1.3985127E0,-5.3577477E-1,-6.4904577E-1,3.4841344E-1,4.2150747E-2,9.2153364E-1,1.0303477E0,1.5507536E0,-1.5044856E0,-1.2195299E0,-6.603954E-1,1.096847E-1,-8.814299E-1,-4.615671E-1,-1.6867594E-1,6.9124055E-1,-6.1866945E-1,1.423177E-1,6.6746324E-1,1.0624654E0,5.750982E-1,1.2628064E0,1.432744E0,1.3215788E-2,-1.5199268E0,-1.0239751E0,-1.8623033E-1,-1.2383411E0,-1.0902483E0,-4.3616664E-1,5.551188E-1,-2.6202354E-1,-4.3342087E-1,-9.7939485E-1,2.0841631E-1,-5.327715E-1,4.6349874E-1,-6.1387914E-1,1.0626521E0,-0E0,-9.047523E-1,-3.5907263E-1,-3.2751214E-2,3.502145E-1,3.3704934E-1,8.0429834E-1,-1.6855749E-3,1.0804737E0,3.323539E-1,8.262084E-1,1.150312E0,1.1234815E-2,1.123521E0,1.1925532E-2,-1.1514158E-2,-1.27524E-2,-0E0,-9.489804E-3,-6.7769866E-3,3.945616E-3,-9.955306E-3,1.99764E-3,-1.0612094E-2,-5.1614363E-3,-0E0,-6.188807E-3,-2.0052793E-3,6.9708405E-3,-1.0069578E-2,2.8068258E-3,-4.3571712E-5,-6.4032837E-3,-6.514132E-3,-9.244281E-3,6.638937E-3,-1.3772157E-3,-6.974785E-3,-3.1434747E-3,-3.5203001E-3,7.616361E-3,-7.7024316E-3,2.942852E-3,9.306762E-3,-0E0,-2.7450686E-3,5.7096565E-3,3.2578518E-3,-8.127602E-3,-3.5285314E-3,4.916985E-3,2.1522478E-3,-1.7844063E-3,6.4671575E-3,1.7519005E-3,4.367263E-3,-1.6070886E-3,7.022107E-3,1.3491649E-3,8.8435266E-4,8.861716E-3,-1.3151447E-3,3.7112355E-3,-3.095903E-3,6.8603344E-3,-6.8602907E-3,9.337968E-3,9.523608E-3,-0E0],"categories":[],"categories_nodes":[],"categories_segments":[],"categories_sizes":[],"default_left":[0,0,0,0,0,0,0,0,0,0,0,0,0,0,0,0,0,0,0,0,0,0,0,0,0,0,0,0,0,0,0,0,0,0,0,0,0,0,0,0,0,0,0,0,0,0,0,0,0,0,0,0,0,0,0,0,0,0,0,0,0,0,0,0,0,0,0,0,0,0,0,0,0,0,0,0,0,0,0,0,0,0,0,0,0,0,0,0,0,0,0,0,0,0,0,0,0,0,0,0,0,0,0,0,0,0,0,0,0,0,0,0,0,0,0],"id":10,"left_children":[1,3,5,7,9,11,13,15,17,19,21,23,25,27,29,31,33,35,37,39,41,43,45,47,49,51,53,55,57,59,-1,61,63,65,67,69,71,73,75,77,79,81,83,85,87,89,91,93,95,97,99,101,103,-1,105,107,109,111,-1,113,-1,-1,-1,-1,-1,-1,-1,-1,-1,-1,-1,-1,-1,-1,-1,-1,-1,-1,-1,-1,-1,-1,-1,-1,-1,-1,-1,-1,-1,-1,-1,-1,-1,-1,-1,-1,-1,-1,-1,-1,-1,-1,-1,-1,-1,-1,-1,-1,-1,-1,-1,-1,-1,-1,-1],"loss_changes":[3.1295555E4,1.6550098E3,5.937175E3,4.253418E2,2.701184E2,9.8570685E2,6.560996E2,1.5491602E2,5.3950806E1,1.5210608E2,5.4320152E1,4.3773755E2,4.5769043E1,4.242422E2,4.8354492E1,2.3262695E1,6.265576E1,4.4046066E1,1.9761717E1,6.3363525E1,9.960239E1,3.6355007E1,4.6764214E1,5.8181335E1,2.1078122E2,2.1236694E1,2.7270874E1,8.029248E1,2.2620605E1,3.309912E1,0E0,6.25E0,3.395793E1,3.831892E1,3.6828613E1,5.803604E0,5.3414505E1,1.7603117E1,4.2967293E1,4.625335E1,2.482727E1,5.006924E1,8.157727E1,2.746475E1,3.0766777E1,9.468643E0,1.9206059E1,6.391046E1,3.9538254E1,1.7996667E2,1.5440341E2,2.3705784E1,1.4703186E1,0E0,2.1415527E1,4.964006E1,2.9981781E1,6.2249023E1,0E0,4.0661133E1,0E0,0E0,0E0,0E0,0E0,0E0,0E0,0E0,0E0,0E0,0E0,0E0,0E0,0E0,0E0,0E0,0E0,0E0,0E0,0E0,0E0,0E0,0E0,0E0,0E0,0E0,0E0,0E0,0E0,0E0,0E0,0E0,0E0,0E0,0E0,0E0,0E0,0E0,0E0,0E0,0E0,0E0,0E0,0E0,0E0,0E0,0E0,0E0,0E0,0E0,0E0,0E0,0E0,0E0,0E0],"parents":[2147483647,0,0,1,1,2,2,3,3,4,4,5,5,6,6,7,7,8,8,9,9,10,10,11,11,12,12,13,13,14,14,15,15,16,16,17,17,18,18,19,19,20,20,21,21,22,22,23,23,24,24,25,25,26,26,27,27,28,28,29,29,31,31,32,32,33,33,34,34,35,35,36,36,37,37,38,38,39,39,40,40,41,41,42,42,43,43,44,44,45,45,46,46,47,47,48,48,49,49,50,50,51,51,52,52,54,54,55,55,56,56,57,57,59,59],"right_children":[2,4,6,8,10,12,14,16,18,20,22,24,26,28,30,32,34,36,38,40,42,44,46,48,50,52,54,56,58,60,-1,62,64,66,68,70,72,74,76,78,80,82,84,86,88,90,92,94,96,98,100,102,104,-1,106,108,110,112,-1,114,-1,-1,-1,-1,-1,-1,-1,-1,-1,-1,-1,-1,-1,-1,-1,-1,-1,-1,-1,-1,-1,-1,-1,-1,-1,-1,-1,-1,-1,-1,-1,-1,-1,-1,-1,-1,-1,-1,-1,-1,-1,-1,-1,-1,-1,-1,-1,-1,-1,-1,-1,-1,-1,-1,-1],"split_conditions":[3E0,9.540093E-2,2E0,1.3738148E0,2.0555077E0,9.941462E-3,4E0,-2.1206237E-1,3.1039317E0,3.598013E-1,4.0039003E-1,1.4802794E-3,1.1330078E0,5.794655E-1,7E0,9.9695814E-1,-3.1423953E-1,-1.6874519E-1,-3.601317E-1,-3.8362965E-2,4.5057394E-2,1.5533818E-1,2.7200315E0,1.8518519E-2,1.1965816E0,3.2989767E-1,-1.9805591E-1,3E0,9.3246865E-1,3.0508336E-1,1.3215788E-2,-3.5391995E-1,1.0251659E0,-3.1969675E-1,3.2369008E0,-3.097317E-1,-2.788589E-1,8.9491487E-1,-4.2507965E-2,1.1965089E-1,1.6591011E-1,2.493404E-1,4.1466787E-1,7.7975266E-2,4.2721784E-1,5.323876E-1,8.5696083E-1,1.1764706E-2,2.1411176E0,5.05182E-1,9.0819496E-1,1.508305E-1,5.4657294E2,-1.6855749E-3,8.916481E-1,-2.757565E-1,-4.207779E-1,4.0075722E-1,1.1234815E-2,9.798624E1,1.1925532E-2,-1.1514158E-2,-1.27524E-2,-0E0,-9.489804E-3,-6.7769866E-3,3.945616E-3,-9.955306E-3,1.99764E-3,-1.0612094E-2,-5.1614363E-3,-0E0,-6.188807E-3,-2.0052793E-3,6.9708405E-3,-1.0069578E-2,2.8068258E-3,-4.3571712E-5,-6.4032837E-3,-6.514132E-3,-9.244281E-3,6.638937E-3,-1.3772157E-3,-6.974785E-3,-3.1434747E-3,-3.5203001E-3,7.616361E-3,-7.7024316E-3,2.942852E-3,9.306762E-3,-0E0,-2.7450686E-3,5.7096565E-3,3.2578518E-3,-8.127602E-3,-3.5285314E-3,4.916985E-3,2.1522478E-3,-1.7844063E-3,6.4671575E-3,1.7519005E-3,4.367263E-3,-1.6070886E-3,7.022107E-3,1.3491649E-3,8.8435266E-4,8.861716E-3,-1.3151447E-3,3.7112355E-3,-3.095903E-3,6.8603344E-3,-6.8602907E-3,9.337968E-3,9.523608E-3,-0E0],"split_indices":[6,11,9,2,2,12,9,11,2,11,5,11,8,8,9,2,4,5,4,4,4,8,2,3,11,5,5,9,5,11,0,4,2,4,4,8,4,7,11,8,2,2,8,8,4,4,11,3,2,4,4,5,5,0,11,8,8,11,0,5,0,0,0,0,0,0,0,0,0,0,0,0,0,0,0,0,0,0,0,0,0,0,0,0,0,0,0,0,0,0,0,0,0,0,0,0,0,0,0,0,0,0,0,0,0,0,0,0,0,0,0,0,0,0,0],"split_type":[0,0,0,0,0,0,0,0,0,0,0,0,0,0,0,0,0,0,0,0,0,0,0,0,0,0,0,0,0,0,0,0,0,0,0,0,0,0,0,0,0,0,0,0,0,0,0,0,0,0,0,0,0,0,0,0,0,0,0,0,0,0,0,0,0,0,0,0,0,0,0,0,0,0,0,0,0,0,0,0,0,0,0,0,0,0,0,0,0,0,0,0,0,0,0,0,0,0,0,0,0,0,0,0,0,0,0,0,0,0,0,0,0,0,0],"sum_hessian":[3.2631428E4,1.3933891E4,1.8697537E4,9.999083E3,3.9348083E3,8.1896724E3,1.0507865E4,9.364109E3,6.349732E2,3.6504915E3,2.8431696E2,6.616062E3,1.5736104E3,4.107846E3,6.4000186E3,5.833926E3,3.5301836E3,5.359572E2,9.9015976E1,1.6096628E3,2.0408285E3,1.1148149E2,1.7283546E2,8.6146356E2,5.754598E3,5.854118E2,9.8819855E2,1.4022877E3,2.7055586E3,3.024594E3,3.3754246E3,5.6294746E3,2.0445145E2,6.752854E1,3.462655E3,1.6855518E2,3.6740207E2,4.691688E1,5.2099094E1,3.0210526E2,1.3075576E3,1.9052982E2,1.8502987E3,4.3146935E1,6.8334564E1,1.09929825E2,6.290564E1,3.9486896E2,4.6659464E2,3.1197668E3,2.6348313E3,1.8597356E2,3.9943823E2,1.0265262E1,9.779333E2,7.2854755E2,6.737402E2,1.5599695E3,1.145589E3,5.1125946E2,2.5133345E3,2.7935164E3,2.835958E3,3.0010279E1,1.7444116E2,3.5468662E1,3.2059875E1,3.4518955E3,1.0759538E1,9.535308E1,7.3202095E1,1.668136E2,2.0058847E2,1.1017168E1,3.5899715E1,1.8491974E1,3.360712E1,1.469865E2,1.5511877E2,7.0688226E2,6.006753E2,7.1770294E1,1.18759514E2,5.2177356E2,1.3285251E3,1.3265985E1,2.9880949E1,5.2784264E1,1.5550299E1,9.7394875E1,1.2534951E1,4.558715E1,1.7318487E1,2.7080393E1,3.6778857E2,4.3723294E2,2.9361692E1,1.1991106E3,1.9206562E3,5.723438E2,2.0624875E3,1.3789343E2,4.808012E1,3.5109418E2,4.8344048E1,3.0829065E1,9.471042E2,1.4734753E2,5.812E2,1.2265898E1,6.614743E2,8.243716E0,1.5517258E3,4.8320465E2,2.805481E1],"tree_param":{"num_deleted":"0","num_feature":"16","num_nodes":"115","size_leaf_vector":"1"}},{"base_weights":[-2.646254E-3,-7.726735E-1,1.1349168E0,-1.2080255E0,-2.7939067E-3,6.113936E-1,1.4454213E0,-1.4001657E0,-9.2410904E-1,-2.199588E-1,3.2486928E-1,1.0169008E-2,9.9276185E-1,1.1981097E0,1.5852536E0,-1.4518245E0,-6.7495054E-1,-9.8021424E-1,6.3845664E-2,2.0751197E-2,-5.131943E-1,6.407814E-1,1.4642827E-1,-2.2312069E-1,4.3285584E-1,7.6376545E-1,1.1710001E0,9.0735894E-1,1.3500918E0,1.2505928E0,1.2802724E-2,-1.4683992E0,6.5808706E-2,-4.797753E-1,-1.3438005E0,-1.0106133E0,4.5903352E-1,8.5397196E-1,-2.000818E-1,-5.0533205E-1,2.2487144E-1,-6.3358516E-1,1.9318469E-1,-2.8725727E-2,8.0438024E-1,5.8807984E-2,6.628802E-1,-6.4204895E-1,1.0361635E-1,2.040131E-1,6.3878816E-1,5.8456004E-1,8.24231E-3,1.10779636E-1,1.1799216E0,9.4846034E-1,1.0271512E-1,2.6228905E-3,1.0840805E-2,1.3010242E0,1.4752923E-3,-1.1837581E-2,-5.397095E-3,-9.2972425E-4,4.634582E-3,4.7462843E-3,-4.557588E-3,-2.8596916E-3,-1.2211564E-2,-6.6996287E-3,-9.658715E-3,6.491136E-3,-2.387118E-3,8.309156E-3,-5.472571E-4,-3.8638792E-3,2.9036805E-3,-4.9168724E-3,5.4613515E-3,-4.9250997E-3,2.5632991E-3,-5.46183E-3,2.5314353E-3,-3.2593831E-3,4.944967E-3,8.3115924E-4,-9.648047E-3,-1.0009374E-3,6.633122E-3,1.4882513E-3,-1.9013896E-3,6.7414492E-3,-9.84328E-3,-8.455549E-3,-1.6294292E-3,-4.8516403E-4,3.3979283E-3,-4.6279533E-3,3.5254194E-3,3.5660448E-3,9.155904E-3,-2.7567493E-3,5.1629855E-3,-5.825678E-4,3.4245881E-3,1.3078544E-3,9.470548E-3,6.223186E-3,8.658338E-3,-8.356721E-3,4.4140457E-3,1.0673867E-2,1.2476114E-3],"categories":[],"categories_nodes":[],"categories_segments":[],"categories_sizes":[],"default_left":[0,0,0,0,0,0,0,0,0,0,0,0,0,0,0,0,0,0,0,0,0,0,0,0,0,0,0,0,0,0,0,0,0,0,0,0,0,0,0,0,0,0,0,0,0,0,0,0,0,0,0,0,0,0,0,0,0,0,0,0,0,0,0,0,0,0,0,0,0,0,0,0,0,0,0,0,0,0,0,0,0,0,0,0,0,0,0,0,0,0,0,0,0,0,0,0,0,0,0,0,0,0,0,0,0,0,0,0,0,0,0,0,0],"id":11,"left_children":[1,3,5,7,9,11,13,15,17,19,21,23,25,27,29,31,33,35,37,39,41,43,45,47,49,51,53,55,57,59,-1,61,63,65,67,69,71,73,75,77,79,81,83,85,87,89,91,93,95,97,99,101,-1,103,105,107,109,-1,-1,111,-1,-1,-1,-1,-1,-1,-1,-1,-1,-1,-1,-1,-1,-1,-1,-1,-1,-1,-1,-1,-1,-1,-1,-1,-1,-1,-1,-1,-1,-1,-1,-1,-1,-1,-1,-1,-1,-1,-1,-1,-1,-1,-1,-1,-1,-1,-1,-1,-1,-1,-1,-1,-1],"loss_changes":[2.850781E4,6.5019434E3,2.122125E3,6.5891016E2,4.9990213E2,1.1222534E3,2.6128125E2,2.6193164E2,2.8222852E2,3.003614E2,1.5453351E2,1.9034026E2,1.09486084E2,1.1667139E2,1.8369141E0,1.777959E2,5.5813034E1,2.1388428E2,6.0696888E1,2.4993822E2,1.6509656E2,1.1215167E2,7.913643E1,1.7123932E2,2.8885345E1,5.450055E1,1.082666E1,3.1330994E1,1.4172363E0,8.181488E0,0E0,4.651953E1,9.398505E0,4.2186417E1,9.269196E0,1.449253E2,3.0709145E1,1.5956013E1,3.5189106E1,8.738158E1,1.3608911E2,7.944348E1,7.442902E1,3.5642956E1,2.1544678E1,5.887836E1,9.42295E1,9.3880356E1,3.805872E1,6.5491905E1,2.549414E1,4.9495544E1,0E0,2.8020985E0,9.333496E-1,1.073761E1,3.6278183E1,0E0,0E0,3.542633E0,0E0,0E0,0E0,0E0,0E0,0E0,0E0,0E0,0E0,0E0,0E0,0E0,0E0,0E0,0E0,0E0,0E0,0E0,0E0,0E0,0E0,0E0,0E0,0E0,0E0,0E0,0E0,0E0,0E0,0E0,0E0,0E0,0E0,0E0,0E0,0E0,0E0,0E0,0E0,0E0,0E0,0E0,0E0,0E0,0E0,0E0,0E0,0E0,0E0,0E0,0E0,0E0,0E0],"parents":[2147483647,0,0,1,1,2,2,3,3,4,4,5,5,6,6,7,7,8,8,9,9,10,10,11,11,12,12,13,13,14,14,15,15,16,16,17,17,18,18,19,19,20,20,21,21,22,22,23,23,24,24,25,25,26,26,27,27,28,28,29,29,31,31,32,32,33,33,34,34,35,35,36,36,37,37,38,38,39,39,40,40,41,41,42,42,43,43,44,44,45,45,46,46,47,47,48,48,49,49,50,50,51,51,53,53,54,54,55,55,56,56,59,59],"right_children":[2,4,6,8,10,12,14,16,18,20,22,24,26,28,30,32,34,36,38,40,42,44,46,48,50,52,54,56,58,60,-1,62,64,66,68,70,72,74,76,78,80,82,84,86,88,90,92,94,96,98,100,102,-1,104,106,108,110,-1,-1,112,-1,-1,-1,-1,-1,-1,-1,-1,-1,-1,-1,-1,-1,-1,-1,-1,-1,-1,-1,-1,-1,-1,-1,-1,-1,-1,-1,-1,-1,-1,-1,-1,-1,-1,-1,-1,-1,-1,-1,-1,-1,-1,-1,-1,-1,-1,-1,-1,-1,-1,-1,-1,-1],"split_conditions":[1.6129032E-2,4.072699E-1,3E0,-1.2708044E-1,1.2027979E0,5.789526E-1,5E0,1.1750494E0,2.0368156E0,9.313726E-3,1.3114823E0,2E0,1.1561093E0,7.871673E-1,-4.6879444E-2,2E0,1.0913312E0,3.0709002E-3,-1.4222136E-1,-6.251161E-1,1.7592009E0,9.417959E-1,1.3129072E0,0E0,3.409091E-2,3.2786883E-2,-2.1185963E-1,1.0255418E0,1.6949153E-2,4.015483E-3,1.2802724E-2,8.695652E-2,1.7391305E-1,1.1895806E0,-3.7832043E-1,4.856811E-2,6.193634E-2,-6.4672284E-2,3.4015741E0,5.461175E-3,3.500361E-1,1.4285714E-2,6.6131866E-1,8.996872E-1,1.2246547E0,1.1367795E-1,3.042354E2,-1.3567686E-1,2.7711308E-1,8.9491487E-1,1.22496E0,5.169898E-1,8.24231E-3,1E0,7.7521163E-1,6.715662E-2,1.497033E0,2.6228905E-3,1.0840805E-2,2.2187755E2,1.4752923E-3,-1.1837581E-2,-5.397095E-3,-9.2972425E-4,4.634582E-3,4.7462843E-3,-4.557588E-3,-2.8596916E-3,-1.2211564E-2,-6.6996287E-3,-9.658715E-3,6.491136E-3,-2.387118E-3,8.309156E-3,-5.472571E-4,-3.8638792E-3,2.9036805E-3,-4.9168724E-3,5.4613515E-3,-4.9250997E-3,2.5632991E-3,-5.46183E-3,2.5314353E-3,-3.2593831E-3,4.944967E-3,8.3115924E-4,-9.648047E-3,-1.0009374E-3,6.633122E-3,1.4882513E-3,-1.9013896E-3,6.7414492E-3,-9.84328E-3,-8.455549E-3,-1.6294292E-3,-4.8516403E-4,3.3979283E-3,-4.6279533E-3,3.5254194E-3,3.5660448E-3,9.155904E-3,-2.7567493E-3,5.1629855E-3,-5.825678E-4,3.4245881E-3,1.3078544E-3,9.470548E-3,6.223186E-3,8.658338E-3,-8.356721E-3,4.4140457E-3,1.0673867E-2,1.2476114E-3],"split_indices":[3,8,9,11,11,11,9,2,2,1,4,9,8,11,4,9,1,12,1,1,2,8,8,11,3,3,5,1,3,12,0,0,0,2,11,1,11,4,2,12,11,3,5,8,11,2,5,5,4,7,2,8,0,10,11,5,1,0,0,5,0,0,0,0,0,0,0,0,0,0,0,0,0,0,0,0,0,0,0,0,0,0,0,0,0,0,0,0,0,0,0,0,0,0,0,0,0,0,0,0,0,0,0,0,0,0,0,0,0,0,0,0,0],"split_type":[0,0,0,0,0,0,0,0,0,0,0,0,0,0,0,0,0,0,0,0,0,0,0,0,0,0,0,0,0,0,0,0,0,0,0,0,0,0,0,0,0,0,0,0,0,0,0,0,0,0,0,0,0,0,0,0,0,0,0,0,0,0,0,0,0,0,0,0,0,0,0,0,0,0,0,0,0,0,0,0,0,0,0,0,0,0,0,0,0,0,0,0,0,0,0,0,0,0,0,0,0,0,0,0,0,0,0,0,0,0,0,0,0],"sum_hessian":[3.2530086E4,1.9401934E4,1.3128151E4,1.2388198E4,7.013736E3,4.899989E3,8.228162E3,7.363165E3,5.0250337E3,4.225195E3,2.7885413E3,1.9080461E3,2.9919426E3,3.0073203E3,5.2208423E3,6.8622017E3,5.009631E2,4.757933E3,2.6710022E2,2.3188826E3,1.906312E3,9.929974E2,1.7955441E3,1.2273344E3,6.807118E2,1.3353844E3,1.6565582E3,1.0582758E3,1.9490444E3,2.6273538E2,4.958107E3,6.790279E3,7.192311E1,4.0190744E2,9.905567E1,4.663892E3,9.404133E1,6.524783E1,2.0185237E2,6.408093E2,1.6780734E3,1.6330555E3,2.7325644E2,1.926912E2,8.0030615E2,1.5476863E3,2.478578E2,5.3843604E2,6.888983E2,3.3686414E2,3.438477E2,8.204983E2,5.148861E2,1.7524857E1,1.6390333E3,1.00193823E3,5.633752E1,1.5016473E1,1.934028E3,2.464998E2,1.6235584E1,6.68444E3,1.0583876E2,5.335711E1,1.8565998E1,2.5033804E1,3.7687363E2,2.1739275E1,7.731639E1,2.5109978E3,2.152894E3,6.649717E1,2.7544163E1,5.6233257E1,9.014579E0,1.3865181E2,6.320057E1,5.926789E2,4.813044E1,1.6362793E2,1.5144454E3,1.5578762E3,7.517928E1,1.1043571E2,1.6282074E2,1.7744748E2,1.5243709E1,1.6780254E1,7.835259E2,1.0921375E3,4.5554877E2,2.3186226E2,1.5995536E1,2.6730945E2,2.711266E2,4.538776E2,2.3502069E2,7.259728E1,2.6426685E2,2.640429E2,7.9804756E1,4.5079105E1,7.754192E2,9.016494E0,8.508362E0,1.0512019E1,1.6285214E3,4.7433615E2,5.276021E2,1.0983481E1,4.535404E1,2.3572198E2,1.0777823E1],"tree_param":{"num_deleted":"0","num_feature":"16","num_nodes":"113","size_leaf_vector":"1"}},{"base_weights":[8.933811E-3,-1.0885193E0,8.3728886E-1,-1.2915018E0,-5.236502E-1,2.0025103E-1,1.3344146E0,-1.3612106E0,-7.144122E-1,-6.048836E-1,4.0578604E-1,4.0644273E-2,8.374605E-1,1.0240667E0,1.530565E0,-1.482963E0,-1.1763014E0,-9.383324E-1,-2.2210272E-1,-8.2677275E-1,-3.970478E-1,-2.6843482E-1,7.761847E-1,-2.0661047E-1,2.4058422E-1,5.031811E-1,9.794082E-1,6.04941E-1,1.2505053E0,1.4218731E0,1.2996754E-2,-2.633409E-1,-1.4865775E0,-1.1005313E0,-1.4158626E0,-1.078115E0,-1.2657474E-1,-6.6086254E-3,-1.0823941E0,-3.5756248E-1,-9.4467336E-1,-4.3622857E-1,6.916785E-1,5.0743765E-1,-8.5285795E-1,4.834076E-1,9.080665E-3,-6.5040624E-1,-7.162046E-2,5.889169E-1,8.658259E-2,5.9047467E-1,3.264546E-2,-0E0,1.0006613E0,2.8027147E-1,7.055639E-1,1.0829962E0,1.3200048E0,1.1199822E0,1.1831716E-2,1.3882042E-3,-6.5453197E-3,-1.2888706E-2,-1.1407639E-2,-8.940915E-3,3.2415967E-3,-1.2229833E-2,-5.4722507E-3,2.4956476E-3,-8.869637E-3,3.647974E-3,-3.6402978E-3,4.8607777E-4,-8.506102E-3,-2.8356966E-3,-1.1824533E-2,-4.7991537E-3,8.482595E-4,-6.5146517E-3,-1.004101E-2,-7.2069583E-3,-2.7045808E-3,-0E0,6.602771E-3,-0E0,5.875947E-3,-1.8403283E-3,-9.166376E-3,6.3491315E-3,-6.3424865E-3,-6.398487E-3,-5.356635E-4,1.6795764E-4,-5.258165E-3,2.4824566E-3,6.219036E-3,-1.3841942E-5,5.703704E-3,2.429961E-3,6.184733E-3,2.6961737E-3,-3.3152727E-3,-6.798562E-3,4.2854766E-3,7.344961E-3,1.0139872E-2,2.463221E-4,4.6047573E-3,4.4732904E-3,6.9420096E-3,8.819426E-3,-0E0,5.898738E-3,1.0709204E-2,9.375079E-3,-0E0],"categories":[],"categories_nodes":[],"categories_segments":[],"categories_sizes":[],"default_left":[0,0,0,0,0,0,0,0,0,0,0,0,0,0,0,0,0,0,0,0,0,0,0,0,0,0,0,0,0,0,0,0,0,0,0,0,0,0,0,0,0,0,0,0,0,0,0,0,0,0,0,0,0,0,0,0,0,0,0,0,0,0,0,0,0,0,0,0,0,0,0,0,0,0,0,0,0,0,0,0,0,0,0,0,0,0,0,0,0,0,0,0,0,0,0,0,0,0,0,0,0,0,0,0,0,0,0,0,0,0,0,0,0,0,0,0,0],"id":12,"left_children":[1,3,5,7,9,11,13,15,17,19,21,23,25,27,29,31,33,35,37,39,41,43,45,47,49,51,53,55,57,59,-1,61,63,65,67,69,71,73,75,77,79,81,83,85,87,89,-1,91,93,95,97,99,101,103,105,107,109,111,113,115,-1,-1,-1,-1,-1,-1,-1,-1,-1,-1,-1,-1,-1,-1,-1,-1,-1,-1,-1,-1,-1,-1,-1,-1,-1,-1,-1,-1,-1,-1,-1,-1,-1,-1,-1,-1,-1,-1,-1,-1,-1,-1,-1,-1,-1,-1,-1,-1,-1,-1,-1,-1,-1,-1,-1,-1,-1],"loss_changes":[2.9731082E4,1.6019473E3,5.8960674E3,4.0189062E2,2.8461584E2,8.292246E2,6.168672E2,1.8542578E2,1.2004834E2,1.524209E2,7.862988E1,3.2456586E2,6.917761E1,3.7587842E2,3.7691406E1,1.5922852E1,4.7243164E1,8.311578E1,6.5219284E1,8.467993E1,7.840863E1,5.4460426E1,1.1759796E1,1.7289816E2,1.9255098E2,1.8924927E1,2.584143E1,4.2905212E1,1.2073242E1,3.1398438E1,0E0,9.969437E0,1.3970703E1,7.933716E1,5.5446045E1,3.305365E1,2.5751022E1,2.5343012E1,1.0825233E1,4.1239403E1,3.857666E1,7.341077E1,7.3018436E0,6.2993402E0,6.176811E0,5.5963757E1,0E0,5.5970062E1,1.245808E2,5.2931976E1,1.4241943E2,1.7110748E1,1.3629262E1,1.7917183E1,8.60022E0,2.485261E1,1.7869995E1,1.8586487E1,5.6013184E0,2.7053772E1,0E0,0E0,0E0,0E0,0E0,0E0,0E0,0E0,0E0,0E0,0E0,0E0,0E0,0E0,0E0,0E0,0E0,0E0,0E0,0E0,0E0,0E0,0E0,0E0,0E0,0E0,0E0,0E0,0E0,0E0,0E0,0E0,0E0,0E0,0E0,0E0,0E0,0E0,0E0,0E0,0E0,0E0,0E0,0E0,0E0,0E0,0E0,0E0,0E0,0E0,0E0,0E0,0E0,0E0,0E0,0E0,0E0],"parents":[2147483647,0,0,1,1,2,2,3,3,4,4,5,5,6,6,7,7,8,8,9,9,10,10,11,11,12,12,13,13,14,14,15,15,16,16,17,17,18,18,19,19,20,20,21,21,22,22,23,23,24,24,25,25,26,26,27,27,28,28,29,29,31,31,32,32,33,33,34,34,35,35,36,36,37,37,38,38,39,39,40,40,41,41,42,42,43,43,44,44,45,45,47,47,48,48,49,49,50,50,51,51,52,52,53,53,54,54,55,55,56,56,57,57,58,58,59,59],"right_children":[2,4,6,8,10,12,14,16,18,20,22,24,26,28,30,32,34,36,38,40,42,44,46,48,50,52,54,56,58,60,-1,62,64,66,68,70,72,74,76,78,80,82,84,86,88,90,-1,92,94,96,98,100,102,104,106,108,110,112,114,116,-1,-1,-1,-1,-1,-1,-1,-1,-1,-1,-1,-1,-1,-1,-1,-1,-1,-1,-1,-1,-1,-1,-1,-1,-1,-1,-1,-1,-1,-1,-1,-1,-1,-1,-1,-1,-1,-1,-1,-1,-1,-1,-1,-1,-1,-1,-1,-1,-1,-1,-1,-1,-1,-1,-1,-1,-1],"split_conditions":[3E0,1.3171381E-1,2E0,1.0133418E0,2.0368156E0,9.192973E-3,4E0,-2.2640905E-1,-3.9595928E-2,4.072699E-1,4.3796307E-1,9.1025454E-1,1.0478103E0,6.395044E-1,7E0,-4.2618826E-1,8.487747E-2,2.4631183E0,6.387377E-2,5.661782E-3,4.1318574E0,1.9102077E-1,7.615367E-1,-1.22104794E-1,9.884999E-1,1.0850549E0,-1.8695487E-1,8.502922E-4,1.1256267E0,3.0508336E-1,1.2996754E-2,-4.6263382E-1,-4.6008092E-1,8.051228E-2,9.5981777E-1,1.0171522E0,-3.6925012E-1,7.561986E-2,6.051468E-2,2.9226413E-1,2.2877099E-1,3.500361E-1,-1.9088048E-1,2.5781329E0,3.7254176E-1,2.3963968E-1,9.080665E-3,1E0,1.5824646E0,1.2246547E0,1.3129072E0,3.2989767E-1,9.52381E-2,2.9850746E-2,1.315992E0,2.1052632E-1,3E0,1.1148328E0,1.6949153E-2,1.4071379E2,1.1831716E-2,1.3882042E-3,-6.5453197E-3,-1.2888706E-2,-1.1407639E-2,-8.940915E-3,3.2415967E-3,-1.2229833E-2,-5.4722507E-3,2.4956476E-3,-8.869637E-3,3.647974E-3,-3.6402978E-3,4.8607777E-4,-8.506102E-3,-2.8356966E-3,-1.1824533E-2,-4.7991537E-3,8.482595E-4,-6.5146517E-3,-1.004101E-2,-7.2069583E-3,-2.7045808E-3,-0E0,6.602771E-3,-0E0,5.875947E-3,-1.8403283E-3,-9.166376E-3,6.3491315E-3,-6.3424865E-3,-6.398487E-3,-5.356635E-4,1.6795764E-4,-5.258165E-3,2.4824566E-3,6.219036E-3,-1.3841942E-5,5.703704E-3,2.429961E-3,6.184733E-3,2.6961737E-3,-3.3152727E-3,-6.798562E-3,4.2854766E-3,7.344961E-3,1.0139872E-2,2.463221E-4,4.6047573E-3,4.4732904E-3,6.9420096E-3,8.819426E-3,-0E0,5.898738E-3,1.0709204E-2,9.375079E-3,-0E0],"split_indices":[6,11,9,2,2,12,9,11,5,8,5,11,8,8,9,4,4,2,11,4,4,8,11,5,4,2,5,12,8,11,0,2,2,4,4,2,11,4,8,5,5,11,5,2,11,4,0,15,4,11,8,5,0,3,8,0,9,8,3,5,0,0,0,0,0,0,0,0,0,0,0,0,0,0,0,0,0,0,0,0,0,0,0,0,0,0,0,0,0,0,0,0,0,0,0,0,0,0,0,0,0,0,0,0,0,0,0,0,0,0,0,0,0,0,0,0,0],"split_type":[0,0,0,0,0,0,0,0,0,0,0,0,0,0,0,0,0,0,0,0,0,0,0,0,0,0,0,0,0,0,0,0,0,0,0,0,0,0,0,0,0,0,0,0,0,0,0,0,0,0,0,0,0,0,0,0,0,0,0,0,0,0,0,0,0,0,0,0,0,0,0,0,0,0,0,0,0,0,0,0,0,0,0,0,0,0,0,0,0,0,0,0,0,0,0,0,0,0,0,0,0,0,0,0,0,0,0,0,0,0,0,0,0,0,0,0,0],"sum_hessian":[3.2689357E4,1.4058156E4,1.8631201E4,1.0330391E4,3.7277656E3,8.1739785E3,1.0457223E4,9.202693E3,1.1276965E3,3.433681E3,2.9408478E2,6.5472554E3,1.626723E3,4.07494E3,6.3822827E3,5.5053457E3,3.6973481E3,7.6596594E2,3.6173062E2,1.6421906E3,1.7914904E3,1.0218488E2,1.918999E2,2.9204385E3,3.626817E3,5.020097E2,1.1247133E3,1.4442788E3,2.6306614E3,3.0349448E3,3.3473376E3,2.0466156E1,5.4848794E3,2.8524353E3,8.4491284E2,6.480523E2,1.1791365E2,2.985065E2,6.322414E1,3.4136472E2,1.3008258E3,1.7365461E3,5.494425E1,4.2148994E1,6.003589E1,1.20629074E2,7.127083E1,6.688255E2,2.251613E3,1.098982E3,2.527835E3,4.1635318E2,8.565655E1,2.179707E1,1.1029163E3,3.5593082E2,1.088348E3,8.229644E2,1.8076968E3,5.172563E2,2.5176885E3,1.1501072E1,8.965083E0,1.7128439E3,3.7720356E3,2.8244456E3,2.7989777E1,7.2091876E2,1.2399408E2,1.025771E1,6.3779456E2,3.8099495E1,7.9814156E1,2.8503458E2,1.3471915E1,3.0275002E1,3.294914E1,2.2688556E2,1.1447917E2,9.433943E2,3.5743152E2,2.861257E2,1.4504204E3,8.017989E0,4.6926258E1,1.4536298E1,2.7612696E1,2.704945E1,3.298644E1,1.0136433E2,1.926475E1,5.260185E2,1.42807E2,1.9463987E3,3.052143E2,4.584024E2,6.4057965E2,2.2182712E3,3.095637E2,1.766798E2,2.3967337E2,5.6124146E1,2.95324E1,8.246375E0,1.3550695E1,8.780605E2,2.2485574E2,2.032354E2,1.5269543E2,6.004311E2,4.8791687E2,8.092217E2,1.3742761E1,7.1100845E1,1.736596E3,4.9145932E2,2.5796959E1],"tree_param":{"num_deleted":"0","num_feature":"16","num_nodes":"117","size_leaf_vector":"1"}},{"base_weights":[-2.3898298E-3,-1.1122533E0,8.272524E-1,-1.3228993E0,-5.748394E-1,1.9055371E-1,1.3172323E0,-1.4025196E0,-6.627278E-1,-6.49845E-1,3.498233E-1,8.663591E-3,8.6365765E-1,9.995152E-1,1.5193504E0,-1.4668941E0,-1.1946163E0,-8.579528E-1,-1.4912E-1,-9.09651E-1,-4.4117463E-1,-9.6737035E-2,6.507368E-1,-1.7188129E-1,2.8454864E-1,4.888531E-1,1.0514525E0,4.7145033E-1,1.2058198E0,1.2371483E0,1.5591575E0,-1.5956283E0,-1.3956245E0,-1.2038385E0,9.838127E-4,-9.620568E-1,1.2131724E-1,3.420325E-1,-5.0357723E-1,-9.391976E-1,1.985012E-1,-6.075041E-1,-1.531313E-1,3.387457E-1,-1.1122116E-2,4.4302996E-2,8.3084667E-1,-2.5457993E-1,3.2610312E-1,6.481372E-1,8.651458E-2,3.3370999E-1,8.31556E-1,9.3923664E-1,1.0921535E-2,2.1619415E-1,7.5030553E-1,1.0001688E0,1.0242692E-2,1.2876487E0,6.401223E-2,1.1838181E-2,1.3153723E-2,-0E0,-1.28049925E-2,-1.1732145E-2,-9.751941E-3,-9.743753E-3,-2.3641046E-3,-9.477201E-3,-5.5958773E-3,5.394277E-3,-1.8687333E-3,5.7375776E-3,-0E0,-1.1409364E-2,-2.0272003E-3,2.5025553E-3,-7.729066E-3,6.4621195E-3,-7.298926E-3,-3.4900259E-3,-8.8062305E-3,3.9553912E-3,-3.0534344E-3,4.354907E-3,-3.528445E-3,7.01252E-3,-6.7504416E-3,7.5353794E-3,-0E0,-2.8467285E-3,8.968267E-4,-6.3195045E-4,5.046641E-3,-0E0,5.986594E-3,1.8357857E-3,-2.1673085E-3,3.545077E-3,-1.3799057E-3,9.164844E-3,2.9640933E-3,1.647371E-3,7.856459E-3,-2.6442325E-3,2.8590001E-3,6.3408567E-3,-3.829877E-3,2.1152685E-3,8.337772E-3,1.0380471E-2,1.151668E-3,4.4756224E-3,-7.1908613E-3],"categories":[],"categories_nodes":[],"categories_segments":[],"categories_sizes":[],"default_left":[0,0,0,0,0,0,0,0,0,0,0,0,0,0,0,0,0,0,0,0,0,0,0,0,0,0,0,0,0,0,0,0,0,0,0,0,0,0,0,0,0,0,0,0,0,0,0,0,0,0,0,0,0,0,0,0,0,0,0,0,0,0,0,0,0,0,0,0,0,0,0,0,0,0,0,0,0,0,0,0,0,0,0,0,0,0,0,0,0,0,0,0,0,0,0,0,0,0,0,0,0,0,0,0,0,0,0,0,0,0,0,0,0,0,0],"id":13,"left_children":[1,3,5,7,9,11,13,15,17,19,21,23,25,27,29,31,33,35,37,39,41,43,45,47,49,51,53,55,57,59,61,63,65,67,-1,69,71,73,75,77,79,81,83,85,-1,87,89,91,93,95,97,99,101,103,-1,105,107,109,-1,111,113,-1,-1,-1,-1,-1,-1,-1,-1,-1,-1,-1,-1,-1,-1,-1,-1,-1,-1,-1,-1,-1,-1,-1,-1,-1,-1,-1,-1,-1,-1,-1,-1,-1,-1,-1,-1,-1,-1,-1,-1,-1,-1,-1,-1,-1,-1,-1,-1,-1,-1,-1,-1,-1,-1],"loss_changes":[2.9947154E4,1.5632656E3,5.7989414E3,5.1122656E2,2.756996E2,9.8961426E2,6.553496E2,9.7103516E1,1.05638824E2,1.9042688E2,4.214511E1,3.191259E2,1.1237634E2,4.3887305E2,4.8118164E1,3.513379E1,3.0651367E1,8.365686E1,5.6735218E1,5.643811E1,9.491135E1,7.605408E1,1.7045776E1,1.5950372E2,1.8009836E2,2.589946E1,2.2753174E1,7.9341705E1,2.8132812E1,4.5032227E1,8.787109E0,1.5527832E1,3.3026367E1,2.0126953E1,0E0,2.9494385E1,1.826882E1,