{"learner":{"attributes":{"best_iteration":"359","best_score":"0.8580384452569884","scikit_learn":"{\"_estimator_type\": \"classifier\"}"},"feature_names":["AgeSafe","IncomePerAge","RevolvingUtilization","MonthlyIncome","CreditLinesSafeAge","DelinquencyScore","RealEstateLeveragePerAge","LatePaymentsPerCreditLine","CreditBurdenIndex","IncomePerDelinquency","DisposableIncome","DebtToIncome","DebtRatio","PastDueSeverity","UtilizationBucketLateBucket","WasIncomePerAgeImputed","WasRevolvingUtilizationImputed","WasCreditLinesSafeAgeImputed","WasRealEstateLeveragePerAgeImputed","WasCreditBurdenIndexImputed","WasDisposableIncomeImputed","WasDebtToIncomeImputed","WasDebtRatioImputed"],"feature_types":["float","float","float","float","float","float","float","float","float","float","float","float","float","float","float","float","float","float","float","float","float","float","float"],"gradient_booster":{"model":{"cats":{"enc":[],"feature_segments":[],"sorted_idx":[]},"gbtree_model_param":{"num_parallel_tree":"1","num_trees":"460"},"iteration_indptr":[0,1,2,3,4,5,6,7,8,9,10,11,12,13,14,15,16,17,18,19,20,21,22,23,24,25,26,27,28,29,30,31,32,33,34,35,36,37,38,39,40,41,42,43,44,45,46,47,48,49,50,51,52,53,54,55,56,57,58,59,60,61,62,63,64,65,66,67,68,69,70,71,72,73,74,75,76,77,78,79,80,81,82,83,84,85,86,87,88,89,90,91,92,93,94,95,96,97,98,99,100,101,102,103,104,105,106,107,108,109,110,111,112,113,114,115,116,117,118,119,120,121,122,123,124,125,126,127,128,129,130,131,132,133,134,135,136,137,138,139,140,141,142,143,144,145,146,147,148,149,150,151,152,153,154,155,156,157,158,159,160,161,162,163,164,165,166,167,168,169,170,171,172,173,174,175,176,177,178,179,180,181,182,183,184,185,186,187,188,189,190,191,192,193,194,195,196,197,198,199,200,201,202,203,204,205,206,207,208,209,210,211,212,213,214,215,216,217,218,219,220,221,222,223,224,225,226,227,228,229,230,231,232,233,234,235,236,237,238,239,240,241,242,243,244,245,246,247,248,249,250,251,252,253,254,255,256,257,258,259,260,261,262,263,264,265,266,267,268,269,270,271,272,273,274,275,276,277,278,279,280,281,282,283,284,285,286,287,288,289,290,291,292,293,294,295,296,297,298,299,300,301,302,303,304,305,306,307,308,309,310,311,312,313,314,315,316,317,318,319,320,321,322,323,324,325,326,327,328,329,330,331,332,333,334,335,336,337,338,339,340,341,342,343,344,345,346,347,348,349,350,351,352,353,354,355,356,357,358,359,360,361,362,363,364,365,366,367,368,369,370,371,372,373,374,375,376,377,378,379,380,381,382,383,384,385,386,387,388,389,390,391,392,393,394,395,396,397,398,399,400,401,402,403,404,405,406,407,408,409,410,411,412,413,414,415,416,417,418,419,420,421,422,423,424,425,426,427,428,429,430,431,432,433,434,435,436,437,438,439,440,441,442,443,444,445,446,447,448,449,450,451,452,453,454,455,456,457,458,459,460],"tree_info":[0,0,0,0,0,0,0,0,0,0,0,0,0,0,0,0,0,0,0,0,0,0,0,0,0,0,0,0,0,0,0,0,0,0,0,0,0,0,0,0,0,0,0,0,0,0,0,0,0,0,0,0,0,0,0,0,0,0,0,0,0,0,0,0,0,0,0,0,0,0,0,0,0,0,0,0,0,0,0,0,0,0,0,0,0,0,0,0,0,0,0,0,0,0,0,0,0,0,0,0,0,0,0,0,0,0,0,0,0,0,0,0,0,0,0,0,0,0,0,0,0,0,0,0,0,0,0,0,0,0,0,0,0,0,0,0,0,0,0,0,0,0,0,0,0,0,0,0,0,0,0,0,0,0,0,0,0,0,0,0,0,0,0,0,0,0,0,0,0,0,0,0,0,0,0,0,0,0,0,0,0,0,0,0,0,0,0,0,0,0,0,0,0,0,0,0,0,0,0,0,0,0,0,0,0,0,0,0,0,0,0,0,0,0,0,0,0,0,0,0,0,0,0,0,0,0,0,0,0,0,0,0,0,0,0,0,0,0,0,0,0,0,0,0,0,0,0,0,0,0,0,0,0,0,0,0,0,0,0,0,0,0,0,0,0,0,0,0,0,0,0,0,0,0,0,0,0,0,0,0,0,0,0,0,0,0,0,0,0,0,0,0,0,0,0,0,0,0,0,0,0,0,0,0,0,0,0,0,0,0,0,0,0,0,0,0,0,0,0,0,0,0,0,0,0,0,0,0,0,0,0,0,0,0,0,0,0,0,0,0,0,0,0,0,0,0,0,0,0,0,0,0,0,0,0,0,0,0,0,0,0,0,0,0,0,0,0,0,0,0,0,0,0,0,0,0,0,0,0,0,0,0,0,0,0,0,0,0,0,0,0,0,0,0,0,0,0,0,0,0,0,0,0,0,0,0,0,0,0,0,0,0,0,0,0,0,0,0,0,0,0,0,0,0,0,0,0,0,0,0,0,0,0,0,0,0,0,0,0,0,0,0,0,0,0,0,0,0,0,0,0,0,0,0,0,0,0,0,0,0],"trees":[{"base_weights":[3.1670565E-3,-1.22607E0,9.272037E-1,-1.4098893E0,-5.546178E-1,2.6203167E-1,1.4560925E0,-1.5039107E0,-8.3165014E-1,-7.3228264E-1,-1.0908041E-1,4.350268E-1,-2.218975E-1,1.1368977E0,1.6649274E0,-3.4240108E-2,-1.0475676E-2,-2.0792982E-2,1.1761923E-2,-1.9415153E-2,-8.999835E-3,-8.093053E-3,8.506292E-3,5.238271E-3,1.7583901E-2,4.4111316E-3,-1.0190609E-2,1.4800373E-2,3.1211201E-2,3.3221252E-2,3.8608722E-2],"categories":[],"categories_nodes":[],"categories_segments":[],"categories_sizes":[],"default_left":[0,0,0,0,0,0,0,0,0,0,0,0,0,0,0,0,0,0,0,0,0,0,0,0,0,0,0,0,0,0,0],"id":0,"left_children":[1,3,5,7,9,11,13,15,17,19,21,23,25,27,29,-1,-1,-1,-1,-1,-1,-1,-1,-1,-1,-1,-1,-1,-1,-1,-1],"loss_changes":[4.049904E4,1.8806582E3,7.1568516E3,6.401758E2,2.608037E2,7.5675024E2,7.367246E2,2.6571094E2,2.2917273E2,1.0174133E2,1.1913618E2,4.6690186E2,2.3390573E2,5.4341016E2,4.814258E1,0E0,0E0,0E0,0E0,0E0,0E0,0E0,0E0,0E0,0E0,0E0,0E0,0E0,0E0,0E0,0E0],"parents":[2147483647,0,0,1,1,2,2,3,3,4,4,5,5,6,6,7,7,8,8,9,9,10,10,11,11,12,12,13,13,14,14],"right_children":[2,4,6,8,10,12,14,16,18,20,22,24,26,28,30,-1,-1,-1,-1,-1,-1,-1,-1,-1,-1,-1,-1,-1,-1,-1,-1],"split_conditions":[3E0,2.1557969E-1,1.0986123E0,9.810989E-1,8.2555884E-1,1.8577234E-1,1.609438E0,1.3353022E0,2.7633603E0,5.9057575E-1,2.5740259E0,4.9976116E-1,-6.0890245E-1,6.489621E-1,2.1972246E0,-3.4240108E-2,-1.0475676E-2,-2.0792982E-2,1.1761923E-2,-1.9415153E-2,-8.999835E-3,-8.093053E-3,8.506292E-3,5.238271E-3,1.7583901E-2,4.4111316E-3,-1.0190609E-2,1.4800373E-2,3.1211201E-2,3.3221252E-2,3.8608722E-2],"split_indices":[14,2,5,4,4,0,5,6,11,2,6,8,10,2,13,0,0,0,0,0,0,0,0,0,0,0,0,0,0,0,0],"split_type":[0,0,0,0,0,0,0,0,0,0,0,0,0,0,0,0,0,0,0,0,0,0,0,0,0,0,0,0,0,0,0],"sum_hessian":[3.563495E4,1.5290656E4,2.0344293E4,1.1995665E4,3.2949915E3,9.017788E3,1.1326505E4,1.03041875E4,1.6914778E3,2.351026E3,9.439655E2,6.6437944E3,2.373994E3,4.5051196E3,6.8213857E3,1.0051623E4,2.5256404E2,1.5814397E3,1.1003818E2,1.657452E3,6.935739E2,6.2433746E2,3.1962808E2,4.232325E3,2.4114692E3,8.4970197E2,1.5242919E3,1.5935726E3,2.9115469E3,1.7553141E3,5.0660713E3],"tree_param":{"num_deleted":"0","num_feature":"23","num_nodes":"31","size_leaf_vector":"1"}},{"base_weights":[-7.31134E-4,-9.827459E-1,1.097789E0,-1.3590198E0,-3.000071E-1,5.145885E-1,1.5139538E0,-1.472475E0,-8.5303247E-1,-4.4116873E-1,2.9952064E-1,2.6354596E-1,7.4672914E-1,1.286531E0,1.6753144E0,-2.1854402E-2,-3.461235E-2,-2.3879163E-2,-8.730894E-3,-1.3107157E-2,-1.6619464E-4,-2.4911822E-3,1.698854E-2,9.400754E-3,-2.3179098E-3,1.7992062E-3,1.9318577E-2,2.0888733E-2,3.209752E-2,3.5037573E-2,3.8751066E-2],"categories":[],"categories_nodes":[],"categories_segments":[],"categories_sizes":[],"default_left":[0,0,0,0,0,0,0,0,0,0,0,0,0,0,0,0,0,0,0,0,0,0,0,0,0,0,0,0,0,0,0],"id":1,"left_children":[1,3,5,7,9,11,13,15,17,19,21,23,25,27,29,-1,-1,-1,-1,-1,-1,-1,-1,-1,-1,-1,-1,-1,-1,-1,-1],"loss_changes":[3.8431926E4,4.82825E3,4.0734336E3,6.834258E2,5.680341E2,4.069884E2,3.3833594E2,3.461211E2,2.1781958E2,3.394619E2,2.4277905E2,1.9485588E2,2.8119287E2,2.0065674E2,7.861328E0,0E0,0E0,0E0,0E0,0E0,0E0,0E0,0E0,0E0,0E0,0E0,0E0,0E0,0E0,0E0,0E0],"parents":[2147483647,0,0,1,1,2,2,3,3,4,4,5,5,6,6,7,7,8,8,9,9,10,10,11,11,12,12,13,13,14,14],"right_children":[2,4,6,8,10,12,14,16,18,20,22,24,26,28,30,-1,-1,-1,-1,-1,-1,-1,-1,-1,-1,-1,-1,-1,-1,-1,-1],"split_conditions":[5E0,2E0,1.3862944E0,7.976414E-1,1.1547251E0,5.3480834E-1,1.7917595E0,-8.43664E-1,5.2842206E-1,8.9733624E-1,6.7884564E-1,-1.8252049E-2,6.931472E-1,7.3016346E-1,2.0794415E0,-2.1854402E-2,-3.461235E-2,-2.3879163E-2,-8.730894E-3,-1.3107157E-2,-1.6619464E-4,-2.4911822E-3,1.698854E-2,9.400754E-3,-2.3179098E-3,1.7992062E-3,1.9318577E-2,2.0888733E-2,3.209752E-2,3.5037573E-2,3.8751066E-2],"split_indices":[14,14,13,4,4,8,5,10,6,2,2,0,5,2,5,0,0,0,0,0,0,0,0,0,0,0,0,0,0,0,0],"split_type":[0,0,0,0,0,0,0,0,0,0,0,0,0,0,0,0,0,0,0,0,0,0,0,0,0,0,0,0,0,0,0],"sum_hessian":[3.5605926E4,1.8800451E4,1.6805475E4,1.2114137E4,6.686314E3,7.0076123E3,9.797862E3,9.879728E3,2.2344087E3,5.414178E3,1.2721357E3,3.3770183E3,3.6305938E3,4.103769E3,5.694093E3,1.2944438E3,8.585284E3,1.5200948E3,7.143139E2,4.059925E3,1.3542533E3,6.755335E2,5.9660223E2,2.3672175E3,1.0098007E3,5.416196E2,3.088974E3,1.2282126E3,2.8755564E3,2.0074772E3,3.6866157E3],"tree_param":{"num_deleted":"0","num_feature":"23","num_nodes":"31","size_leaf_vector":"1"}},{"base_weights":[-8.9765963E-4,-1.1753186E0,8.8420945E-1,-1.3427328E0,-5.5235803E-1,2.2147813E-1,1.397702E0,-1.50428E0,-9.674478E-1,-4.0754844E-2,-7.1502906E-1,-1.8684858E-1,4.107224E-1,1.0709378E0,1.6040576E0,-3.4498475E-2,-2.1820417E-2,-2.6015133E-2,-1.2232238E-2,-2.9662032E-2,4.0105022E-3,-1.6529629E-2,1.7556222E-2,-7.2258343E-3,6.2141013E-3,4.5722295E-3,2.2730498E-2,1.3433052E-2,2.9615697E-2,3.335724E-2,3.8054585E-2],"categories":[],"categories_nodes":[],"categories_segments":[],"categories_sizes":[],"default_left":[0,0,0,0,0,0,0,0,0,0,0,0,0,0,0,0,0,0,0,0,0,0,0,0,0,0,0,0,0,0,0],"id":2,"left_children":[1,3,5,7,9,11,13,15,17,19,21,23,25,27,29,-1,-1,-1,-1,-1,-1,-1,-1,-1,-1,-1,-1,-1,-1,-1,-1],"loss_changes":[3.708125E4,1.5914453E3,6.919379E3,7.175703E2,2.7136584E2,6.8791187E2,7.555039E2,1.4873828E2,2.937085E2,2.2777428E2,9.237024E1,1.7909079E2,7.5689575E2,5.218755E2,5.1140625E1,0E0,0E0,0E0,0E0,0E0,0E0,0E0,0E0,0E0,0E0,0E0,0E0,0E0,0E0,0E0,0E0],"parents":[2147483647,0,0,1,1,2,2,3,3,4,4,5,5,6,6,7,7,8,8,9,9,10,10,11,11,12,12,13,13,14,14],"right_children":[2,4,6,8,10,12,14,16,18,20,22,24,26,28,30,-1,-1,-1,-1,-1,-1,-1,-1,-1,-1,-1,-1,-1,-1,-1,-1],"split_conditions":[3E0,2.1557969E-1,1.0986123E0,4.2374697E-1,-1.1433289E0,8.9733624E-1,1.609438E0,1.147502E0,6.490157E-1,-9.2249453E-1,6.215757E0,1.0830045E0,6.931472E-1,6.489621E-1,2.0794415E0,-3.4498475E-2,-2.1820417E-2,-2.6015133E-2,-1.2232238E-2,-2.9662032E-2,4.0105022E-3,-1.6529629E-2,1.7556222E-2,-7.2258343E-3,6.2141013E-3,4.5722295E-3,2.2730498E-2,1.3433052E-2,2.9615697E-2,3.335724E-2,3.8054585E-2],"split_indices":[14,2,5,4,10,2,5,11,11,1,6,4,5,2,5,0,0,0,0,0,0,0,0,0,0,0,0,0,0,0,0],"split_type":[0,0,0,0,0,0,0,0,0,0,0,0,0,0,0,0,0,0,0,0,0,0,0,0,0,0,0,0,0,0,0],"sum_hessian":[3.5652598E4,1.5320731E4,2.0331867E4,1.2066433E4,3.254299E3,8.882341E3,1.1449525E4,8.414271E3,3.6521611E3,7.881429E2,2.4661562E3,2.8129648E3,6.069376E3,4.4557637E3,6.9937617E3,7.8509478E3,5.633236E2,2.4856875E3,1.1664738E3,1.0788534E2,6.802575E2,2.433384E3,3.2772198E1,2.178483E3,6.3448193E2,4.5342295E3,1.5351466E3,1.5648359E3,2.890928E3,3.2680854E3,3.725676E3],"tree_param":{"num_deleted":"0","num_feature":"23","num_nodes":"31","size_leaf_vector":"1"}},{"base_weights":[-4.416293E-3,-1.1503141E0,8.6215806E-1,-1.3648976E0,-6.4660704E-1,2.3150271E-1,1.3604974E0,-1.4451659E0,-8.097635E-1,-7.77777E-1,1.4313076E-1,-5.1178336E-1,3.3268437E-1,1.1014674E0,1.6107761E0,-3.3958554E-2,-2.464126E-2,-2.2189176E-2,-3.9378984E-4,-2.1533769E-2,-8.959915E-3,-9.093755E-3,1.3662289E-2,-7.6204985E-3,-2.321464E-2,3.855688E-3,1.6558336E-2,1.5831957E-2,2.9364254E-2,5.2087996E-3,3.6111273E-2],"categories":[],"categories_nodes":[],"categories_segments":[],"categories_sizes":[],"default_left":[0,0,0,0,0,0,0,0,0,0,0,0,0,0,0,0,0,0,0,0,0,0,0,0,0,0,0,0,0,0,0],"id":3,"left_children":[1,3,5,7,9,11,13,15,17,19,21,23,25,27,29,-1,-1,-1,-1,-1,-1,-1,-1,-1,-1,-1,-1,-1,-1,-1,-1],"loss_changes":[3.5271312E4,1.644334E3,6.353123E3,4.658047E2,4.7641406E2,6.740016E2,7.145176E2,2.1424414E2,1.9761682E2,2.6973755E2,1.7235132E2,9.321753E1,5.1289465E2,4.5332666E2,1.4016602E1,0E0,0E0,0E0,0E0,0E0,0E0,0E0,0E0,0E0,0E0,0E0,0E0,0E0,0E0,0E0,0E0],"parents":[2147483647,0,0,1,1,2,2,3,3,4,4,5,5,6,6,7,7,8,8,9,9,10,10,11,11,12,12,13,13,14,14],"right_children":[2,4,6,8,10,12,14,16,18,20,22,24,26,28,30,-1,-1,-1,-1,-1,-1,-1,-1,-1,-1,-1,-1,-1,-1,-1,-1],"split_conditions":[3E0,4.4985697E-2,1.0986123E0,8.7569433E-1,2.5740259E0,8.544136E-2,1.7917595E0,6.7001873E-1,7.9879326E-1,4.7424698E-1,4.1283277E-1,4.0817475E-1,6.417388E-1,6.489621E-1,-4.2899647E-1,-3.3958554E-2,-2.464126E-2,-2.2189176E-2,-3.9378984E-4,-2.1533769E-2,-8.959915E-3,-9.093755E-3,1.3662289E-2,-7.6204985E-3,-2.321464E-2,3.855688E-3,1.6558336E-2,1.5831957E-2,2.9364254E-2,5.2087996E-3,3.6111273E-2],"split_indices":[14,2,5,11,6,2,5,4,6,2,12,10,4,2,2,0,0,0,0,0,0,0,0,0,0,0,0,0,0,0,0],"split_type":[0,0,0,0,0,0,0,0,0,0,0,0,0,0,0,0,0,0,0,0,0,0,0,0,0,0,0,0,0,0,0],"sum_hessian":[3.5499758E4,1.5284858E4,2.02149E4,1.0706629E4,4.5782295E3,8.92935E3,1.1285551E4,9.340072E3,1.3665564E3,3.9262676E3,6.519619E2,1.0650143E3,7.864335E3,5.5723774E3,5.7131733E3,7.7026333E3,1.6374388E3,1.109891E3,2.566654E2,2.6288784E3,1.2973893E3,3.0021167E2,3.5175024E2,8.154105E2,2.4960373E2,5.6506016E3,2.2137334E3,1.9528285E3,3.6195488E3,1.10434265E1,5.70213E3],"tree_param":{"num_deleted":"0","num_feature":"23","num_nodes":"31","size_leaf_vector":"1"}},{"base_weights":[-1.2711176E-3,-9.2735726E-1,1.0348526E0,-1.2776203E0,-2.904374E-1,4.9345404E-1,1.4250488E0,-1.403143E0,-8.1938994E-1,-4.5279604E-1,1.6120185E-1,2.3929223E-1,7.0742935E-1,1.2158802E0,1.5761789E0,-3.402297E-2,-2.6671428E-2,-2.455088E-2,-7.2791358E-3,-1.4539338E-2,-3.5351717E-3,-6.625559E-3,9.478382E-3,8.977193E-3,-3.1565093E-3,1.0378615E-3,1.8245172E-2,1.9108854E-2,3.020629E-2,3.344088E-2,3.6833588E-2],"categories":[],"categories_nodes":[],"categories_segments":[],"categories_sizes":[],"default_left":[0,0,0,0,0,0,0,0,0,0,0,0,0,0,0,0,0,0,0,0,0,0,0,0,0,0,0,0,0,0,0],"id":4,"left_children":[1,3,5,7,9,11,13,15,17,19,21,23,25,27,29,-1,-1,-1,-1,-1,-1,-1,-1,-1,-1,-1,-1,-1,-1,-1,-1],"loss_changes":[3.403461E4,4.1746074E3,3.5293691E3,6.8336523E2,4.889729E2,3.8045374E2,2.8818164E2,2.1570508E2,3.5569348E2,2.831363E2,2.1316454E2,1.9900983E2,2.7049988E2,1.8768408E2,7.3603516E0,0E0,0E0,0E0,0E0,0E0,0E0,0E0,0E0,0E0,0E0,0E0,0E0,0E0,0E0,0E0,0E0],"parents":[2147483647,0,0,1,1,2,2,3,3,4,4,5,5,6,6,7,7,8,8,9,9,10,10,11,11,12,12,13,13,14,14],"right_children":[2,4,6,8,10,12,14,16,18,20,22,24,26,28,30,-1,-1,-1,-1,-1,-1,-1,-1,-1,-1,-1,-1,-1,-1,-1,-1],"split_conditions":[5E0,2E0,1.3862944E0,4.863278E-1,1.0436238E0,5.1537085E-1,1.7917595E0,-1.622344E-1,5.2842206E-1,6.7884564E-1,4.4080183E-1,-1.8252049E-2,6.931472E-1,6.489621E-1,2.6390574E0,-3.402297E-2,-2.6671428E-2,-2.455088E-2,-7.2791358E-3,-1.4539338E-2,-3.5351717E-3,-6.625559E-3,9.478382E-3,8.977193E-3,-3.1565093E-3,1.0378615E-3,1.8245172E-2,1.9108854E-2,3.020629E-2,3.344088E-2,3.6833588E-2],"split_indices":[14,14,13,11,11,8,5,2,6,2,4,0,5,2,13,0,0,0,0,0,0,0,0,0,0,0,0,0,0,0,0],"split_type":[0,0,0,0,0,0,0,0,0,0,0,0,0,0,0,0,0,0,0,0,0,0,0,0,0,0,0,0,0,0,0],"sum_hessian":[3.5449723E4,1.8719402E4,1.673032E4,1.2071058E4,6.648345E3,7.01695E3,9.71337E3,9.459249E3,2.6118088E3,4.8903296E3,1.7580154E3,3.2169993E3,3.799951E3,4.112315E3,5.6010547E3,6.060439E3,3.39881E3,1.6653704E3,9.464385E2,2.926595E3,1.9637346E3,6.402734E2,1.1177421E3,2.2568396E3,9.6015985E2,5.3373846E2,3.2662126E3,1.126481E3,2.9858342E3,2.6577075E3,2.943347E3],"tree_param":{"num_deleted":"0","num_feature":"23","num_nodes":"31","size_leaf_vector":"1"}},{"base_weights":[9.416356E-3,-8.9676064E-1,1.0202392E0,-1.2536863E0,-2.5322193E-1,4.929594E-1,1.4021462E0,-1.4025881E0,-9.0690374E-1,-4.186472E-1,1.6406442E-1,6.090635E-1,-1.2442273E-2,1.189475E0,1.5510409E0,-2.578295E-2,-3.3123795E-2,-2.1208476E-2,1.8761793E-2,-1.0612483E-2,8.774565E-3,-1.3040717E-3,1.5794197E-2,7.284737E-3,1.8563667E-2,-5.0924676E-3,1.595422E-2,1.9183084E-2,2.9347852E-2,2.9495265E-3,3.4748822E-2],"categories":[],"categories_nodes":[],"categories_segments":[],"categories_sizes":[],"default_left":[0,0,0,0,0,0,0,0,0,0,0,0,0,0,0,0,0,0,0,0,0,0,0,0,0,0,0,0,0,0,0],"id":5,"left_children":[1,3,5,7,9,11,13,15,17,19,21,23,25,27,29,-1,-1,-1,-1,-1,-1,-1,-1,-1,-1,-1,-1,-1,-1,-1,-1],"loss_changes":[3.2691738E4,4.3195264E3,3.3904043E3,6.122031E2,4.650192E2,4.168297E2,2.9117578E2,1.4615625E2,2.6651782E2,2.1827997E2,2.311359E2,3.579629E2,2.1000476E2,1.5313867E2,7.1259766E0,0E0,0E0,0E0,0E0,0E0,0E0,0E0,0E0,0E0,0E0,0E0,0E0,0E0,0E0,0E0,0E0],"parents":[2147483647,0,0,1,1,2,2,3,3,4,4,5,5,6,6,7,7,8,8,9,9,10,10,11,11,12,12,13,13,14,14],"right_children":[2,4,6,8,10,12,14,16,18,20,22,24,26,28,30,-1,-1,-1,-1,-1,-1,-1,-1,-1,-1,-1,-1,-1,-1,-1,-1],"split_conditions":[5E0,2E0,1.3862944E0,4.2374697E-1,8.6491853E-1,3.8979673E-1,1.7917595E0,-1.1531729E-1,2.742011E0,1.0986123E0,8.774055E-1,4.9976116E-1,1.0539762E-1,6.489621E-1,-2.3604198E0,-2.578295E-2,-3.3123795E-2,-2.1208476E-2,1.8761793E-2,-1.0612483E-2,8.774565E-3,-1.3040717E-3,1.5794197E-2,7.284737E-3,1.8563667E-2,-5.0924676E-3,1.595422E-2,1.9183084E-2,2.9347852E-2,2.9495265E-3,3.4748822E-2],"split_indices":[14,14,13,4,2,0,5,10,6,5,4,8,7,2,1,0,0,0,0,0,0,0,0,0,0,0,0,0,0,0,0],"split_type":[0,0,0,0,0,0,0,0,0,0,0,0,0,0,0,0,0,0,0,0,0,0,0,0,0,0,0,0,0,0,0],"sum_hessian":[3.567029E4,1.8809326E4,1.6860965E4,1.2092803E4,6.716523E3,7.092139E3,9.768826E3,8.438849E3,3.6539546E3,4.809772E3,1.9067513E3,5.7655977E3,1.3265414E3,4.0598972E3,5.7089287E3,2.0190905E3,6.419758E3,3.5756562E3,7.829843E1,4.506001E3,3.03771E2,1.3580417E3,5.4870966E2,2.5301792E3,3.2354185E3,1.0284309E3,2.981104E2,1.10749E3,2.9524072E3,5.491708E0,5.703437E3],"tree_param":{"num_deleted":"0","num_feature":"23","num_nodes":"31","size_leaf_vector":"1"}},{"base_weights":[8.717827E-4,-8.834116E-1,9.9239045E-1,-1.2364002E0,-2.5021842E-1,4.727849E-1,1.371336E0,-1.379425E0,-8.6860514E-1,-3.8174054E-1,2.767666E-1,6.095559E-1,1.10761926E-1,1.1596507E0,1.5212764E0,-2.1896012E-2,-3.2034937E-2,-1.0717282E-2,-2.4259305E-2,-1.1470944E-2,1.0884832E-4,-2.2814733E-3,1.5355177E-2,8.471975E-3,1.7958367E-2,1.2127979E-2,-4.9714525E-3,1.8601218E-2,2.9073158E-2,3.0900624E-2,3.5040054E-2],"categories":[],"categories_nodes":[],"categories_segments":[],"categories_sizes":[],"default_left":[0,0,0,0,0,0,0,0,0,0,0,0,0,0,0,0,0,0,0,0,0,0,0,0,0,0,0,0,0,0,0],"id":6,"left_children":[1,3,5,7,9,11,13,15,17,19,21,23,25,27,29,-1,-1,-1,-1,-1,-1,-1,-1,-1,-1,-1,-1,-1,-1,-1,-1],"loss_changes":[3.1117396E4,4.1898613E3,3.2878164E3,6.214707E2,4.6732648E2,3.494391E2,2.892461E2,1.6493555E2,2.7972144E2,2.7216443E2,2.0976222E2,2.2533008E2,2.810831E2,1.7433057E2,1.3208008E1,0E0,0E0,0E0,0E0,0E0,0E0,0E0,0E0,0E0,0E0,0E0,0E0,0E0,0E0,0E0,0E0],"parents":[2147483647,0,0,1,1,2,2,3,3,4,4,5,5,6,6,7,7,8,8,9,9,10,10,11,11,12,12,13,13,14,14],"right_children":[2,4,6,8,10,12,14,16,18,20,22,24,26,28,30,-1,-1,-1,-1,-1,-1,-1,-1,-1,-1,-1,-1,-1,-1,-1,-1],"split_conditions":[5E0,2E0,1.3862944E0,4.8093084E-1,1.1078353E0,1.1776421E-1,1.7917595E0,-8.43664E-1,-4.734084E-1,8.9733624E-1,6.7884564E-1,4.9976116E-1,-3.2815506E0,7.3016346E-1,9.6833444E-1,-2.1896012E-2,-3.2034937E-2,-1.0717282E-2,-2.4259305E-2,-1.1470944E-2,1.0884832E-4,-2.2814733E-3,1.5355177E-2,8.471975E-3,1.7958367E-2,1.2127979E-2,-4.9714525E-3,1.8601218E-2,2.9073158E-2,3.0900624E-2,3.5040054E-2],"split_indices":[14,14,13,4,4,0,5,10,10,2,2,8,9,2,2,0,0,0,0,0,0,0,0,0,0,0,0,0,0,0,0],"split_type":[0,0,0,0,0,0,0,0,0,0,0,0,0,0,0,0,0,0,0,0,0,0,0,0,0,0,0,0,0,0,0],"sum_hessian":[3.5470402E4,1.8749652E4,1.672075E4,1.2032375E4,6.7172773E3,7.0611245E3,9.659625E3,8.643601E3,3.3887744E3,5.3778716E3,1.3394056E3,5.1199575E3,1.9411671E3,4.0413977E3,5.618227E3,1.00609644E3,7.637504E3,1.2160614E3,2.172713E3,4.01711E3,1.3607616E3,6.9947314E2,6.3993243E2,2.3408145E3,2.779143E3,8.431445E2,1.0980226E3,1.2216866E3,2.819711E3,1.4111431E3,4.207084E3],"tree_param":{"num_deleted":"0","num_feature":"23","num_nodes":"31","size_leaf_vector":"1"}},{"base_weights":[-8.1146986E-4,-8.675062E-1,9.6928245E-1,-1.2018672E0,-2.658724E-1,4.40367E-1,1.3482618E0,-1.3520299E0,-8.508539E-1,-4.542314E-1,1.2367503E-1,2.871358E-1,7.706329E-1,1.1273378E0,1.4861093E0,-3.2832287E-2,-2.6038079E-2,-2.1598157E-2,-4.042744E-3,-1.1528782E-2,8.1644235E-3,-2.5160126E-3,1.1576301E-2,-2.4130023E-3,1.0946272E-2,8.186521E-3,2.3022803E-2,1.815052E-2,2.824543E-2,3.047347E-2,3.4436375E-2],"categories":[],"categories_nodes":[],"categories_segments":[],"categories_sizes":[],"default_left":[0,0,0,0,0,0,0,0,0,0,0,0,0,0,0,0,0,0,0,0,0,0,0,0,0,0,0,0,0,0,0],"id":7,"left_children":[1,3,5,7,9,11,13,15,17,19,21,23,25,27,29,-1,-1,-1,-1,-1,-1,-1,-1,-1,-1,-1,-1,-1,-1,-1,-1],"loss_changes":[2.977041E4,3.7586914E3,3.3430332E3,6.219082E2,4.9168E2,3.5147046E2,2.7949023E2,1.6470117E2,2.7519946E2,2.2640558E2,2.039164E2,3.8230063E2,2.2680347E2,1.5048389E2,1.7820312E1,0E0,0E0,0E0,0E0,0E0,0E0,0E0,0E0,0E0,0E0,0E0,0E0,0E0,0E0,0E0,0E0],"parents":[2147483647,0,0,1,1,2,2,3,3,4,4,5,5,6,6,7,7,8,8,9,9,10,10,11,11,12,12,13,13,14,14],"right_children":[2,4,6,8,10,12,14,16,18,20,22,24,26,28,30,-1,-1,-1,-1,-1,-1,-1,-1,-1,-1,-1,-1,-1,-1,-1,-1],"split_conditions":[5E0,2E0,1.3862944E0,4.2374697E-1,8.1424123E-1,9.155102E-2,2.0794415E0,-1.7447929E-1,1.4502772E0,1.0986123E0,6.0690105E-1,-6.754221E-2,9.1684574E-1,7.3016346E-1,1.5748876E0,-3.2832287E-2,-2.6038079E-2,-2.1598157E-2,-4.042744E-3,-1.1528782E-2,8.1644235E-3,-2.5160126E-3,1.1576301E-2,-2.4130023E-3,1.0946272E-2,8.186521E-3,2.3022803E-2,1.815052E-2,2.824543E-2,3.047347E-2,3.4436375E-2],"split_indices":[14,14,13,4,2,7,13,2,11,5,4,4,2,2,8,0,0,0,0,0,0,0,0,0,0,0,0,0,0,0,0],"split_type":[0,0,0,0,0,0,0,0,0,0,0,0,0,0,0,0,0,0,0,0,0,0,0,0,0,0,0,0,0,0,0],"sum_hessian":[3.5388285E4,1.8690771E4,1.6697516E4,1.2007532E4,6.6832397E3,6.9790215E3,9.718493E3,8.389833E3,3.6176987E3,4.5038467E3,2.179393E3,4.7800015E3,2.19902E3,3.7693384E3,5.949155E3,5.181412E3,3.2084211E3,3.088463E3,5.2923584E2,4.1963247E3,3.0752167E2,1.3665486E3,8.128445E2,1.6181538E3,3.1618477E3,8.647178E2,1.3343024E3,1.1439445E3,2.6253938E3,1.8311053E3,4.1180493E3],"tree_param":{"num_deleted":"0","num_feature":"23","num_nodes":"31","size_leaf_vector":"1"}},{"base_weights":[-2.978429E-3,-1.0347322E0,7.7801204E-1,-1.2256901E0,-5.611854E-1,1.9954468E-1,1.2412995E0,-1.3167076E0,-7.6469237E-1,-6.7551404E-1,1.20171644E-1,-4.5936453E-1,2.880476E-1,9.877168E-1,1.463483E0,-3.0785821E-2,-2.1464817E-2,-2.2413224E-2,-3.8164884E-3,-2.0240553E-2,-8.548598E-3,-8.4422575E-3,1.4292288E-2,-5.8071394E-3,-2.208832E-2,2.839379E-3,1.36729395E-2,1.3962064E-2,2.6532523E-2,2.7154611E-2,3.329059E-2],"categories":[],"categories_nodes":[],"categories_segments":[],"categories_sizes":[],"default_left":[0,0,0,0,0,0,0,0,0,0,0,0,0,0,0,0,0,0,0,0,0,0,0,0,0,0,0,0,0,0,0],"id":8,"left_children":[1,3,5,7,9,11,13,15,17,19,21,23,25,27,29,-1,-1,-1,-1,-1,-1,-1,-1,-1,-1,-1,-1,-1,-1,-1,-1],"loss_changes":[2.8347209E4,1.3636631E3,5.3635986E3,4.4275293E2,3.415421E2,5.21291E2,6.118418E2,1.7503516E2,2.5167908E2,2.4807336E2,1.6655727E2,1.0916005E2,4.0848883E2,3.6796924E2,1.677539E1,0E0,0E0,0E0,0E0,0E0,0E0,0E0,0E0,0E0,0E0,0E0,0E0,0E0,0E0,0E0,0E0],"parents":[2147483647,0,0,1,1,2,2,3,3,4,4,5,5,6,6,7,7,8,8,9,9,10,10,11,11,12,12,13,13,14,14],"right_children":[2,4,6,8,10,12,14,16,18,20,22,24,26,28,30,-1,-1,-1,-1,-1,-1,-1,-1,-1,-1,-1,-1,-1,-1,-1,-1],"split_conditions":[3E0,6.614478E-2,1.0986123E0,6.673575E-1,2.5740259E0,5.459561E-2,2.0794415E0,7.831388E-1,5.2842206E-1,4.0488967E-1,1.2686117E0,3.0056933E-1,6.931472E-1,6.489621E-1,1.0549701E-1,-3.0785821E-2,-2.1464817E-2,-2.2413224E-2,-3.8164884E-3,-2.0240553E-2,-8.548598E-3,-8.4422575E-3,1.4292288E-2,-5.8071394E-3,-2.208832E-2,2.839379E-3,1.36729395E-2,1.3962064E-2,2.6532523E-2,2.7154611E-2,3.329059E-2],"split_indices":[14,2,5,11,6,2,13,4,6,2,11,10,5,2,2,0,0,0,0,0,0,0,0,0,0,0,0,0,0,0,0],"split_type":[0,0,0,0,0,0,0,0,0,0,0,0,0,0,0,0,0,0,0,0,0,0,0,0,0,0,0,0,0,0,0],"sum_hessian":[3.5159414E4,1.5146449E4,2.0012965E4,1.0782499E4,4.3639507E3,8.906505E3,1.1106459E4,8.989138E3,1.7933605E3,3.7369993E3,6.269511E2,1.049666E3,7.8568394E3,5.2121836E3,5.894276E3,7.702856E3,1.2862822E3,1.2779373E3,5.154232E2,2.0895723E3,1.6474271E3,3.2132806E2,3.0562308E2,7.718757E2,2.7779034E2,5.248641E3,2.6081982E3,1.8474618E3,3.3647217E3,5.5166547E2,5.3426104E3],"tree_param":{"num_deleted":"0","num_feature":"23","num_nodes":"31","size_leaf_vector":"1"}},{"base_weights":[3.804094E-3,-8.2513946E-1,9.333864E-1,-1.1439537E0,-2.503605E-1,4.4345394E-1,1.2944307E0,-7.863342E-1,-1.2834917E0,-3.6796975E-1,2.3392329E-1,2.0395431E-1,6.459616E-1,1.0900314E0,1.439306E0,-2.1760453E-2,-7.378057E-3,-3.1078458E-2,-2.3926184E-2,-9.108673E-3,1.9138293E-2,-5.0285873E-3,1.0773633E-2,7.850752E-3,-2.3153704E-3,1.6694399E-2,-2.9582166E-4,1.5201016E-2,2.654021E-2,4.617689E-4,3.2254986E-2],"categories":[],"categories_nodes":[],"categories_segments":[],"categories_sizes":[],"default_left":[0,0,0,0,0,0,0,0,0,0,0,0,0,0,0,0,0,0,0,0,0,0,0,0,0,0,0,0,0,0,0],"id":9,"left_children":[1,3,5,7,9,11,13,15,17,19,21,23,25,27,29,-1,-1,-1,-1,-1,-1,-1,-1,-1,-1,-1,-1,-1,-1,-1,-1],"loss_changes":[2.7150193E4,3.4101357E3,2.9321133E3,5.875713E2,3.8006833E2,3.411754E2,2.672881E2,2.8407227E2,1.7855566E2,2.58479E2,1.4930814E2,1.4694286E2,2.5139746E2,1.4911426E2,1.1295898E1,0E0,0E0,0E0,0E0,0E0,0E0,0E0,0E0,0E0,0E0,0E0,0E0,0E0,0E0,0E0,0E0],"parents":[2147483647,0,0,1,1,2,2,3,3,4,4,5,5,6,6,7,7,8,8,9,9,10,10,11,11,12,12,13,13,14,14],"right_children":[2,4,6,8,10,12,14,16,18,20,22,24,26,28,30,-1,-1,-1,-1,-1,-1,-1,-1,-1,-1,-1,-1,-1,-1,-1,-1],"split_conditions":[5E0,2E0,1.3862944E0,-2.3213889E-1,1.1078353E0,5.1537085E-1,1.7917595E0,5.2842206E-1,1.8332887E-1,1.3862944E0,4.7424698E-1,-8.626018E-2,1.4995907E1,4.0488967E-1,-2.3604198E0,-2.1760453E-2,-7.378057E-3,-3.1078458E-2,-2.3926184E-2,-9.108673E-3,1.9138293E-2,-5.0285873E-3,1.0773633E-2,7.850752E-3,-2.3153704E-3,1.6694399E-2,-2.9582166E-4,1.5201016E-2,2.654021E-2,4.617689E-4,3.2254986E-2],"split_indices":[14,14,13,10,4,8,5,6,4,5,2,0,12,2,1,0,0,0,0,0,0,0,0,0,0,0,0,0,0,0,0],"split_type":[0,0,0,0,0,0,0,0,0,0,0,0,0,0,0,0,0,0,0,0,0,0,0,0,0,0,0,0,0,0,0],"sum_hessian":[3.5213855E4,1.8615143E4,1.659871E4,1.1967292E4,6.6478506E3,7.051809E3,9.546902E3,3.377522E3,8.58977E3,5.350817E3,1.2970339E3,3.2400366E3,3.8117722E3,3.9953354E3,5.551567E3,2.3933567E3,9.8416534E2,5.737111E3,2.852659E3,5.1923257E3,1.5849117E2,4.547589E2,8.4227496E2,2.1922144E3,1.0478223E3,3.3096426E3,5.021297E2,7.684343E2,3.2269011E3,5.9139414E0,5.545653E3],"tree_param":{"num_deleted":"0","num_feature":"23","num_nodes":"31","size_leaf_vector":"1"}},{"base_weights":[-6.6734554E-4,-9.7618276E-1,7.424903E-1,-1.1381396E0,-4.0826318E-1,2.6000935E-1,1.2402374E0,-1.3683813E0,-9.264558E-1,-5.337803E-1,2.800039E-1,5.156502E-2,5.5469865E-1,1.0067905E0,1.4004744E0,-1.8218765E-2,-3.1655658E-2,-2.2722954E-2,-5.225925E-3,-1.5308678E-2,-4.061275E-3,-3.3061951E-3,1.3900629E-2,4.4330177E-3,-8.476965E-3,4.2024935E-3,2.0209448E-2,1.2737994E-2,2.5661675E-2,2.8304499E-2,3.2389652E-2],"categories":[],"categories_nodes":[],"categories_segments":[],"categories_sizes":[],"default_left":[0,0,0,0,0,0,0,0,0,0,0,0,0,0,0,0,0,0,0,0,0,0,0,0,0,0,0,0,0,0,0],"id":10,"left_children":[1,3,5,7,9,11,13,15,17,19,21,23,25,27,29,-1,-1,-1,-1,-1,-1,-1,-1,-1,-1,-1,-1,-1,-1,-1,-1],"loss_changes":[2.541805E4,1.3897822E3,4.7759795E3,5.619697E2,2.934651E2,6.212176E2,3.5218945E2,1.3084473E2,3.7646045E2,1.5004895E2,7.78808E1,3.7482587E2,5.335292E2,2.3901953E2,1.8140625E1,0E0,0E0,0E0,0E0,0E0,0E0,0E0,0E0,0E0,0E0,0E0,0E0,0E0,0E0,0E0,0E0],"parents":[2147483647,0,0,1,1,2,2,3,3,4,4,5,5,6,6,7,7,8,8,9,9,10,10,11,11,12,12,13,13,14,14],"right_children":[2,4,6,8,10,12,14,16,18,20,22,24,26,28,30,-1,-1,-1,-1,-1,-1,-1,-1,-1,-1,-1,-1,-1,-1,-1,-1],"split_conditions":[3E0,2.1557969E-1,1.3862944E0,-4.431341E-2,1.3958725E0,6E0,2.0794415E0,-1.1063821E0,1.4918063E0,7.792722E-1,-1.5506209E-3,2.5378048E-1,9.1684574E-1,3.2709464E-1,1.5234945E0,-1.8218765E-2,-3.1655658E-2,-2.2722954E-2,-5.225925E-3,-1.5308678E-2,-4.061275E-3,-3.3061951E-3,1.3900629E-2,4.4330177E-3,-8.476965E-3,4.2024935E-3,2.0209448E-2,1.2737994E-2,2.5661675E-2,2.8304499E-2,3.2389652E-2],"split_indices":[14,2,13,4,4,14,13,0,11,11,8,0,2,2,8,0,0,0,0,0,0,0,0,0,0,0,0,0,0,0,0],"split_type":[0,0,0,0,0,0,0,0,0,0,0,0,0,0,0,0,0,0,0,0,0,0,0,0,0,0,0,0,0,0,0],"sum_hessian":[3.5041234E4,1.5150548E4,1.9890684E4,1.1780872E4,3.3696763E3,1.0107973E4,9.782711E3,5.616881E3,6.1639907E3,2.851852E3,5.178243E2,5.92722E3,4.180753E3,4.0114238E3,5.7712876E3,4.4130637E2,5.1755747E3,5.4615566E3,7.0243445E2,1.9935829E3,8.5826917E2,2.3218307E2,2.856412E2,4.425987E3,1.5012336E3,2.0424641E3,2.1382886E3,9.814746E2,3.0299492E3,1.5368054E3,4.234482E3],"tree_param":{"num_deleted":"0","num_feature":"23","num_nodes":"31","size_leaf_vector":"1"}},{"base_weights":[-1.8557012E-3,-8.1445634E-1,9.022632E-1,-1.1177574E0,-2.6691017E-1,4.1950396E-1,1.2527463E0,-1.2140287E0,-6.212559E-1,-4.1054493E-1,2.0399058E-1,5.290311E-1,-5.3061284E-2,1.0377688E0,1.3854276E0,-2.8201971E-2,-1.5957909E-2,-1.7077908E-2,1.8839221E-3,-1.1601211E-2,-6.2031735E-4,-2.396471E-3,1.4979376E-2,5.533544E-3,1.6555363E-2,4.402607E-3,-1.2036171E-2,1.707977E-2,2.6031988E-2,2.7213162E-2,3.187404E-2],"categories":[],"categories_nodes":[],"categories_segments":[],"categories_sizes":[],"default_left":[0,0,0,0,0,0,0,0,0,0,0,0,0,0,0,0,0,0,0,0,0,0,0,0,0,0,0,0,0,0,0],"id":11,"left_children":[1,3,5,7,9,11,13,15,17,19,21,23,25,27,29,-1,-1,-1,-1,-1,-1,-1,-1,-1,-1,-1,-1,-1,-1,-1,-1],"loss_changes":[2.5712992E4,3.0580537E3,2.7977432E3,5.5926074E2,4.4614236E2,3.6173193E2,2.5922754E2,2.1830469E2,1.9504926E2,2.0792212E2,2.2429883E2,3.3453418E2,1.6116005E2,1.1829736E2,2.1097656E1,0E0,0E0,0E0,0E0,0E0,0E0,0E0,0E0,0E0,0E0,0E0,0E0,0E0,0E0,0E0,0E0],"parents":[2147483647,0,0,1,1,2,2,3,3,4,4,5,5,6,6,7,7,8,8,9,9,10,10,11,11,12,12,13,13,14,14],"right_children":[2,4,6,8,10,12,14,16,18,20,22,24,26,28,30,-1,-1,-1,-1,-1,-1,-1,-1,-1,-1,-1,-1,-1,-1,-1,-1],"split_conditions":[5E0,2E0,1.3862944E0,8.9005107E-1,1.1756629E0,3.8979673E-1,2.0794415E0,1.147502E0,1.5319334E0,9.1684574E-1,2.8479335E0,4.9976116E-1,-5.8292665E-2,7.3016346E-1,7.3016346E-1,-2.8201971E-2,-1.5957909E-2,-1.7077908E-2,1.8839221E-3,-1.1601211E-2,-6.2031735E-4,-2.396471E-3,1.4979376E-2,5.533544E-3,1.6555363E-2,4.402607E-3,-1.2036171E-2,1.707977E-2,2.6031988E-2,2.7213162E-2,3.187404E-2],"split_indices":[14,14,13,4,11,0,13,11,11,2,6,8,9,2,2,0,0,0,0,0,0,0,0,0,0,0,0,0,0,0,0],"split_type":[0,0,0,0,0,0,0,0,0,0,0,0,0,0,0,0,0,0,0,0,0,0,0,0,0,0,0,0,0,0,0],"sum_hessian":[3.4978535E4,1.8422148E4,1.6556387E4,1.1848502E4,6.5736475E3,6.9732935E3,9.583094E3,9.912083E3,1.9364192E3,5.038194E3,1.5354537E3,5.660238E3,1.3130554E3,3.6910085E3,5.892085E3,9.069831E3,8.422519E2,1.6120547E3,3.243644E2,3.929554E3,1.1086398E3,9.247317E2,6.1072205E2,2.4290696E3,3.2311685E3,8.704188E2,4.4263666E2,1.1763588E3,2.5146497E3,1.1451489E3,4.746936E3],"tree_param":{"num_deleted":"0","num_feature":"23","num_nodes":"31","size_leaf_vector":"1"}},{"base_weights":[1.2635715E-2,-9.389676E-1,7.278094E-1,-1.1255058E0,-4.6791658E-1,2.041192E-1,1.1542932E0,-1.2325094E0,-7.208653E-1,-5.760626E-1,2.4011701E-1,3.444853E-1,-1.8629093E-1,8.807628E-1,1.3331264E0,-2.184951E-2,-2.9453676E-2,-1.778488E-2,7.1238903E-3,-1.368119E-2,1.2644034E-2,-4.6440177E-3,1.5929341E-2,3.6785423E-3,1.454793E-2,1.0970143E-3,-1.0300558E-2,9.334731E-3,2.3706064E-2,2.7425358E-2,3.1875327E-2],"categories":[],"categories_nodes":[],"categories_segments":[],"categories_sizes":[],"default_left":[0,0,0,0,0,0,0,0,0,0,0,0,0,0,0,0,0,0,0,0,0,0,0,0,0,0,0,0,0,0,0],"id":12,"left_children":[1,3,5,7,9,11,13,15,17,19,21,23,25,27,29,-1,-1,-1,-1,-1,-1,-1,-1,-1,-1,-1,-1,-1,-1,-1,-1],"loss_changes":[2.3925256E4,1.3201592E3,4.4803584E3,4.5863672E2,3.3034216E2,4.9499268E2,5.292471E2,1.6896777E2,1.7697852E2,1.526106E2,1.23071014E2,3.641563E2,1.5434589E2,3.5926685E2,4.78916E1,0E0,0E0,0E0,0E0,0E0,0E0,0E0,0E0,0E0,0E0,0E0,0E0,0E0,0E0,0E0,0E0],"parents":[2147483647,0,0,1,1,2,2,3,3,4,4,5,5,6,6,7,7,8,8,9,9,10,10,11,11,12,12,13,13,14,14],"right_children":[2,4,6,8,10,12,14,16,18,20,22,24,26,28,30,-1,-1,-1,-1,-1,-1,-1,-1,-1,-1,-1,-1,-1,-1,-1,-1],"split_conditions":[3E0,8.544136E-2,1.0986123E0,6.7001873E-1,2.742011E0,1.8577234E-1,1.609438E0,-1.1531729E-1,1.359935E0,2.3834283E0,1.337582E0,4.9976116E-1,-1.5556727E-1,3.7717786E-1,2.0794415E0,-2.184951E-2,-2.9453676E-2,-1.778488E-2,7.1238903E-3,-1.368119E-2,1.2644034E-2,-4.6440177E-3,1.5929341E-2,3.6785423E-3,1.454793E-2,1.0970143E-3,-1.0300558E-2,9.334731E-3,2.3706064E-2,2.7425358E-2,3.1875327E-2],"split_indices":[14,2,5,4,6,0,5,10,6,4,11,8,9,2,5,0,0,0,0,0,0,0,0,0,0,0,0,0,0,0,0],"split_type":[0,0,0,0,0,0,0,0,0,0,0,0,0,0,0,0,0,0,0,0,0,0,0,0,0,0,0,0,0,0,0],"sum_hessian":[3.513512E4,1.5074281E4,2.0060838E4,1.0788195E4,4.286086E3,9.010916E3,1.1049923E4,8.515787E3,2.2724087E3,3.7197974E3,5.662888E2,6.628823E3,2.3820923E3,4.3918193E3,6.658103E3,2.1155693E3,6.4002173E3,2.124388E3,1.480209E2,3.6134236E3,1.0637366E2,2.933584E2,2.7293042E2,4.178626E3,2.4501973E3,1.2855709E3,1.0965212E3,1.2280753E3,3.1637444E3,3.1040693E3,3.5540337E3],"tree_param":{"num_deleted":"0","num_feature":"23","num_nodes":"31","size_leaf_vector":"1"}},{"base_weights":[9.009328E-4,-9.551116E-1,7.1180296E-1,-1.106686E0,-4.141281E-1,1.8736874E-1,1.1376376E0,-1.1247743E0,9.91154E-1,-5.2082103E-1,1.8915156E-1,-1.1535244E-1,3.5333565E-1,8.774229E-1,1.30922E0,-2.897831E-2,-2.1217523E-2,-2.3048895E-3,2.718894E-2,-9.068246E-3,-1.7084917E-2,-2.1472443E-3,1.2599344E-2,-5.6139366E-3,7.642273E-3,4.3029664E-3,1.8721433E-2,1.1284167E-2,2.4283782E-2,2.6824301E-2,3.1402916E-2],"categories":[],"categories_nodes":[],"categories_segments":[],"categories_sizes":[],"default_left":[0,0,0,0,0,0,0,0,0,0,0,0,0,0,0,0,0,0,0,0,0,0,0,0,0,0,0,0,0,0,0],"id":13,"left_children":[1,3,5,7,9,11,13,15,17,19,21,23,25,27,29,-1,-1,-1,-1,-1,-1,-1,-1,-1,-1,-1,-1,-1,-1,-1,-1],"loss_changes":[2.3690234E4,1.2143975E3,4.462411E3,4.515713E2,2.1143701E2,4.511079E2,4.8100293E2,3.3340918E2,2.680333E1,7.490704E1,5.3658356E1,1.9777774E2,4.4942297E2,3.361311E2,5.1958984E1,0E0,0E0,0E0,0E0,0E0,0E0,0E0,0E0,0E0,0E0,0E0,0E0,0E0,0E0,0E0,0E0],"parents":[2147483647,0,0,1,1,2,2,3,3,4,4,5,5,6,6,7,7,8,8,9,9,10,10,11,11,12,12,13,13,14,14],"right_children":[2,4,6,8,10,12,14,16,18,20,22,24,26,28,30,-1,-1,-1,-1,-1,-1,-1,-1,-1,-1,-1,-1,-1,-1,-1,-1],"split_conditions":[3E0,2.1557969E-1,1.0986123E0,2.742011E0,1.3429676E0,9.341458E-1,1.609438E0,0E0,-6.603241E-2,2.5378048E-1,1.1193401E0,1.1078353E0,6.931472E-1,6.489621E-1,2.0794415E0,-2.897831E-2,-2.1217523E-2,-2.3048895E-3,2.718894E-2,-9.068246E-3,-1.7084917E-2,-2.1472443E-3,1.2599344E-2,-5.6139366E-3,7.642273E-3,4.3029664E-3,1.8721433E-2,1.1284167E-2,2.4283782E-2,2.6824301E-2,3.1402916E-2],"split_indices":[14,2,5,6,4,2,5,4,8,0,11,4,5,2,5,0,0,0,0,0,0,0,0,0,0,0,0,0,0,0,0],"split_type":[0,0,0,0,0,0,0,0,0,0,0,0,0,0,0,0,0,0,0,0,0,0,0,0,0,0,0,0,0,0,0],"sum_hessian":[3.483748E4,1.485594E4,1.9981541E4,1.1596362E4,3.2595774E3,8.960595E3,1.1020946E4,1.1501833E4,9.453014E1,2.7709116E3,4.8866583E2,3.1740906E3,5.7865044E3,4.4036904E3,6.6172554E3,5.8411377E3,5.660695E3,1.6930773E1,7.759937E1,1.8932885E3,8.776232E2,2.8138898E2,2.0727682E2,2.4517136E3,7.2237683E2,4.349326E3,1.4371783E3,1.5843394E3,2.819351E3,3.0883079E3,3.5289475E3],"tree_param":{"num_deleted":"0","num_feature":"23","num_nodes":"31","size_leaf_vector":"1"}},{"base_weights":[-1.9046547E-5,-7.5832015E-1,8.478048E-1,-1.0618627E0,-2.2308162E-1,3.776203E-1,1.19203E0,-1.1971936E0,-7.502977E-1,-3.4063601E-1,3.2166347E-1,3.023977E-1,9.5336103E-1,9.987817E-1,1.3299164E0,-2.1630302E-2,-2.860149E-2,-1.7662646E-2,1.9410407E-2,-1.01151755E-2,2.9649754E-4,-8.020938E-4,1.5690796E-2,9.145956E-3,-3.0268962E-3,2.6732031E-2,8.308665E-3,1.7872648E-2,2.6329558E-2,2.6434865E-2,3.0486235E-2],"categories":[],"categories_nodes":[],"categories_segments":[],"categories_sizes":[],"default_left":[0,0,0,0,0,0,0,0,0,0,0,0,0,0,0,0,0,0,0,0,0,0,0,0,0,0,0,0,0,0,0],"id":14,"left_children":[1,3,5,7,9,11,13,15,17,19,21,23,25,27,29,-1,-1,-1,-1,-1,-1,-1,-1,-1,-1,-1,-1,-1,-1,-1,-1],"loss_changes":[2.226381E4,2.967545E3,2.6416992E3,4.827246E2,4.2553247E2,2.970271E2,2.380918E2,1.3830566E2,2.2935266E2,2.1476721E2,1.6043825E2,2.8571686E2,1.0705505E2,1.3164868E2,9.905273E0,0E0,0E0,0E0,0E0,0E0,0E0,0E0,0E0,0E0,0E0,0E0,0E0,0E0,0E0,0E0,0E0],"parents":[2147483647,0,0,1,1,2,2,3,3,4,4,5,5,6,6,7,7,8,8,9,9,10,10,11,11,12,12,13,13,14,14],"right_children":[2,4,6,8,10,12,14,16,18,20,22,24,26,28,30,-1,-1,-1,-1,-1,-1,-1,-1,-1,-1,-1,-1,-1,-1,-1,-1],"split_conditions":[5E0,2E0,1.3862944E0,4.2374697E-1,1.196462E0,1.3242937E0,1.7917595E0,-2.3346761E-2,2.7940967E0,9.1684574E-1,6.7884564E-1,3.8979673E-1,-1.5816646E-2,1.1543354E0,7.3016346E-1,-2.1630302E-2,-2.860149E-2,-1.7662646E-2,1.9410407E-2,-1.01151755E-2,2.9649754E-4,-8.020938E-4,1.5690796E-2,9.145956E-3,-3.0268962E-3,2.6732031E-2,8.308665E-3,1.7872648E-2,2.6329558E-2,2.6434865E-2,3.0486235E-2],"split_indices":[14,14,13,4,4,2,5,10,6,2,2,0,9,2,2,0,0,0,0,0,0,0,0,0,0,0,0,0,0,0,0],"split_type":[0,0,0,0,0,0,0,0,0,0,0,0,0,0,0,0,0,0,0,0,0,0,0,0,0,0,0,0,0,0,0],"sum_hessian":[3.4609977E4,1.8270104E4,1.6339875E4,1.1652132E4,6.6179717E3,6.915224E3,9.42465E3,8.103743E3,3.5483884E3,5.4464165E3,1.1715554E3,6.1296353E3,7.855893E2,3.9588345E3,5.4658164E3,2.125681E3,5.9780625E3,3.4705498E3,7.783849E1,4.1421704E3,1.3042463E3,6.077009E2,5.638545E2,4.933697E3,1.1959385E3,5.483531E2,2.3723622E2,1.8841064E3,2.074728E3,1.0291486E3,4.4366675E3],"tree_param":{"num_deleted":"0","num_feature":"23","num_nodes":"31","size_leaf_vector":"1"}},{"base_weights":[-3.758031E-3,-9.0981466E-1,6.773031E-1,-1.0831338E0,-4.902039E-1,2.6730072E-1,1.189333E0,-7.7421576E-1,-1.2113618E0,-6.0097635E-1,1.5780099E-1,4.245863E-2,5.456485E-1,9.909416E-1,1.3103429E0,-2.0014087E-2,-5.8158757E-3,-2.9604299E-2,-2.3401199E-2,-7.6621254E-3,-1.678065E-2,8.0095725E-3,-1.2912161E-2,4.189731E-3,-8.316112E-3,4.184572E-3,1.9531092E-2,1.840442E-2,2.5884729E-2,2.7451735E-2,3.0837167E-2],"categories":[],"categories_nodes":[],"categories_segments":[],"categories_sizes":[],"default_left":[0,0,0,0,0,0,0,0,0,0,0,0,0,0,0,0,0,0,0,0,0,0,0,0,0,0,0,0,0,0,0],"id":15,"left_children":[1,3,5,7,9,11,13,15,17,19,21,23,25,27,29,-1,-1,-1,-1,-1,-1,-1,-1,-1,-1,-1,-1,-1,-1,-1,-1],"loss_changes":[2.1251557E4,1.0694541E3,4.124217E3,4.045547E2,3.12349E2,6.83869E2,1.9680762E2,1.8825842E2,1.2197266E2,1.3992822E2,9.6253075E1,3.6348236E2,5.708148E2,8.402832E1,1.3549805E1,0E0,0E0,0E0,0E0,0E0,0E0,0E0,0E0,0E0,0E0,0E0,0E0,0E0,0E0,0E0,0E0],"parents":[2147483647,0,0,1,1,2,2,3,3,4,4,5,5,6,6,7,7,8,8,9,9,10,10,11,11,12,12,13,13,14,14],"right_children":[2,4,6,8,10,12,14,16,18,20,22,24,26,28,30,-1,-1,-1,-1,-1,-1,-1,-1,-1,-1,-1,-1,-1,-1,-1,-1],"split_conditions":[3E0,6.614478E-2,1.3862944E0,-1.1531729E-1,1.3958725E0,6E0,1.7917595E0,5.5868065E-1,0E0,-5.0763255E-1,-1.8252049E-2,2.5378048E-1,9.1684574E-1,1.1543354E0,2.1972246E0,-2.0014087E-2,-5.8158757E-3,-2.9604299E-2,-2.3401199E-2,-7.6621254E-3,-1.678065E-2,8.0095725E-3,-1.2912161E-2,4.189731E-3,-8.316112E-3,4.184572E-3,1.9531092E-2,1.840442E-2,2.5884729E-2,2.7451735E-2,3.0837167E-2],"split_indices":[14,2,5,10,4,14,5,6,4,10,0,0,2,2,5,0,0,0,0,0,0,0,0,0,0,0,0,0,0,0,0],"split_type":[0,0,0,0,0,0,0,0,0,0,0,0,0,0,0,0,0,0,0,0,0,0,0,0,0,0,0,0,0,0,0],"sum_hessian":[3.441891E4,1.4768346E4,1.9650564E4,1.0440208E4,4.328138E3,1.0920962E4,8.729603E3,3.08309E3,7.3571177E3,3.6969146E3,6.3122375E2,6.0475063E3,4.8734556E3,3.3421868E3,5.387416E3,2.4947996E3,5.8829047E2,4.367705E3,2.9894126E3,1.3607207E3,2.3361938E3,5.0019653E2,1.310272E2,4.485189E3,1.5623173E3,2.330639E3,2.542817E3,1.6828708E3,1.6593159E3,2.4761892E3,2.9112266E3],"tree_param":{"num_deleted":"0","num_feature":"23","num_nodes":"31","size_leaf_vector":"1"}},{"base_weights":[1.29392035E-2,-7.412723E-1,8.361317E-1,-1.0409151E0,-2.2537728E-1,3.962012E-1,1.1634121E0,-1.1312624E0,-6.420899E-1,-3.6916748E-1,1.7244773E-1,3.203173E-1,9.582891E-1,9.7000194E-1,1.3000404E0,-2.9477565E-2,-2.2581996E-2,-1.8608196E-2,-5.2886875E-3,-1.023705E-2,2.893294E-3,-6.636768E-3,9.924365E-3,2.063819E-3,1.1205569E-2,2.3358516E-2,-7.922729E-3,1.7305339E-2,2.5680335E-2,2.5661636E-2,2.9842708E-2],"categories":[],"categories_nodes":[],"categories_segments":[],"categories_sizes":[],"default_left":[0,0,0,0,0,0,0,0,0,0,0,0,0,0,0,0,0,0,0,0,0,0,0,0,0,0,0,0,0,0,0],"id":16,"left_children":[1,3,5,7,9,11,13,15,17,19,21,23,25,27,29,-1,-1,-1,-1,-1,-1,-1,-1,-1,-1,-1,-1,-1,-1,-1,-1],"loss_changes":[2.1545273E4,2.7971602E3,2.3843418E3,4.0541113E2,3.81996E2,2.994663E2,2.3864648E2,1.9864062E2,1.6215527E2,2.1576263E2,2.2696608E2,2.570854E2,9.73479E1,1.2982764E2,1.2811523E1,0E0,0E0,0E0,0E0,0E0,0E0,0E0,0E0,0E0,0E0,0E0,0E0,0E0,0E0,0E0,0E0],"parents":[2147483647,0,0,1,1,2,2,3,3,4,4,5,5,6,6,7,7,8,8,9,9,10,10,11,11,12,12,13,13,14,14],"right_children":[2,4,6,8,10,12,14,16,18,20,22,24,26,28,30,-1,-1,-1,-1,-1,-1,-1,-1,-1,-1,-1,-1,-1,-1,-1,-1],"split_conditions":[5E0,2E0,1.3862944E0,7.976414E-1,1.0436238E0,1.3242937E0,1.7917595E0,-3.0766168E-1,5.2842206E-1,1.0211431E0,4.4867328E-1,4.9976116E-1,4.121217E0,1.1543354E0,7.1253157E-1,-2.9477565E-2,-2.2581996E-2,-1.8608196E-2,-5.2886875E-3,-1.023705E-2,2.893294E-3,-6.636768E-3,9.924365E-3,2.063819E-3,1.1205569E-2,2.3358516E-2,-7.922729E-3,1.7305339E-2,2.5680335E-2,2.5661636E-2,2.9842708E-2],"split_indices":[14,14,13,4,11,2,5,4,6,2,4,8,2,2,2,0,0,0,0,0,0,0,0,0,0,0,0,0,0,0,0],"split_type":[0,0,0,0,0,0,0,0,0,0,0,0,0,0,0,0,0,0,0,0,0,0,0,0,0,0,0,0,0,0,0],"sum_hessian":[3.4682258E4,1.809998E4,1.6582275E4,1.1443281E4,6.6566987E3,7.0831875E3,9.499088E3,9.314783E3,2.1284988E3,4.889999E3,1.7666998E3,6.254521E3,8.286663E2,3.9659631E3,5.533125E3,3.6676416E3,5.647141E3,1.4447915E3,6.837073E2,4.15615E3,7.338493E2,6.465051E2,1.1201948E3,2.7670234E3,3.4874978E3,7.8012964E2,4.8536694E1,1.9028983E3,2.0630647E3,1.040413E3,4.492712E3],"tree_param":{"num_deleted":"0","num_feature":"23","num_nodes":"31","size_leaf_vector":"1"}},{"base_weights":[-1.2708263E-3,-7.157398E-1,8.050824E-1,-1.0121144E0,-2.0518346E-1,3.8497886E-1,1.1291353E0,-7.0742995E-1,-1.1452425E0,-3.2862058E-1,3.1134617E-1,5.30673E-1,1.0334567E-1,9.468086E-1,1.2619581E0,-1.7392632E-2,1.1681837E-3,-2.6063614E-2,2.5478643E-3,-1.1613813E-2,-2.6970357E-3,-4.000218E-4,1.4978531E-2,6.8046246E-3,1.599079E-2,-1.4556942E-3,1.3934E-2,1.3779173E-2,2.371311E-2,2.6346128E-2,2.9890276E-2],"categories":[],"categories_nodes":[],"categories_segments":[],"categories_sizes":[],"default_left":[0,0,0,0,0,0,0,0,0,0,0,0,0,0,0,0,0,0,0,0,0,0,0,0,0,0,0,0,0,0,0],"id":17,"left_children":[1,3,5,7,9,11,13,15,17,19,21,23,25,27,29,-1,-1,-1,-1,-1,-1,-1,-1,-1,-1,-1,-1,-1,-1,-1,-1],"loss_changes":[1.977754E4,2.7521074E3,2.1911748E3,4.5890527E2,4.280656E2,2.882367E2,2.0839258E2,1.865481E2,1.923916E2,2.1352344E2,1.5286801E2,1.9081128E2,2.1120927E2,1.3779443E2,1.6873047E1,0E0,0E0,0E0,0E0,0E0,0E0,0E0,0E0,0E0,0E0,0E0,0E0,0E0,0E0,0E0,0E0],"parents":[2147483647,0,0,1,1,2,2,3,3,4,4,5,5,6,6,7,7,8,8,9,9,10,10,11,11,12,12,13,13,14,14],"right_children":[2,4,6,8,10,12,14,16,18,20,22,24,26,28,30,-1,-1,-1,-1,-1,-1,-1,-1,-1,-1,-1,-1,-1,-1,-1,-1],"split_conditions":[5E0,2E0,1.3862944E0,-1.4265412E-1,1.1547251E0,-8.626018E-2,1.7917595E0,1.3353022E0,4.863278E-1,6.199101E-1,6.7884564E-1,4.9976116E-1,9.987384E-2,5.9057575E-1,2.6390574E0,-1.7392632E-2,1.1681837E-3,-2.6063614E-2,2.5478643E-3,-1.1613813E-2,-2.6970357E-3,-4.000218E-4,1.4978531E-2,6.8046246E-3,1.599079E-2,-1.4556942E-3,1.3934E-2,1.3779173E-2,2.371311E-2,2.6346128E-2,2.9890276E-2],"split_indices":[14,14,13,10,4,0,5,6,11,2,2,8,7,2,13,0,0,0,0,0,0,0,0,0,0,0,0,0,0,0,0],"split_type":[0,0,0,0,0,0,0,0,0,0,0,0,0,0,0,0,0,0,0,0,0,0,0,0,0,0,0,0,0,0,0],"sum_hessian":[3.430919E4,1.8191635E4,1.6117556E4,1.1503871E4,6.6877646E3,7.0281475E3,9.089408E3,3.5172678E3,7.986603E3,5.400777E3,1.2869875E3,4.6261006E3,2.402047E3,3.8651099E3,5.224298E3,3.2223525E3,2.949154E2,7.8687666E3,1.17836365E2,2.8145947E3,2.5861824E3,6.751297E2,6.118579E2,2.0819312E3,2.5441694E3,1.8203168E3,5.817302E2,9.956298E2,2.86948E3,2.494351E3,2.729947E3],"tree_param":{"num_deleted":"0","num_feature":"23","num_nodes":"31","size_leaf_vector":"1"}},{"base_weights":[-5.4075575E-4,-8.633332E-1,6.454517E-1,-1.0268866E0,-4.56337E-1,1.709316E-1,1.0467579E0,-7.477533E-1,-1.1518272E0,-5.53206E-1,1.2943378E-1,-4.211144E-1,2.5922945E-1,8.326902E-1,1.2441711E0,-1.9514875E-2,-7.2365394E-3,-2.9411169E-2,-2.3197155E-2,-1.4773281E-2,-4.3012905E-3,-7.856233E-3,1.2567217E-2,-5.9898365E-3,-2.0368157E-2,2.731931E-3,1.3489337E-2,1.1625839E-2,2.2125611E-2,2.5157284E-2,2.9006898E-2],"categories":[],"categories_nodes":[],"categories_segments":[],"categories_sizes":[],"default_left":[0,0,0,0,0,0,0,0,0,0,0,0,0,0,0,0,0,0,0,0,0,0,0,0,0,0,0,0,0,0,0],"id":18,"left_children":[1,3,5,7,9,11,13,15,17,19,21,23,25,27,29,-1,-1,-1,-1,-1,-1,-1,-1,-1,-1,-1,-1,-1,-1,-1,-1],"loss_changes":[1.9074238E4,9.706572E2,3.7248848E3,3.5561133E2,2.4008002E2,4.70481E2,4.376162E2,1.6858679E2,1.2112109E2,1.3824255E2,1.2784537E2,8.528969E1,3.675948E2,2.4437231E2,1.9509766E1,0E0,0E0,0E0,0E0,0E0,0E0,0E0,0E0,0E0,0E0,0E0,0E0,0E0,0E0,0E0,0E0],"parents":[2147483647,0,0,1,1,2,2,3,3,4,4,5,5,6,6,7,7,8,8,9,9,10,10,11,11,12,12,13,13,14,14],"right_children":[2,4,6,8,10,12,14,16,18,20,22,24,26,28,30,-1,-1,-1,-1,-1,-1,-1,-1,-1,-1,-1,-1,-1,-1,-1,-1],"split_conditions":[3E0,8.544136E-2,1.0986123E0,-6.1006628E-2,1.3958725E0,1.3772674E-1,2.0794415E0,9.810989E-1,-3.0766168E-1,5.9057575E-1,-1.5506209E-3,4.0817475E-1,6.1817205E-1,5.593638E-1,1.5748876E0,-1.9514875E-2,-7.2365394E-3,-2.9411169E-2,-2.3197155E-2,-1.4773281E-2,-4.3012905E-3,-7.856233E-3,1.2567217E-2,-5.9898365E-3,-2.0368157E-2,2.731931E-3,1.3489337E-2,1.1625839E-2,2.2125611E-2,2.5157284E-2,2.9006898E-2],"split_indices":[14,2,5,10,4,2,13,4,4,2,8,10,4,2,8,0,0,0,0,0,0,0,0,0,0,0,0,0,0,0,0],"split_type":[0,0,0,0,0,0,0,0,0,0,0,0,0,0,0,0,0,0,0,0,0,0,0,0,0,0,0,0,0,0,0],"sum_hessian":[3.4202625E4,1.464256E4,1.9560062E4,1.0434251E4,4.208309E3,8.969023E3,1.0591039E4,3.247916E3,7.186335E3,3.6116265E3,5.966825E2,1.1591306E3,7.809893E3,5.1062437E3,5.4847954E3,2.5057524E3,7.4216364E2,2.950958E3,4.235377E3,2.7814465E3,8.3018E2,2.833784E2,3.1330414E2,8.937823E2,2.653483E2,5.589689E3,2.220204E3,1.7087489E3,3.3974949E3,1.7116929E3,3.7731028E3],"tree_param":{"num_deleted":"0","num_feature":"23","num_nodes":"31","size_leaf_vector":"1"}},{"base_weights":[6.430207E-3,-6.923407E-1,7.832195E-1,-9.648904E-1,-2.2276196E-1,3.4111634E-1,1.1119682E0,-1.050881E0,-4.624919E-1,-4.136942E-1,2.647482E-2,1.0388312E-1,5.236028E-1,9.3764025E-1,1.2422296E0,-2.4882719E-2,-1.4806211E-2,-1.8399803E-2,-3.971701E-3,-1.0780272E-2,7.601566E-3,-5.306481E-3,9.316692E-3,5.68508E-3,-7.3901936E-3,1.3559078E-2,-4.7480534E-3,1.5112871E-2,2.348342E-2,2.5529403E-2,2.8938003E-2],"categories":[],"categories_nodes":[],"categories_segments":[],"categories_sizes":[],"default_left":[0,0,0,0,0,0,0,0,0,0,0,0,0,0,0,0,0,0,0,0,0,0,0,0,0,0,0,0,0,0,0],"id":19,"left_children":[1,3,5,7,9,11,13,15,17,19,21,23,25,27,29,-1,-1,-1,-1,-1,-1,-1,-1,-1,-1,-1,-1,-1,-1,-1,-1],"loss_changes":[1.8541443E4,2.2993184E3,2.347287E3,4.8656055E2,3.1500867E2,2.9873785E2,1.9890625E2,2.2167383E2,1.706965E2,1.9314105E2,2.966925E2,1.9740094E2,2.3703406E2,1.10018555E2,1.2317871E1,0E0,0E0,0E0,0E0,0E0,0E0,0E0,0E0,0E0,0E0,0E0,0E0,0E0,0E0,0E0,0E0],"parents":[2147483647,0,0,1,1,2,2,3,3,4,4,5,5,6,6,7,7,8,8,9,9,10,10,11,11,12,12,13,13,14,14],"right_children":[2,4,6,8,10,12,14,16,18,20,22,24,26,28,30,-1,-1,-1,-1,-1,-1,-1,-1,-1,-1,-1,-1,-1,-1,-1,-1],"split_conditions":[5E0,2E0,1.3862944E0,8.550352E-1,6.7884564E-1,4.9976116E-1,1.7917595E0,8.9005107E-1,-2.8994623E-1,1.0986123E0,5.5963546E-1,2.9147947E-1,7.298374E-1,7.1253157E-1,1.1377268E0,-2.4882719E-2,-1.4806211E-2,-1.8399803E-2,-3.971701E-3,-1.0780272E-2,7.601566E-3,-5.306481E-3,9.316692E-3,5.68508E-3,-7.3901936E-3,1.3559078E-2,-4.7480534E-3,1.5112871E-2,2.348342E-2,2.5529403E-2,2.8938003E-2],"split_indices":[14,14,13,11,2,8,5,4,1,5,4,3,0,2,2,0,0,0,0,0,0,0,0,0,0,0,0,0,0,0,0],"split_type":[0,0,0,0,0,0,0,0,0,0,0,0,0,0,0,0,0,0,0,0,0,0,0,0,0,0,0,0,0,0,0],"sum_hessian":[3.413904E4,1.7972615E4,1.6166424E4,1.136541E4,6.6072056E3,6.903269E3,9.263154E3,9.695063E3,1.6703461E3,3.7374827E3,2.869723E3,3.008262E3,3.8950073E3,3.9965974E3,5.266557E3,8.373926E3,1.3211375E3,7.3052496E2,9.398211E2,3.431992E3,3.0549075E2,1.7143612E3,1.1553618E3,2.23845E3,7.69812E2,3.5057559E3,3.8925137E2,1.2110161E3,2.7855813E3,1.8210386E3,3.4455183E3],"tree_param":{"num_deleted":"0","num_feature":"23","num_nodes":"31","size_leaf_vector":"1"}},{"base_weights":[1.8597413E-4,-6.7736715E-1,7.593452E-1,-9.5368594E-1,-2.045646E-1,3.7276515E-1,1.1095867E0,-6.11874E-1,-1.07801E0,-3.4015134E-1,1.7726523E-1,4.930932E-1,2.3823483E-3,9.167217E-1,1.2229363E0,-1.8782057E-2,-6.9557335E-3,-2.542283E-2,-1.5784949E-2,-1.1656793E-2,-2.584179E-3,-5.222915E-3,9.20522E-3,9.577243E-4,1.3048831E-2,7.5403773E-3,-4.4346093E-3,1.3937272E-2,2.2175193E-2,2.5585247E-2,2.8843436E-2],"categories":[],"categories_nodes":[],"categories_segments":[],"categories_sizes":[],"default_left":[0,0,0,0,0,0,0,0,0,0,0,0,0,0,0,0,0,0,0,0,0,0,0,0,0,0,0,0,0,0,0],"id":20,"left_children":[1,3,5,7,9,11,13,15,17,19,21,23,25,27,29,-1,-1,-1,-1,-1,-1,-1,-1,-1,-1,-1,-1,-1,-1,-1,-1],"loss_changes":[1.746792E4,2.3423633E3,2.1642803E3,4.745498E2,3.439321E2,3.3993774E2,1.7234863E2,2.0550562E2,1.6999707E2,1.9807922E2,1.6848468E2,2.3250061E2,1.26744896E2,6.217578E1,1.2818359E1,0E0,0E0,0E0,0E0,0E0,0E0,0E0,0E0,0E0,0E0,0E0,0E0,0E0,0E0,0E0,0E0],"parents":[2147483647,0,0,1,1,2,2,3,3,4,4,5,5,6,6,7,7,8,8,9,9,10,10,11,11,12,12,13,13,14,14],"right_children":[2,4,6,8,10,12,14,16,18,20,22,24,26,28,30,-1,-1,-1,-1,-1,-1,-1,-1,-1,-1,-1,-1,-1,-1,-1,-1],"split_conditions":[5E0,2E0,1.3862944E0,-3.019845E-1,1.0436238E0,1.8577234E-1,1.7917595E0,5.3176093E-1,8.434077E-1,6.346149E-1,4.4867328E-1,5.1483876E-1,-3.4458032E0,4.0488967E-1,2.1972246E0,-1.8782057E-2,-6.9557335E-3,-2.542283E-2,-1.5784949E-2,-1.1656793E-2,-2.584179E-3,-5.222915E-3,9.20522E-3,9.577243E-4,1.3048831E-2,7.5403773E-3,-4.4346093E-3,1.3937272E-2,2.2175193E-2,2.5585247E-2,2.8843436E-2],"split_indices":[14,14,5,10,11,0,5,4,4,2,4,2,9,2,5,0,0,0,0,0,0,0,0,0,0,0,0,0,0,0,0],"split_type":[0,0,0,0,0,0,0,0,0,0,0,0,0,0,0,0,0,0,0,0,0,0,0,0,0,0,0,0,0,0,0],"sum_hessian":[3.3939785E4,1.7934355E4,1.6005431E4,1.1312707E4,6.6216484E3,7.6178643E3,8.387566E3,3.0330488E3,8.279658E3,4.8872993E3,1.734349E3,5.7473535E3,1.8705107E3,3.1384448E3,5.2491216E3,1.7190015E3,1.3140475E3,7.154407E3,1.1252505E3,2.702732E3,2.1845676E3,6.2948254E2,1.1048665E3,9.578293E2,4.7895244E3,6.9849316E2,1.1720176E3,6.484557E2,2.489989E3,2.4437742E3,2.8053474E3],"tree_param":{"num_deleted":"0","num_feature":"23","num_nodes":"31","size_leaf_vector":"1"}},{"base_weights":[-1.7571127E-2,-6.786219E-1,7.3343223E-1,-9.543921E-1,-2.0733346E-1,2.37635E-1,1.0080612E0,-1.0803176E0,-6.6802365E-1,1.21853925E-1,-3.404235E-1,1.20909445E-1,5.8325213E-1,7.968544E-1,1.1878663E0,-2.6144704E-2,-1.9580754E-2,-1.7100746E-2,-1.914855E-3,-1.22052785E-2,5.5364664E-3,-9.393192E-3,7.1816094E-4,7.3244353E-3,-3.3471857E-3,1.5417333E-3,1.9235078E-2,9.558512E-3,2.0472117E-2,2.4701994E-2,2.8415004E-2],"categories":[],"categories_nodes":[],"categories_segments":[],"categories_sizes":[],"default_left":[0,0,0,0,0,0,0,0,0,0,0,0,0,0,0,0,0,0,0,0,0,0,0,0,0,0,0,0,0,0,0],"id":21,"left_children":[1,3,5,7,9,11,13,15,17,19,21,23,25,27,29,-1,-1,-1,-1,-1,-1,-1,-1,-1,-1,-1,-1,-1,-1,-1,-1],"loss_changes":[1.6599557E4,2.3092285E3,2.1289512E3,3.972207E2,2.8857703E2,2.2491986E2,3.7294824E2,1.2970996E2,1.9203711E2,1.6041838E2,1.3831659E2,2.3439731E2,1.9945187E2,1.9884448E2,2.3225098E1,0E0,0E0,0E0,0E0,0E0,0E0,0E0,0E0,0E0,0E0,0E0,0E0,0E0,0E0,0E0,0E0],"parents":[2147483647,0,0,1,1,2,2,3,3,4,4,5,5,6,6,7,7,8,8,9,9,10,10,11,11,12,12,13,13,14,14],"right_children":[2,4,6,8,10,12,14,16,18,20,22,24,26,28,30,-1,-1,-1,-1,-1,-1,-1,-1,-1,-1,-1,-1,-1,-1,-1,-1],"split_conditions":[5E0,2E0,1.0986123E0,4.2374697E-1,-9.345577E-1,6.417388E-1,2.0794415E0,-7.721861E-2,1.4918063E0,-9.2249453E-1,9.8649913E-1,7.658978E-2,7.7985907E-1,4.0488967E-1,2.6390574E0,-2.6144704E-2,-1.9580754E-2,-1.7100746E-2,-1.914855E-3,-1.22052785E-2,5.5364664E-3,-9.393192E-3,7.1816094E-4,7.3244353E-3,-3.3471857E-3,1.5417333E-3,1.9235078E-2,9.558512E-3,2.0472117E-2,2.4701994E-2,2.8415004E-2],"split_indices":[14,14,5,4,10,4,13,2,11,1,2,6,2,2,13,0,0,0,0,0,0,0,0,0,0,0,0,0,0,0,0],"split_type":[0,0,0,0,0,0,0,0,0,0,0,0,0,0,0,0,0,0,0,0,0,0,0,0,0,0,0,0,0,0,0],"sum_hessian":[3.3416395E4,1.7773086E4,1.564331E4,1.1205826E4,6.56726E3,5.582934E3,1.0060376E4,7.7639873E3,3.4418386E3,1.8909407E3,4.6763193E3,4.1835483E3,1.3993859E3,4.651223E3,5.409153E3,5.413512E3,2.3504753E3,2.9528655E3,4.8897324E2,2.9402454E2,1.5969161E3,3.8557534E3,8.205658E2,2.3721577E3,1.8113906E3,4.9297568E2,9.0641016E2,1.1332397E3,3.5179834E3,2.7257854E3,2.6833672E3],"tree_param":{"num_deleted":"0","num_feature":"23","num_nodes":"31","size_leaf_vector":"1"}},{"base_weights":[-4.736471E-3,-8.0569696E-1,5.9398556E-1,-9.8879063E-1,-4.120679E-1,1.4881368E-1,9.7559655E-1,-1.1884378E0,-8.157099E-1,-2.1891735E-1,-7.226359E-1,-4.7438335E-1,2.2859442E-1,7.814558E-1,1.1621935E0,-1.5663337E-2,-2.738346E-2,-1.9889371E-2,-5.4709828E-3,-8.077131E-3,5.6507783E-3,-1.3843735E-2,-3.011842E-2,-1.2022543E-2,1.6330037E-2,2.183125E-3,1.181296E-2,1.073079E-2,2.1268789E-2,2.1514503E-2,2.663001E-2],"categories":[],"categories_nodes":[],"categories_segments":[],"categories_sizes":[],"default_left":[0,0,0,0,0,0,0,0,0,0,0,0,0,0,0,0,0,0,0,0,0,0,0,0,0,0,0,0,0,0,0],"id":22,"left_children":[1,3,5,7,9,11,13,15,17,19,21,23,25,27,29,-1,-1,-1,-1,-1,-1,-1,-1,-1,-1,-1,-1,-1,-1,-1,-1],"loss_changes":[1.6089282E4,1.0302344E3,3.260141E3,3.285127E2,2.7274738E2,4.4226013E2,3.6532227E2,6.822168E1,2.1695679E2,1.9042487E2,1.05229004E2,8.010239E1,3.0811847E2,2.5499731E2,1.740625E1,0E0,0E0,0E0,0E0,0E0,0E0,0E0,0E0,0E0,0E0,0E0,0E0,0E0,0E0,0E0,0E0],"parents":[2147483647,0,0,1,1,2,2,3,3,4,4,5,5,6,6,7,7,8,8,9,9,10,10,11,11,12,12,13,13,14,14],"right_children":[2,4,6,8,10,12,14,16,18,20,22,24,26,28,30,-1,-1,-1,-1,-1,-1,-1,-1,-1,-1,-1,-1,-1,-1,-1,-1],"split_conditions":[3E0,3.457106E-2,1.0986123E0,-8.546158E-2,4.9756084E-2,5.459561E-2,2.0794415E0,-1.1063821E0,1.4502772E0,1.1193401E0,2.1958127E0,2.7633603E0,4.33217E-2,6.489621E-1,3.6367008E-1,-1.5663337E-2,-2.738346E-2,-1.9889371E-2,-5.4709828E-3,-8.077131E-3,5.6507783E-3,-1.3843735E-2,-3.011842E-2,-1.2022543E-2,1.6330037E-2,2.183125E-3,1.181296E-2,1.073079E-2,2.1268789E-2,2.1514503E-2,2.663001E-2],"split_indices":[14,2,5,4,0,2,13,0,11,11,8,11,7,2,2,0,0,0,0,0,0,0,0,0,0,0,0,0,0,0,0],"split_type":[0,0,0,0,0,0,0,0,0,0,0,0,0,0,0,0,0,0,0,0,0,0,0,0,0,0,0,0,0,0,0],"sum_hessian":[3.3530617E4,1.4341438E4,1.918918E4,9.778087E3,4.5633516E3,8.863411E3,1.032577E4,4.5133066E3,5.2647803E3,2.824069E3,1.7392827E3,1.00027844E3,7.863133E3,5.086042E3,5.2397275E3,3.1351273E2,4.199794E3,4.6654233E3,5.993569E2,2.1724922E3,6.5157666E2,1.5069257E3,2.3235706E2,9.560739E2,4.4204548E1,5.47627E3,2.3868628E3,1.8353456E3,3.2506963E3,6.698886E2,4.569839E3],"tree_param":{"num_deleted":"0","num_feature":"23","num_nodes":"31","size_leaf_vector":"1"}},{"base_weights":[6.9533414E-3,-7.9392475E-1,5.953326E-1,-1.0327952E0,-5.567796E-1,1.5090977E-1,9.749173E-1,-6.8387914E-1,-1.1437677E0,-6.866967E-1,-1.4666715E-1,-4.7893655E-1,2.3143321E-1,7.292733E-1,1.1415452E0,-1.701192E-2,5.846275E-3,2.2455033E-2,-2.5812397E-2,-1.2030469E-2,-2.065614E-2,-6.484097E-3,7.0821927E-3,-2.107248E-2,-6.594211E-3,2.8655257E-3,1.4063137E-2,8.715372E-3,2.0663476E-2,2.2624025E-2,2.6981601E-2],"categories":[],"categories_nodes":[],"categories_segments":[],"categories_sizes":[],"default_left":[0,0,0,0,0,0,0,0,0,0,0,0,0,0,0,0,0,0,0,0,0,0,0,0,0,0,0,0,0,0,0],"id":23,"left_children":[1,3,5,7,9,11,13,15,17,19,21,23,25,27,29,-1,-1,-1,-1,-1,-1,-1,-1,-1,-1,-1,-1,-1,-1,-1,-1],"loss_changes":[1.5867946E4,8.0211914E2,3.2733145E3,2.66813E2,3.8145605E2,4.5524475E2,4.2012793E2,1.2673511E2,1.179043E2,1.8701611E2,1.1607597E2,8.401851E1,3.2527173E2,2.768777E2,3.966797E1,0E0,0E0,0E0,0E0,0E0,0E0,0E0,0E0,0E0,0E0,0E0,0E0,0E0,0E0,0E0,0E0],"parents":[2147483647,0,0,1,1,2,2,3,3,4,4,5,5,6,6,7,7,8,8,9,9,10,10,11,11,12,12,13,13,14,14],"right_children":[2,4,6,8,10,12,14,16,18,20,22,24,26,28,30,-1,-1,-1,-1,-1,-1,-1,-1,-1,-1,-1,-1,-1,-1,-1,-1],"split_conditions":[3E0,-1.2837665E-1,1.0986123E0,-2.3213889E-1,8.2555884E-1,5.459561E-2,1.609438E0,6.95856E-1,-3.1960506E0,2.5378048E-1,1.4918063E0,-2.0627211E-1,8.9005107E-1,6.489621E-1,1.5234945E0,-1.701192E-2,5.846275E-3,2.2455033E-2,-2.5812397E-2,-1.2030469E-2,-2.065614E-2,-6.484097E-3,7.0821927E-3,-2.107248E-2,-6.594211E-3,2.8655257E-3,1.4063137E-2,8.715372E-3,2.0663476E-2,2.2624025E-2,2.6981601E-2],"split_indices":[14,2,5,10,4,2,5,6,3,0,11,12,4,2,8,0,0,0,0,0,0,0,0,0,0,0,0,0,0,0,0],"split_type":[0,0,0,0,0,0,0,0,0,0,0,0,0,0,0,0,0,0,0,0,0,0,0,0,0,0,0,0,0,0,0],"sum_hessian":[3.365415E4,1.4251742E4,1.9402406E4,7.083307E3,7.168435E3,8.944301E3,1.0458105E4,1.7265289E3,5.3567783E3,5.4387554E3,1.7296798E3,1.0082521E3,7.9360483E3,4.2486055E3,6.2094995E3,1.5998132E3,1.2671567E2,1.8317528E1,5.338461E3,3.351141E3,2.087614E3,1.3244825E3,4.051972E2,2.757399E2,7.3251215E2,6.305418E3,1.6306302E3,1.5531573E3,2.6954482E3,2.08669E3,4.1228096E3],"tree_param":{"num_deleted":"0","num_feature":"23","num_nodes":"31","size_leaf_vector":"1"}},{"base_weights":[-1.0311853E-2,-6.4727247E-1,7.0714515E-1,-9.310721E-1,-1.7938517E-1,3.1627816E-1,1.0139179E0,-1.0015551E0,-3.6371785E-1,-2.9772857E-1,2.9960853E-1,2.4624918E-1,8.540068E-1,8.068939E-1,1.1460545E0,-1.9008247E-2,-2.5589067E-2,-3.1780217E-2,-4.9806708E-3,-7.651032E-3,1.0105207E-2,1.4901648E-5,1.3927734E-2,7.157689E-3,-5.4714927E-3,2.1217527E-2,-1.2176377E-2,1.0934952E-2,2.037497E-2,2.1844303E-2,2.6531423E-2],"categories":[],"categories_nodes":[],"categories_segments":[],"categories_sizes":[],"default_left":[0,0,0,0,0,0,0,0,0,0,0,0,0,0,0,0,0,0,0,0,0,0,0,0,0,0,0,0,0,0,0],"id":24,"left_children":[1,3,5,7,9,11,13,15,17,19,21,23,25,27,29,-1,-1,-1,-1,-1,-1,-1,-1,-1,-1,-1,-1,-1,-1,-1,-1],"loss_changes":[1.5157038E4,2.3312417E3,1.8670889E3,4.335586E2,3.776019E2,2.5671594E2,2.2966895E2,1.9994434E2,1.7934235E2,1.774768E2,1.2740994E2,2.2052301E2,1.0841394E2,1.0851099E2,2.3722168E1,0E0,0E0,0E0,0E0,0E0,0E0,0E0,0E0,0E0,0E0,0E0,0E0,0E0,0E0,0E0,0E0],"parents":[2147483647,0,0,1,1,2,2,3,3,4,4,5,5,6,6,7,7,8,8,9,9,10,10,11,11,12,12,13,13,14,14],"right_children":[2,4,6,8,10,12,14,16,18,20,22,24,26,28,30,-1,-1,-1,-1,-1,-1,-1,-1,-1,-1,-1,-1,-1,-1,-1,-1],"split_conditions":[5E0,2E0,1.3862944E0,1.147502E0,1.136639E0,1.3242937E0,2.0794415E0,1.8577234E-1,-1.9868397E0,1.0986123E0,6.7884564E-1,6.618293E-1,4.121217E0,5.7605374E-1,7.3016346E-1,-1.9008247E-2,-2.5589067E-2,-3.1780217E-2,-4.9806708E-3,-7.651032E-3,1.0105207E-2,1.4901648E-5,1.3927734E-2,7.157689E-3,-5.4714927E-3,2.1217527E-2,-1.2176377E-2,1.0934952E-2,2.037497E-2,2.1844303E-2,2.6531423E-2],"split_indices":[14,14,13,11,4,2,13,0,3,5,2,0,2,2,2,0,0,0,0,0,0,0,0,0,0,0,0,0,0,0,0],"split_type":[0,0,0,0,0,0,0,0,0,0,0,0,0,0,0,0,0,0,0,0,0,0,0,0,0,0,0,0,0,0,0],"sum_hessian":[3.3146957E4,1.7559008E4,1.558795E4,1.0923424E4,6.635583E3,6.8634263E3,8.724524E3,9.709529E3,1.2138949E3,5.324004E3,1.3115791E3,6.085503E3,7.7792365E2,3.4267805E3,5.2977437E3,4.7064746E3,5.0030547E3,1.3253499E2,1.0813599E3,5.033596E3,2.9040793E2,6.858859E2,6.256932E2,5.2959595E3,7.895434E2,7.320582E2,4.5865368E1,8.529126E2,2.573868E3,1.0368961E3,4.2608477E3],"tree_param":{"num_deleted":"0","num_feature":"23","num_nodes":"31","size_leaf_vector":"1"}},{"base_weights":[-2.708046E-3,-7.63716E-1,5.587577E-1,-8.598339E-1,-1.2906887E-1,1.38626E-1,9.299261E-1,-5.906123E-1,-9.870344E-1,2.8415206E-1,-3.567602E-1,2.6014373E-1,-2.3638913E-1,6.93943E-1,1.0931242E0,-1.5348854E-2,-6.018808E-4,-2.3157278E-2,-7.6277736E-3,8.9134136E-4,1.4750848E-2,-4.018186E-3,-1.9800771E-2,-1.0368009E-2,6.9614053E-3,8.079261E-3,-8.152368E-3,8.610093E-3,1.9597335E-2,2.2214698E-2,2.645843E-2],"categories":[],"categories_nodes":[],"categories_segments":[],"categories_sizes":[],"default_left":[0,0,0,0,0,0,0,0,0,0,0,0,0,0,0,0,0,0,0,0,0,0,0,0,0,0,0,0,0,0,0],"id":25,"left_children":[1,3,5,7,9,11,13,15,17,19,21,23,25,27,29,-1,-1,-1,-1,-1,-1,-1,-1,-1,-1,-1,-1,-1,-1,-1,-1],"loss_changes":[1.4142025E4,8.5606055E2,2.9687114E3,4.1200977E2,1.7601921E2,4.0826886E2,3.8176953E2,2.1081055E2,2.4967139E2,6.0744236E1,1.1100551E2,2.4990335E2,1.6877448E2,2.3015735E2,4.156836E1,0E0,0E0,0E0,0E0,0E0,0E0,0E0,0E0,0E0,0E0,0E0,0E0,0E0,0E0,0E0,0E0],"parents":[2147483647,0,0,1,1,2,2,3,3,4,4,5,5,6,6,7,7,8,8,9,9,10,10,11,11,12,12,13,13,14,14],"right_children":[2,4,6,8,10,12,14,16,18,20,22,24,26,28,30,-1,-1,-1,-1,-1,-1,-1,-1,-1,-1,-1,-1,-1,-1,-1,-1],"split_conditions":[3E0,1.314308E0,1.0986123E0,-1.1531729E-1,-1.1433289E0,2.5378048E-1,1.609438E0,1.292179E0,4.3249607E-1,5.756442E-1,1.1776421E-1,-3.7023652E-2,-1.531243E0,6.489621E-1,2.0794415E0,-1.5348854E-2,-6.018808E-4,-2.3157278E-2,-7.6277736E-3,8.9134136E-4,1.4750848E-2,-4.018186E-3,-1.9800771E-2,-1.0368009E-2,6.9614053E-3,8.079261E-3,-8.152368E-3,8.610093E-3,1.9597335E-2,2.2214698E-2,2.645843E-2],"split_indices":[14,6,5,10,10,0,5,4,2,1,0,2,10,2,5,0,0,0,0,0,0,0,0,0,0,0,0,0,0,0,0],"split_type":[0,0,0,0,0,0,0,0,0,0,0,0,0,0,0,0,0,0,0,0,0,0,0,0,0,0,0,0,0,0,0],"sum_hessian":[3.307781E4,1.4041901E4,1.9035908E4,1.2191867E4,1.8500344E3,8.935465E3,1.0100442E4,3.9301526E3,8.261714E3,6.563491E2,1.1936853E3,6.751E3,2.184465E3,4.150883E3,5.9495596E3,3.361512E3,5.686406E2,7.6920083E3,5.6970593E2,4.040156E2,2.5233354E2,9.0356744E2,2.901179E2,4.3779996E2,6.3132E3,3.817088E2,1.8027562E3,1.5460975E3,2.6047852E3,2.8419827E3,3.1075771E3],"tree_param":{"num_deleted":"0","num_feature":"23","num_nodes":"31","size_leaf_vector":"1"}},{"base_weights":[3.602151E-3,-5.040541E-1,8.0678695E-1,-8.5373783E-1,-9.248746E-2,4.9082622E-1,1.033041E0,-5.523868E-1,-9.811248E-1,4.531059E-2,-4.655296E-1,1.554667E-1,7.871165E-1,8.518505E-1,1.1253135E0,-1.4163232E-2,5.146375E-3,-2.2186672E-2,2.4097087E-2,-1.3011803E-3,1.0783665E-2,-1.1408403E-2,1.7263267E-2,2.2177235E-3,1.5415766E-2,1.808642E-2,-4.9831984E-3,1.3182659E-2,2.048678E-2,-1.1362257E-2,2.5230449E-2],"categories":[],"categories_nodes":[],"categories_segments":[],"categories_sizes":[],"default_left":[0,0,0,0,0,0,0,0,0,0,0,0,0,0,0,0,0,0,0,0,0,0,0,0,0,0,0,0,0,0,0],"id":26,"left_children":[1,3,5,7,9,11,13,15,17,19,21,23,25,27,29,-1,-1,-1,-1,-1,-1,-1,-1,-1,-1,-1,-1,-1,-1,-1,-1],"loss_changes":[1.3510389E4,2.9210933E3,9.1225586E2,4.158838E2,4.801918E2,5.3271484E2,1.15260254E2,2.0763922E2,1.6781299E2,3.0845343E2,1.4122833E2,7.548357E1,6.159668E1,3.720935E1,1.9289062E1,0E0,0E0,0E0,0E0,0E0,0E0,0E0,0E0,0E0,0E0,0E0,0E0,0E0,0E0,0E0,0E0],"parents":[2147483647,0,0,1,1,2,2,3,3,4,4,5,5,6,6,7,7,8,8,9,9,10,10,11,11,12,12,13,13,14,14],"right_children":[2,4,6,8,10,12,14,16,18,20,22,24,26,28,30,-1,-1,-1,-1,-1,-1,-1,-1,-1,-1,-1,-1,-1,-1,-1,-1],"split_conditions":[6E0,2E0,1.609438E0,-1.8722701E-1,2.5378048E-1,8.9733624E-1,1.7917595E0,1.3353022E0,2.9674404E0,1.3029934E0,1.3862944E0,3.0923219E0,4.121217E0,4.0488967E-1,-2.3604198E0,-1.4163232E-2,5.146375E-3,-2.2186672E-2,2.4097087E-2,-1.3011803E-3,1.0783665E-2,-1.1408403E-2,1.7263267E-2,2.2177235E-3,1.5415766E-2,1.808642E-2,-4.9831984E-3,1.3182659E-2,2.048678E-2,-1.1362257E-2,2.5230449E-2],"split_indices":[14,14,13,10,0,2,5,6,6,11,5,6,2,2,1,0,0,0,0,0,0,0,0,0,0,0,0,0,0,0,0],"split_type":[0,0,0,0,0,0,0,0,0,0,0,0,0,0,0,0,0,0,0,0,0,0,0,0,0,0,0,0,0,0,0],"sum_hessian":[3.3114684E4,2.029246E4,1.2822223E4,1.0965209E4,9.327252E3,5.363668E3,7.458554E3,3.2738708E3,7.691338E3,6.817642E3,2.5096104E3,2.5231233E3,2.8405444E3,2.551246E3,4.9073086E3,2.9709712E3,3.0289984E2,7.6596055E3,3.1732038E1,5.518313E3,1.299329E3,2.4289482E3,8.066223E1,2.2924602E3,2.3066306E2,2.7852483E3,5.5296078E1,5.146874E2,2.0365586E3,1.9704835E0,4.905338E3],"tree_param":{"num_deleted":"0","num_feature":"23","num_nodes":"31","size_leaf_vector":"1"}},{"base_weights":[-1.4012649E-2,-7.5612414E-1,5.3532976E-1,-8.8193333E-1,-3.3943883E-1,2.0808583E-1,9.8456514E-1,-9.9774224E-1,-5.9940773E-1,-4.91966E-1,-5.9086992E-3,1.8885935E-2,4.2216244E-1,7.7082026E-1,1.0981221E0,-2.5114153E-2,-1.9613948E-2,-1.7264104E-2,-5.5941474E-3,-1.1691416E-2,1.3493003E-2,-2.0212336E-2,2.518916E-3,-9.532303E-3,2.5202325E-3,1.2534024E-2,-1.5899514E-4,1.0935568E-2,1.9113285E-2,2.2707075E-2,2.6436338E-2],"categories":[],"categories_nodes":[],"categories_segments":[],"categories_sizes":[],"default_left":[0,0,0,0,0,0,0,0,0,0,0,0,0,0,0,0,0,0,0,0,0,0,0,0,0,0,0,0,0,0,0],"id":27,"left_children":[1,3,5,7,9,11,13,15,17,19,21,23,25,27,29,-1,-1,-1,-1,-1,-1,-1,-1,-1,-1,-1,-1,-1,-1,-1,-1],"loss_changes":[1.3303995E4,7.246948E2,2.7547612E3,3.4265234E2,1.6456274E2,4.398678E2,1.8328076E2,1.0396387E2,1.8554675E2,7.6710205E1,1.0994739E2,2.4113635E2,3.0126794E2,6.0791748E1,2.362793E1,0E0,0E0,0E0,0E0,0E0,0E0,0E0,0E0,0E0,0E0,0E0,0E0,0E0,0E0,0E0,0E0],"parents":[2147483647,0,0,1,1,2,2,3,3,4,4,5,5,6,6,7,7,8,8,9,9,10,10,11,11,12,12,13,13,14,14],"right_children":[2,4,6,8,10,12,14,16,18,20,22,24,26,28,30,-1,-1,-1,-1,-1,-1,-1,-1,-1,-1,-1,-1,-1,-1,-1,-1],"split_conditions":[3E0,2.1557969E-1,1.3862944E0,4.7003868E-1,8.550352E-1,4.9976116E-1,2.0794415E0,-2.6322165E-1,6.673575E-1,2.5742064E0,-9.508941E-1,2.2748609E-1,2.5378048E-1,3.141185E-1,2.6390574E0,-2.5114153E-2,-1.9613948E-2,-1.7264104E-2,-5.5941474E-3,-1.1691416E-2,1.3493003E-2,-2.0212336E-2,2.518916E-3,-9.532303E-3,2.5202325E-3,1.2534024E-2,-1.5899514E-4,1.0935568E-2,1.9113285E-2,2.2707075E-2,2.6436338E-2],"split_indices":[14,2,5,4,11,8,13,4,11,4,1,2,0,2,13,0,0,0,0,0,0,0,0,0,0,0,0,0,0,0,0],"split_type":[0,0,0,0,0,0,0,0,0,0,0,0,0,0,0,0,0,0,0,0,0,0,0,0,0,0,0,0,0,0,0],"sum_hessian":[3.261403E4,1.3871352E4,1.8742676E4,1.0645869E4,3.2254824E3,1.0852133E4,7.8905435E3,7.5327856E3,3.113084E3,2.2100298E3,1.01545245E3,5.766583E3,5.0855503E3,2.7646655E3,5.125878E3,3.68814E3,3.8446455E3,2.0792725E3,1.0338116E3,2.1556592E3,5.4370552E1,1.1071873E2,9.0473376E2,9.973359E2,4.769247E3,3.848044E3,1.2375062E3,6.433941E2,2.1212715E3,2.6121033E3,2.5137747E3],"tree_param":{"num_deleted":"0","num_feature":"23","num_nodes":"31","size_leaf_vector":"1"}},{"base_weights":[-1.7176328E-3,-5.944046E-1,6.619706E-1,-8.3982766E-1,-1.922363E-1,3.2384884E-1,9.8649085E-1,-9.3190914E-1,-3.9069924E-1,-3.0828097E-1,1.6695128E-1,1.18380964E-1,4.867442E-1,8.244666E-1,1.088266E0,-2.448873E-2,-1.7932303E-2,-1.7471634E-2,-5.14304E-3,-1.0554356E-2,-3.0359344E-3,-7.4742963E-3,8.932838E-3,6.267271E-3,-2.134307E-3,1.2771249E-2,-2.203136E-3,1.5684403E-2,2.1855192E-2,1.9044852E-2,2.4916826E-2],"categories":[],"categories_nodes":[],"categories_segments":[],"categories_sizes":[],"default_left":[0,0,0,0,0,0,0,0,0,0,0,0,0,0,0,0,0,0,0,0,0,0,0,0,0,0,0,0,0,0,0],"id":28,"left_children":[1,3,5,7,9,11,13,15,17,19,21,23,25,27,29,-1,-1,-1,-1,-1,-1,-1,-1,-1,-1,-1,-1,-1,-1,-1,-1],"loss_changes":[1.2842401E4,1.7006309E3,1.6867578E3,4.3916797E2,2.7349188E2,2.5236829E2,1.2051953E2,1.794541E2,1.1356552E2,1.3891043E2,1.8794284E2,1.16126785E2,2.0693799E2,5.088452E1,1.8666016E1,0E0,0E0,0E0,0E0,0E0,0E0,0E0,0E0,0E0,0E0,0E0,0E0,0E0,0E0,0E0,0E0],"parents":[2147483647,0,0,1,1,2,2,3,3,4,4,5,5,6,6,7,7,8,8,9,9,10,10,11,11,12,12,13,13,14,14],"right_children":[2,4,6,8,10,12,14,16,18,20,22,24,26,28,30,-1,-1,-1,-1,-1,-1,-1,-1,-1,-1,-1,-1,-1,-1,-1,-1],"split_conditions":[5E0,2E0,1.3862944E0,8.9005107E-1,1.1193401E0,5.3480834E-1,1.7917595E0,-2.0890607E-1,-1.7448933E-1,5.9057575E-1,-4.457626E-1,4.2230366E-3,1.5156011E1,1.2371595E0,2.0519869E-1,-2.448873E-2,-1.7932303E-2,-1.7471634E-2,-5.14304E-3,-1.0554356E-2,-3.0359344E-3,-7.4742963E-3,8.932838E-3,6.267271E-3,-2.134307E-3,1.2771249E-2,-2.203136E-3,1.5684403E-2,2.1855192E-2,1.9044852E-2,2.4916826E-2],"split_indices":[14,14,5,4,11,8,5,4,8,2,1,6,12,2,2,0,0,0,0,0,0,0,0,0,0,0,0,0,0,0,0],"split_type":[0,0,0,0,0,0,0,0,0,0,0,0,0,0,0,0,0,0,0,0,0,0,0,0,0,0,0,0,0,0,0],"sum_hessian":[3.262801E4,1.7236514E4,1.5391495E4,1.0697476E4,6.5390386E3,7.5475835E3,7.843912E3,8.868468E3,1.829008E3,4.9433945E3,1.595644E3,3.3453096E3,4.202274E3,3.0613708E3,4.7825415E3,3.9310483E3,4.9374194E3,5.2334906E2,1.3056589E3,2.532734E3,2.4106606E3,5.038527E2,1.0917913E3,1.9033472E3,1.4419624E3,3.676493E3,5.257808E2,1.7165734E3,1.3447974E3,4.8429108E2,4.2982505E3],"tree_param":{"num_deleted":"0","num_feature":"23","num_nodes":"31","size_leaf_vector":"1"}},{"base_weights":[1.3397963E-3,-7.0551246E-1,5.2654326E-1,-8.6771655E-1,-3.6270297E-1,1.3291393E-1,8.800776E-1,-9.2271686E-1,-2.3403296E-1,-4.525463E-1,1.8406521E-1,-3.77686E-1,2.0733702E-1,5.850405E-1,1.0007869E0,-1.11014815E-2,-2.1822378E-2,-2.7345978E-2,-9.574524E-4,-1.1483551E-2,4.0101542E-4,-6.6314195E-3,1.4156121E-2,-4.56176E-3,-2.1236164E-2,2.571085E-3,1.3197354E-2,8.431743E-3,1.9036405E-2,1.9401299E-2,2.4859235E-2],"categories":[],"categories_nodes":[],"categories_segments":[],"categories_sizes":[],"default_left":[0,0,0,0,0,0,0,0,0,0,0,0,0,0,0,0,0,0,0,0,0,0,0,0,0,0,0,0,0,0,0],"id":29,"left_children":[1,3,5,7,9,11,13,15,17,19,21,23,25,27,29,-1,-1,-1,-1,-1,-1,-1,-1,-1,-1,-1,-1,-1,-1,-1,-1],"loss_changes":[1.2078066E4,7.680161E2,2.596337E3,3.2569238E2,2.2050037E2,3.368463E2,3.442744E2,1.8739014E2,1.4389061E2,1.0932239E2,1.3926993E2,1.1011195E2,2.723764E2,1.5594055E2,9.277637E1,0E0,0E0,0E0,0E0,0E0,0E0,0E0,0E0,0E0,0E0,0E0,0E0,0E0,0E0,0E0,0E0],"parents":[2147483647,0,0,1,1,2,2,3,3,4,4,5,5,6,6,7,7,8,8,9,9,10,10,11,11,12,12,13,13,14,14],"right_children":[2,4,6,8,10,12,14,16,18,20,22,24,26,28,30,-1,-1,-1,-1,-1,-1,-1,-1,-1,-1,-1,-1,-1,-1,-1,-1],"split_conditions":[3E0,3.457106E-2,1.0986123E0,1.4078759E0,2.5740259E0,1.3772674E-1,7.1253157E-1,-1.1063821E0,-1.010949E0,1.3958725E0,3.330474E-2,4.0817475E-1,9.2453885E-1,1.609438E0,1.7917595E0,-1.11014815E-2,-2.1822378E-2,-2.7345978E-2,-9.574524E-4,-1.1483551E-2,4.0101542E-4,-6.6314195E-3,1.4156121E-2,-4.56176E-3,-2.1236164E-2,2.571085E-3,1.3197354E-2,8.431743E-3,1.9036405E-2,1.9401299E-2,2.4859235E-2],"split_indices":[14,2,5,11,6,2,2,0,9,4,8,10,4,5,5,0,0,0,0,0,0,0,0,0,0,0,0,0,0,0,0],"split_type":[0,0,0,0,0,0,0,0,0,0,0,0,0,0,0,0,0,0,0,0,0,0,0,0,0,0,0,0,0,0,0],"sum_hessian":[3.2514277E4,1.3858787E4,1.865549E4,9.397103E3,4.461685E3,8.833716E3,9.821775E3,8.642412E3,7.546909E2,3.8335146E3,6.281702E2,1.1185709E3,7.7151445E3,2.868688E3,6.9530874E3,9.508594E2,7.6915522E3,1.1371007E2,6.4098083E2,3.3965312E3,4.3698325E2,3.0488284E2,3.2328738E2,8.677918E2,2.5077907E2,6.2222793E3,1.4928652E3,1.6201375E3,1.2485505E3,3.166854E3,3.7862332E3],"tree_param":{"num_deleted":"0","num_feature":"23","num_nodes":"31","size_leaf_vector":"1"}},{"base_weights":[3.175973E-5,-7.020855E-1,5.187169E-1,-8.417928E-1,-2.564193E-1,1.15783915E-1,8.7543124E-1,-1.0331866E0,-6.782162E-1,-4.4752926E-1,4.063679E-2,-1.6558827E-1,2.589829E-1,6.8184155E-1,1.0629421E0,-1.234486E-2,-2.3820069E-2,-1.5749918E-2,2.0139702E-2,-8.289208E-3,-1.8523263E-2,-4.9684993E-3,6.2835994E-3,-6.4431527E-3,5.5612153E-3,-9.082173E-4,1.0526408E-2,9.310826E-3,1.8633157E-2,2.041211E-2,2.489701E-2],"categories":[],"categories_nodes":[],"categories_segments":[],"categories_sizes":[],"default_left":[0,0,0,0,0,0,0,0,0,0,0,0,0,0,0,0,0,0,0,0,0,0,0,0,0,0,0,0,0,0,0],"id":30,"left_children":[1,3,5,7,9,11,13,15,17,19,21,23,25,27,29,-1,-1,-1,-1,-1,-1,-1,-1,-1,-1,-1,-1,-1,-1,-1,-1],"loss_changes":[1.18346E4,8.574917E2,2.6852993E3,3.2193555E2,1.8807425E2,3.5451266E2,3.5253906E2,6.571826E1,2.3370679E2,5.606018E1,8.286338E1,1.509923E2,3.6891965E2,1.9280054E2,2.7128906E1,0E0,0E0,0E0,0E0,0E0,0E0,0E0,0E0,0E0,0E0,0E0,0E0,0E0,0E0,0E0,0E0],"parents":[2147483647,0,0,1,1,2,2,3,3,4,4,5,5,6,6,7,7,8,8,9,9,10,10,11,11,12,12,13,13,14,14],"right_children":[2,4,6,8,10,12,14,16,18,20,22,24,26,28,30,-1,-1,-1,-1,-1,-1,-1,-1,-1,-1,-1,-1,-1,-1,-1,-1],"split_conditions":[3E0,2.1557969E-1,1.0986123E0,-6.2315732E-2,5.710387E-1,9.1684574E-1,2.0794415E0,-1.2423984E0,2.742011E0,7.9784554E-1,4.7424698E-1,1.1078353E0,-1.4955775E-1,6.489621E-1,9.5074457E-1,-1.234486E-2,-2.3820069E-2,-1.5749918E-2,2.0139702E-2,-8.289208E-3,-1.8523263E-2,-4.9684993E-3,6.2835994E-3,-6.4431527E-3,5.5612153E-3,-9.082173E-4,1.0526408E-2,9.310826E-3,1.8633157E-2,2.041211E-2,2.489701E-2],"split_indices":[14,2,5,4,4,2,13,0,6,0,2,4,4,2,2,0,0,0,0,0,0,0,0,0,0,0,0,0,0,0,0],"split_type":[0,0,0,0,0,0,0,0,0,0,0,0,0,0,0,0,0,0,0,0,0,0,0,0,0,0,0,0,0,0,0],"sum_hessian":[3.2476771E4,1.379697E4,1.86798E4,1.0497352E4,3.299619E3,8.777874E3,9.901927E3,4.8128394E3,5.6845117E3,2.0048038E3,1.294815E3,2.9600427E3,5.817831E3,4.8948306E3,5.0070967E3,3.007319E2,4.5121074E3,5.600237E3,8.427499E1,1.6823901E3,3.2241367E2,6.1872705E2,6.7608795E2,2.2877478E3,6.7229504E2,2.4091396E3,3.4086914E3,1.782373E3,3.1124575E3,1.2768728E3,3.7302236E3],"tree_param":{"num_deleted":"0","num_feature":"23","num_nodes":"31","size_leaf_vector":"1"}},{"base_weights":[2.679374E-3,-6.861501E-1,5.1030046E-1,-8.4326565E-1,-3.1757882E-1,2.1584362E-1,9.320841E-1,-9.247551E-1,-3.6033726E-1,-1.7936026E-1,-6.405979E-1,4.4057563E-2,4.1862163E-1,7.5361156E-1,1.048527E0,-1.5451294E-2,-2.2627689E-2,-1.3269436E-2,1.1127895E-3,-6.5309643E-3,7.1687386E-3,-1.0903619E-2,-2.4372924E-2,-4.7673862E-3,4.002943E-3,7.337882E-4,1.1960645E-2,1.233408E-2,1.920921E-2,2.1598946E-2,2.5045587E-2],"categories":[],"categories_nodes":[],"categories_segments":[],"categories_sizes":[],"default_left":[0,0,0,0,0,0,0,0,0,0,0,0,0,0,0,0,0,0,0,0,0,0,0,0,0,0,0,0,0,0,0],"id":31,"left_children":[1,3,5,7,9,11,13,15,17,19,21,23,25,27,29,-1,-1,-1,-1,-1,-1,-1,-1,-1,-1,-1,-1,-1,-1,-1,-1],"loss_changes":[1.130793E4,7.918535E2,2.310359E3,3.7499414E2,1.8264948E2,3.8219836E2,1.5108984E2,1.5879248E2,1.3412636E2,1.6356421E2,7.929889E1,2.0657437E2,2.2440186E2,5.995215E1,1.6260742E1,0E0,0E0,0E0,0E0,0E0,0E0,0E0,0E0,0E0,0E0,0E0,0E0,0E0,0E0,0E0,0E0],"parents":[2147483647,0,0,1,1,2,2,3,3,4,4,5,5,6,6,7,7,8,8,9,9,10,10,11,11,12,12,13,13,14,14],"right_children":[2,4,6,8,10,12,14,16,18,20,22,24,26,28,30,-1,-1,-1,-1,-1,-1,-1,-1,-1,-1,-1,-1,-1,-1,-1,-1],"split_conditions":[3E0,8.544136E-2,1.3862944E0,9.810989E-1,2.5378048E-1,5.1537085E-1,1.7917595E0,-1.1531729E-1,6.673575E-1,1.3958725E0,-4.3296623E-1,8.9733624E-1,6E0,7.3016346E-1,2.1972246E0,-1.5451294E-2,-2.2627689E-2,-1.3269436E-2,1.1127895E-3,-6.5309643E-3,7.1687386E-3,-1.0903619E-2,-2.4372924E-2,-4.7673862E-3,4.002943E-3,7.337882E-4,1.1960645E-2,1.233408E-2,1.920921E-2,2.1598946E-2,2.5045587E-2],"split_indices":[14,2,5,4,0,8,5,10,11,4,1,2,14,2,5,0,0,0,0,0,0,0,0,0,0,0,0,0,0,0,0],"split_type":[0,0,0,0,0,0,0,0,0,0,0,0,0,0,0,0,0,0,0,0,0,0,0,0,0,0,0,0,0,0,0],"sum_hessian":[3.2319377E4,1.3710723E4,1.8608654E4,9.603857E3,4.1068647E3,1.0967284E4,7.6413706E3,8.209428E3,1.3944298E3,2.8870789E3,1.2197859E3,5.943983E3,5.0233013E3,3.0466147E3,4.594756E3,2.2263462E3,5.9830815E3,8.87194E2,5.0723578E2,2.3603562E3,5.2672284E2,9.2403674E2,2.957492E2,2.0424535E3,3.9015295E3,1.1613351E3,3.8619663E3,1.0574014E3,1.9892134E3,2.1629316E3,2.431824E3],"tree_param":{"num_deleted":"0","num_feature":"23","num_nodes":"31","size_leaf_vector":"1"}},{"base_weights":[2.0639338E-3,-5.543899E-1,6.2607795E-1,-8.042175E-1,-1.5893374E-1,3.1113634E-1,9.38102E-1,-8.2272154E-1,1.0140506E0,-2.137491E-1,5.30856E-1,4.22163E-1,-3.1148573E-2,7.679297E-1,1.0435793E0,-1.2511647E-2,-2.078793E-2,2.5170708E-2,-1.17497835E-2,1.0131381E-3,-7.0512625E-3,3.8201483E-3,1.8736275E-2,8.033599E-3,1.9283123E-2,3.6915103E-3,-8.964416E-3,1.3883765E-2,1.984447E-2,1.8761244E-2,2.4086092E-2],"categories":[],"categories_nodes":[],"categories_segments":[],"categories_sizes":[],"default_left":[0,0,0,0,0,0,0,0,0,0,0,0,0,0,0,0,0,0,0,0,0,0,0,0,0,0,0,0,0,0,0],"id":32,"left_children":[1,3,5,7,9,11,13,15,17,19,21,23,25,27,29,-1,-1,-1,-1,-1,-1,-1,-1,-1,-1,-1,-1,-1,-1,-1,-1],"loss_changes":[1.1182021E4,1.680519E3,1.4887964E3,3.5925928E2,2.5080211E2,2.8780316E2,1.2874805E2,2.8328076E2,2.4498734E1,1.6069736E2,5.2468582E1,1.5585217E2,1.3555263E2,4.62052E1,2.2019043E1,0E0,0E0,0E0,0E0,0E0,0E0,0E0,0E0,0E0,0E0,0E0,0E0,0E0,0E0,0E0,0E0],"parents":[2147483647,0,0,1,1,2,2,3,3,4,4,5,5,6,6,7,7,8,8,9,9,10,10,11,11,12,12,13,13,14,14],"right_children":[2,4,6,8,10,12,14,16,18,20,22,24,26,28,30,-1,-1,-1,-1,-1,-1,-1,-1,-1,-1,-1,-1,-1,-1,-1,-1],"split_conditions":[5E0,2E0,1.3862944E0,2.742011E0,4.374357E0,1.8577234E-1,1.7917595E0,-2.3213889E-1,2.0519869E-1,-8.8679683E-1,1.196462E0,1.3242937E0,-1.5556727E-1,1.1735638E0,5.010005E-1,-1.2511647E-2,-2.078793E-2,2.5170708E-2,-1.17497835E-2,1.0131381E-3,-7.0512625E-3,3.8201483E-3,1.8736275E-2,8.033599E-3,1.9283123E-2,3.6915103E-3,-8.964416E-3,1.3883765E-2,1.984447E-2,1.8761244E-2,2.4086092E-2],"split_indices":[14,14,5,6,6,0,5,10,2,10,4,2,9,8,2,0,0,0,0,0,0,0,0,0,0,0,0,0,0,0,0],"split_type":[0,0,0,0,0,0,0,0,0,0,0,0,0,0,0,0,0,0,0,0,0,0,0,0,0,0,0,0,0,0,0],"sum_hessian":[3.218304E4,1.7013045E4,1.5169994E4,1.0419937E4,6.5931084E3,7.5596562E3,7.610338E3,1.032039E4,9.9547035E1,6.1141523E3,4.789561E2,5.7063784E3,1.8532776E3,2.9438171E3,4.6665205E3,2.972721E3,7.347669E3,9.540994E1,4.1370926E0,1.7195416E3,4.3946104E3,2.2718352E2,2.5177258E2,5.003269E3,7.031097E2,1.214193E3,6.3908453E2,1.3378538E3,1.6059633E3,6.704744E2,3.9960461E3],"tree_param":{"num_deleted":"0","num_feature":"23","num_nodes":"31","size_leaf_vector":"1"}},{"base_weights":[8.868421E-3,-6.641259E-1,4.9857345E-1,-8.992264E-1,-4.1418824E-1,1.9732459E-1,9.208322E-1,-9.658061E-1,-4.1320685E-1,-7.561295E-1,-2.564865E-1,2.6187744E-2,4.1049317E-1,7.5665426E-1,1.0319533E0,-2.178013E-2,1.5871326E-2,-1.1817456E-2,5.684093E-3,-1.9336723E-2,-2.4779008E-3,-8.55067E-3,3.1305896E-3,3.329874E-3,-7.3004058E-3,2.8076058E-3,1.5386695E-2,1.1687866E-2,1.8633658E-2,1.9630708E-2,2.3913559E-2],"categories":[],"categories_nodes":[],"categories_segments":[],"categories_sizes":[],"default_left":[0,0,0,0,0,0,0,0,0,0,0,0,0,0,0,0,0,0,0,0,0,0,0,0,0,0,0,0,0,0,0],"id":33,"left_children":[1,3,5,7,9,11,13,15,17,19,21,23,25,27,29,-1,-1,-1,-1,-1,-1,-1,-1,-1,-1,-1,-1,-1,-1,-1,-1],"loss_changes":[1.0583085E4,7.9099414E2,2.3625244E3,2.2123926E2,3.525603E2,3.960933E2,1.3331299E2,7.93667E1,6.683078E1,1.427981E2,2.249979E2,2.610306E2,3.8072357E2,5.1743774E1,1.6379395E1,0E0,0E0,0E0,0E0,0E0,0E0,0E0,0E0,0E0,0E0,0E0,0E0,0E0,0E0,0E0,0E0],"parents":[2147483647,0,0,1,1,2,2,3,3,4,4,5,5,6,6,7,7,8,8,9,9,10,10,11,11,12,12,13,13,14,14],"right_children":[2,4,6,8,10,12,14,16,18,20,22,24,26,28,30,-1,-1,-1,-1,-1,-1,-1,-1,-1,-1,-1,-1,-1,-1,-1,-1],"split_conditions":[3E0,1E0,1.3862944E0,1.0013868E0,-6.2315732E-2,6E0,1.7917595E0,8.476005E-1,1.6217597E0,5.9057575E-1,1.8466756E0,2.5378048E-1,9.1684574E-1,4.0488967E-1,7.3016346E-1,-2.178013E-2,1.5871326E-2,-1.1817456E-2,5.684093E-3,-1.9336723E-2,-2.4779008E-3,-8.55067E-3,3.1305896E-3,3.329874E-3,-7.3004058E-3,2.8076058E-3,1.5386695E-2,1.1687866E-2,1.8633658E-2,1.9630708E-2,2.3913559E-2],"split_indices":[14,14,5,4,4,14,5,6,11,2,6,0,2,2,2,0,0,0,0,0,0,0,0,0,0,0,0,0,0,0,0],"split_type":[0,0,0,0,0,0,0,0,0,0,0,0,0,0,0,0,0,0,0,0,0,0,0,0,0,0,0,0,0,0,0],"sum_hessian":[3.2091875E4,1.3514928E4,1.8576947E4,6.950766E3,6.564162E3,1.085059E4,7.7263574E3,6.104605E3,8.461611E2,2.059842E3,4.5043203E3,6.024917E3,4.8256724E3,3.1502092E3,4.5761484E3,6.083098E3,2.1506573E1,7.238507E2,1.2231038E2,1.7625828E3,2.9725922E2,3.4215923E3,1.0827279E3,4.4742344E3,1.5506827E3,2.3844705E3,2.441202E3,7.877252E2,2.362484E3,9.1432043E2,3.661828E3],"tree_param":{"num_deleted":"0","num_feature":"23","num_nodes":"31","size_leaf_vector":"1"}},{"base_weights":[7.1325535E-3,-6.516151E-1,4.8741958E-1,-7.470775E-1,-1.24386005E-1,1.2213442E-1,8.236573E-1,-8.1861657E-1,-2.5584203E-1,-2.4930492E-1,4.7754017E-1,7.233052E-2,7.3981154E-1,6.3310766E-1,1.0139555E0,-1.4735684E-2,-2.196722E-2,-2.7684113E-2,-3.4635025E-3,1.0790431E-2,-7.1000024E-3,-1.3668704E-2,1.3903546E-2,-8.550495E-4,7.540778E-3,1.8964421E-2,-2.2754572E-2,8.856744E-3,1.7535783E-2,1.6411709E-2,2.3289327E-2],"categories":[],"categories_nodes":[],"categories_segments":[],"categories_sizes":[],"default_left":[0,0,0,0,0,0,0,0,0,0,0,0,0,0,0,0,0,0,0,0,0,0,0,0,0,0,0,0,0,0,0],"id":34,"left_children":[1,3,5,7,9,11,13,15,17,19,21,23,25,27,29,-1,-1,-1,-1,-1,-1,-1,-1,-1,-1,-1,-1,-1,-1,-1,-1],"loss_changes":[1.0136753E4,6.7901074E2,2.2748042E3,3.9980322E2,1.578226E2,2.7302347E2,3.433584E2,2.5379932E2,1.4371564E2,8.743891E1,6.023001E1,2.4103079E2,1.3343698E2,1.6976294E2,2.794043E1,0E0,0E0,0E0,0E0,0E0,0E0,0E0,0E0,0E0,0E0,0E0,0E0,0E0,0E0,0E0,0E0],"parents":[2147483647,0,0,1,1,2,2,3,3,4,4,5,5,6,6,7,7,8,8,9,9,10,10,11,11,12,12,13,13,14,14],"right_children":[2,4,6,8,10,12,14,16,18,20,22,24,26,28,30,-1,-1,-1,-1,-1,-1,-1,-1,-1,-1,-1,-1,-1,-1,-1,-1],"split_conditions":[3E0,4.0488967E-1,1.0986123E0,1.1193401E0,1.3958725E0,1.3242937E0,2.0794415E0,1.8577234E-1,-1.2140654E0,-6.6011703E-1,-2.4994636E-1,6.0690105E-1,4.121217E0,6.962328E-1,3.457106E-2,-1.4735684E-2,-2.196722E-2,-2.7684113E-2,-3.4635025E-3,1.0790431E-2,-7.1000024E-3,-1.3668704E-2,1.3903546E-2,-8.550495E-4,7.540778E-3,1.8964421E-2,-2.2754572E-2,8.856744E-3,1.7535783E-2,1.6411709E-2,2.3289327E-2],"split_indices":[14,2,5,11,4,2,13,0,9,4,1,4,2,2,2,0,0,0,0,0,0,0,0,0,0,0,0,0,0,0,0],"split_type":[0,0,0,0,0,0,0,0,0,0,0,0,0,0,0,0,0,0,0,0,0,0,0,0,0,0,0,0,0,0,0],"sum_hessian":[3.2018967E4,1.3499651E4,1.8519314E4,1.1426525E4,2.0731262E3,8.882797E3,9.636518E3,9.968167E3,1.458358E3,1.7216946E3,3.514318E2,8.230362E3,6.524348E2,4.8367246E3,4.799793E3,5.043861E3,4.9243066E3,1.2581956E2,1.3325385E3,1.4096364E2,1.580731E3,3.7148945E1,3.1428284E2,5.810806E3,2.4195564E3,6.197526E2,3.2682175E1,1.8878561E3,2.9488684E3,4.3628937E2,4.363504E3],"tree_param":{"num_deleted":"0","num_feature":"23","num_nodes":"31","size_leaf_vector":"1"}},{"base_weights":[2.8293752E-3,-6.204927E-1,4.6389037E-1,-8.862764E-1,-4.0796825E-1,1.7844778E-1,8.790924E-1,-9.4441116E-1,-2.7729088E-1,-5.496799E-1,-2.149671E-2,-2.197982E-1,2.587483E-1,7.0309746E-1,9.982984E-1,-1.2784791E-2,-2.2431301E-2,-1.3012267E-2,5.76154E-3,-1.4268808E-2,-4.6387454E-3,-4.3982733E-3,1.0909966E-2,-9.335338E-3,3.7650438E-4,1.8940087E-3,1.148092E-2,1.0088261E-2,1.7605836E-2,2.0703034E-2,2.440974E-2],"categories":[],"categories_nodes":[],"categories_segments":[],"categories_sizes":[],"default_left":[0,0,0,0,0,0,0,0,0,0,0,0,0,0,0,0,0,0,0,0,0,0,0,0,0,0,0,0,0,0,0],"id":35,"left_children":[1,3,5,7,9,11,13,15,17,19,21,23,25,27,29,-1,-1,-1,-1,-1,-1,-1,-1,-1,-1,-1,-1,-1,-1,-1,-1],"loss_changes":[9.124457E3,7.588882E2,2.1613564E3,2.0941797E2,4.117163E2,3.4682794E2,1.4889551E2,1.11663086E2,8.862053E1,1.6388794E2,1.8150183E2,8.510046E1,3.9846967E2,6.0296997E1,1.972461E1,0E0,0E0,0E0,0E0,0E0,0E0,0E0,0E0,0E0,0E0,0E0,0E0,0E0,0E0,0E0,0E0],"parents":[2147483647,0,0,1,1,2,2,3,3,4,4,5,5,6,6,7,7,8,8,9,9,10,10,11,11,12,12,13,13,14,14],"right_children":[2,4,6,8,10,12,14,16,18,20,22,24,26,28,30,-1,-1,-1,-1,-1,-1,-1,-1,-1,-1,-1,-1,-1,-1,-1,-1],"split_conditions":[3E0,-1.8015127E-1,1.3862944E0,1.292179E0,7.831388E-1,2.2748609E-1,1.7917595E0,-7.4034536E-1,1.6998693E-1,4.7424698E-1,1.4918063E0,4.9976116E-1,6.931472E-1,4.0488967E-1,2.7725887E0,-1.2784791E-2,-2.2431301E-2,-1.3012267E-2,5.76154E-3,-1.4268808E-2,-4.6387454E-3,-4.3982733E-3,1.0909966E-2,-9.335338E-3,3.7650438E-4,1.8940087E-3,1.148092E-2,1.0088261E-2,1.7605836E-2,2.0703034E-2,2.440974E-2],"split_indices":[14,2,5,4,4,2,5,10,6,2,11,8,5,2,13,0,0,0,0,0,0,0,0,0,0,0,0,0,0,0,0],"split_type":[0,0,0,0,0,0,0,0,0,0,0,0,0,0,0,0,0,0,0,0,0,0,0,0,0,0,0,0,0,0,0],"sum_hessian":[3.1729438E4,1.3489331E4,1.8240107E4,5.979544E3,7.5097866E3,1.0817576E4,7.4225312E3,5.453427E3,5.261173E2,5.491801E3,2.017986E3,1.8122626E3,9.005313E3,3.025204E3,4.397327E3,7.4307263E2,4.710354E3,3.348844E2,1.9123291E2,4.365465E3,1.1263359E3,1.5062131E3,5.1177286E2,9.8433545E2,8.279271E2,5.351115E3,3.6541978E3,7.666181E2,2.258586E3,2.5060234E3,1.8913037E3],"tree_param":{"num_deleted":"0","num_feature":"23","num_nodes":"31","size_leaf_vector":"1"}},{"base_weights":[-1.0545702E-2,-4.4082168E-1,6.866591E-1,-7.585785E-1,-9.2691526E-2,4.030072E-1,9.001978E-1,-8.9759696E-1,-4.6018115E-1,1.6859459E-2,-3.8752443E-1,9.120443E-2,6.39078E-1,7.325143E-1,9.91724E-1,-2.3269426E-2,-1.7046254E-2,-1.1011078E-2,1.7077122E-2,-1.6106414E-3,8.992742E-3,-6.6546034E-3,-2.0782515E-2,-2.3759417E-3,5.960491E-3,9.494108E-3,1.6416749E-2,1.0573112E-2,1.773487E-2,1.8460466E-2,2.318923E-2],"categories":[],"categories_nodes":[],"categories_segments":[],"categories_sizes":[],"default_left":[0,0,0,0,0,0,0,0,0,0,0,0,0,0,0,0,0,0,0,0,0,0,0,0,0,0,0,0,0,0,0],"id":36,"left_children":[1,3,5,7,9,11,13,15,17,19,21,23,25,27,29,-1,-1,-1,-1,-1,-1,-1,-1,-1,-1,-1,-1,-1,-1,-1,-1],"loss_changes":[9.438118E3,2.1513894E3,7.23603E2,4.1772217E2,3.0029352E2,3.8031573E2,9.77207E1,1.258291E2,1.297132E2,2.322197E2,1.2018436E2,7.770681E1,5.6508423E1,3.4355103E1,2.385205E1,0E0,0E0,0E0,0E0,0E0,0E0,0E0,0E0,0E0,0E0,0E0,0E0,0E0,0E0,0E0,0E0],"parents":[2147483647,0,0,1,1,2,2,3,3,4,4,5,5,6,6,7,7,8,8,9,9,10,10,11,11,12,12,13,13,14,14],"right_children":[2,4,6,8,10,12,14,16,18,20,22,24,26,28,30,-1,-1,-1,-1,-1,-1,-1,-1,-1,-1,-1,-1,-1,-1,-1,-1],"split_conditions":[6E0,2E0,1.609438E0,4.2374697E-1,2.5378048E-1,7.7985907E-1,1.7917595E0,-2.779987E-1,2.742011E0,1.3029934E0,1.2798033E1,6.280608E-1,1.1377268E0,3.2709464E-1,8.4738106E-1,-2.3269426E-2,-1.7046254E-2,-1.1011078E-2,1.7077122E-2,-1.6106414E-3,8.992742E-3,-6.6546034E-3,-2.0782515E-2,-2.3759417E-3,5.960491E-3,9.494108E-3,1.6416749E-2,1.0573112E-2,1.773487E-2,1.8460466E-2,2.318923E-2],"split_indices":[14,14,13,4,0,2,5,2,6,11,12,8,2,2,2,0,0,0,0,0,0,0,0,0,0,0,0,0,0,0,0],"split_type":[0,0,0,0,0,0,0,0,0,0,0,0,0,0,0,0,0,0,0,0,0,0,0,0,0,0,0,0,0,0,0],"sum_hessian":[3.1441312E4,1.9444773E4,1.199654E4,1.0159679E4,9.285095E3,5.164822E3,6.831718E3,6.9170317E3,3.242647E3,6.776534E3,2.5085608E3,2.2314387E3,2.9333828E3,2.4440894E3,4.3876284E3,3.3558005E3,3.5612312E3,3.1666428E3,7.600421E1,5.512555E3,1.263979E3,2.1630085E3,3.4555225E2,1.0507484E3,1.1806904E3,9.106997E2,2.0226831E3,4.7256757E2,1.9715217E3,9.572443E2,3.4303843E3],"tree_param":{"num_deleted":"0","num_feature":"23","num_nodes":"31","size_leaf_vector":"1"}},{"base_weights":[-5.523629E-3,-5.108851E-1,5.678374E-1,-7.374013E-1,-1.589862E-1,2.7428037E-1,8.70083E-1,-9.534667E-1,-5.603625E-1,-2.5789353E-1,2.847372E-1,3.9826435E-1,3.482551E-2,7.172884E-1,9.9292505E-1,-8.630932E-3,-2.2429392E-2,-1.5293669E-2,-5.2096113E-3,-7.6038106E-3,4.7047742E-4,9.793513E-3,-7.81847E-3,2.1925776E-3,1.1041644E-2,-7.534147E-3,4.658708E-3,1.2717065E-2,1.9186197E-2,2.004245E-2,2.3630647E-2],"categories":[],"categories_nodes":[],"categories_segments":[],"categories_sizes":[],"default_left":[0,0,0,0,0,0,0,0,0,0,0,0,0,0,0,0,0,0,0,0,0,0,0,0,0,0,0,0,0,0,0],"id":37,"left_children":[1,3,5,7,9,11,13,15,17,19,21,23,25,27,29,-1,-1,-1,-1,-1,-1,-1,-1,-1,-1,-1,-1,-1,-1,-1,-1],"loss_changes":[9.074224E3,1.3256431E3,1.2993447E3,3.819082E2,2.8738046E2,2.2125385E2,1.284541E2,1.2110742E2,2.2324146E2,1.2198047E2,1.1725443E2,1.3958722E2,1.6510362E2,6.3005737E1,1.4860596E1,0E0,0E0,0E0,0E0,0E0,0E0,0E0,0E0,0E0,0E0,0E0,0E0,0E0,0E0,0E0,0E0],"parents":[2147483647,0,0,1,1,2,2,3,3,4,4,5,5,6,6,7,7,8,8,9,9,10,10,11,11,12,12,13,13,14,14],"right_children":[2,4,6,8,10,12,14,16,18,20,22,24,26,28,30,-1,-1,-1,-1,-1,-1,-1,-1,-1,-1,-1,-1,-1,-1,-1,-1],"split_conditions":[5E0,2E0,1.3862944E0,-6.2315732E-2,1.196462E0,-8.626018E-2,2.1972246E0,-1.1063821E0,6.8462384E-1,1.0436238E0,4.9756084E-2,8.8176453E-1,6.931472E-1,1.1377268E0,2.1972246E0,-8.630932E-3,-2.2429392E-2,-1.5293669E-2,-5.2096113E-3,-7.6038106E-3,4.7047742E-4,9.793513E-3,-7.81847E-3,2.1925776E-3,1.1041644E-2,-7.534147E-3,4.658708E-3,1.2717065E-2,1.9186197E-2,2.004245E-2,2.3630647E-2],"split_indices":[14,14,5,4,4,0,13,0,11,11,0,2,5,2,5,0,0,0,0,0,0,0,0,0,0,0,0,0,0,0,0],"split_type":[0,0,0,0,0,0,0,0,0,0,0,0,0,0,0,0,0,0,0,0,0,0,0,0,0,0,0,0,0,0,0],"sum_hessian":[3.1296916E4,1.663548E4,1.4661436E4,1.0114091E4,6.5213906E3,7.447313E3,7.2141226E3,4.5352144E3,5.578876E3,5.3361553E3,1.1852354E3,4.90233E3,2.5449832E3,3.2456096E3,3.968513E3,3.63318E2,4.1718965E3,4.0502712E3,1.5286051E3,4.12489E3,1.211265E3,9.576545E2,2.2758086E2,1.1824834E3,3.7198464E3,8.0665045E2,1.7383326E3,1.5939233E3,1.6516862E3,1.6102307E3,2.3582822E3],"tree_param":{"num_deleted":"0","num_feature":"23","num_nodes":"31","size_leaf_vector":"1"}},{"base_weights":[6.829733E-4,-5.03888E-1,5.6573033E-1,-7.353636E-1,-1.5045589E-1,2.5009415E-1,8.400466E-1,-8.911861E-1,-5.201193E-1,-2.9305026E-1,8.5624956E-2,3.1776273E-1,-2.975397E-1,6.718334E-1,9.7229034E-1,-1.3867419E-2,-2.1749178E-2,-9.231024E-3,-2.0702165E-2,-7.526305E-3,8.787922E-3,-2.2203987E-3,1.019783E-2,5.8033215E-3,1.716933E-2,-1.6936623E-2,9.082001E-5,7.603727E-3,1.679101E-2,1.992821E-2,2.3297684E-2],"categories":[],"categories_nodes":[],"categories_segments":[],"categories_sizes":[],"default_left":[0,0,0,0,0,0,0,0,0,0,0,0,0,0,0,0,0,0,0,0,0,0,0,0,0,0,0,0,0,0,0],"id":38,"left_children":[1,3,5,7,9,11,13,15,17,19,21,23,25,27,29,-1,-1,-1,-1,-1,-1,-1,-1,-1,-1,-1,-1,-1,-1,-1,-1],"loss_changes":[8.90046E3,1.3480723E3,1.2729678E3,3.2949072E2,2.2038295E2,2.5522675E2,1.68625E2,1.1978711E2,1.7967114E2,1.21954254E2,1.693072E2,1.5870477E2,1.0521468E2,8.8311646E1,1.5350098E1,0E0,0E0,0E0,0E0,0E0,0E0,0E0,0E0,0E0,0E0,0E0,0E0,0E0,0E0,0E0,0E0],"parents":[2147483647,0,0,1,1,2,2,3,3,4,4,5,5,6,6,7,7,8,8,9,9,10,10,11,11,12,12,13,13,14,14],"right_children":[2,4,6,8,10,12,14,16,18,20,22,24,26,28,30,-1,-1,-1,-1,-1,-1,-1,-1,-1,-1,-1,-1,-1,-1,-1,-1],"split_conditions":[5E0,2E0,1.3862944E0,1.8332887E-1,5.5963546E-1,7.298374E-1,1.7917595E0,-1.0143014E-1,5.25813E-1,1.0986123E0,1.2686117E0,1.3242937E0,6E0,3.5151052E-1,2.1972246E0,-1.3867419E-2,-2.1749178E-2,-9.231024E-3,-2.0702165E-2,-7.526305E-3,8.787922E-3,-2.2203987E-3,1.019783E-2,5.8033215E-3,1.716933E-2,-1.6936623E-2,9.082001E-5,7.603727E-3,1.679101E-2,1.992821E-2,2.3297684E-2],"split_indices":[14,14,13,4,4,0,5,10,0,5,11,2,14,2,5,0,0,0,0,0,0,0,0,0,0,0,0,0,0,0,0],"split_type":[0,0,0,0,0,0,0,0,0,0,0,0,0,0,0,0,0,0,0,0,0,0,0,0,0,0,0,0,0,0,0],"sum_hessian":[3.1198018E4,1.6481541E4,1.4716477E4,9.952471E3,6.529071E3,6.851778E3,7.864698E3,5.754875E3,4.1975957E3,4.0689988E3,2.4600723E3,6.101998E3,7.4977985E2,3.4883804E3,4.3763184E3,1.3327203E3,4.4221543E3,3.3305789E3,8.670167E2,3.8329412E3,2.3605753E2,1.6453278E3,8.147443E2,5.41241E3,6.8958765E2,2.913426E2,4.584373E2,6.748777E2,2.8135027E3,2.0519958E3,2.3243225E3],"tree_param":{"num_deleted":"0","num_feature":"23","num_nodes":"31","size_leaf_vector":"1"}},{"base_weights":[-1.0192915E-3,-4.8300004E-1,5.4511136E-1,-7.0966345E-1,-1.3847813E-1,2.3761444E-1,8.165686E-1,-9.3033874E-1,-5.2907664E-1,-2.3298536E-1,2.2896606E-1,1.695177E-1,7.531693E-1,6.680167E-1,9.638266E-1,-9.611984E-3,-2.1729691E-2,-1.3168131E-2,4.6698526E-3,-7.20495E-3,9.2037604E-4,-9.1195555E-4,1.1593728E-2,-6.870912E-4,7.018679E-3,1.8767985E-2,-1.3049052E-2,1.1705178E-2,1.870306E-2,1.7336372E-2,2.2429435E-2],"categories":[],"categories_nodes":[],"categories_segments":[],"categories_sizes":[],"default_left":[0,0,0,0,0,0,0,0,0,0,0,0,0,0,0,0,0,0,0,0,0,0,0,0,0,0,0,0,0,0,0],"id":39,"left_children":[1,3,5,7,9,11,13,15,17,19,21,23,25,27,29,-1,-1,-1,-1,-1,-1,-1,-1,-1,-1,-1,-1,-1,-1,-1,-1],"loss_changes":[8.18037E3,1.2881521E3,1.2141743E3,3.9177588E2,2.2845633E2,2.3903491E2,1.6272852E2,8.598486E1,2.4101025E2,1.2739517E2,1.0523344E2,1.747898E2,9.543277E1,8.998035E1,2.0062988E1,0E0,0E0,0E0,0E0,0E0,0E0,0E0,0E0,0E0,0E0,0E0,0E0,0E0,0E0,0E0,0E0],"parents":[2147483647,0,0,1,1,2,2,3,3,4,4,5,5,6,6,7,7,8,8,9,9,10,10,11,11,12,12,13,13,14,14],"right_children":[2,4,6,8,10,12,14,16,18,20,22,24,26,28,30,-1,-1,-1,-1,-1,-1,-1,-1,-1,-1,-1,-1,-1,-1,-1,-1],"split_conditions":[5E0,2E0,1.3862944E0,-6.2315732E-2,1.1078353E0,1.3242937E0,2.1972246E0,-1.1063821E0,1.3353022E0,9.1684574E-1,6.7884564E-1,-3.5715286E-2,4.121217E0,1.2099792E0,7.1253157E-1,-9.611984E-3,-2.1729691E-2,-1.3168131E-2,4.6698526E-3,-7.20495E-3,9.2037604E-4,-9.1195555E-4,1.1593728E-2,-6.870912E-4,7.018679E-3,1.8767985E-2,-1.3049052E-2,1.1705178E-2,1.870306E-2,1.7336372E-2,2.2429435E-2],"split_indices":[14,14,13,4,4,2,13,0,6,2,2,4,2,2,2,0,0,0,0,0,0,0,0,0,0,0,0,0,0,0,0],"split_type":[0,0,0,0,0,0,0,0,0,0,0,0,0,0,0,0,0,0,0,0,0,0,0,0,0,0,0,0,0,0,0],"sum_hessian":[3.1057541E4,1.6498326E4,1.4559216E4,9.944887E3,6.5534385E3,6.835265E3,7.723951E3,4.456957E3,5.48793E3,5.2156514E3,1.3377874E3,6.049525E3,7.8574023E2,3.8726772E3,3.8512737E3,3.4045523E2,4.116502E3,5.082614E3,4.0531628E2,3.9375867E3,1.2780646E3,6.963152E2,6.4147217E2,2.5340354E3,3.5154895E3,7.421641E2,4.3576084E1,2.0963005E3,1.7763768E3,6.8005554E2,3.1712183E3],"tree_param":{"num_deleted":"0","num_feature":"23","num_nodes":"31","size_leaf_vector":"1"}},{"base_weights":[1.048095E-2,-3.871537E-1,6.5681434E-1,-6.8735695E-1,-6.575979E-2,3.243474E-1,8.281799E-1,-9.017794E-1,-5.1487476E-1,4.581411E-2,-3.6459067E-1,-8.9013435E-2,5.385091E-1,6.879106E-1,9.711939E-1,-6.8113273E-3,-2.1105558E-2,-1.3939632E-2,-3.80083E-3,-6.9970795E-4,1.0856661E-2,-4.769015E-3,-1.5706215E-2,1.3986332E-2,-3.7190402E-3,1.2606008E-2,-1.8082172E-2,1.2165407E-2,1.8621191E-2,1.9652605E-2,2.3176799E-2],"categories":[],"categories_nodes":[],"categories_segments":[],"categories_sizes":[],"default_left":[0,0,0,0,0,0,0,0,0,0,0,0,0,0,0,0,0,0,0,0,0,0,0,0,0,0,0,0,0,0,0],"id":40,"left_children":[1,3,5,7,9,11,13,15,17,19,21,23,25,27,29,-1,-1,-1,-1,-1,-1,-1,-1,-1,-1,-1,-1,-1,-1,-1,-1],"loss_changes":[7.9795586E3,1.8541982E3,6.710615E2,3.6288477E2,3.1007126E2,3.5801584E2,1.497168E2,1.05253174E2,2.046654E2,2.2950339E2,1.2761502E2,7.736579E1,9.262689E1,7.801306E1,1.3839111E1,0E0,0E0,0E0,0E0,0E0,0E0,0E0,0E0,0E0,0E0,0E0,0E0,0E0,0E0,0E0,0E0],"parents":[2147483647,0,0,1,1,2,2,3,3,4,4,5,5,6,6,7,7,8,8,9,9,10,10,11,11,12,12,13,13,14,14],"right_children":[2,4,6,8,10,12,14,16,18,20,22,24,26,28,30,-1,-1,-1,-1,-1,-1,-1,-1,-1,-1,-1,-1,-1,-1,-1,-1],"split_conditions":[6E0,2E0,1.3862944E0,-6.2315732E-2,2.5378048E-1,5.593638E-1,2.1972246E0,-1.2423984E0,5.2842206E-1,1.3196273E0,-5.063174E-1,-1.4464228E0,4.121217E0,1.1543354E0,2.6390574E0,-6.8113273E-3,-2.1105558E-2,-1.3939632E-2,-3.80083E-3,-6.9970795E-4,1.0856661E-2,-4.769015E-3,-1.5706215E-2,1.3986332E-2,-3.7190402E-3,1.2606008E-2,-1.8082172E-2,1.2165407E-2,1.8621191E-2,1.9652605E-2,2.3176799E-2],"split_indices":[14,14,13,4,0,2,13,0,6,4,1,0,2,2,13,0,0,0,0,0,0,0,0,0,0,0,0,0,0,0,0],"split_type":[0,0,0,0,0,0,0,0,0,0,0,0,0,0,0,0,0,0,0,0,0,0,0,0,0,0,0,0,0,0,0],"sum_hessian":[3.1028414E4,1.9212545E4,1.181587E4,9.927853E3,9.284691E3,4.0287205E3,7.7871494E3,4.406964E3,5.5208887E3,6.7666675E3,2.518024E3,1.3769052E3,2.6518152E3,3.9606667E3,3.826483E3,2.882083E2,4.1187554E3,4.2007734E3,1.320115E3,5.7642905E3,1.0023767E3,1.7481116E3,7.6991254E2,1.2731143E2,1.2495938E3,2.609984E3,4.1831318E1,1.9998441E3,1.9608225E3,1.6174148E3,2.209068E3],"tree_param":{"num_deleted":"0","num_feature":"23","num_nodes":"31","size_leaf_vector":"1"}},{"base_weights":[1.5339566E-3,-5.9186393E-1,4.314318E-1,-8.364635E-1,-3.9467907E-1,1.6301095E-1,8.290556E-1,-4.4897664E-1,-9.6062547E-1,-6.954732E-1,-2.7782515E-1,1.385767E-2,3.526262E-1,6.447914E-1,9.3690854E-1,-1.1637279E-2,1.398507E-2,2.2499345E-2,-2.169207E-2,-3.3579438E-3,-1.828381E-2,-8.560255E-3,1.0586192E-3,-2.3605693E-3,8.040275E-3,1.3226018E-3,1.3894342E-2,1.1856941E-2,1.807779E-2,1.7979776E-2,2.2319213E-2],"categories":[],"categories_nodes":[],"categories_segments":[],"categories_sizes":[],"default_left":[0,0,0,0,0,0,0,0,0,0,0,0,0,0,0,0,0,0,0,0,0,0,0,0,0,0,0,0,0,0,0],"id":41,"left_children":[1,3,5,7,9,11,13,15,17,19,21,23,25,27,29,-1,-1,-1,-1,-1,-1,-1,-1,-1,-1,-1,-1,-1,-1,-1,-1],"loss_changes":[7.890323E3,6.234116E2,1.912968E3,2.7427563E2,2.5159912E2,3.0313303E2,1.3754639E2,1.11559845E2,8.134741E1,1.3179083E2,1.7733072E2,2.4798155E2,3.709253E2,4.6303345E1,2.8416992E1,0E0,0E0,0E0,0E0,0E0,0E0,0E0,0E0,0E0,0E0,0E0,0E0,0E0,0E0,0E0,0E0],"parents":[2147483647,0,0,1,1,2,2,3,3,4,4,5,5,6,6,7,7,8,8,9,9,10,10,11,11,12,12,13,13,14,14],"right_children":[2,4,6,8,10,12,14,16,18,20,22,24,26,28,30,-1,-1,-1,-1,-1,-1,-1,-1,-1,-1,-1,-1,-1,-1,-1,-1],"split_conditions":[3E0,-1.7447929E-1,1.3862944E0,-2.5954914E-1,-2.0890607E-1,6E0,2.0794415E0,1.0710881E0,-3.1960506E0,-5.268734E-1,4.7424698E-1,6.417388E-1,8.9733624E-1,1.2371595E0,1.5748876E0,-1.1637279E-2,1.398507E-2,2.2499345E-2,-2.169207E-2,-3.3579438E-3,-1.828381E-2,-8.560255E-3,1.0586192E-3,-2.3605693E-3,8.040275E-3,1.3226018E-3,1.3894342E-2,1.1856941E-2,1.807779E-2,1.7979776E-2,2.2319213E-2],"split_indices":[14,2,5,10,4,14,13,3,3,12,2,4,2,2,8,0,0,0,0,0,0,0,0,0,0,0,0,0,0,0,0],"split_type":[0,0,0,0,0,0,0,0,0,0,0,0,0,0,0,0,0,0,0,0,0,0,0,0,0,0,0,0,0,0,0],"sum_hessian":[3.0910252E4,1.29841455E4,1.7926105E4,5.7808154E3,7.2033306E3,1.07101875E4,7.2159194E3,1.4140531E3,4.366762E3,2.0015447E3,5.2017856E3,6.000733E3,4.709454E3,2.689999E3,4.5259204E3,1.3313756E3,8.267753E1,1.3359334E1,4.353403E3,3.6804208E2,1.6335026E3,3.9347456E3,1.2670403E3,4.4649624E3,1.5357705E3,2.25349E3,2.4559644E3,1.6001194E3,1.0898796E3,1.446801E3,3.0791191E3],"tree_param":{"num_deleted":"0","num_feature":"23","num_nodes":"31","size_leaf_vector":"1"}},{"base_weights":[1.0507021E-2,-4.4563752E-1,5.272065E-1,-7.7418363E-1,-2.2664662E-1,2.2076614E-1,7.987761E-1,-8.486464E-1,-2.7827922E-1,-3.5019726E-1,8.1561334E-2,2.7873293E-1,-2.493093E-1,6.24149E-1,9.369666E-1,-2.2005236E-2,-1.6836118E-2,-9.9448245E-3,3.995527E-3,-5.3888555E-3,-1.25059625E-2,-3.9237915E-3,8.492431E-3,-1.4733991E-3,8.099339E-3,-1.4546063E-2,-1.0488629E-3,1.0154623E-2,1.774006E-2,1.8349202E-2,2.2307968E-2],"categories":[],"categories_nodes":[],"categories_segments":[],"categories_sizes":[],"default_left":[0,0,0,0,0,0,0,0,0,0,0,0,0,0,0,0,0,0,0,0,0,0,0,0,0,0,0,0,0,0,0],"id":42,"left_children":[1,3,5,7,9,11,13,15,17,19,21,23,25,27,29,-1,-1,-1,-1,-1,-1,-1,-1,-1,-1,-1,-1,-1,-1,-1,-1],"loss_changes":[7.2835366E3,1.1791594E3,1.2040549E3,2.3988281E2,3.7586206E2,1.8657529E2,1.7942188E2,6.652588E1,6.684083E1,1.5935333E2,2.1713695E2,1.7414893E2,6.0826298E1,9.460034E1,2.1596436E1,0E0,0E0,0E0,0E0,0E0,0E0,0E0,0E0,0E0,0E0,0E0,0E0,0E0,0E0,0E0,0E0],"parents":[2147483647,0,0,1,1,2,2,3,3,4,4,5,5,6,6,7,7,8,8,9,9,10,10,11,11,12,12,13,13,14,14],"right_children":[2,4,6,8,10,12,14,16,18,20,22,24,26,28,30,-1,-1,-1,-1,-1,-1,-1,-1,-1,-1,-1,-1,-1,-1,-1,-1],"split_conditions":[5E0,1E0,1.3862944E0,9.810989E-1,8.105066E-1,7.298374E-1,1.7917595E0,-2.991155E-1,1.8544734E-1,2.1772905E-1,4.7424698E-1,5.593638E-1,-5.345894E-1,1.1543354E0,1.1377268E0,-2.2005236E-2,-1.6836118E-2,-9.9448245E-3,3.995527E-3,-5.3888555E-3,-1.25059625E-2,-3.9237915E-3,8.492431E-3,-1.4733991E-3,8.099339E-3,-1.4546063E-2,-1.0488629E-3,1.0154623E-2,1.774006E-2,1.8349202E-2,2.2307968E-2],"split_indices":[14,14,13,4,4,0,5,4,6,9,2,2,4,2,2,0,0,0,0,0,0,0,0,0,0,0,0,0,0,0,0],"split_type":[0,0,0,0,0,0,0,0,0,0,0,0,0,0,0,0,0,0,0,0,0,0,0,0,0,0,0,0,0,0,0],"sum_hessian":[3.0883113E4,1.640344E4,1.4479673E4,6.5505024E3,9.8529375E3,6.8116006E3,7.6680728E3,5.6891167E3,8.613857E2,7.0325034E3,2.8204343E3,6.067488E3,7.44113E2,3.4118542E3,4.2562183E3,2.341842E3,3.3472747E3,6.320545E2,2.2933118E2,4.624715E3,2.407789E3,1.5165344E3,1.3038999E3,1.178851E3,4.8886367E3,2.4244402E2,5.0166898E2,1.7127881E3,1.6990662E3,1.4817461E3,2.7744722E3],"tree_param":{"num_deleted":"0","num_feature":"23","num_nodes":"31","size_leaf_vector":"1"}},{"base_weights":[8.821181E-3,-4.4128975E-1,5.2176994E-1,-6.6328865E-1,-1.132619E-1,2.2791253E-1,7.8597146E-1,-8.874777E-1,-4.847809E-1,1.5108177E-1,-2.2897087E-1,2.8846148E-1,-2.644608E-1,6.362343E-1,9.398476E-1,-4.4467025E-3,-2.0965826E-2,-1.2615713E-2,1.3087466E-3,-1.9298075E-2,5.0415434E-3,-2.7105482E-3,-9.408195E-3,5.165497E-3,1.6197184E-2,-9.0244245E-3,6.7164516E-3,7.684743E-3,1.5992766E-2,1.9018758E-2,2.2362763E-2],"categories":[],"categories_nodes":[],"categories_segments":[],"categories_sizes":[],"default_left":[0,0,0,0,0,0,0,0,0,0,0,0,0,0,0,0,0,0,0,0,0,0,0,0,0,0,0,0,0,0,0],"id":43,"left_children":[1,3,5,7,9,11,13,15,17,19,21,23,25,27,29,-1,-1,-1,-1,-1,-1,-1,-1,-1,-1,-1,-1,-1,-1,-1,-1],"loss_changes":[7.086116E3,1.1896592E3,1.1118545E3,3.8575488E2,2.0252531E2,2.0364175E2,1.6794482E2,1.4365308E2,2.3339612E2,1.5349168E2,9.445184E1,1.5062796E2,5.993854E1,8.583069E1,1.1241943E1,0E0,0E0,0E0,0E0,0E0,0E0,0E0,0E0,0E0,0E0,0E0,0E0,0E0,0E0,0E0,0E0],"parents":[2147483647,0,0,1,1,2,2,3,3,4,4,5,5,6,6,7,7,8,8,9,9,10,10,11,11,12,12,13,13,14,14],"right_children":[2,4,6,8,10,12,14,16,18,20,22,24,26,28,30,-1,-1,-1,-1,-1,-1,-1,-1,-1,-1,-1,-1,-1,-1,-1,-1],"split_conditions":[5E0,2E0,1.3862944E0,-6.2315732E-2,-8.8679683E-1,7.298374E-1,2.1972246E0,-1.2423984E0,1.4918063E0,-3.5570493E-1,3.327169E-1,1.3242937E0,1.0539762E-1,4.0488967E-1,2.1972246E0,-4.4467025E-3,-2.0965826E-2,-1.2615713E-2,1.3087466E-3,-1.9298075E-2,5.0415434E-3,-2.7105482E-3,-9.408195E-3,5.165497E-3,1.6197184E-2,-9.0244245E-3,6.7164516E-3,7.684743E-3,1.5992766E-2,1.9018758E-2,2.2362763E-2],"split_indices":[14,14,13,4,10,0,13,0,11,4,3,2,7,2,5,0,0,0,0,0,0,0,0,0,0,0,0,0,0,0,0],"split_type":[0,0,0,0,0,0,0,0,0,0,0,0,0,0,0,0,0,0,0,0,0,0,0,0,0,0,0,0,0,0,0],"sum_hessian":[3.0671283E4,1.6336997E4,1.4334286E4,9.737031E3,6.5999663E3,6.7951094E3,7.539177E3,4.2986074E3,5.4384233E3,2.0084364E3,4.59153E3,6.054702E3,7.404073E2,3.847033E3,3.692144E3,2.890069E2,4.0096008E3,4.7496157E3,6.888077E2,1.2965994E2,1.8787764E3,2.9460925E3,1.6454374E3,5.358931E3,6.9577136E2,