{"learner":{"attributes":{"best_iteration":"416","best_score":"0.8557551610132946","scikit_learn":"{\"_estimator_type\": \"classifier\"}"},"feature_names":["DelinquencyScore","HasAnyDelinquency","HasMajorDelinquency","LatePaymentsPerCreditLine","UtilizationPerAge","DebtToIncomeAgeRisk","IncomePerCreditLine","AgeRisk","DelinquencyBucket","UtilizationBucketLateBucket","WasDelinquencyScoreImputed","WasLatePaymentsPerCreditLineImputed","WasIncomePerCreditLineImputed","WasAgeRiskImputed"],"feature_types":["float","float","float","float","float","float","float","float","float","float","float","float","float","float"],"gradient_booster":{"model":{"cats":{"enc":[],"feature_segments":[],"sorted_idx":[]},"gbtree_model_param":{"num_parallel_tree":"1","num_trees":"517"},"iteration_indptr":[0,1,2,3,4,5,6,7,8,9,10,11,12,13,14,15,16,17,18,19,20,21,22,23,24,25,26,27,28,29,30,31,32,33,34,35,36,37,38,39,40,41,42,43,44,45,46,47,48,49,50,51,52,53,54,55,56,57,58,59,60,61,62,63,64,65,66,67,68,69,70,71,72,73,74,75,76,77,78,79,80,81,82,83,84,85,86,87,88,89,90,91,92,93,94,95,96,97,98,99,100,101,102,103,104,105,106,107,108,109,110,111,112,113,114,115,116,117,118,119,120,121,122,123,124,125,126,127,128,129,130,131,132,133,134,135,136,137,138,139,140,141,142,143,144,145,146,147,148,149,150,151,152,153,154,155,156,157,158,159,160,161,162,163,164,165,166,167,168,169,170,171,172,173,174,175,176,177,178,179,180,181,182,183,184,185,186,187,188,189,190,191,192,193,194,195,196,197,198,199,200,201,202,203,204,205,206,207,208,209,210,211,212,213,214,215,216,217,218,219,220,221,222,223,224,225,226,227,228,229,230,231,232,233,234,235,236,237,238,239,240,241,242,243,244,245,246,247,248,249,250,251,252,253,254,255,256,257,258,259,260,261,262,263,264,265,266,267,268,269,270,271,272,273,274,275,276,277,278,279,280,281,282,283,284,285,286,287,288,289,290,291,292,293,294,295,296,297,298,299,300,301,302,303,304,305,306,307,308,309,310,311,312,313,314,315,316,317,318,319,320,321,322,323,324,325,326,327,328,329,330,331,332,333,334,335,336,337,338,339,340,341,342,343,344,345,346,347,348,349,350,351,352,353,354,355,356,357,358,359,360,361,362,363,364,365,366,367,368,369,370,371,372,373,374,375,376,377,378,379,380,381,382,383,384,385,386,387,388,389,390,391,392,393,394,395,396,397,398,399,400,401,402,403,404,405,406,407,408,409,410,411,412,413,414,415,416,417,418,419,420,421,422,423,424,425,426,427,428,429,430,431,432,433,434,435,436,437,438,439,440,441,442,443,444,445,446,447,448,449,450,451,452,453,454,455,456,457,458,459,460,461,462,463,464,465,466,467,468,469,470,471,472,473,474,475,476,477,478,479,480,481,482,483,484,485,486,487,488,489,490,491,492,493,494,495,496,497,498,499,500,501,502,503,504,505,506,507,508,509,510,511,512,513,514,515,516,517],"tree_info":[0,0,0,0,0,0,0,0,0,0,0,0,0,0,0,0,0,0,0,0,0,0,0,0,0,0,0,0,0,0,0,0,0,0,0,0,0,0,0,0,0,0,0,0,0,0,0,0,0,0,0,0,0,0,0,0,0,0,0,0,0,0,0,0,0,0,0,0,0,0,0,0,0,0,0,0,0,0,0,0,0,0,0,0,0,0,0,0,0,0,0,0,0,0,0,0,0,0,0,0,0,0,0,0,0,0,0,0,0,0,0,0,0,0,0,0,0,0,0,0,0,0,0,0,0,0,0,0,0,0,0,0,0,0,0,0,0,0,0,0,0,0,0,0,0,0,0,0,0,0,0,0,0,0,0,0,0,0,0,0,0,0,0,0,0,0,0,0,0,0,0,0,0,0,0,0,0,0,0,0,0,0,0,0,0,0,0,0,0,0,0,0,0,0,0,0,0,0,0,0,0,0,0,0,0,0,0,0,0,0,0,0,0,0,0,0,0,0,0,0,0,0,0,0,0,0,0,0,0,0,0,0,0,0,0,0,0,0,0,0,0,0,0,0,0,0,0,0,0,0,0,0,0,0,0,0,0,0,0,0,0,0,0,0,0,0,0,0,0,0,0,0,0,0,0,0,0,0,0,0,0,0,0,0,0,0,0,0,0,0,0,0,0,0,0,0,0,0,0,0,0,0,0,0,0,0,0,0,0,0,0,0,0,0,0,0,0,0,0,0,0,0,0,0,0,0,0,0,0,0,0,0,0,0,0,0,0,0,0,0,0,0,0,0,0,0,0,0,0,0,0,0,0,0,0,0,0,0,0,0,0,0,0,0,0,0,0,0,0,0,0,0,0,0,0,0,0,0,0,0,0,0,0,0,0,0,0,0,0,0,0,0,0,0,0,0,0,0,0,0,0,0,0,0,0,0,0,0,0,0,0,0,0,0,0,0,0,0,0,0,0,0,0,0,0,0,0,0,0,0,0,0,0,0,0,0,0,0,0,0,0,0,0,0,0,0,0,0,0,0,0,0,0,0,0,0,0,0,0,0,0,0,0,0,0,0,0,0,0,0,0,0,0,0,0,0,0,0,0,0,0,0,0,0,0,0,0,0,0,0,0,0,0,0,0,0,0,0,0,0,0,0,0,0,0,0,0,0,0,0,0,0,0,0,0,0,0],"trees":[{"base_weights":[2.9267655E-3,-8.746142E-1,1.1881909E0,-1.3917301E0,-1.8202133E-1,2.8053728E-1,1.4663868E0,-1.4815786E0,-5.9033316E-1,-5.0066017E-2,-1.1432619E0,2.0289609E-1,8.166439E-1,1.1824542E0,1.7341756E0,-1.2153354E0,-1.6307595E0,1.622676E-1,-7.301428E-1,-2.9743952E-1,3.021367E-1,-1.3156583E0,-4.287974E-1,-1.51234185E-2,3.9716363E-1,1.6508248E-1,1.0355228E0,9.999097E-1,1.2988766E0,1.615315E0,1.795318E0,-1.0798827E-2,-1.3772566E-2,-1.581965E-2,-1.820898E-2,-2.4774307E-3,8.823823E-3,-5.9296945E-3,-1.196236E-2,-4.2059096E-3,2.104122E-3,5.115546E-3,4.3733403E-4,-1.3522525E-2,1.2401424E-2,1.0023465E-3,-7.645605E-3,-1.6941766E-3,4.516316E-3,5.4448997E-3,1.9279834E-3,5.449228E-3,-7.82626E-3,1.1098489E-2,-1.881081E-2,9.193644E-3,1.3048619E-2,1.2036634E-2,1.3641925E-2,1.507205E-2,1.6765798E-2,1.738255E-2,1.8399848E-2],"categories":[],"categories_nodes":[],"categories_segments":[],"categories_sizes":[],"default_left":[0,0,0,0,0,0,0,0,0,0,0,0,0,0,0,0,0,0,0,0,0,0,0,0,0,0,0,0,0,0,0,0,0,0,0,0,0,0,0,0,0,0,0,0,0,0,0,0,0,0,0,0,0,0,0,0,0,0,0,0,0,0,0],"id":0,"left_children":[1,3,5,7,9,11,13,15,17,19,21,23,25,27,29,31,33,35,37,39,41,43,45,47,49,51,53,55,57,59,61,-1,-1,-1,-1,-1,-1,-1,-1,-1,-1,-1,-1,-1,-1,-1,-1,-1,-1,-1,-1,-1,-1,-1,-1,-1,-1,-1,-1,-1,-1,-1,-1],"loss_changes":[4.0336637E4,7.980373E3,4.165416E3,9.1794727E2,1.2081355E3,1.6094302E2,9.5878516E2,4.5433398E2,1.3554102E2,7.298744E2,1.411571E2,1.4328976E2,6.958511E1,1.2941211E2,4.5427734E1,8.9404785E1,6.641016E1,5.9794632E1,6.887616E1,3.0784326E2,1.8696133E2,8.744495E1,3.995587E1,1.1479873E2,5.373065E1,4.4742413E1,8.033096E1,5.7878906E1,2.2189453E1,1.3071777E1,8.964844E0,0E0,0E0,0E0,0E0,0E0,0E0,0E0,0E0,0E0,0E0,0E0,0E0,0E0,0E0,0E0,0E0,0E0,0E0,0E0,0E0,0E0,0E0,0E0,0E0,0E0,0E0,0E0,0E0,0E0,0E0,0E0,0E0],"parents":[2147483647,0,0,1,1,2,2,3,3,4,4,5,5,6,6,7,7,8,8,9,9,10,10,11,11,12,12,13,13,14,14,15,15,16,16,17,17,18,18,19,19,20,20,21,21,22,22,23,23,24,24,25,25,26,26,27,27,28,28,29,29,30,30],"right_children":[2,4,6,8,10,12,14,16,18,20,22,24,26,28,30,32,34,36,38,40,42,44,46,48,50,52,54,56,58,60,62,-1,-1,-1,-1,-1,-1,-1,-1,-1,-1,-1,-1,-1,-1,-1,-1,-1,-1,-1,-1,-1,-1,-1,-1,-1,-1,-1,-1,-1,-1,-1,-1],"split_conditions":[1E0,2E0,2E0,1.1887631E0,5E0,2.6086956E-1,5E0,1E0,-2.2060606E-1,3E0,2E0,1E0,-4.2864752E-1,3E0,7E0,-1.2727273E-2,6.437455E-1,2.0818915E0,1.0584848E0,1.2991257E0,2.2909091E-1,4.798063E0,-1.4979021E-1,7.2236496E-1,5.5363636E-2,-7.124091E-1,3.113951E-1,3.478261E-1,2.3529412E-1,4.117647E-1,1E1,-1.0798827E-2,-1.3772566E-2,-1.581965E-2,-1.820898E-2,-2.4774307E-3,8.823823E-3,-5.9296945E-3,-1.196236E-2,-4.2059096E-3,2.104122E-3,5.115546E-3,4.3733403E-4,-1.3522525E-2,1.2401424E-2,1.0023465E-3,-7.645605E-3,-1.6941766E-3,4.516316E-3,5.4448997E-3,1.9279834E-3,5.449228E-3,-7.82626E-3,1.1098489E-2,-1.881081E-2,9.193644E-3,1.3048619E-2,1.2036634E-2,1.3641925E-2,1.507205E-2,1.6765798E-2,1.738255E-2,1.8399848E-2],"split_indices":[0,9,0,5,9,3,0,9,6,9,7,7,5,0,0,6,6,5,6,5,6,5,6,5,6,6,5,3,3,3,0,0,0,0,0,0,0,0,0,0,0,0,0,0,0,0,0,0,0,0,0,0,0,0,0,0,0,0,0,0,0,0,0],"split_type":[0,0,0,0,0,0,0,0,0,0,0,0,0,0,0,0,0,0,0,0,0,0,0,0,0,0,0,0,0,0,0,0,0,0,0,0,0,0,0,0,0,0,0,0,0,0,0,0,0,0,0,0,0,0,0,0,0,0,0,0,0,0,0],"sum_hessian":[3.87798E4,2.2282455E4,1.6497346E4,1.2756972E4,9.525483E3,3.8705347E3,1.2626811E4,1.1470417E4,1.2865546E3,8.376255E3,1.1492292E3,3.3816638E3,4.8887088E2,6.130166E3,6.496644E3,4.1209673E3,7.3494497E3,2.0143364E2,1.0851208E3,4.920587E3,3.4556675E3,9.2537946E2,2.2384972E2,1.5933975E3,1.7882665E3,1.2326578E2,3.656051E2,2.389384E3,3.740782E3,2.2119595E3,4.2846846E3,2.2463064E3,1.874661E3,5.852684E3,1.4967657E3,1.2847382E2,7.295982E1,8.3942505E2,2.4569583E2,3.9604749E3,9.6011224E2,1.90827E3,1.5473975E3,9.125875E2,1.27919655E1,8.6931854E1,1.3691786E2,1.1979323E3,3.954652E2,1.0383799E3,7.4988666E2,8.8223816E1,3.5041965E1,3.568551E2,8.75E0,1.8919974E3,4.9738666E2,1.526618E3,2.2141638E3,8.053117E2,1.4066477E3,1.8910363E3,2.3936484E3],"tree_param":{"num_deleted":"0","num_feature":"14","num_nodes":"63","size_leaf_vector":"1"}},{"base_weights":[-7.259138E-3,-7.0635694E-1,1.447759E0,-1.2641927E0,1.418621E-1,1.1682289E0,1.7153726E0,-1.3598939E0,-4.0193522E-1,-3.2161474E-1,4.4891647E-1,7.667791E-1,1.3777131E0,1.6229511E0,1.7895617E0,-1.4501228E0,-6.3996696E-1,-6.09292E-1,8.144856E-2,-4.2380148E-1,1.6036259E-1,2.6944673E-1,9.882653E-1,4.2939457E-1,1.0096557E0,1.2322199E0,1.4196329E0,1.4442774E0,1.6924801E0,1.7514665E0,1.8526912E-2,-1.5940264E-2,-1.13094915E-2,-3.8057028E-3,-1.0392033E-2,-4.562011E-3,-1.1156438E-2,2.499897E-4,1.7899422E-2,-1.3931957E-3,-6.315956E-3,6.3326275E-3,-2.6374154E-3,1.8879044E-3,7.216748E-3,1.1284466E-2,7.984896E-3,4.8682853E-3,-6.8641445E-3,8.003333E-3,1.13492375E-2,1.3836701E-2,1.1101795E-2,1.4018446E-2,1.6965447E-2,1.5025766E-2,1.2452824E-2,1.7043492E-2,1.2533961E-2,1.6909765E-2,1.7926253E-2],"categories":[],"categories_nodes":[],"categories_segments":[],"categories_sizes":[],"default_left":[0,0,0,0,0,0,0,0,0,0,0,0,0,0,0,0,0,0,0,0,0,0,0,0,0,0,0,0,0,0,0,0,0,0,0,0,0,0,0,0,0,0,0,0,0,0,0,0,0,0,0,0,0,0,0,0,0,0,0,0,0],"id":1,"left_children":[1,3,5,7,9,11,13,15,17,19,21,23,25,27,29,31,33,35,37,39,41,43,45,47,49,51,53,55,57,59,-1,-1,-1,-1,-1,-1,-1,-1,-1,-1,-1,-1,-1,-1,-1,-1,-1,-1,-1,-1,-1,-1,-1,-1,-1,-1,-1,-1,-1,-1,-1],"loss_changes":[3.930394E4,1.2349576E4,9.367793E2,1.2988047E3,1.4737334E3,5.1520996E2,4.2128906E1,9.198926E2,1.5781895E2,2.0330249E2,6.0267957E2,1.721289E2,2.3443848E1,3.3970215E1,6.548828E0,5.772168E2,1.6321832E2,8.497583E1,4.5387745E1,2.0116394E2,1.4493413E2,1.7034497E2,4.072058E1,5.6678085E1,3.143103E1,1.5726074E1,1.3896484E1,8.122314E0,9.341797E0,3.6699219E0,0E0,0E0,0E0,0E0,0E0,0E0,0E0,0E0,0E0,0E0,0E0,0E0,0E0,0E0,0E0,0E0,0E0,0E0,0E0,0E0,0E0,0E0,0E0,0E0,0E0,0E0,0E0,0E0,0E0,0E0,0E0],"parents":[2147483647,0,0,1,1,2,2,3,3,4,4,5,5,6,6,7,7,8,8,9,9,10,10,11,11,12,12,13,13,14,14,15,15,16,16,17,17,18,18,19,19,20,20,21,21,22,22,23,23,24,24,25,25,26,26,27,27,28,28,29,29],"right_children":[2,4,6,8,10,12,14,16,18,20,22,24,26,28,30,32,34,36,38,40,42,44,46,48,50,52,54,56,58,60,-1,-1,-1,-1,-1,-1,-1,-1,-1,-1,-1,-1,-1,-1,-1,-1,-1,-1,-1,-1,-1,-1,-1,-1,-1,-1,-1,-1,-1,-1,-1],"split_conditions":[2E0,3.6714578E-1,5E0,1E0,9.237137E-1,5.9399885E-1,8E0,1.1114315E0,3.823572E-2,1.378695E0,1E0,3E0,9.3830115E-1,8.248257E-1,1.3E1,-5.6928664E-2,4.9636364E-1,3.7818182E-1,4.798063E0,-1.7542425E-1,1.1093939E-1,1.4359031E0,1.7446098E-1,1.2315757E0,0E0,-1.6587879E-1,2.9328198E0,5.147006E-1,1E0,1.193636E0,1.8526912E-2,-1.5940264E-2,-1.13094915E-2,-3.8057028E-3,-1.0392033E-2,-4.562011E-3,-1.1156438E-2,2.499897E-4,1.7899422E-2,-1.3931957E-3,-6.315956E-3,6.3326275E-3,-2.6374154E-3,1.8879044E-3,7.216748E-3,1.1284466E-2,7.984896E-3,4.8682853E-3,-6.8641445E-3,8.003333E-3,1.13492375E-2,1.3836701E-2,1.1101795E-2,1.4018446E-2,1.6965447E-2,1.5025766E-2,1.2452824E-2,1.7043492E-2,1.2533961E-2,1.6909765E-2,1.7926253E-2],"split_indices":[0,4,0,0,4,4,0,5,4,5,0,0,4,4,0,4,6,6,5,6,6,5,5,6,4,6,4,5,11,4,0,0,0,0,0,0,0,0,0,0,0,0,0,0,0,0,0,0,0,0,0,0,0,0,0,0,0,0,0,0,0],"split_type":[0,0,0,0,0,0,0,0,0,0,0,0,0,0,0,0,0,0,0,0,0,0,0,0,0,0,0,0,0,0,0,0,0,0,0,0,0,0,0,0,0,0,0,0,0,0,0,0,0,0,0,0,0,0,0,0,0,0,0,0,0],"sum_hessian":[3.8638414E4,2.6098904E4,1.2539509E4,1.5744394E4,1.0354511E4,6.134697E3,6.404812E3,1.41711455E4,1.5732483E3,4.126102E3,6.2284087E3,2.1044993E3,4.0301978E3,2.857658E3,3.5471538E3,1.2592299E4,1.5788466E3,1.1010209E3,4.722274E2,3.4045515E3,7.215504E2,4.6740435E3,1.554365E3,8.8162E2,1.2228793E3,9.053924E2,3.1248054E3,8.0396643E2,2.0536917E3,2.2221602E3,1.3249937E3,8.677584E3,3.914715E3,9.577759E2,6.210707E2,8.462983E2,2.5472256E2,4.576715E2,1.4555879E1,1.4376472E3,1.9669043E3,3.4114432E2,3.804061E2,3.9673792E3,7.066645E2,8.9227203E2,6.62093E2,8.388152E2,4.280481E1,4.5951852E2,7.633607E2,4.0134338E2,5.04049E2,2.9393774E3,1.8542798E2,6.188771E2,1.8508937E2,1.9980131E3,5.5678604E1,9.0928516E2,1.312875E3],"tree_param":{"num_deleted":"0","num_feature":"14","num_nodes":"61","size_leaf_vector":"1"}},{"base_weights":[-4.0287257E-4,-8.652918E-1,1.1657773E0,-1.3553457E0,-1.2263225E-2,2.7256927E-1,1.4390767E0,-1.4422476E0,-6.5813017E-1,-3.9091897E-1,2.6866052E-1,-2.0791808E-1,9.6806926E-1,1.0999109E0,1.6502994E0,-1.5853237E0,-1.1252917E0,-4.7601852E-1,-1.178975E0,-8.126385E-2,-5.8952624E-1,-4.446014E-3,4.067162E-1,-5.6314033E-1,1.3310575E-1,1.1148053E0,7.761407E-1,6.5692425E-1,1.3239152E0,1.4792978E0,1.701989E0,-1.6370537E-2,-1.4012339E-2,-9.957718E-3,-1.3708618E-2,-5.640427E-3,3.2068312E-3,-1.3959769E-2,-6.2188026E-3,-6.8253973E-3,2.5280213E-3,-7.5083366E-3,-2.8653018E-4,-1.6378587E-3,4.37527E-3,6.104993E-3,1.6935068E-3,-6.160987E-3,3.8597446E-3,1.8520282E-3,-7.2396207E-3,8.454067E-3,1.2051744E-2,1.1108445E-2,5.453615E-3,3.2155209E-3,7.2524576E-3,1.23089915E-2,1.4395338E-2,1.3929735E-2,1.7062789E-2,1.6443707E-2,1.7323714E-2],"categories":[],"categories_nodes":[],"categories_segments":[],"categories_sizes":[],"default_left":[0,0,0,0,0,0,0,0,0,0,0,0,0,0,0,0,0,0,0,0,0,0,0,0,0,0,0,0,0,0,0,0,0,0,0,0,0,0,0,0,0,0,0,0,0,0,0,0,0,0,0,0,0,0,0,0,0,0,0,0,0,0,0],"id":2,"left_children":[1,3,5,7,9,11,13,15,17,19,21,23,25,27,29,31,33,35,37,39,41,43,45,47,49,51,53,55,57,59,61,-1,-1,-1,-1,-1,-1,-1,-1,-1,-1,-1,-1,-1,-1,-1,-1,-1,-1,-1,-1,-1,-1,-1,-1,-1,-1,-1,-1,-1,-1,-1,-1],"loss_changes":[3.9060953E4,9.295225E3,4.0253457E3,8.55E2,8.6317126E2,1.2915762E3,9.034297E2,5.6828125E2,1.4811401E2,2.124635E2,1.7567514E2,2.7698047E2,4.3850098E1,4.804043E2,6.719141E1,8.0921875E1,1.2335791E2,8.156662E1,4.8358154E1,2.7156073E2,1.9039142E2,1.1017591E2,1.4954968E2,5.642868E1,5.2096775E1,2.1037354E1,5.2529907E1,3.7108704E1,3.3464355E1,3.396924E1,8.689453E0,0E0,0E0,0E0,0E0,0E0,0E0,0E0,0E0,0E0,0E0,0E0,0E0,0E0,0E0,0E0,0E0,0E0,0E0,0E0,0E0,0E0,0E0,0E0,0E0,0E0,0E0,0E0,0E0,0E0,0E0,0E0,0E0],"parents":[2147483647,0,0,1,1,2,2,3,3,4,4,5,5,6,6,7,7,8,8,9,9,10,10,11,11,12,12,13,13,14,14,15,15,16,16,17,17,18,18,19,19,20,20,21,21,22,22,23,23,24,24,25,25,26,26,27,27,28,28,29,29,30,30],"right_children":[2,4,6,8,10,12,14,16,18,20,22,24,26,28,30,32,34,36,38,40,42,44,46,48,50,52,54,56,58,60,62,-1,-1,-1,-1,-1,-1,-1,-1,-1,-1,-1,-1,-1,-1,-1,-1,-1,-1,-1,-1,-1,-1,-1,-1,-1,-1,-1,-1,-1,-1,-1,-1],"split_conditions":[1E0,3.6714578E-1,2E0,1.1114315E0,9.237137E-1,9.237137E-1,3E0,-5.6928664E-2,8.509091E-1,-1.7068687E-1,3E0,3.823572E-2,1.7446098E-1,5.226707E-1,7.3246366E-1,-2.188233E-1,2.6727274E-1,3.226082E0,2.276341E0,-2.3783666E-1,1.378695E0,1.0925115E0,2.2909091E-1,2.0108795E0,2E0,-4.2864752E-1,9.52381E-2,-3.2011986E-1,1.3717587E0,7.8571427E-1,5.294118E-1,-1.6370537E-2,-1.4012339E-2,-9.957718E-3,-1.3708618E-2,-5.640427E-3,3.2068312E-3,-1.3959769E-2,-6.2188026E-3,-6.8253973E-3,2.5280213E-3,-7.5083366E-3,-2.8653018E-4,-1.6378587E-3,4.37527E-3,6.104993E-3,1.6935068E-3,-6.160987E-3,3.8597446E-3,1.8520282E-3,-7.2396207E-3,8.454067E-3,1.2051744E-2,1.1108445E-2,5.453615E-3,3.2155209E-3,7.2524576E-3,1.23089915E-2,1.4395338E-2,1.3929735E-2,1.7062789E-2,1.6443707E-2,1.7323714E-2],"split_indices":[8,4,8,5,4,4,8,4,6,6,9,4,5,4,4,4,6,5,5,5,5,5,6,5,7,5,3,4,4,3,3,0,0,0,0,0,0,0,0,0,0,0,0,0,0,0,0,0,0,0,0,0,0,0,0,0,0,0,0,0,0,0,0],"split_type":[0,0,0,0,0,0,0,0,0,0,0,0,0,0,0,0,0,0,0,0,0,0,0,0,0,0,0,0,0,0,0,0,0,0,0,0,0,0,0,0,0,0,0,0,0,0,0,0,0,0,0,0,0,0,0,0,0,0,0,0,0,0,0],"sum_hessian":[3.87263E4,2.2235627E4,1.6490674E4,1.4122195E4,8.1134316E3,3.863895E3,1.2626778E4,1.2556464E4,1.565732E3,3.4556875E3,4.657744E3,2.285299E3,1.578596E3,4.8471553E3,7.7796226E3,8.64964E3,3.906824E3,1.1609564E3,4.0477554E2,1.3508074E3,2.1048804E3,1.5638472E3,3.0938972E3,1.1193318E3,1.1659673E3,8.929666E2,6.8562933E2,1.6286947E3,3.2184607E3,1.8096398E3,5.969983E3,6.7487266E3,1.9009132E3,2.5597046E3,1.3471194E3,1.0456937E3,1.1526282E2,2.906341E2,1.1414145E2,4.8237393E2,8.684334E2,1.6344608E3,4.7041946E2,1.1498462E3,4.1400092E2,1.6640602E3,1.4298369E3,1.0604424E3,5.8889385E1,1.0996344E3,6.633291E1,2.2588051E2,6.6708606E2,2.7885712E2,4.0677225E2,2.7637265E2,1.352322E3,1.7872742E3,1.4311866E3,1.3139391E3,4.9570078E2,2.0718003E3,3.8981824E3],"tree_param":{"num_deleted":"0","num_feature":"14","num_nodes":"63","size_leaf_vector":"1"}},{"base_weights":[-3.8918653E-3,-6.965402E-1,1.424333E0,-1.2440782E0,1.5883915E-1,1.141629E0,1.6880394E0,-1.330829E0,-4.531475E-1,-2.86061E-1,4.4251403E-1,7.3792505E-1,1.3480983E0,1.6141368E0,1.7749795E0,-1.4201609E0,-6.242186E-1,-9.5899135E-1,-2.971671E-1,5.5204935E-2,-4.9919492E-1,2.7024543E-1,9.6521056E-1,3.5886478E-1,1.0033735E0,1.2609875E0,1.4481508E0,1.4368223E0,1.6682925E0,1.7386299E0,1.8176973E-2,-1.5679128E-2,-1.1057226E-2,-3.7454783E-3,-1.0107799E-2,-1.9474825E-2,-8.795204E-3,-3.786302E-3,7.436925E-3,-4.58723E-3,3.6269906E-3,-6.0440996E-3,5.10478E-4,4.3110307E-3,4.6707538E-4,1.1542467E-2,8.416908E-3,-2.014515E-3,4.6900976E-3,1.6499774E-3,1.0353895E-2,1.2808289E-2,9.018982E-3,1.5349709E-2,1.3801302E-2,-2.4084077E-4,1.449381E-2,1.2406905E-2,1.679075E-2,9.213344E-3,1.7429572E-2],"categories":[],"categories_nodes":[],"categories_segments":[],"categories_sizes":[],"default_left":[0,0,0,0,0,0,0,0,0,0,0,0,0,0,0,0,0,0,0,0,0,0,0,0,0,0,0,0,0,0,0,0,0,0,0,0,0,0,0,0,0,0,0,0,0,0,0,0,0,0,0,0,0,0,0,0,0,0,0,0,0],"id":3,"left_children":[1,3,5,7,9,11,13,15,17,19,21,23,25,27,29,31,33,35,37,39,41,43,45,47,49,51,53,55,57,59,-1,-1,-1,-1,-1,-1,-1,-1,-1,-1,-1,-1,-1,-1,-1,-1,-1,-1,-1,-1,-1,-1,-1,-1,-1,-1,-1,-1,-1,-1,-1],"loss_changes":[3.8245395E4,1.2193646E4,9.400371E2,1.0886914E3,1.282512E3,5.0734814E2,4.0191406E1,9.0229297E2,1.235968E2,2.8783893E2,5.584973E2,2.0734229E2,3.395703E1,3.2450195E1,2.7167969E0,5.888301E2,1.5471796E2,2.7896362E1,1.0191778E2,2.404887E2,1.4108374E2,1.6779181E2,3.52229E1,5.2589478E1,3.236255E1,1.4592285E1,9.70874E0,1.5414673E1,1.1140137E1,4.6987305E0,0E0,0E0,0E0,0E0,0E0,0E0,0E0,0E0,0E0,0E0,0E0,0E0,0E0,0E0,0E0,0E0,0E0,0E0,0E0,0E0,0E0,0E0,0E0,0E0,0E0,0E0,0E0,0E0,0E0,0E0,0E0],"parents":[2147483647,0,0,1,1,2,2,3,3,4,4,5,5,6,6,7,7,8,8,9,9,10,10,11,11,12,12,13,13,14,14,15,15,16,16,17,17,18,18,19,19,20,20,21,21,22,22,23,23,24,24,25,25,26,26,27,27,28,28,29,29],"right_children":[2,4,6,8,10,12,14,16,18,20,22,24,26,28,30,32,34,36,38,40,42,44,46,48,50,52,54,56,58,60,-1,-1,-1,-1,-1,-1,-1,-1,-1,-1,-1,-1,-1,-1,-1,-1,-1,-1,-1,-1,-1,-1,-1,-1,-1,-1,-1,-1,-1,-1,-1],"split_conditions":[2E0,3.9290524E-1,5E0,3.125E-2,9.237137E-1,5.9399885E-1,9E0,1.1114315E0,-3.0577835E-1,-1.9454545E-1,3.846154E-2,3E0,1.3717587E0,7.3246366E-1,1.3E1,-5.6928664E-2,4.9636364E-1,-4.1194212E-1,2.0108795E0,-2.5520876E-1,1E0,2.2909091E-1,-1.2939394E-1,-3.2011986E-1,-3.938196E-1,2E0,0E0,-3.9754692E-1,2.1276595E-2,-3.5397652E-1,1.8176973E-2,-1.5679128E-2,-1.1057226E-2,-3.7454783E-3,-1.0107799E-2,-1.9474825E-2,-8.795204E-3,-3.786302E-3,7.436925E-3,-4.58723E-3,3.6269906E-3,-6.0440996E-3,5.10478E-4,4.3110307E-3,4.6707538E-4,1.1542467E-2,8.416908E-3,-2.014515E-3,4.6900976E-3,1.6499774E-3,1.0353895E-2,1.2808289E-2,9.018982E-3,1.5349709E-2,1.3801302E-2,-2.4084077E-4,1.449381E-2,1.2406905E-2,1.679075E-2,9.213344E-3,1.7429572E-2],"split_indices":[0,4,0,3,4,4,0,5,4,6,3,0,4,4,0,4,6,4,5,5,0,6,6,4,4,7,6,4,3,4,0,0,0,0,0,0,0,0,0,0,0,0,0,0,0,0,0,0,0,0,0,0,0,0,0,0,0,0,0,0,0],"split_type":[0,0,0,0,0,0,0,0,0,0,0,0,0,0,0,0,0,0,0,0,0,0,0,0,0,0,0,0,0,0,0,0,0,0,0,0,0,0,0,0,0,0,0,0,0,0,0,0,0,0,0,0,0,0,0,0,0,0,0,0,0],"sum_hessian":[3.8659777E4,2.603424E4,1.2625538E4,1.5873393E4,1.0160848E4,6.0947563E3,6.5307812E3,1.430403E4,1.5693627E3,3.9560457E3,6.204802E3,2.0632695E3,4.0314868E3,3.5359807E3,2.9948008E3,1.2698056E4,1.6059745E3,3.6911362E2,1.200249E3,1.5208275E3,2.435218E3,4.6674644E3,1.5373378E3,8.504212E2,1.2128484E3,2.1592964E3,1.8721903E3,8.3094543E2,2.7050352E3,1.6305354E3,1.3642653E3,8.637196E3,4.060859E3,9.7651196E2,6.294625E2,2.6498867E1,3.4261475E2,1.1135138E3,8.673521E1,5.690983E2,9.517291E2,2.0444246E3,3.9079358E2,2.7137446E3,1.9537196E3,6.0557526E2,9.3176245E2,1.3949196E2,7.109292E2,4.4840874E1,1.1680076E3,2.0447516E3,1.1454491E2,8.170589E2,1.0551313E3,7.0105853E0,8.239349E2,6.818782E1,2.6368474E3,9.272462E0,1.621263E3],"tree_param":{"num_deleted":"0","num_feature":"14","num_nodes":"61","size_leaf_vector":"1"}},{"base_weights":[9.004644E-4,-6.88247E-1,1.4153911E0,-1.3396935E0,-6.569343E-2,1.1483567E0,1.6716646E0,-1.4138966E0,-4.6224937E-1,3.631083E-2,-1.1624055E0,9.6460074E-1,1.2643042E0,1.5838286E0,1.7425871E0,-1.1652182E0,-1.5553508E0,2.9727563E-1,-6.076386E-1,-3.0967948E-1,2.6998502E-1,-1.3114307E0,-5.2287924E-1,8.9813685E-1,1.2271655E0,1.1681167E0,1.329103E0,1.5273923E0,1.6371368E0,1.7049215E0,1.8022776E-2,-1.0563511E-2,-1.4199399E-2,-1.5107555E-2,-1.7929414E-2,-2.9914677E-3,9.508739E-3,-4.6750745E-3,-1.0464436E-2,-4.388322E-3,2.1601394E-3,9.852409E-5,4.397178E-3,-1.370342E-2,-2.8945177E-3,2.1060612E-3,-8.372294E-3,8.033322E-3,1.2517229E-2,1.1342044E-2,1.38649E-2,1.2374283E-2,8.374007E-3,1.1922863E-2,1.371022E-2,1.2152447E-2,1.5406513E-2,1.597843E-2,1.6730666E-2,1.654935E-2,1.7355276E-2],"categories":[],"categories_nodes":[],"categories_segments":[],"categories_sizes":[],"default_left":[0,0,0,0,0,0,0,0,0,0,0,0,0,0,0,0,0,0,0,0,0,0,0,0,0,0,0,0,0,0,0,0,0,0,0,0,0,0,0,0,0,0,0,0,0,0,0,0,0,0,0,0,0,0,0,0,0,0,0,0,0],"id":4,"left_children":[1,3,5,7,9,11,13,15,17,19,21,23,25,27,29,31,33,35,37,39,41,43,45,47,49,51,53,55,57,59,-1,-1,-1,-1,-1,-1,-1,-1,-1,-1,-1,-1,-1,-1,-1,-1,-1,-1,-1,-1,-1,-1,-1,-1,-1,-1,-1,-1,-1,-1,-1],"loss_changes":[3.7771246E4,1.0566335E4,8.674414E2,8.284219E2,1.4905803E3,1.3165137E2,3.863086E1,4.1174023E2,1.09837585E2,9.8556976E2,1.0753308E2,4.126001E1,2.2725098E1,7.1552734E0,6.1552734E0,1.1708984E2,7.757617E1,6.252326E1,5.089969E1,3.3370465E2,3.2122272E2,5.497046E1,4.977782E1,6.3781372E1,6.1415405E0,3.4541992E1,1.1959961E1,4.6518555E0,4.3017578E-1,1.5961914E0,0E0,0E0,0E0,0E0,0E0,0E0,0E0,0E0,0E0,0E0,0E0,0E0,0E0,0E0,0E0,0E0,0E0,0E0,0E0,0E0,0E0,0E0,0E0,0E0,0E0,0E0,0E0,0E0,0E0,0E0,0E0],"parents":[2147483647,0,0,1,1,2,2,3,3,4,4,5,5,6,6,7,7,8,8,9,9,10,10,11,11,12,12,13,13,14,14,15,15,16,16,17,17,18,18,19,19,20,20,21,21,22,22,23,23,24,24,25,25,26,26,27,27,28,28,29,29],"right_children":[2,4,6,8,10,12,14,16,18,20,22,24,26,28,30,32,34,36,38,40,42,44,46,48,50,52,54,56,58,60,-1,-1,-1,-1,-1,-1,-1,-1,-1,-1,-1,-1,-1,-1,-1,-1,-1,-1,-1,-1,-1,-1,-1,-1,-1,-1,-1,-1,-1,-1,-1],"split_conditions":[2E0,2E0,5E0,1.378695E0,5E0,3E0,8E0,1E0,-2.2060606E-1,3E0,2E0,3.478261E-1,2.3529412E-1,5.4545456E-1,1.3E1,2.8954545E-1,8.769091E-1,2.0818915E0,1.0724849E0,1.2991257E0,1E0,1.8682915E0,-2.531313E-1,1.2085865E0,6.923077E-1,2.509091E-1,1E0,2.1276595E-2,-1.5172276E-1,-1.4595343E-1,1.8022776E-2,-1.0563511E-2,-1.4199399E-2,-1.5107555E-2,-1.7929414E-2,-2.9914677E-3,9.508739E-3,-4.6750745E-3,-1.0464436E-2,-4.388322E-3,2.1601394E-3,9.852409E-5,4.397178E-3,-1.370342E-2,-2.8945177E-3,2.1060612E-3,-8.372294E-3,8.033322E-3,1.2517229E-2,1.1342044E-2,1.38649E-2,1.2374283E-2,8.374007E-3,1.1922863E-2,1.371022E-2,1.2152447E-2,1.5406513E-2,1.597843E-2,1.6730666E-2,1.654935E-2,1.7355276E-2],"split_indices":[0,9,0,5,9,0,0,9,6,9,7,3,3,3,0,6,6,5,6,5,7,5,6,5,3,6,2,3,5,5,0,0,0,0,0,0,0,0,0,0,0,0,0,0,0,0,0,0,0,0,0,0,0,0,0,0,0,0,0,0,0],"split_type":[0,0,0,0,0,0,0,0,0,0,0,0,0,0,0,0,0,0,0,0,0,0,0,0,0,0,0,0,0,0,0,0,0,0,0,0,0,0,0,0,0,0,0,0,0,0,0,0,0,0,0,0,0,0,0,0,0,0,0,0,0],"sum_hessian":[3.8746902E4,2.6053623E4,1.269328E4,1.2731018E4,1.3322605E4,6.217666E3,6.4756143E3,1.1737951E4,9.930657E2,1.2189283E4,1.1333226E3,2.4075916E3,3.8100745E3,2.8987063E3,3.5769082E3,4.257874E3,7.480077E3,1.5935777E2,8.337079E2,4.9135024E3,7.275781E3,9.185877E2,2.14735E2,1.923325E3,4.8426663E2,1.5380481E3,2.2720264E3,1.416153E3,1.4825533E3,2.203145E3,1.3737631E3,2.9850437E3,1.2728306E3,6.301417E3,1.1786605E3,8.338517E1,7.59726E1,6.3286487E2,2.0084303E2,3.9446506E3,9.688518E2,2.8732908E3,4.4024897E3,8.6826855E2,5.0319096E1,6.437446E1,1.5036055E2,1.5181838E3,4.051411E2,3.0878625E2,1.7548038E2,1.2701714E3,2.678767E2,5.368727E2,1.7351536E3,5.9897808E1,1.3562551E3,7.2031635E2,7.6223706E2,8.483769E2,1.3547682E3],"tree_param":{"num_deleted":"0","num_feature":"14","num_nodes":"61","size_leaf_vector":"1"}},{"base_weights":[-1.2245362E-3,-8.320398E-1,1.1320473E0,-1.3180424E0,3.9036868E-3,2.668784E-1,1.3969337E0,-1.396907E0,-6.7739445E-1,-3.8100725E-1,2.8431717E-1,-2.2630978E-1,9.723146E-1,1.1256816E0,1.6536775E0,-1.5355718E0,-1.088709E0,-7.9864764E-1,-1.3167438E-1,-4.8879483E-1,1.2309792E-1,2.3047286E-1,8.912477E-1,-5.7688373E-1,1.4208977E-1,1.0993115E0,8.1454366E-1,7.3515135E-1,1.3282006E0,1.5393986E0,1.7118676E0,-1.580907E-2,-1.3727708E-2,-3.1102134E-3,-1.1080139E-2,-1.5337877E-2,-7.3454175E-3,5.34153E-3,-2.5820853E-3,-6.717246E-3,-3.006183E-3,9.6133435E-3,4.3626103E-4,-1.5325853E-4,3.5701368E-3,1.297716E-2,8.336048E-3,-6.4118374E-3,4.340152E-3,1.1731506E-3,1.4363047E-2,7.509943E-3,1.209993E-2,1.102948E-2,6.2157665E-3,3.987901E-3,9.77458E-3,1.1883335E-2,1.3683763E-2,1.2838033E-2,1.6035223E-2,1.6821427E-2,1.7782835E-2],"categories":[],"categories_nodes":[],"categories_segments":[],"categories_sizes":[],"default_left":[0,0,0,0,0,0,0,0,0,0,0,0,0,0,0,0,0,0,0,0,0,0,0,0,0,0,0,0,0,0,0,0,0,0,0,0,0,0,0,0,0,0,0,0,0,0,0,0,0,0,0,0,0,0,0,0,0,0,0,0,0,0,0],"id":5,"left_children":[1,3,5,7,9,11,13,15,17,19,21,23,25,27,29,31,33,35,37,39,41,43,45,47,49,51,53,55,57,59,61,-1,-1,-1,-1,-1,-1,-1,-1,-1,-1,-1,-1,-1,-1,-1,-1,-1,-1,-1,-1,-1,-1,-1,-1,-1,-1,-1,-1,-1,-1,-1,-1],"loss_changes":[3.6422324E4,9.068297E3,3.7496562E3,7.124512E2,8.857924E2,1.3348801E3,8.712383E2,5.359668E2,1.02298584E2,1.8800458E2,1.5495108E2,2.9172446E2,3.09917E1,4.8123096E2,4.1146484E1,6.258008E1,5.8260742E1,5.8895386E1,2.3817003E1,9.789978E1,4.048224E1,1.3571065E2,8.303528E0,7.538492E1,3.5073288E1,3.2999878E1,3.8792877E1,1.6936487E2,2.1475098E1,3.435547E1,6.5664062E0,0E0,0E0,0E0,0E0,0E0,0E0,0E0,0E0,0E0,0E0,0E0,0E0,0E0,0E0,0E0,0E0,0E0,0E0,0E0,0E0,0E0,0E0,0E0,0E0,0E0,0E0,0E0,0E0,0E0,0E0,0E0,0E0],"parents":[2147483647,0,0,1,1,2,2,3,3,4,4,5,5,6,6,7,7,8,8,9,9,10,10,11,11,12,12,13,13,14,14,15,15,16,16,17,17,18,18,19,19,20,20,21,21,22,22,23,23,24,24,25,25,26,26,27,27,28,28,29,29,30,30],"right_children":[2,4,6,8,10,12,14,16,18,20,22,24,26,28,30,32,34,36,38,40,42,44,46,48,50,52,54,56,58,60,62,-1,-1,-1,-1,-1,-1,-1,-1,-1,-1,-1,-1,-1,-1,-1,-1,-1,-1,-1,-1,-1,-1,-1,-1,-1,-1,-1,-1,-1,-1,-1,-1],"split_conditions":[1E0,3.6714578E-1,2E0,1.1114315E0,9.237137E-1,9.237137E-1,5E0,-5.6928664E-2,2.5313725E0,1.378695E0,1.9376829E0,7.507928E-2,1.6115358E-1,5.9399885E-1,7E0,-2.188233E-1,-4.9513154E-2,-3.7539002E-1,-3.7539002E-1,6.3995945E-1,3.9290524E-1,3E0,1.0039403E0,2.0108795E0,4.798063E0,-4.2864752E-1,9.52381E-2,3E0,9.3830115E-1,6.3995945E-1,1.3E1,-1.580907E-2,-1.3727708E-2,-3.1102134E-3,-1.1080139E-2,-1.5337877E-2,-7.3454175E-3,5.34153E-3,-2.5820853E-3,-6.717246E-3,-3.006183E-3,9.6133435E-3,4.3626103E-4,-1.5325853E-4,3.5701368E-3,1.297716E-2,8.336048E-3,-6.4118374E-3,4.340152E-3,1.1731506E-3,1.4363047E-2,7.509943E-3,1.209993E-2,1.102948E-2,6.2157665E-3,3.987901E-3,9.77458E-3,1.1883335E-2,1.3683763E-2,1.2838033E-2,1.6035223E-2,1.6821427E-2,1.7782835E-2],"split_indices":[0,4,0,5,4,4,0,4,5,5,5,4,5,4,0,4,4,4,4,4,4,9,4,5,5,5,3,0,4,4,0,0,0,0,0,0,0,0,0,0,0,0,0,0,0,0,0,0,0,0,0,0,0,0,0,0,0,0,0,0,0,0,0],"split_type":[0,0,0,0,0,0,0,0,0,0,0,0,0,0,0,0,0,0,0,0,0,0,0,0,0,0,0,0,0,0,0,0,0,0,0,0,0,0,0,0,0,0,0,0,0,0,0,0,0,0,0,0,0,0,0,0,0,0,0,0,0,0,0],"sum_hessian":[3.868283E4,2.2319992E4,1.6362834E4,1.4114124E4,8.205869E3,3.8357927E3,1.2527042E4,1.2566434E4,1.5476906E3,3.4582917E3,4.747577E3,2.257627E3,1.5781658E3,6.092909E3,6.4341323E3,8.665379E3,3.9010542E3,1.2659868E3,2.8170374E2,2.8492744E3,6.090172E2,4.3614985E3,3.860789E2,1.1567943E3,1.1008325E3,8.7235254E2,7.0581323E2,2.0816113E3,4.0112979E3,2.1760535E3,4.258079E3,6.7740405E3,1.8913386E3,9.482527E1,3.8062288E3,1.0049772E2,1.165489E3,4.4602543E1,2.3710121E2,1.4438579E3,1.4054166E3,5.215032E1,5.568669E2,1.4821505E3,2.879348E3,4.6399834E1,3.3967905E2,1.0878796E3,6.8914696E1,1.0807664E3,2.0066147E1,2.1151279E2,6.608398E2,2.8178586E2,4.2402737E2,8.723637E2,1.2092477E3,8.9907214E2,3.1122256E3,4.3885587E2,1.7371976E3,2.9517012E3,1.3063778E3],"tree_param":{"num_deleted":"0","num_feature":"14","num_nodes":"63","size_leaf_vector":"1"}},{"base_weights":[2.6147675E-3,-6.7428625E-1,1.3907433E0,-1.2076864E0,1.4632146E-1,1.1346896E0,1.6371235E0,-1.2947924E0,-4.1727027E-1,-2.8935346E-1,4.287066E-1,7.223495E-1,1.3259469E0,1.562745E0,1.7233123E0,-1.3877815E0,-5.6886905E-1,-6.087592E-1,8.945019E-2,2.0264206E-2,-4.990725E-1,2.5992465E-1,9.432873E-1,3.75661E-1,9.718777E-1,1.1648995E0,1.3767922E0,1.3418558E0,1.6052492E0,1.6856277E0,1.7688451E-2,-1.525858E-2,-1.0846291E-2,-4.193546E-3,-1.2050446E-2,-6.7788493E-3,4.836105E-3,2.1278434E-3,-8.525031E-3,-4.785705E-3,2.9026465E-3,-6.2897503E-3,-4.465219E-5,1.9995607E-3,8.951373E-3,8.167949E-3,1.1136768E-2,4.051918E-3,-1.9325735E-2,8.412003E-3,1.2263807E-2,1.334614E-2,1.0332922E-2,1.2570168E-2,1.4271257E-2,1.22092925E-2,1.4690392E-2,1.6137421E-2,1.2133765E-2,8.074999E-3,1.6904144E-2],"categories":[],"categories_nodes":[],"categories_segments":[],"categories_sizes":[],"default_left":[0,0,0,0,0,0,0,0,0,0,0,0,0,0,0,0,0,0,0,0,0,0,0,0,0,0,0,0,0,0,0,0,0,0,0,0,0,0,0,0,0,0,0,0,0,0,0,0,0,0,0,0,0,0,0,0,0,0,0,0,0],"id":6,"left_children":[1,3,5,7,9,11,13,15,17,19,21,23,25,27,29,31,33,35,37,39,41,43,45,47,49,51,53,55,57,59,-1,-1,-1,-1,-1,-1,-1,-1,-1,-1,-1,-1,-1,-1,-1,-1,-1,-1,-1,-1,-1,-1,-1,-1,-1,-1,-1,-1,-1,-1,-1],"loss_changes":[3.6396617E4,1.13973545E4,7.998125E2,1.0860566E3,1.262078E3,4.9048877E2,3.979883E1,9.588906E2,1.5215628E2,2.6200232E2,5.403379E2,1.705144E2,3.3776855E1,3.1288086E1,3.2958984E0,5.262988E2,1.5319806E2,8.6089264E1,4.9997746E1,2.1950319E2,1.5447748E2,1.7836911E2,3.247815E1,5.6641075E1,3.745044E1,2.1956177E1,1.8308105E1,7.520447E0,8.437988E0,5.9970703E0,0E0,0E0,0E0,0E0,0E0,0E0,0E0,0E0,0E0,0E0,0E0,0E0,0E0,0E0,0E0,0E0,0E0,0E0,0E0,0E0,0E0,0E0,0E0,0E0,0E0,0E0,0E0,0E0,0E0,0E0,0E0],"parents":[2147483647,0,0,1,1,2,2,3,3,4,4,5,5,6,6,7,7,8,8,9,9,10,10,11,11,12,12,13,13,14,14,15,15,16,16,17,17,18,18,19,19,20,20,21,21,22,22,23,23,24,24,25,25,26,26,27,27,28,28,29,29],"right_children":[2,4,6,8,10,12,14,16,18,20,22,24,26,28,30,32,34,36,38,40,42,44,46,48,50,52,54,56,58,60,-1,-1,-1,-1,-1,-1,-1,-1,-1,-1,-1,-1,-1,-1,-1,-1,-1,-1,-1,-1,-1,-1,-1,-1,-1,-1,-1,-1,-1,-1,-1],"split_conditions":[2E0,3.8064447E-1,5E0,1E0,9.237137E-1,5.226707E-1,9E0,1.1114315E0,7.507928E-2,-1.6587879E-1,1E0,3E0,9.3830115E-1,4.512202E-1,1.3E1,-5.6928664E-2,1.0724849E0,2.0108795E0,3.2891902E-1,-2.5520876E-1,1.4359031E0,1.9376829E0,1.5939482E0,4.7893265E-1,4E0,-1.6587879E-1,1E0,1E0,1E0,-3.769275E-1,1.7688451E-2,-1.525858E-2,-1.0846291E-2,-4.193546E-3,-1.2050446E-2,-6.7788493E-3,4.836105E-3,2.1278434E-3,-8.525031E-3,-4.785705E-3,2.9026465E-3,-6.2897503E-3,-4.465219E-5,1.9995607E-3,8.951373E-3,8.167949E-3,1.1136768E-2,4.051918E-3,-1.9325735E-2,8.412003E-3,1.2263807E-2,1.334614E-2,1.0332922E-2,1.2570168E-2,1.4271257E-2,1.22092925E-2,1.4690392E-2,1.6137421E-2,1.2133765E-2,8.074999E-3,1.6904144E-2],"split_indices":[0,4,0,0,4,4,0,5,4,6,0,0,4,4,0,4,6,5,4,5,5,5,4,4,0,6,2,7,12,4,0,0,0,0,0,0,0,0,0,0,0,0,0,0,0,0,0,0,0,0,0,0,0,0,0,0,0,0,0,0,0],"split_type":[0,0,0,0,0,0,0,0,0,0,0,0,0,0,0,0,0,0,0,0,0,0,0,0,0,0,0,0,0,0,0,0,0,0,0,0,0,0,0,0,0,0,0,0,0,0,0,0,0,0,0,0,0,0,0,0,0,0,0,0,0],"sum_hessian":[3.873416E4,2.6037521E4,1.269664E4,1.5780187E4,1.0257334E4,6.2276694E3,6.4689707E3,1.4213388E4,1.5667991E3,4.033667E3,6.223667E3,1.9742369E3,4.2534326E3,3.4781475E3,2.990823E3,1.2598903E4,1.6144843E3,1.1371633E3,4.2963574E2,1.6288691E3,2.4047979E3,4.687213E3,1.536454E3,8.269482E2,1.1472888E3,1.02398474E3,3.2294478E3,5.642813E2,2.9138662E3,1.6480493E3,1.3427738E3,8.654636E3,3.944268E3,1.3080518E3,3.064325E2,1.0697502E3,6.741312E1,3.8033057E2,4.9305172E1,5.717625E2,1.0571067E3,1.904315E3,5.00483E2,4.2836235E3,4.035896E2,8.838169E2,6.526371E2,8.169519E2,9.996278E0,7.5973834E2,3.8755048E2,4.449138E2,5.79071E2,9.5999384E2,2.2694539E3,2.9237546E2,2.7190588E2,2.8502778E3,6.3588318E1,9.507903E0,1.6385414E3],"tree_param":{"num_deleted":"0","num_feature":"14","num_nodes":"61","size_leaf_vector":"1"}},{"base_weights":[-6.853981E-5,-6.654038E-1,1.3731283E0,-1.1192827E0,2.6846117E-1,1.1163654E0,1.6195236E0,-1.3813533E0,-7.5053465E-1,-9.3348E-2,4.7607964E-1,7.398256E-1,1.3104249E0,1.4714689E0,1.6612102E0,-1.4444301E0,-6.57244E-1,-8.743973E-1,-1.265176E-2,2.6460922E-1,-2.8772163E-1,-6.754569E-2,5.666479E-1,4.2643857E-1,9.703914E-1,1.2357485E0,1.4009036E0,1.309571E0,1.5793606E0,1.5840781E0,1.6987432E0,-1.4913421E-2,-6.5083383E-3,-4.843516E-3,-1.3097324E-2,-9.570673E-3,-2.4222578E-3,-5.043197E-3,1.5565236E-3,-6.900673E-4,6.2902854E-3,-4.397275E-3,2.4385713E-3,1.0895322E-3,-3.3588028E-3,3.8574068E-3,9.324586E-3,4.8393137E-3,-7.0691644E-3,8.707536E-3,1.1886512E-2,1.2199199E-2,1.618005E-2,1.4908097E-2,1.3271205E-2,-3.5411047E-3,1.3344059E-2,1.5033809E-2,1.6625945E-2,1.1573893E-2,1.5973788E-2,1.6716229E-2,1.7534772E-2],"categories":[],"categories_nodes":[],"categories_segments":[],"categories_sizes":[],"default_left":[0,0,0,0,0,0,0,0,0,0,0,0,0,0,0,0,0,0,0,0,0,0,0,0,0,0,0,0,0,0,0,0,0,0,0,0,0,0,0,0,0,0,0,0,0,0,0,0,0,0,0,0,0,0,0,0,0,0,0,0,0,0,0],"id":7,"left_children":[1,3,5,7,9,11,13,15,17,19,21,23,25,27,29,31,33,35,37,39,41,43,45,47,49,51,53,55,57,59,61,-1,-1,-1,-1,-1,-1,-1,-1,-1,-1,-1,-1,-1,-1,-1,-1,-1,-1,-1,-1,-1,-1,-1,-1,-1,-1,-1,-1,-1,-1,-1,-1],"loss_changes":[3.538742E4,1.1059256E4,7.9858594E2,1.6960215E3,6.411013E2,4.5178906E2,3.826953E1,4.680625E2,6.666929E2,2.1654636E2,2.6704822E2,1.5191992E2,2.647461E1,2.351416E1,1.28828125E1,3.507422E2,9.239084E1,3.2623438E2,8.689929E1,1.3322095E2,1.6305977E2,3.6730057E1,3.0730627E2,5.8421448E1,2.5666748E1,1.2300781E1,1.0954346E1,2.396521E1,3.8120117E0,8.1875E0,3.2021484E0,0E0,0E0,0E0,0E0,0E0,0E0,0E0,0E0,0E0,0E0,0E0,0E0,0E0,0E0,0E0,0E0,0E0,0E0,0E0,0E0,0E0,0E0,0E0,0E0,0E0,0E0,0E0,0E0,0E0,0E0,0E0,0E0],"parents":[2147483647,0,0,1,1,2,2,3,3,4,4,5,5,6,6,7,7,8,8,9,9,10,10,11,11,12,12,13,13,14,14,15,15,16,16,17,17,18,18,19,19,20,20,21,21,22,22,23,23,24,24,25,25,26,26,27,27,28,28,29,29,30,30],"right_children":[2,4,6,8,10,12,14,16,18,20,22,24,26,28,30,32,34,36,38,40,42,44,46,48,50,52,54,56,58,60,62,-1,-1,-1,-1,-1,-1,-1,-1,-1,-1,-1,-1,-1,-1,-1,-1,-1,-1,-1,-1,-1,-1,-1,-1,-1,-1,-1,-1,-1,-1,-1,-1],"split_conditions":[2E0,6.085864E-1,5E0,-5.6928664E-2,3E0,5.9399885E-1,7.795446E-1,3.125E-2,3.3333335E-2,-2.1520661E-1,9.237137E-1,3E0,1.3717587E0,7E0,7E0,1.378695E0,3.7818182E-1,1.461962E0,3.823572E-2,1.2515435E-1,1.4359031E0,1.3045454E-1,3.846154E-2,1.2315757E0,2.5690693E-1,2.9201336E0,0E0,-3.8699213E-1,1E1,2.1276595E-2,1.3E1,-1.4913421E-2,-6.5083383E-3,-4.843516E-3,-1.3097324E-2,-9.570673E-3,-2.4222578E-3,-5.043197E-3,1.5565236E-3,-6.900673E-4,6.2902854E-3,-4.397275E-3,2.4385713E-3,1.0895322E-3,-3.3588028E-3,3.8574068E-3,9.324586E-3,4.8393137E-3,-7.0691644E-3,8.707536E-3,1.1886512E-2,1.2199199E-2,1.618005E-2,1.4908097E-2,1.3271205E-2,-3.5411047E-3,1.3344059E-2,1.5033809E-2,1.6625945E-2,1.1573893E-2,1.5973788E-2,1.6716229E-2,1.7534772E-2],"split_indices":[0,4,0,4,9,4,4,3,3,6,4,0,4,0,0,5,6,5,4,5,5,6,3,6,4,5,6,4,0,3,0,0,0,0,0,0,0,0,0,0,0,0,0,0,0,0,0,0,0,0,0,0,0,0,0,0,0,0,0,0,0,0,0],"split_type":[0,0,0,0,0,0,0,0,0,0,0,0,0,0,0,0,0,0,0,0,0,0,0,0,0,0,0,0,0,0,0,0,0,0,0,0,0,0,0,0,0,0,0,0,0,0,0,0,0,0,0,0,0,0,0,0,0,0,0,0,0,0,0],"sum_hessian":[3.8731582E4,2.6090607E4,1.2640974E4,1.7557354E4,8.533254E3,6.1918066E3,6.4491675E3,1.0262275E4,7.2950786E3,3.1112263E3,5.4220273E3,2.106812E3,4.0849946E3,1.4214071E3,5.0277603E3,9.43938E3,8.2289526E2,6.2463286E3,1.04875E3,1.0946433E3,2.016583E3,7.7417224E2,4.6478555E3,8.938042E2,1.2130079E3,2.2425479E3,1.8424467E3,5.7143304E2,8.4997406E2,1.6536674E3,3.374093E3,8.911996E3,5.2738336E2,6.513333E2,1.7156197E2,5.523585E3,7.227438E2,2.6734604E2,7.8140393E2,5.7154254E2,5.231007E2,1.5683773E3,4.482057E2,4.6695422E2,3.0721802E2,3.1107651E3,1.5370903E3,8.510089E2,4.279525E1,8.348455E2,3.7816238E2,2.1556433E3,8.690463E1,8.2554553E2,1.0169011E3,8.247991E0,5.6318506E2,4.499615E2,4.0001257E2,5.154704E1,1.6021204E3,2.2679417E3,1.1061512E3],"tree_param":{"num_deleted":"0","num_feature":"14","num_nodes":"63","size_leaf_vector":"1"}},{"base_weights":[-2.4103364E-3,-8.14033E-1,1.0995932E0,-1.2858224E0,9.834027E-4,2.4773529E-1,1.3590151E0,-1.3754377E0,-5.8093816E-1,-3.2293117E-1,2.7859885E-1,-2.2400211E-1,9.245718E-1,1.036096E0,1.5600979E0,-1.550993E0,-1.175038E0,-4.232051E-1,-1.2367325E0,-1.0387664E-2,-5.185159E-1,2.0353612E-1,7.316331E-1,-5.771603E-1,1.2469048E-1,8.4008455E-1,1.1764804E0,6.065377E-1,1.2725799E0,1.400058E0,1.6131564E0,-1.5086627E-2,-1.7394153E-2,-1.046041E-2,-1.4436762E-2,-5.4835496E-3,1.7539324E-3,-1.7486546E-2,-5.719028E-3,-6.0180915E-3,3.1487462E-3,-6.7595583E-3,2.494069E-4,5.3567807E-3,6.960533E-4,8.690962E-3,-2.2793568E-3,-6.4921533E-3,2.888769E-3,1.7395249E-3,-6.861998E-3,9.00909E-3,4.1093524E-3,7.5614518E-3,1.2356475E-2,5.6656837E-3,1.11646475E-2,1.1855582E-2,1.3733839E-2,1.31402565E-2,1.5831009E-2,1.5518838E-2,1.6445067E-2],"categories":[],"categories_nodes":[],"categories_segments":[],"categories_sizes":[],"default_left":[0,0,0,0,0,0,0,0,0,0,0,0,0,0,0,0,0,0,0,0,0,0,0,0,0,0,0,0,0,0,0,0,0,0,0,0,0,0,0,0,0,0,0,0,0,0,0,0,0,0,0,0,0,0,0,0,0,0,0,0,0,0,0],"id":8,"left_children":[1,3,5,7,9,11,13,15,17,19,21,23,25,27,29,31,33,35,37,39,41,43,45,47,49,51,53,55,57,59,61,-1,-1,-1,-1,-1,-1,-1,-1,-1,-1,-1,-1,-1,-1,-1,-1,-1,-1,-1,-1,-1,-1,-1,-1,-1,-1,-1,-1,-1,-1,-1,-1],"loss_changes":[3.460832E4,8.568242E3,3.6263848E3,8.909121E2,7.347276E2,1.2236237E3,8.157871E2,4.393164E2,1.6434137E2,2.304426E2,1.494555E2,2.7818036E2,3.280298E1,4.899878E2,6.438867E1,5.1581055E1,2.0168604E2,9.6345245E1,1.0424899E2,2.7945892E2,1.9850037E2,1.6786594E2,8.260574E1,7.015848E1,4.5411922E1,3.0503235E1,9.126465E0,3.4484497E1,2.6245605E1,2.912915E1,9.579102E0,0E0,0E0,0E0,0E0,0E0,0E0,0E0,0E0,0E0,0E0,0E0,0E0,0E0,0E0,0E0,0E0,0E0,0E0,0E0,0E0,0E0,0E0,0E0,0E0,0E0,0E0,0E0,0E0,0E0,0E0,0E0,0E0],"parents":[2147483647,0,0,1,1,2,2,3,3,4,4,5,5,6,6,7,7,8,8,9,9,10,10,11,11,12,12,13,13,14,14,15,15,16,16,17,17,18,18,19,19,20,20,21,21,22,22,23,23,24,24,25,25,26,26,27,27,28,28,29,29,30,30],"right_children":[2,4,6,8,10,12,14,16,18,20,22,24,26,28,30,32,34,36,38,40,42,44,46,48,50,52,54,56,58,60,62,-1,-1,-1,-1,-1,-1,-1,-1,-1,-1,-1,-1,-1,-1,-1,-1,-1,-1,-1,-1,-1,-1,-1,-1,-1,-1,-1,-1,-1,-1,-1,-1],"split_conditions":[1E0,3.6714578E-1,2E0,1.1114315E0,9.713309E-1,9.237137E-1,3E0,-2.235875E-1,1.0584848E0,-1.7542425E-1,1.4943205E0,4.638139E-2,1.9758086E0,6.085864E-1,7.795446E-1,7.1909094E-1,2.8954545E-1,2.5313725E0,1.9376829E0,-2.4366826E-1,1.378695E0,-3.162257E-1,1.0228099E0,1.6684474E0,2E0,2E0,-4.244644E-1,1.7140338E0,1.3717587E0,6.923077E-1,5.294118E-1,-1.5086627E-2,-1.7394153E-2,-1.046041E-2,-1.4436762E-2,-5.4835496E-3,1.7539324E-3,-1.7486546E-2,-5.719028E-3,-6.0180915E-3,3.1487462E-3,-6.7595583E-3,2.494069E-4,5.3567807E-3,6.960533E-4,8.690962E-3,-2.2793568E-3,-6.4921533E-3,2.888769E-3,1.7395249E-3,-6.861998E-3,9.00909E-3,4.1093524E-3,7.5614518E-3,1.2356475E-2,5.6656837E-3,1.11646475E-2,1.1855582E-2,1.3733839E-2,1.31402565E-2,1.5831009E-2,1.5518838E-2,1.6445067E-2],"split_indices":[1,4,8,5,4,4,8,4,6,6,5,4,4,4,4,6,6,5,5,5,5,5,6,5,7,7,5,5,4,3,3,0,0,0,0,0,0,0,0,0,0,0,0,0,0,0,0,0,0,0,0,0,0,0,0,0,0,0,0,0,0,0,0],"split_type":[0,0,0,0,0,0,0,0,0,0,0,0,0,0,0,0,0,0,0,0,0,0,0,0,0,0,0,0,0,0,0,0,0,0,0,0,0,0,0,0,0,0,0,0,0,0,0,0,0,0,0,0,0,0,0,0,0,0,0,0,0,0,0],"sum_hessian":[3.869301E4,2.2282346E4,1.6410666E4,1.4112729E4,8.169617E3,3.831294E3,1.2579372E4,1.2520341E4,1.5923883E3,3.7702014E3,4.399416E3,2.2578313E3,1.5734626E3,4.8286357E3,7.7507363E3,6.6718022E3,5.848538E3,1.2844297E3,3.0795856E2,1.4515957E3,2.3186057E3,3.7749023E3,6.2451373E2,1.1217125E3,1.1361188E3,1.1802012E3,3.932615E2,1.7152305E3,3.113405E3,1.9337003E3,5.817036E3,5.4520103E3,1.219792E3,3.9531157E3,1.8954225E3,1.0625002E3,2.2192946E2,1.734419E2,1.3451666E2,5.150206E2,9.36575E2,1.7978335E3,5.207722E2,1.0841115E3,2.6907908E3,5.463917E2,7.812201E1,1.0357758E3,8.5936775E1,1.0715383E3,6.458045E1,1.0330077E3,1.4719348E2,4.9584347E1,3.436772E2,1.5917192E3,1.2351122E2,1.6748881E3,1.4385171E3,1.3185854E3,6.1511487E2,1.9785353E3,3.8385007E3],"tree_param":{"num_deleted":"0","num_feature":"14","num_nodes":"63","size_leaf_vector":"1"}},{"base_weights":[2.1450163E-3,-6.4740545E-1,1.3478321E0,-1.1731281E0,1.4252625E-1,1.0347837E0,1.545179E0,-1.265992E0,-3.4978092E-1,-2.8410837E-1,4.2575756E-1,5.862586E-1,1.2519635E0,1.3977022E0,1.5963653E0,-1.349042E0,-6.062538E-1,-5.2239877E-1,1.3035926E-1,-4.4066575E-1,-5.6703757E-2,2.6368845E-1,9.1114783E-1,4.3013635E-1,7.0608693E-1,1.0497676E0,1.3112005E0,1.3211961E0,1.6039115E0,1.5387102E0,1.626939E0,-1.4870601E-2,-1.0459003E-2,-7.3715285E-3,-1.6199513E-3,-1.9046634E-2,-4.9042543E-3,-1.8746505E-2,1.7045699E-3,-5.4416982E-3,1.0331286E-3,-1.8872004E-3,1.481085E-3,1.8169915E-3,7.142499E-3,1.0488595E-2,7.289746E-3,5.956875E-3,9.148228E-4,6.316092E-3,1.1606702E-2,1.0254445E-2,1.4700494E-2,1.2781365E-2,1.509936E-2,1.2604974E-2,1.41374E-2,1.4382835E-2,1.6480101E-2,1.628126E-2,1.5022482E-2,1.577797E-2,1.6746607E-2],"categories":[],"categories_nodes":[],"categories_segments":[],"categories_sizes":[],"default_left":[0,0,0,0,0,0,0,0,0,0,0,0,0,0,0,0,0,0,0,0,0,0,0,0,0,0,0,0,0,0,0,0,0,0,0,0,0,0,0,0,0,0,0,0,0,0,0,0,0,0,0,0,0,0,0,0,0,0,0,0,0,0,0],"id":9,"left_children":[1,3,5,7,9,11,13,15,17,19,21,23,25,27,29,31,33,35,37,39,41,43,45,47,49,51,53,55,57,59,61,-1,-1,-1,-1,-1,-1,-1,-1,-1,-1,-1,-1,-1,-1,-1,-1,-1,-1,-1,-1,-1,-1,-1,-1,-1,-1,-1,-1,-1,-1,-1,-1],"loss_changes":[3.3878004E4,1.0855811E4,7.784531E2,1.1996406E3,1.2622982E3,4.7485205E2,5.699414E1,7.72166E2,1.3198492E2,1.4832385E2,4.9365613E2,2.954132E1,3.8453613E1,3.017212E1,8.550781E0,5.230586E2,9.161456E1,5.104431E1,3.3846786E1,1.390393E2,4.599098E1,1.7375012E2,3.8857178E1,3.878499E1,2.9934113E1,6.6412964E0,1.544873E1,7.0463867E0,2.4360352E0,4.982422E0,7.1279297E0,0E0,0E0,0E0,0E0,0E0,0E0,0E0,0E0,0E0,0E0,0E0,0E0,0E0,0E0,0E0,0E0,0E0,0E0,0E0,0E0,0E0,0E0,0E0,0E0,0E0,0E0,0E0,0E0,0E0,0E0,0E0,0E0],"parents":[2147483647,0,0,1,1,2,2,3,3,4,4,5,5,6,6,7,7,8,8,9,9,10,10,11,11,12,12,13,13,14,14,15,15,16,16,17,17,18,18,19,19,20,20,21,21,22,22,23,23,24,24,25,25,26,26,27,27,28,28,29,29,30,30],"right_children":[2,4,6,8,10,12,14,16,18,20,22,24,26,28,30,32,34,36,38,40,42,44,46,48,50,52,54,56,58,60,62,-1,-1,-1,-1,-1,-1,-1,-1,-1,-1,-1,-1,-1,-1,-1,-1,-1,-1,-1,-1,-1,-1,-1,-1,-1,-1,-1,-1,-1,-1,-1,-1],"split_conditions":[2E0,3.6714578E-1,3E0,3.125E-2,9.237137E-1,5.226707E-1,7.795446E-1,1.1114315E0,7.507928E-2,6.214071E-1,1E0,-4.09725E-2,9.237137E-1,7.8571427E-1,5.555556E-1,-5.6928664E-2,2.276341E0,-4.1194212E-1,4.6511628E-2,6.0606062E-2,1.4359031E0,1.4359031E0,1.5521225E-1,2.920996E-1,4.117647E-1,2.3974087E0,2.413596E0,3.9290524E-1,-4.1939768E-1,-3.989242E-1,-5.8604572E-2,-1.4870601E-2,-1.0459003E-2,-7.3715285E-3,-1.6199513E-3,-1.9046634E-2,-4.9042543E-3,-1.8746505E-2,1.7045699E-3,-5.4416982E-3,1.0331286E-3,-1.8872004E-3,1.481085E-3,1.8169915E-3,7.142499E-3,1.0488595E-2,7.289746E-3,5.956875E-3,9.148228E-4,6.316092E-3,1.1606702E-2,1.0254445E-2,1.4700494E-2,1.2781365E-2,1.509936E-2,1.2604974E-2,1.41374E-2,1.4382835E-2,1.6480101E-2,1.628126E-2,1.5022482E-2,1.577797E-2,1.6746607E-2],"split_indices":[8,4,8,3,4,4,4,5,4,5,1,4,4,3,3,4,5,4,3,3,5,5,5,5,3,5,4,4,5,5,5,0,0,0,0,0,0,0,0,0,0,0,0,0,0,0,0,0,0,0,0,0,0,0,0,0,0,0,0,0,0,0,0],"split_type":[0,0,0,0,0,0,0,0,0,0,0,0,0,0,0,0,0,0,0,0,0,0,0,0,0,0,0,0,0,0,0,0,0,0,0,0,0,0,0,0,0,0,0,0,0,0,0,0,0,0,0,0,0,0,0,0,0,0,0,0,0,0,0],"sum_hessian":[3.8756875E4,2.6139682E4,1.2617192E4,1.569445E4,1.0445231E4,4.879904E3,7.7372886E3,1.4103366E4,1.5910839E3,4.167429E3,6.2778022E3,1.5927744E3,3.2871294E3,1.9976907E3,5.739598E3,1.252589E4,1.5774762E3,1.1704524E3,4.206315E2,2.4676558E3,1.6997736E3,4.707104E3,1.5706982E3,6.9300287E2,8.997716E2,7.473214E2,2.5398079E3,1.4601475E3,5.375432E2,1.9989532E3,3.7406448E3,8.605565E3,3.9203247E3,1.2180328E3,3.594433E2,2.5728947E1,1.1447235E3,7.74976E0,4.1288174E2,2.07334E3,3.9431564E2,1.0338865E3,6.65887E2,3.9831995E3,7.239047E2,8.928396E2,6.778587E2,4.650085E2,2.2799437E2,7.743232E2,1.2544841E2,7.082884E2,3.9033062E1,2.181145E3,3.5866278E2,8.8685693E2,5.732905E2,1.1703862E2,4.205046E2,5.719036E2,1.4270497E3,1.8523234E3,1.8883213E3],"tree_param":{"num_deleted":"0","num_feature":"14","num_nodes":"63","size_leaf_vector":"1"}},{"base_weights":[-3.7604882E-3,-6.479306E-1,1.3331355E0,-1.1594261E0,1.2668322E-1,1.0720716E0,1.579155E0,-1.2472137E0,-3.7306085E-1,-2.90526E-1,4.0506035E-1,7.1475416E-1,1.2640915E0,1.4671812E0,1.6374664E0,-1.3969232E0,-9.454142E-1,-5.7886046E-1,1.0720794E-1,3.1931076E-2,-4.9870348E-1,2.4406728E-1,8.936556E-1,3.8719133E-1,9.475646E-1,1.1870682E0,1.3573865E0,1.2187637E0,1.531637E0,1.6031555E0,1.7112672E-2,-1.54719995E-2,-1.3457014E-2,-8.528046E-3,-1.1778734E-2,-8.68806E-3,-3.8397524E-3,-4.9406994E-4,6.034125E-3,-4.314443E-3,2.822298E-3,-5.8602532E-3,-2.4878958E-4,4.6999664E-3,5.28662E-4,1.0898168E-2,7.870636E-3,4.428846E-3,-7.0494115E-3,1.1154037E-3,9.786748E-3,1.2068008E-2,8.525035E-3,1.3322272E-2,1.5704779E-2,1.1262295E-2,1.5158992E-2,1.2040592E-2,1.5458567E-2,1.5162081E-2,1.6382707E-2],"categories":[],"categories_nodes":[],"categories_segments":[],"categories_sizes":[],"default_left":[0,0,0,0,0,0,0,0,0,0,0,0,0,0,0,0,0,0,0,0,0,0,0,0,0,0,0,0,0,0,0,0,0,0,0,0,0,0,0,0,0,0,0,0,0,0,0,0,0,0,0,0,0,0,0,0,0,0,0,0,0],"id":10,"left_children":[1,3,5,7,9,11,13,15,17,19,21,23,25,27,29,31,33,35,37,39,41,43,45,47,49,51,53,55,57,59,-1,-1,-1,-1,-1,-1,-1,-1,-1,-1,-1,-1,-1,-1,-1,-1,-1,-1,-1,-1,-1,-1,-1,-1,-1,-1,-1,-1,-1,-1,-1],"loss_changes":[3.319375E4,1.0306066E4,8.038496E2,1.0811035E3,1.2015751E3,4.1667578E2,4.061035E1,6.358496E2,1.5566483E2,2.7798862E2,4.8789197E2,1.6192041E2,2.736377E1,3.425E1,9.026367E0,7.116992E1,9.992871E1,6.1987305E1,3.67874E1,1.8847209E2,1.0404114E2,2.0159448E2,3.1533081E1,5.3951874E1,3.2166748E1,1.361377E1,8.231689E0,1.1502075E1,6.974121E0,7.3007812E0,0E0,0E0,0E0,0E0,0E0,0E0,0E0,0E0,0E0,0E0,0E0,0E0,0E0,0E0,0E0,0E0,0E0,0E0,0E0,0E0,0E0,0E0,0E0,0E0,0E0,0E0,0E0,0E0,0E0,0E0,0E0],"parents":[2147483647,0,0,1,1,2,2,3,3,4,4,5,5,6,6,7,7,8,8,9,9,10,10,11,11,12,12,13,13,14,14,15,15,16,16,17,17,18,18,19,19,20,20,21,21,22,22,23,23,24,24,25,25,26,26,27,27,28,28,29,29],"right_children":[2,4,6,8,10,12,14,16,18,20,22,24,26,28,30,32,34,36,38,40,42,44,46,48,50,52,54,56,58,60,-1,-1,-1,-1,-1,-1,-1,-1,-1,-1,-1,-1,-1,-1,-1,-1,-1,-1,-1,-1,-1,-1,-1,-1,-1,-1,-1,-1,-1,-1,-1],"split_conditions":[2E0,3.6714578E-1,5E0,3.125E-2,9.237137E-1,6.085864E-1,7E0,-5.6928664E-2,3.823572E-2,-1.825091E-1,3.846154E-2,3E0,1.4036824E0,6.3995945E-1,1.3E1,-5.796212E-1,4.7834966E-1,-2.800731E-1,1.5E-1,-6.490909E-1,1E0,8.484849E-3,-1.89E-1,1.2315757E0,-3.938196E-1,2E0,2.9328198E0,6.923077E-1,1.7391305E-1,9.3830115E-1,1.7112672E-2,-1.54719995E-2,-1.3457014E-2,-8.528046E-3,-1.1778734E-2,-8.68806E-3,-3.8397524E-3,-4.9406994E-4,6.034125E-3,-4.314443E-3,2.822298E-3,-5.8602532E-3,-2.4878958E-4,4.6999664E-3,5.28662E-4,1.0898168E-2,7.870636E-3,4.428846E-3,-7.0494115E-3,1.1154037E-3,9.786748E-3,1.2068008E-2,8.525035E-3,1.3322272E-2,1.5704779E-2,1.1262295E-2,1.5158992E-2,1.2040592E-2,1.5458567E-2,1.5162081E-2,1.6382707E-2],"split_indices":[0,4,0,3,4,4,0,4,4,6,3,0,4,4,0,6,6,4,3,6,0,6,6,6,4,7,4,3,3,4,0,0,0,0,0,0,0,0,0,0,0,0,0,0,0,0,0,0,0,0,0,0,0,0,0,0,0,0,0,0,0],"split_type":[0,0,0,0,0,0,0,0,0,0,0,0,0,0,0,0,0,0,0,0,0,0,0,0,0,0,0,0,0,0,0,0,0,0,0,0,0,0,0,0,0,0,0,0,0,0,0,0,0,0,0,0,0,0,0,0,0,0,0,0,0],"sum_hessian":[3.8543195E4,2.6010584E4,1.253261E4,1.5665904E4,1.034468E4,6.0818887E3,6.450722E3,1.4092265E4,1.5736401E3,4.13984E3,6.20484E3,2.1269219E3,3.9549666E3,2.2140146E3,4.2367075E3,9.418174E3,4.6740903E3,1.10167E3,4.7197018E2,1.6241113E3,2.5157285E3,4.667759E3,1.5370808E3,8.843742E2,1.2425477E3,2.170752E3,1.7842146E3,4.5848438E2,1.7555303E3,2.9008044E3,1.3359031E3,2.389932E3,7.028242E3,3.3444556E3,1.3296345E3,4.41932E2,6.59738E2,3.58931E2,1.13039185E2,5.693389E2,1.0547725E3,2.1239695E3,3.917592E2,2.1389978E3,2.528761E3,5.392144E2,9.978664E2,8.418337E2,4.2540493E1,4.4776493E1,1.1977712E3,2.0483386E3,1.2241329E2,1.5994644E3,1.8475032E2,3.51692E2,1.0679239E2,7.510998E1,1.6804204E3,8.416874E2,2.0591172E3],"tree_param":{"num_deleted":"0","num_feature":"14","num_nodes":"61","size_leaf_vector":"1"}},{"base_weights":[4.7533528E-4,-7.921267E-1,1.0733243E0,-1.2560709E0,-1.7290522E-1,2.5095782E-1,1.3236936E0,-1.3361374E0,-5.347878E-1,-4.627969E-2,-1.1220721E0,1.8316114E-2,4.3466198E-1,1.0635319E0,1.5700796E0,-1.0840472E0,-1.4784703E0,-7.2812074E-1,-1.2868734E-1,-3.1031364E-1,3.145525E-1,-1.2783154E0,-4.637831E-1,-4.9216818E-2,7.226351E-1,3.886535E-1,1.2539961E0,8.931152E-1,1.1724759E0,1.481179E0,1.642343E0,-1.2030297E-2,-9.347973E-3,-1.5046299E-2,-1.3049717E-2,-8.431451E-3,-5.9525347E-3,-2.2397493E-3,7.213287E-4,-4.278763E-3,1.7364259E-3,3.804111E-4,4.553721E-3,-1.3162768E-2,1.4642417E-2,-2.7247646E-4,-7.769196E-3,-1.5758156E-3,3.6344905E-3,-7.6775666E-4,1.1419346E-2,3.7065044E-3,1.5070333E-2,9.778639E-3,1.502442E-2,8.347059E-3,1.1699235E-2,1.1132593E-2,1.2803526E-2,1.16238445E-2,1.489989E-2,1.6082546E-2,1.6974362E-2],"categories":[],"categories_nodes":[],"categories_segments":[],"categories_sizes":[],"default_left":[0,0,0,0,0,0,0,0,0,0,0,0,0,0,0,0,0,0,0,0,0,0,0,0,0,0,0,0,0,0,0,0,0,0,0,0,0,0,0,0,0,0,0,0,0,0,0,0,0,0,0,0,0,0,0,0,0,0,0,0,0,0,0],"id":11,"left_children":[1,3,5,7,9,11,13,15,17,19,21,23,25,27,29,31,33,35,37,39,41,43,45,47,49,51,53,55,57,59,61,-1,-1,-1,-1,-1,-1,-1,-1,-1,-1,-1,-1,-1,-1,-1,-1,-1,-1,-1,-1,-1,-1,-1,-1,-1,-1,-1,-1,-1,-1,-1,-1],"loss_changes":[3.280838E4,6.3743936E3,3.374959E3,7.3201953E2,1.1422344E3,1.6349635E2,8.044414E2,4.0859766E2,9.9450775E1,7.9906665E2,1.145863E2,8.043367E1,8.018765E1,1.1278662E2,3.9927734E1,7.242529E1,3.184961E1,1.2733551E1,7.8661704E0,2.756265E2,1.3793323E2,9.503076E1,2.936496E1,6.895426E1,4.9745956E1,4.0308563E1,6.7925415E0,3.79032E1,2.2862793E1,7.0117188E0,4.979492E0,0E0,0E0,0E0,0E0,0E0,0E0,0E0,0E0,0E0,0E0,0E0,0E0,0E0,0E0,0E0,0E0,0E0,0E0,0E0,0E0,0E0,0E0,0E0,0E0,0E0,0E0,0E0,0E0,0E0,0E0,0E0,0E0],"parents":[2147483647,0,0,1,1,2,2,3,3,4,4,5,5,6,6,7,7,8,8,9,9,10,10,11,11,12,12,13,13,14,14,15,15,16,16,17,17,18,18,19,19,20,20,21,21,22,22,23,23,24,24,25,25,26,26,27,27,28,28,29,29,30,30],"right_children":[2,4,6,8,10,12,14,16,18,20,22,24,26,28,30,32,34,36,38,40,42,44,46,48,50,52,54,56,58,60,62,-1,-1,-1,-1,-1,-1,-1,-1,-1,-1,-1,-1,-1,-1,-1,-1,-1,-1,-1,-1,-1,-1,-1,-1,-1,-1,-1,-1,-1,-1,-1,-1],"split_conditions":[1E0,2E0,2E0,1.1887631E0,5E0,1E0,5E0,1E0,2.0818915E0,3E0,2E0,2.6086956E-1,5.294118E-1,3E0,8E0,1E0,4.9809292E-1,1.5239805E0,3.226082E0,1.2991257E0,1E0,4.798063E0,-2.4366826E-1,8.022123E-1,-3.989242E-1,4.798063E0,-2.7317294E-1,1.2085865E0,3.809524E-1,1.3793103E-1,1.3E1,-1.2030297E-2,-9.347973E-3,-1.5046299E-2,-1.3049717E-2,-8.431451E-3,-5.9525347E-3,-2.2397493E-3,7.213287E-4,-4.278763E-3,1.7364259E-3,3.804111E-4,4.553721E-3,-1.3162768E-2,1.4642417E-2,-2.7247646E-4,-7.769196E-3,-1.5758156E-3,3.6344905E-3,-7.6775666E-4,1.1419346E-2,3.7065044E-3,1.5070333E-2,9.778639E-3,1.502442E-2,8.347059E-3,1.1699235E-2,1.1132593E-2,1.2803526E-2,1.16238445E-2,1.489989E-2,1.6082546E-2,1.6974362E-2],"split_indices":[0,9,0,5,9,7,0,9,5,9,7,3,3,0,0,7,5,5,5,5,7,5,5,5,5,5,5,5,3,3,0,0,0,0,0,0,0,0,0,0,0,0,0,0,0,0,0,0,0,0,0,0,0,0,0,0,0,0,0,0,0,0,0],"split_type":[0,0,0,0,0,0,0,0,0,0,0,0,0,0,0,0,0,0,0,0,0,0,0,0,0,0,0,0,0,0,0,0,0,0,0,0,0,0,0,0,0,0,0,0,0,0,0,0,0,0,0,0,0,0,0,0,0,0,0,0,0,0,0],"sum_hessian":[3.858152E4,2.2188834E4,1.6392686E4,1.2684474E4,9.504361E3,3.8262695E3,1.2566416E4,1.1416601E4,1.2678735E3,8.386211E3,1.1181498E3,1.6887465E3,2.137523E3,6.1138213E3,6.4525947E3,4.121643E3,7.2949575E3,8.585157E2,4.0935782E2,4.8428613E3,3.5433496E3,9.0316327E2,2.149865E2,1.541285E3,1.4746152E2,2.0246888E3,1.12834145E2,2.3863975E3,3.727424E3,2.898686E3,3.5539087E3,2.2910276E3,1.8306155E3,6.335322E3,9.5963574E2,4.5831912E2,4.0019653E2,2.7792493E2,1.3143289E2,3.8965708E3,9.4629065E2,1.1960833E3,2.3472664E3,8.9112506E2,1.2038171E1,9.015985E1,1.2482664E2,1.2211628E3,3.201221E2,5.079288E1,9.666863E1,1.9933561E3,3.1332798E1,5.4798943E1,5.8035202E1,1.9725402E3,4.1385718E2,2.4107068E3,1.3167172E3,8.004491E1,2.818641E3,2.205925E3,1.3479836E3],"tree_param":{"num_deleted":"0","num_feature":"14","num_nodes":"63","size_leaf_vector":"1"}},{"base_weights":[1.6116783E-3,-7.981783E-1,1.0705777E0,-1.2383631E0,-3.2754794E-2,2.5844726E-1,1.318222E0,-1.3197157E0,-5.878601E-1,-3.673362E-1,2.5080892E-1,-1.9204338E-1,9.172411E-1,1.0597532E0,1.5596117E0,-1.4475219E0,-1.0374538E0,-8.672372E-1,-4.1432044E-1,-4.7388288E-1,1.3969183E-1,-1.471119E-2,3.785443E-1,-5.1664793E-1,1.5316106E-1,7.92842E-1,1.0858908E0,6.835147E-1,1.2520517E0,1.4740282E0,1.6274525E0,-1.4913034E-2,-1.2911427E-2,-1.2558968E-2,-9.877413E-3,-1.8672505E-2,-7.812577E-3,-4.914314E-3,2.6689288E-5,-6.161773E-3,-2.8431432E-3,8.186462E-4,1.0938151E-2,-1.0795079E-3,4.6975664E-3,3.24177E-3,9.768991E-3,-5.743551E-3,5.5456846E-3,1.2923039E-3,1.4162587E-2,1.1007728E-2,6.827082E-3,1.2461961E-2,9.254958E-3,3.4356671E-3,9.222335E-3,1.0774329E-2,1.2993263E-2,1.2938692E-2,1.5311892E-2,1.5970761E-2,1.6790805E-2],"categories":[],"categories_nodes":[],"categories_segments":[],"categories_sizes":[],"default_left":[0,0,0,0,0,0,0,0,0,0,0,0,0,0,0,0,0,0,0,0,0,0,0,0,0,0,0,0,0,0,0,0,0,0,0,0,0,0,0,0,0,0,0,0,0,0,0,0,0,0,0,0,0,0,0,0,0,0,0,0,0,0,0],"id":12,"left_children":[1,3,5,7,9,11,13,15,17,19,21,23,25,27,29,31,33,35,37,39,41,43,45,47,49,51,53,55,57,59,61,-1,-1,-1,-1,-1,-1,-1,-1,-1,-1,-1,-1,-1,-1,-1,-1,-1,-1,-1,-1,-1,-1,-1,-1,-1,-1,-1,-1,-1,-1,-1,-1],"loss_changes":[3.3028207E4,7.4453184E3,3.324918E3,7.41875E2,7.6559863E2,1.1469935E3,7.8941016E2,4.4883984E2,7.535321E1,2.0004846E2,1.4817139E2,2.572715E2,3.2309204E1,4.4218164E2,3.6521484E1,5.751367E1,4.1381348E1,5.0359283E1,3.1039932E1,8.2345825E1,3.5317272E1,6.40824E1,9.565161E1,7.330246E1,3.338343E1,3.0152344E1,1.6293152E1,1.6781006E2,3.2489746E1,2.8614746E1,4.0527344E0,0E0,0E0,0E0,0E0,0E0,0E0,0E0,0E0,0E0,0E0,0E0,0E0,0E0,0E0,0E0,0E0,0E0,0E0,0E0,0E0,0E0,0E0,0E0,0E0,0E0,0E0,0E0,0E0,0E0,0E0,0E0,0E0],"parents":[2147483647,0,0,1,1,2,2,3,3,4,4,5,5,6,6,7,7,8,8,9,9,10,10,11,11,12,12,13,13,14,14,15,15,16,16,17,17,18,18,19,19,20,20,21,21,22,22,23,23,24,24,25,25,26,26,27,27,28,28,29,29,30,30],"right_children":[2,4,6,8,10,12,14,16,18,20,22,24,26,28,30,32,34,36,38,40,42,44,46,48,50,52,54,56,58,60,62,-1,-1,-1,-1,-1,-1,-1,-1,-1,-1,-1,-1,-1,-1,-1,-1,-1,-1,-1,-1,-1,-1,-1,-1,-1,-1,-1,-1,-1,-1,-1,-1],"split_conditions":[1E0,3.6714578E-1,2E0,1.1114315E0,9.713309E-1,9.237137E-1,5E0,-5.6928664E-2,1.461962E0,1.378695E0,3E0,7.507928E-2,1.5939482E0,5.9399885E-1,8E0,-2.188233E-1,-4.360271E-1,-3.7383026E-1,3.226082E0,7.0151854E-1,4.798063E0,1.4943205E0,1.9376829E0,2.1697698E0,4.798063E0,8.695652E-2,-1.4595343E-1,3E0,9.3830115E-1,7.3246366E-1,1.3E1,-1.4913034E-2,-1.2911427E-2,-1.2558968E-2,-9.877413E-3,-1.8672505E-2,-7.812577E-3,-4.914314E-3,2.6689288E-5,-6.161773E-3,-2.8431432E-3,8.186462E-4,1.0938151E-2,-1.0795079E-3,4.6975664E-3,3.24177E-3,9.768991E-3,-5.743551E-3,5.5456846E-3,1.2923039E-3,1.4162587E-2,1.1007728E-2,6.827082E-3,1.2461961E-2,9.254958E-3,3.4356671E-3,9.222335E-3,1.0774329E-2,1.2993263E-2,1.2938692E-2,1.5311892E-2,1.5970761E-2,1.6790805E-2],"split_indices":[0,4,0,5,4,4,0,4,5,5,9,4,4,4,0,4,5,4,5,4,5,5,5,5,5,3,5,0,4,4,0,0,0,0,0,0,0,0,0,0,0,0,0,0,0,0,0,0,0,0,0,0,0,0,0,0,0,0,0,0,0,0,0],"split_type":[0,0,0,0,0,0,0,0,0,0,0,0,0,0,0,0,0,0,0,0,0,0,0,0,0,0,0,0,0,0,0,0,0,0,0,0,0,0,0,0,0,0,0,0,0,0,0,0,0,0,0,0,0,0,0,0,0,0,0,0,0,0,0],"sum_hessian":[3.8630785E4,2.2097605E4,1.653318E4,1.4029175E4,8.0684307E3,3.8637466E3,1.2669434E4,1.2469107E4,1.5600674E3,3.7013513E3,4.3670796E3,2.2947637E3,1.5689828E3,6.1197715E3,6.549662E3,8.581187E3,3.8879211E3,5.9676904E2,9.6329834E2,3.0588052E3,6.425462E2,1.4183834E3,2.9486958E3,1.1826908E3,1.112073E3,9.049317E2,6.640511E2,2.0708616E3,4.04891E3,2.9017937E3,3.6478687E3,6.700377E3,1.8808097E3,7.1814734E2,3.169774E3,4.6334785E1,5.5043427E2,8.130897E2,1.5020859E2,1.7463228E3,1.3124823E3,6.064391E2,3.610717E1,1.1899612E3,2.2842227E2,2.7039495E3,2.447464E2,1.1225438E3,6.014701E1,1.092014E3,2.0058989E1,2.3696863E2,6.679631E2,3.301136E2,3.339375E2,8.5497345E2,1.2158881E3,8.6560944E2,3.1833005E3,7.0219543E2,2.1995981E3,2.3078857E3,1.3399828E3],"tree_param":{"num_deleted":"0","num_feature":"14","num_nodes":"63","size_leaf_vector":"1"}},{"base_weights":[-1.0247492E-2,-7.8186226E-1,1.045306E0,-1.2268548E0,-1.8424404E-1,2.3332998E-1,1.294327E0,-1.3048788E0,-5.2611625E-1,-6.415659E-2,-1.0633694E0,-9.744871E-4,4.1655707E-1,1.0332382E0,1.541668E0,-1.0646148E0,-1.4400716E0,-2.9270142E-1,-9.302282E-1,-3.128835E-1,2.7918556E-1,-1.2199055E0,-4.0438527E-1,-6.558976E-2,6.78408E-1,3.6847663E-1,1.2387328E0,8.746956E-1,1.136662E0,1.4308766E0,1.5988997E0,-9.622028E-3,-1.3039454E-2,-1.3876869E-2,-1.6448777E-2,-4.354596E-3,3.0812642E-3,-1.8813942E-2,-8.628633E-3,-4.210465E-3,2.2784455E-3,-2.4289604E-4,4.297154E-3,-1.2778752E-2,-1.8009354E-3,2.3507779E-3,-8.172622E-3,-1.9908433E-3,3.5002632E-3,-2.2033288E-3,1.1146325E-2,3.454351E-3,1.5165418E-2,9.763259E-3,1.49463685E-2,8.215139E-3,1.13773765E-2,1.0696314E-2,1.2593484E-2,1.3535336E-2,1.4883822E-2,1.5618473E-2,1.6759714E-2],"categories":[],"categories_nodes":[],"categories_segments":[],"categories_sizes":[],"default_left":[0,0,0,0,0,0,0,0,0,0,0,0,0,0,0,0,0,0,0,0,0,0,0,0,0,0,0,0,0,0,0,0,0,0,0,0,0,0,0,0,0,0,0,0,0,0,0,0,0,0,0,0,0,0,0,0,0,0,0,0,0,0,0],"id":13,"left_children":[1,3,5,7,9,11,13,15,17,19,21,23,25,27,29,31,33,35,37,39,41,43,45,47,49,51,53,55,57,59,61,-1,-1,-1,-1,-1,-1,-1,-1,-1,-1,-1,-1,-1,-1,-1,-1,-1,-1,-1,-1,-1,-1,-1,-1,-1,-1,-1,-1,-1,-1,-1,-1],"loss_changes":[3.1137752E4,5.8730986E3,3.264121E3,6.9160547E2,9.9507526E2,1.6274658E2,7.968203E2,3.6896484E2,1.1946774E2,7.0839624E2,1.1644678E2,7.298197E1,8.369321E1,9.788574E1,3.877539E1,9.9726074E1,7.6740234E1,6.916609E1,2.8665955E1,2.8141708E2,1.5923203E2,5.4893555E1,5.779262E1,8.432713E1,5.6814606E1,5.2731323E1,6.892563E0,3.257727E1,2.8999512E1,8.342285E0,1.0297852E1,0E0,0E0,0E0,0E0,0E0,0E0,0E0,0E0,0E0,0E0,0E0,0E0,0E0,0E0,0E0,0E0,0E0,0E0,0E0,0E0,0E0,0E0,0E0,0E0,0E0,0E0,0E0,0E0,0E0,0E0,0E0,0E0],"parents":[2147483647,0,0,1,1,2,2,3,3,4,4,5,5,6,6,7,7,8,8,9,9,10,10,11,11,12,12,13,13,14,14,15,15,16,16,17,17,18,18,19,19,20,20,21,21,22,22,23,23,24,24,25,25,26,26,27,27,28,28,29,29,30,30],"right_children":[2,4,6,8,10,12,14,16,18,20,22,24,26,28,30,32,34,36,38,40,42,44,46,48,50,52,54,56,58,60,62,-1,-1,-1,-1,-1,-1,-1,-1,-1,-1,-1,-1,-1,-1,-1,-1,-1,-1,-1,-1,-1,-1,-1,-1,-1,-1,-1,-1,-1,-1,-1,-1],"split_conditions":[1E0,2E0,2E0,1.1887631E0,5E0,1E0,5E0,1E0,5.317172E-1,3E0,2E0,2.6086956E-1,5.294118E-1,3E0,7E0,2.8954545E-1,6.437455E-1,2.5313725E0,5.9636366E-1,1.4359031E0,1E0,1.8682915E0,-1.4979021E-1,7.2236496E-1,-4.125808E-1,4.798063E0,-2.7317294E-1,1.2085865E0,3.809524E-1,4.6666667E-1,1.3E1,-9.622028E-3,-1.3039454E-2,-1.3876869E-2,-1.6448777E-2,-4.354596E-3,3.0812642E-3,-1.8813942E-2,-8.628633E-3,-4.210465E-3,2.2784455E-3,-2.4289604E-4,4.297154E-3,-1.2778752E-2,-1.8009354E-3,2.3507779E-3,-8.172622E-3,-1.9908433E-3,3.5002632E-3,-2.2033288E-3,1.1146325E-2,3.454351E-3,1.5165418E-2,9.763259E-3,1.49463685E-2,8.215139E-3,1.13773765E-2,1.0696314E-2,1.2593484E-2,1.3535336E-2,1.4883822E-2,1.5618473E-2,1.6759714E-2],"split_indices":[0,9,0,5,9,7,0,9,6,9,7,3,3,0,0,6,6,5,6,5,7,5,6,5,5,5,5,5,3,3,0,0,0,0,0,0,0,0,0,0,0,0,0,0,0,0,0,0,0,0,0,0,0,0,0,0,0,0,0,0,0,0,0],"split_type":[0,0,0,0,0,0,0,0,0,0,0,0,0,0,0,0,0,0,0,0,0,0,0,0,0,0,0,0,0,0,0,0,0,0,0,0,0,0,0,0,0,0,0,0,0,0,0,0,0,0,0,0,0,0,0,0,0,0,0,0,0,0,0],"sum_hessian":[3.8229227E4,2.208512E4,1.6144106E4,1.265866E4,9.426459E3,3.789421E3,1.2354686E4,1.1389876E4,1.2687847E3,8.29414E3,1.1323191E3,1.6629058E3,2.126515E3,6.0117637E3,6.342922E3,4.1030786E3,7.2867974E3,8.0495355E2,4.6383112E2,4.8099844E3,3.4841553E3,9.145081E2,2.1781091E2,1.5190314E3,1.4387439E2,2.009827E3,1.16687996E2,2.3756824E3,3.636081E3,2.1655342E3,4.1773877E3,2.8755369E3,1.2275419E3,5.8061064E3,1.4806906E3,6.506593E2,1.5429425E2,2.9688744E1,4.3414236E2,4.008459E3,8.015255E2,1.155125E3,2.3290303E3,8.660169E2,4.849122E1,8.544578E1,1.3236514E2,1.1501182E3,3.689132E2,4.7019558E1,9.6854836E1,1.9710067E3,3.8820282E1,5.8993645E1,5.769435E1,1.9781769E3,3.9750558E2,2.3550552E3,1.281026E3,9.2945624E2,1.2360779E3,2.8291833E3,1.3482046E3],"tree_param":{"num_deleted":"0","num_feature":"14","num_nodes":"63","size_leaf_vector":"1"}},{"base_weights":[7.943145E-4,-7.723417E-1,1.0418025E0,-1.2165294E0,-6.8953987E-3,2.3617263E-1,1.2888539E0,-1.3626686E0,-9.229543E-1,-3.1799826E-1,2.709486E-1,-2.7904493E-1,7.801613E-1,1.0400816E0,1.5250678E0,-1.4115436E0,-1.2175156E0,-6.77527E-1,-9.63486E-1,-5.0230753E-1,-1.7551903E-1,-4.5648213E-3,3.9848742E-1,-5.4445076E-1,6.738725E-2,3.8998795E-1,9.11866E-1,6.707696E-1,1.2356528E0,1.4365864E0,1.597315E0,-1.4007254E-2,-1.7477153E-2,-1.2527185E-2,-8.758449E-3,-2.8853214E-3,-7.5184605E-3,-1.083175E-2,-8.476549E-3,-3.7793028E-3,-6.4908825E-3,-1.2800021E-3,-5.5184863E-3,-6.4794504E-4,3.0626697E-3,2.997038E-3,5.0415574E-3,-8.861646E-3,-4.0663457E-3,8.9940947E-4,-1.8925557E-2,6.779818E-3,-1.559489E-3,1.1423061E-2,8.372849E-3,3.6807149E-3,8.881296E-3,1.160862E-2,1.32093E-2,1.2206061E-2,1.4828214E-2,1.5640778E-2,1.6525935E-2],"categories":[],"categories_nodes":[],"categories_segments":[],"categories_sizes":[],"default_left":[0,0,0,0,0,0,0,0,0,0,0,0,0,0,0,0,0,0,0,0,0,0,0,0,0,0,0,0,0,0,0,0,0,0,0,0,0,0,0,0,0,0,0,0,0,0,0,0,0,0,0,0,0,0,0,0,0,0,0,0,0,0,0],"id":14,"left_children":[1,3,5,7,9,11,13,15,17,19,21,23,25,27,29,31,33,35,37,39,41,43,45,47,49,51,53,55,57,59,61,-1,-1,-1,-1,-1,-1,-1,-1,-1,-1,-1,-1,-1,-1,-1,-1,-1,-1,-1,-1,-1,-1,-1,-1,-1,-1,-1,-1,-1,-1,-1,-1],"loss_changes":[3.1022773E4,7.520134E3,3.2691719E3,5.9961523E2,7.021499E2,1.0808617E3,7.376953E2,6.516211E1,4.580005E1,1.0052664E2,1.5081152E2,1.8217184E2,9.608545E1,4.4176758E2,3.976465E1,2.386914E1,2.7596436E1,1.8914398E1,5.46958E1,3.0268402E1,3.856862E1,2.5408909E1,3.0462463E1,5.2513733E1,3.7895126E1,7.470221E1,2.3416626E1,1.3931079E2,2.4519043E1,2.7819824E1,4.8964844E0,0E0,0E0,0E0,0E0,0E0,0E0,0E0,0E0,0E0,0E0,0E0,0E0,0E0,0E0,0E0,0E0,0E0,0E0,0E0,0E0,0E0,0E0,0E0,0E0,0E0,0E0,0E0,0E0,0E0,0E0,0E0,0E0],"parents":[2147483647,0,0,1,1,2,2,3,3,4,4,5,5,6,6,7,7,8,8,9,9,10,10,11,11,12,12,13,13,14,14,15,15,16,16,17,17,18,18,19,19,20,20,21,21,22,22,23,23,24,24,25,25,26,26,27,27,28,28,29,29,30,30],"right_children":[2,4,6,8,10,12,14,16,18,20,22,24,26,28,30,32,34,36,38,40,42,44,46,48,50,52,54,56,58,60,62,-1,-1,-1,-1,-1,-1,-1,-1,-1,-1,-1,-1,-1,-1,-1,-1,-1,-1,-1,-1,-1,-1,-1,-1,-1,-1,-1,-1,-1,-1,-1,-1],"split_conditions":[1E0,3.6714578E-1,2E0,-5.6928664E-2,9.873972E-1,6.862488E-1,5E0,-2.3281936E-1,0E0,6.243051E-1,3E0,3.823572E-2,1.0255802E0,6.085864E-1,8E0,-2.4591641E-1,2E0,-4.9513154E-2,9.502154E-2,1E0,2E0,1.721232E0,1.6767426E0,-3.3010635E-1,6.7079335E-1,1E0,9.52381E-2,3E0,1.3717587E0,4.7893265E-1,1.3E1,-1.4007254E-2,-1.7477153E-2,-1.2527185E-2,-8.758449E-3,-2.8853214E-3,-7.5184605E-3,-1.083175E-2,-8.476549E-3,-3.7793028E-3,-6.4908825E-3,-1.2800021E-3,-5.5184863E-3,-6.4794504E-4,3.0626697E-3,2.997038E-3,5.0415574E-3,-8.861646E-3,-4.0663457E-3,8.9940947E-4,-1.8925557E-2,6.779818E-3,-1.559489E-3,1.1423061E-2,8.372849E-3,3.6807149E-3,8.881296E-3,1.160862E-2,1.32093E-2,1.2206061E-2,1.4828214E-2,1.5640778E-2,1.6525935E-2],"split_indices":[0,4,0,4,4,4,0,4,4,4,9,4,4,4,0,4,7,4,4,7,7,4,4,4,4,7,3,0,4,4,0,0,0,0,0,0,0,0,0,0,0,0,0,0,0,0,0,0,0,0,0,0,0,0,0,0,0,0,0,0,0,0,0],"split_type":[0,0,0,0,0,0,0,0,0,0,0,0,0,0,0,0,0,0,0,0,0,0,0,0,0,0,0,0,0,0,0,0,0,0,0,0,0,0,0,0,0,0,0,0,0,0,0,0,0,0,0,0,0,0,0,0,0,0,0,0,0,0,0],"sum_hessian":[3.8544188E4,2.2117785E4,1.6426404E4,1.3995681E4,8.1221035E3,3.8554E3,1.2571005E4,9.342769E3,4.652913E3,3.8318525E3,4.290251E3,1.9800925E3,1.8753074E3,6.124267E3,6.446738E3,6.985575E3,2.357193E3,6.6110736E2,3.9918054E3,1.6698247E3,2.1620278E3,1.3574791E3,2.9327717E3,1.1211608E3,8.589318E2,4.7395676E2,1.4013506E3,2.1212583E3,4.0030088E3,2.9031099E3,3.5436277E3,6.770573E3,2.1500168E2,2.135539E3,2.2165411E2,1.0665402E2,5.544533E2,1.9607308E3,2.0310747E3,9.0523035E2,7.6459436E2,1.9204679E3,2.4156004E2,1.1377379E3,2.1974129E2,1.5172454E3,1.4155262E3,3.2123105E2,7.999297E2,8.496823E2,9.24949E0,3.1031888E2,1.6363788E2,3.405678E2,1.0607828E3,8.8734216E2,1.2339163E3,2.1371467E3,1.8658622E3,5.146877E2,2.388422E3,2.2232944E3,1.3203334E3],"tree_param":{"num_deleted":"0","num_feature":"14","num_nodes":"63","size_leaf_vector":"1"}},{"base_weights":[-8.5422327E-4,-6.1077636E-1,1.2761606E0,-1.1076542E0,1.3440229E-1,1.0269775E0,1.5151565E0,-1.1924872E0,-3.586972E-1,-2.7137354E-1,4.0410373E-1,6.325019E-1,1.2119E0,1.4497834E0,1.5931128E0,-1.2755007E0,-5.4361755E-1,-5.6846607E-1,1.1563072E-1,-3.721188E-1,2.2850293E-1,2.4923982E-1,8.7022984E-1,3.0284977E-1,8.673518E-1,1.0436223E0,1.2524763E0,1.2999653E0,1.5021211E0,1.5589638E0,1.6343964E-2,-1.4061358E-2,-9.8776715E-3,3.2025706E-3,-6.6312584E-3,-6.542253E-3,7.2264625E-4,5.052838E-4,1.7596466E-2,-9.4468106E-4,-5.7302383E-3,6.1838143E-3,-9.055337E-4,1.9020074E-3,8.650845E-3,9.957258E-3,7.0574307E-3,3.7396115E-3,-8.488589E-3,7.4956296E-3,1.1040336E-2,1.12069715E-2,4.3369345E-3,1.155691E-2,1.29595995E-2,7.412547E-3,1.31138945E-2,1.5119788E-2,1.1232616E-2,7.618854E-3,1.5632618E-2],"categories":[],"categories_nodes":[],"categories_segments":[],"categories_sizes":[],"default_left":[0,0,0,0,0,0,0,0,0,0,0,0,0,0,0,0,0,0,0,0,0,0,0,0,0,0,0,0,0,0,0,0,0,0,0,0,0,0,0,0,0,0,0,0,0,0,0,0,0,0,0,0,0,0,0,0,0,0,0,0,0],"id":15,"left_children":[1,3,5,7,9,11,13,15,17,19,21,23,25,27,29,31,33,35,37,39,41,43,45,47,49,51,53,55,57,59,-1,-1,-1,-1,-1,-1,-1,-1,-1,-1,-1,-1,-1,-1,-1,-1,-1,-1,-1,-1,-1,-1,-1,-1,-1,-1,-1,-1,-1,-1,-1],"loss_changes":[3.001648E4,9.657119E3,7.408164E2,9.9383203E2,1.1419542E3,4.4442334E2,3.09375E1,7.565625E2,1.585705E2,2.0986807E2,4.5226697E2,1.5057623E2,2.7471191E1,2.5904297E1,2.4863281E0,4.674375E2,1.6483243E2,6.078299E1,5.2080856E1,1.9334225E2,8.7027016E1,1.709169E2,3.1739624E1,6.6567986E1,3.110492E1,3.7690613E1,1.3074219E1,5.0595703E0,8.460449E0,4.638916E0,0E0,0E0,0E0,0E0,0E0,0E0,0E0,0E0,0E0,0E0,0E0,0E0,0E0,0E0,0E0,0E0,0E0,0E0,0E0,0E0,0E0,0E0,0E0,0E0,0E0,0E0,0E0,0E0,0E0,0E0,0E0],"parents":[2147483647,0,0,1,1,2,2,3,3,4,4,5,5,6,6,7,7,8,8,9,9,10,10,11,11,12,12,13,13,14,14,15,15,16,16,17,17,18,18,19,19,20,20,21,21,22,22,23,23,24,24,25,25,26,26,27,27,28,28,29,29],"right_children":[2,4,6,8,10,12,14,16,18,20,22,24,26,28,30,32,34,36,38,40,42,44,46,48,50,52,54,56,58,60,-1,-1,-1,-1,-1,-1,-1,-1,-1,-1,-1,-1,-1,-1,-1,-1,-1,-1,-1,-1,-1,-1,-1,-1,-1,-1,-1,-1,-1,-1,-1],"split_conditions":[2E0,3.6714578E-1,5E0,1E0,9.237137E-1,5.226707E-1,9E0,1.1114315E0,3.823572E-2,1.4359031E0,1E0,3E0,8.769807E-1,7.795446E-1,1.3E1,-5.6928664E-2,-2.7363637E-1,1.2527866E0,4.798063E0,-1.7542425E-1,1.1093939E-1,1.9376829E0,1.6115358E-1,1.0018485E0,4E0,7.1909094E-1,1E0,-3.9126432E-1,1E0,-3.5397652E-1,1.6343964E-2,-1.4061358E-2,-9.8776715E-3,3.2025706E-3,-6.6312584E-3,-6.542253E-3,7.2264625E-4,5.052838E-4,1.7596466E-2,-9.4468106E-4,-5.7302383E-3,6.1838143E-3,-9.055337E-4,1.9020074E-3,8.650845E-3,9.957258E-3,7.0574307E-3,3.7396115E-3,-8.488589E-3,7.4956296E-3,1.1040336E-2,1.12069715E-2,4.3369345E-3,1.155691E-2,1.29595995E-2,7.412547E-3,1.31138945E-2,1.5119788E-2,1.1232616E-2,7.618854E-3,1.5632618E-2],"split_indices":[0,4,0,0,4,4,0,5,4,5,0,0,4,4,0,4,6,5,5,6,6,5,5,6,0,6,2,4,11,4,0,0,0,0,0,0,0,0,0,0,0,0,0,0,0,0,0,0,0,0,0,0,0,0,0,0,0,0,0,0,0],"split_type":[0,0,0,0,0,0,0,0,0,0,0,0,0,0,0,0,0,0,0,0,0,0,0,0,0,0,0,0,0,0,0,0,0,0,0,0,0,0,0,0,0,0,0,0,0,0,0,0,0,0,0,0,0,0,0,0,0,0,0,0,0],"sum_hessian":[3.853711E4,2.6080834E4,1.2456273E4,1.5647275E4,1.043356E4,6.099672E3,6.356601E3,1.4054875E4,1.5924006E3,4.165714E3,6.267845E3,1.9476671E3,4.152005E3,3.4633584E3,2.893243E3,1.2460145E4,1.5947299E3,1.1041903E3,4.8821042E2,3.4672512E3,6.9846295E2,4.7054927E3,1.5623525E3,8.109417E2,1.1367255E3,8.097311E2,3.3422737E3,9.004948E2,2.5628635E3,1.5953796E3,1.2978632E3,8.567901E3,3.8922432E3,1.9360025E2,1.4011296E3,9.7397345E2,1.3021683E2,4.7016815E2,1.8042267E1,1.4561229E3,2.0111283E3,3.1427338E2,3.8418958E2,4.2946E3,4.1089285E2,8.844346E2,6.7791797E2,7.641823E2,4.6759384E1,7.606707E2,3.7605472E2,7.1837006E2,9.1361046E1,1.0410977E3,2.301176E3,1.887931E1,8.816155E2,2.4961555E3,6.670806E1,9.159361E0,1.5862203E3],"tree_param":{"num_deleted":"0","num_feature":"14","num_nodes":"61","size_leaf_vector":"1"}},{"base_weights":[-5.582324E-3,-7.596957E-1,1.020687E0,-1.2067375E0,-1.9362213E-2,2.2626883E-1,1.2651142E0,-1.3575563E0,-8.9534795E-1,-2.667028E-1,3.2798088E-1,-2.0800403E-1,8.5989076E-1,1.015027E0,1.5028055E0,-1.4103813E0,-1.201686E0,-7.482024E-1,-1.044292E0,-3.795106E-2,-4.7953457E-1,4.6843445E-1,1.386441E-1,-5.238123E-1,1.2340172E-1,7.457161E-1,1.016481E0,6.46555E-1,1.2054834E0,1.4287747E0,1.5881573E0,-1.3696917E-2,-1.6305536E-2,-1.12820985E-2,-1.4026936E-2,-9.269252E-3,-5.314977E-3,-2.6753526E-3,-1.0599082E-2,-4.374033E-3,1.0958896E-3,-6.3684266E-3,-2.8343296E-3,3.5183784E-3,5.9508923E-3,7.0127455E-4,3.4639828E-3,-1.8612778E-2,-4.9205613E-3,1.1797233E-2,9.7273395E-4,7.939875E-3,2.293602E-3,9.621134E-3,1.3410472E-2,2.992326E-3,8.84894E-3,1.1298154E-2,1.29803205E-2,1.2805506E-2,1.4764294E-2,1.5559334E-2,1.6269853E-2],"categories":[],"categories_nodes":[],"categories_segments":[],"categories_sizes":[],"default_left":[0,0,0,0,0,0,0,0,0,0,0,0,0,0,0,0,0,0,0,0,0,0,0,0,0,0,0,0,0,0,0,0,0,0,0,0,0,0,0,0,0,0,0,0,0,0,0,0,0,0,0,0,0,0,0,0,0,0,0,0,0,0,0],"id":16,"left_children":[1,3,5,7,9,11,13,15,17,19,21,23,25,27,29,31,33,35,37,39,41,43,45,47,49,51,53,55,57,59,61,-1,-1,-1,-1,-1,-1,-1,-1,-1,-1,-1,-1,-1,-1,-1,-1,-1,-1,-1,-1,-1,-1,-1,-1,-1,-1,-1,-1,-1,-1,-1,-1],"loss_changes":[2.9661885E4,7.3116914E3,3.151963E3,6.460801E2,7.146907E2,1.0513767E3,7.369219E2,7.529297E1,9.7975586E1,2.3650626E2,9.1914764E1,2.3734412E2,2.7224243E1,4.2407373E2,3.8773438E1,6.063965E1,3.3700928E1,8.729138E1,2.6811768E1,1.3812521E2,7.745862E1,2.9126373E1,2.093545E1,4.8621704E1,3.0353153E1,2.2260193E1,1.0655151E1,1.7053906E2,2.695459E1,2.2889648E1,2.1079102E0,0E0,0E0,0E0,0E0,0E0,0E0,0E0,0E0,0E0,0E0,0E0,0E0,0E0,0E0,0E0,0E0,0E0,0E0,0E0,0E0,0E0,0E0,0E0,0E0,0E0,0E0,0E0,0E0,0E0,0E0,0E0,0E0],"parents":[2147483647,0,0,1,1,2,2,3,3,4,4,5,5,6,6,7,7,8,8,9,9,10,10,11,11,12,12,13,13,14,14,15,15,16,16,17,17,18,18,19,19,20,20,21,21,22,22,23,23,24,24,25,25,26,26,27,27,28,28,29,29,30,30],"right_children":[2,4,6,8,10,12,14,16,18,20,22,24,26,28,30,32,34,36,38,40,42,44,46,48,50,52,54,56,58,60,62,-1,-1,-1,-1,-1,-1,-1,-1,-1,-1,-1,-1,-1,-1,-1,-1,-1,-1,-1,-1,-1,-1,-1,-1,-1,-1,-1,-1,-1,-1,-1,-1],"split_conditions":[1E0,3.4115747E-1,2E0,-5.6928664E-2,1.1493908E0,9.237137E-1,5E0,-2.3281936E-1,4.2954545E-2,-1.8512396E-2,2.3603305E-1,7.507928E-2,1.5939482E0,5.9399885E-1,9E0,8.909091E-1,5.2022725E-1,1E0,-4.9513154E-2,-6.490909E-1,7.795446E-1,1.6767426E0,2.123324E0,-4.1194212E-1,4E-2,2E0,5.294118E-1,3E0,1.4036824E0,7.3246366E-1,1.3E1,-1.3696917E-2,-1.6305536E-2,-1.12820985E-2,-1.4026936E-2,-9.269252E-3,-5.314977E-3,-2.6753526E-3,-1.0599082E-2,-4.374033E-3,1.0958896E-3,-6.3684266E-3,-2.8343296E-3,3.5183784E-3,5.9508923E-3,7.0127455E-4,3.4639828E-3,-1.8612778E-2,-4.9205613E-3,1.1797233E-2,9.7273395E-4,7.939875E-3,2.293602E-3,9.621134E-3,1.3410472E-2,2.992326E-3,8.84894E-3,1.1298154E-2,1.29803205E-2,1.2805506E-2,1.4764294E-2,1.5559334E-2,1.6269853E-2],"split_indices":[0,4,0,4,4,4,0,4,6,6,6,4,4,4,0,6,6,7,4,6,4,4,4,4,3,7,3,0,4,4,0,0,0,0,0,0,0,0,0,0,0,0,0,0,0,0,0,0,0,0,0,0,0,0,0,0,0,0,0,0,0,0,0],"split_type":[0,0,0,0,0,0,0,0,0,0,0,0,0,0,0,0,0,0,0,0,0,0,0,0,0,0,0,0,0,0,0,0,0,0,0,0,0,0,0,0,0,0,0,0,0,0,0,0,0,0,0,0,0,0,0,0,0,0,0,0,0,0,0],"sum_hessian":[3.832567E4,2.209227E4,1.6233401E4,1.3774342E4,8.317927E3,3.8198362E3,1.2413565E4,9.278419E3,4.4959233E3,4.858574E3,3.4593525E3,2.2665574E3,1.5532788E3,6.050541E3,6.3630244E3,6.926381E3,2.3520383E3,2.263468E3,2.232455E3,2.3422168E3,2.5163572E3,1.9853314E3,1.4740211E3,1.1605958E3,1.1059614E3,9.0033655E2,6.5294226E2,2.062666E3,3.987875E3,3.4128743E3,2.9501501E3,5.8494263E3,1.0769543E3,1.72521E3,6.2682837E2,1.239289E3,1.0241792E3,4.430291E1,2.188152E3,6.3168317E2,1.7105337E3,1.3953815E3,1.1209757E3,1.0351061E3,9.5022534E2,1.1093209E3,3.647002E2,2.6176403E1,1.1344194E3,2.6070599E1,1.0798909E3,8.229415E2,7.739502E1,5.6122284E2,9.1719406E1,8.4004596E2,1.22262E3,2.1982588E3,1.7896162E3,8.342075E2,2.5786667E3,1.6248124E3,1.3253379E3],"tree_param":{"num_deleted":"0","num_feature":"14","num_nodes":"63","size_leaf_vector":"1"}},{"base_weights":[2.5248734E-4,-7.55049E-1,1.0179658E0,-1.1836383E0,-1.5404349E-2,2.5159454E-1,1.2550038E0,-1.3333586E0,-8.848132E-1,-2.6636764E-1,3.0994913E-1,-1.6082643E-1,8.6634976E-1,1.0128033E0,1.4899107E0,-1.3773963E0,-5.949749E-1,-9.570824E-1,-2.68381E-1,-3.6204275E-2,-5.16331E-1,4.6691242E-1,1.002707E-1,-5.192672E-1,1.7242697E-1,1.0017754E0,6.8699014E-1,6.4337164E-1,1.1870008E0,1.4191606E0,1.5714784E0,-1.3312411E-2,-1.5551693E-2,-3.8599523E-3,-1.3469812E-2,-8.371815E-3,-1.1840297E-2,4.1775648E-3,-5.3652213E-3,-2.3864082E-3,3.2835102E-3,-6.2353E-3,3.6413046E-3,3.7982522E-3,9.862317E-3,5.531826E-3,-4.680004E-4,-4.530366E-3,-1.2811994E-2,2.246622E-3,-7.151774E-3,7.277455E-3,1.0948433E-2,7.2510596E-3,-1.9938607E-2,3.0774884E-3,8.817044E-3,1.0464824E-2,1.2325851E-2,1.27000315E-2,1.47132585E-2,1.49444E-2,1.5933836E-2],"categories":[],"categories_nodes":[],"categories_segments":[],"categories_sizes":[],"default_left":[0,0,0,0,0,0,0,0,0,0,0,0,0,0,0,0,0,0,0,0,0,0,0,0,0,0,0,0,0,0,0,0,0,0,0,0,0,0,0,0,0,0,0,0,0,0,0,0,0,0,0,0,0,0,0,0,0,0,0,0,0,0,0],"id":17,"left_children":[1,3,5,7,9,11,13,15,17,19,21,23,25,27,29,31,33,35,37,39,41,43,45,47,49,51,53,55,57,59,61,-1,-1,-1,-1,-1,-1,-1,-1,-1,-1,-1,-1,-1,-1,-1,-1,-1,-1,-1,-1,-1,-1,-1,-1,-1,-1,-1,-1,-1,-1,-1,-1],"loss_changes":[2.9482E4,6.9787734E3,2.9677812E3,6.227969E2,6.5956274E2,9.789191E2,7.0897266E2,3.0130273E2,2.0708984E2,2.623059E2,1.1568402E2,2.761067E2,3.7141113E1,3.9494287E2,3.5134766E1,7.056445E1,8.185039E1,1.1265015E2,9.013384E1,1.7530183E2,2.064566E2,9.063269E1,1.0042819E2,5.573166E1,5.556157E1,2.1909973E1,6.893884E1,1.573736E2,2.5874023E1,2.522705E1,3.4560547E0,0E0,0E0,0E0,0E0,0E0,0E0,0E0,0E0,0E0,0E0,0E0,0E0,0E0,0E0,0E0,0E0,0E0,0E0,0E0,0E0,0E0,0E0,0E0,0E0,0E0,0E0,0E0,0E0,0E0,0E0,0E0,0E0],"parents":[2147483647,0,0,1,1,2,2,3,3,4,4,5,5,6,6,7,7,8,8,9,9,10,10,11,11,12,12,13,13,14,14,15,15,16,16,17,17,18,18,19,19,20,20,21,21,22,22,23,23,24,24,25,25,26,26,27,27,28,28,29,29,30,30],"right_children":[2,4,6,8,10,12,14,16,18,20,22,24,26,28,30,32,34,36,38,40,42,44,46,48,50,52,54,56,58,60,62,-1,-1,-1,-1,-1,-1,-1,-1,-1,-1,-1,-1,-1,-1,-1,-1,-1,-1,-1,-1,-1,-1,-1,-1,-1,-1,-1,-1,-1,-1,-1,-1],"split_conditions":[1E0,3.6714578E-1,2E0,-5.6928664E-2,1.1339931E0,9.237137E-1,5E0,1.378695E0,1.461962E0,2.7045455E-2,2.2909091E-1,3.823572E-2,1.7446098E-1,5.226707E-1,9E0,6.437455E-1,1.0584848E0,2.8954545E-1,-5.818182E-2,5.934181E-1,2.0818915E0,1.4359031E0,-2.7930212E-1,1.1679394E0,2E0,-4.2864752E-1,2.2145455E0,3E0,9.3830115E-1,7.795446E-1,9.104353E-1,-1.3312411E-2,-1.5551693E-2,-3.8599523E-3,-1.3469812E-2,-8.371815E-3,-1.1840297E-2,4.1775648E-3,-5.3652213E-3,-2.3864082E-3,3.2835102E-3,-6.2353E-3,3.6413046E-3,3.7982522E-3,9.862317E-3,5.531826E-3,-4.680004E-4,-4.530366E-3,-1.2811994E-2,2.246622E-3,-7.151774E-3,7.277455E-3,1.0948433E-2,7.2510596E-3,-1.9938607E-2,3.0774884E-3,8.817044E-3,1.0464824E-2,1.2325851E-2,1.27000315E-2,1.47132585E-2,1.49444E-2,1.5933836E-2],"split_indices":[0,4,0,4,4,4,0,5,5,6,6,4,5,4,0,6,6,6,6,5,5,5,5,6,7,5,6,0,4,4,4,0,0,0,0,0,0,0,0,0,0,0,0,0,0,0,0,0,0,0,0,0,0,0,0,0,0,0,0,0,0,0,0],"split_type":[0,0,0,0,0,0,0,0,0,0,0,0,0,0,0,0,0,0,0,0,0,0,0,0,0,0,0,0,0,0,0,0,0,0,0,0,0,0,0,0,0,0,0,0,0,0,0,0,0,0,0,0,0,0,0,0,0,0,0,0,0,0,0],"sum_hessian":[3.8353008E4,2.2014705E4,1.6338303E4,1.3937907E4,8.0767983E3,3.8599832E3,1.247832E4,9.284187E3,4.6537197E3,4.559895E3,3.5169036E3,2.3102869E3,1.5496963E3,6.1453E3,6.33302E3,8.761101E3,5.23086E2,4.164987E3,4.8873297E2,2.3744766E3,2.1854182E3,2.0106555E3,1.5062479E3,1.1130901E3,1.1971968E3,8.8136816E2,6.6832806E2,1.9701008E3,4.1751987E3,3.3969805E3,2.9360396E3,6.959112E3,1.8019891E3,4.100299E2,1.1305608E2,2.7270276E3,1.4379594E3,1.3714508E2,3.5158792E2,1.5269902E3,8.474864E2,1.9484479E3,2.3697038E2,1.7228077E3,2.878478E2,3.6904727E2,1.1372007E3,1.0249274E3,8.8162766E1,1.1311171E3,6.607978E1,2.2483797E2,6.565302E2,6.593555E2,8.972539E0,8.1872656E2,1.1513743E3,1.0261533E3,3.1490457E3,8.839797E2,2.5130007E3,6.586827E2,2.277357E3],"tree_param":{"num_deleted":"0","num_feature":"14","num_nodes":"63","size_leaf_vector":"1"}},{"base_weights":[6.087674E-3,-7.387682E-1,1.0127451E0,-1.169878E0,-1.3473522E-3,2.4022792E-1,1.2498324E0,-1.2478269E0,-5.527096E-1,-3.3499438E-1,2.4450727E-1,-2.024047E-1,8.731887E-1,9.465553E-1,1.437633E0,-1.3705736E0,-9.7681755E-1,-3.906022E-1,-1.2322392E0,-1.6317282E-2,-5.4350644E-1,1.9040328E-1,8.35493E-1,-5.250313E-1,1.03523225E-1,9.984035E-1,7.0694226E-1,5.1904625E-1,1.1568693E0,1.3126459E0,1.539301E0,-1.3260376E-2,-1.5644124E-2,-8.5158385E-3,-1.2271608E-2,-5.215524E-3,2.2984107E-3,-1.6470823E-2,-7.23113E-3,-7.0250877E-3,3.2984156E-3,-6.7343954E-3,-9.071317E-4,4.2029092E-4,4.0574637E-3,9.976645E-3,-1.1114687E-2,-5.8393287E-3,4.3520452E-3,1.2656059E-2,6.349867E-4,8.647433E-3,1.125784E-2,9.761806E-3,5.345575E-3,3.192343E-3,7.3665315E-3,1.0596386E-2,1.2831114E-2,1.0750917E-2,1.3680835E-2,1.5070637E-2,1.6096693E-2],"categories":[],"categories_nodes":[],"categories_segments":[],"categories_sizes":[],"default_left":[0,0,0,0,0,0,0,0,0,0,0,0,0,0,0,0,0,0,0,0,0,0,0,0,0,0,0,0,0,0,0,0,0,0,0,0,0,0,0,0,0,0,0,0,0,0,0,0,0,0,0,0,0,0,0,0,0,0,0,0,0,0,0],"id":18,"left_children":[1,3,5,7,9,11,13,15,17,19,21,23,25,27,29,31,33,35,37,39,41,43,45,47,49,51,53,55,57,59,61,-1,-1,-1,-1,-1,-1,-1,-1,-1,-1,-1,-1,-1,-1,-1,-1,-1,-1,-1,-1,-1,-1,-1,-1,-1,-1,-1,-1,-1,-1,-1,-1],"loss_changes":[2.8881049E4,7.0375557E3,2.9997969E3,6.7154297E2,6.700431E2,1.0780516E3,7.129258E2,4.116875E2,1.7228015E2,2.3022073E2,1.5018552E2,2.2356274E2,3.2438354E1,4.3063428E2,9.7046875E1,7.235449E1,1.20549805E2,1.0299078E2,6.28649E1,3.2590378E2,1.2312921E2,1.3762807E2,1.2498181E2,6.2489838E1,5.3897713E1,1.4665039E1,3.1256287E1,6.856604E1,3.8526367E1,4.4788086E1,8.149414E0,0E0,0E0,0E0,0E0,0E0,0E0,0E0,0E0,0E0,0E0,0E0,0E0,0E0,0E0,0E0,0E0,0E0,0E0,0E0,0E0,0E0,0E0,0E0,0E0,0E0,0E0,0E0,0E0,0E0,0E0,0E0,0E0],"parents":[2147483647,0,0,1,1,2,2,3,3,4,4,5,5,6,6,7,7,8,8,9,9,10,10,11,11,12,12,13,13,14,14,15,15,16,16,17,17,18,18,19,19,20,20,21,21,22,22,23,23,24,24,25,25,26,26,27,27,28,28,29,29,30,30],"right_children":[2,4,6,8,10,12,14,16,18,20,22,24,26,28,30,32,34,36,38,40,42,44,46,48,50,52,54,56,58,60,62,-1,-1,-1,-1,-1,-1,-1,-1,-1,-1,-1,-1,-1,-1,-1,-1,-1,-1,-1,-1,-1,-1,-1,-1,-1,-1,-1,-1,-1,-1,-1,-1],"split_conditions":[1E0,3.6714578E-1,2E0,1.1114315E0,9.237137E-1,9.237137E-1,4E0,-5.6928664E-2,1.0584848E0,-1.6587879E-1,1.9376829E0,3.823572E-2,1.7446098E-1,5.226707E-1,7E0,7.1909094E-1,2.8954545E-1,2.5313725E0,1.8682915E0,-2.4366826E-1,1.378695E0,1.5939482E0,1.12E0,2.0108795E0,4.1666668E-2,1.5939482E0,9.52381E-2,3E0,1.4036824E0,3.9290524E-1,1.3E1,-1.3260376E-2,-1.5644124E-2,-8.5158385E-3,-1.2271608E-2,-5.215524E-3,2.2984107E-3,-1.6470823E-2,-7.23113E-3,-7.0250877E-3,3.2984156E-3,-6.7343954E-3,-9.071317E-4,4.2029092E-4,4.0574637E-3,9.976645E-3,-1.1114687E-2,-5.8393287E-3,4.3520452E-3,1.2656059E-2,6.349867E-4,8.647433E-3,1.125784E-2,9.761806E-3,5.345575E-3,3.192343E-3,7.3665315E-3,1.0596386E-2,1.2831114E-2,1.0750917E-2,1.3680835E-2,1.5070637E-2,1.6096693E-2],"split_indices":[0,4,0,5,4,4,0,4,6,6,5,4,5,4,0,6,6,5,5,5,5,4,6,5,3,4,3,0,4,4,0,0,0,0,0,0,0,0,0,0,0,0,0,0,0,0,0,0,0,0,0,0,0,0,0,0,0,0,0,0,0,0,0],"split_type":[0,0,0,0,0,0,0,0,0,0,0,0,0,0,0,0,0,0,0,0,0,0,0,0,0,0,0,0,0,0,0,0,0,0,0,0,0,0,0,0,0,0,0,0,0,0,0,0,0,0,0,0,0,0,0,0,0,0,0,0,0,0,0],"sum_hessian":[3.8516543E4,2.2136857E4,1.6379687E4,1.3969564E4,8.1672925E3,3.8468064E3,1.2532881E4,1.2402451E4,1.5671125E3,3.4650842E3,4.7022085E3,2.2638599E3,1.5829464E3,4.7942515E3,7.7386294E3,8.53455E3,3.8679014E3,1.2660262E3,3.0108633E2,1.3709011E3,2.094183E3,4.308593E3,3.9361578E2,1.101843E3,1.162017E3,9.011254E2,6.81821E2,1.5815715E3,3.2126797E3,3.4747893E3,4.2638403E3,6.9436343E3,1.5909159E3,2.5799077E3,1.2879935E3,1.0455865E3,2.2043974E2,1.6518074E2,1.3590558E2,4.5960306E2,9.112981E2,1.6268727E3,4.6731042E2,2.5515818E3,1.7570109E3,3.6362308E2,2.9992704E1,1.0384441E3,6.3398838E1,3.8096786E1,1.1239202E3,4.4200726E2,4.5911816E2,2.65008E2,4.1681302E2,8.253804E2,7.5619116E2,1.817978E3,1.3947018E3,6.5974335E2,2.815046E3,2.9328555E3,1.3309847E3],"tree_param":{"num_deleted":"0","num_feature":"14","num_nodes":"63","size_leaf_vector":"1"}},{"base_weights":[9.5969264E-4,-7.30043E-1,9.980033E-1,-1.1552048E0,2.0147028E-4,2.4008466E-1,1.2358103E0,-1.2408999E0,-4.8973438E-1,-2.4330994E-1,3.293482E-1,-1.8887353E-1,8.566293E-1,9.8946875E-1,1.4690183E0,-1.4104035E0,-1.0436472E0,-2.5348696E-1,-8.555483E-1,6.521461E-2,-4.2324176E-1,5.5325925E-1,1.8538284E-1,-5.1777595E-1,1.2297579E-1,9.87227E-1,6.9186676E-1,6.2045646E-1,1.1777203E0,1.3612212E0,1.5249045E0,-1.43759E-2,-1.14916265E-2,-9.232329E-3,-1.2901523E-2,-4.1291025E-3,3.869053E-3,-1.0149442E-2,-5.007998E-3,-4.0692645E-3,3.3908943E-3,-5.877042E-3,2.1059115E-3,4.6733967E-3,9.264814E-3,6.6732513E-3,5.221469E-4,-5.762041E-3,4.500613E-3,1.7208018E-3,-7.0133195E-3,7.578055E-3,1.0697204E-2,9.729863E-3,5.071236E-3,3.394836E-3,8.309676E-3,1.1071542E-2,1.2575118E-2,1.1333374E-2,1.4200504E-2,1.49178505E-2,1.595466E-2],"categories":[],"categories_nodes":[],"categories_segments":[],"categories_sizes":[],"default_left":[0,0,0,0,0,0,0,0,0,0,0,0,0,0,0,0,0,0,0,0,0,0,0,0,0,0,0,0,0,0,0,0,0,0,0,0,0,0,0,0,0,0,0,0,0,0,0,0,0,0,0,0,0,0,0,0,0,0,0,0,0,0,0],"id":19,"left_children":[1,3,5,7,9,11,13,15,17,19,21,23,25,27,29,31,33,35,37,39,41,43,45,47,49,51,53,55,57,59,61,-1,-1,-1,-1,-1,-1,-1,-1,-1,-1,-1,-1,-1,-1,-1,-1,-1,-1,-1,-1,-1,-1,-1,-1,-1,-1,-1,-1,-1,-1,-1,-1],"loss_changes":[2.7893977E4,6.8558984E3,2.9177295E3,7.9541797E2,6.513547E2,1.02294006E3,7.069707E2,4.1239844E2,1.374636E2,2.5933527E2,1.1127411E2,2.3401907E2,3.363672E1,4.1587598E2,3.6802734E1,4.6129883E1,1.6885889E2,9.899773E1,3.4921967E1,2.2256967E2,3.0765717E2,4.299478E1,1.3497133E2,6.293155E1,4.740827E1,1.6137024E1,3.6150726E1,1.1959125E2,2.1414062E1,2.7980225E1,8.230469E0,0E0,0E0,0E0,0E0,0E0,0E0,0E0,0E0,0E0,0E0,0E0,0E0,0E0,0E0,0E0,0E0,0E0,0E0,0E0,0E0,0E0,0E0,0E0,0E0,0E0,0E0,0E0,0E0,0E0,0E0,0E0,0E0],"parents":[2147483647,0,0,1,1,2,2,3,3,4,4,5,5,6,6,7,7,8,8,9,9,10,10,11,11,12,12,13,13,14,14,15,15,16,16,17,17,18,18,19,19,20,20,21,21,22,22,23,23,24,24,25,25,26,26,27,27,28,28,29,29,30,30],"right_children":[2,4,6,8,10,12,14,16,18,20,22,24,26,28,30,32,34,36,38,40,42,44,46,48,50,52,54,56,58,60,62,-1,-1,-1,-1,-1,-1,-1,-1,-1,-1,-1,-1,-1,-1,-1,-1,-1,-1,-1,-1,-1,-1,-1,-1,-1,-1,-1,-1,-1,-1,-1,-1],"split_conditions":[1E0,3.6714578E-1,2E0,1.1114315E0,1.1493908E0,9.237137E-1,5E0,-2.188233E-1,4.9636364E-1,-1.825091E-1,-5.818182E-2,3.823572E-2,1.6115358E-1,5.9399885E-1,7E0,5.7447743E-1,2.8954545E-1,2.3974087E0,2.0818915E0,-2.6677406E-1,1.461962E0,1.0596513E0,-3.1043595E-1,2.0108795E0,2E0,-4.2864752E-1,9.52381E-2,3E0,1.3502487E0,6.3995945E-1,1.3E1,-1.43759E-2,-1.14916265E-2,-9.232329E-3,-1.2901523E-2,-4.1291025E-3,3.869053E-3,-1.0149442E-2,-5.007998E-3,-4.0692645E-3,3.3908943E-3,-5.877042E-3,2.1059115E-3,4.6733967E-3,9.264814E-3,6.6732513E-3,5.221469E-4,-5.762041E-3,4.500613E-3,1.7208018E-3,-7.0133195E-3,7.578055E-3,1.0697204E-2,9.729863E-3,5.071236E-3,3.394836E-3,8.309676E-3,1.1071542E-2,1.2575118E-2,1.1333374E-2,1.4200504E-2,1.49178505E-2,1.595466E-2],"split_indices":[0,4,0,5,4,4,0,4,6,6,6,4,5,4,0,5,6,5,5,5,5,5,5,5,7,5,3,0,4,4,0,0,0,0,0,0,0,0,0,0,0,0,0,0,0,0,0,0,0,0,0,0,0,0,0,0,0,0,0,0,0,0,0],"split_type":[0,0,0,0,0,0,0,0,0,0,0,0,0,0,0,0,0,0,0,0,0,0,0,0,0,0,0,0,0,0,0,0,0,0,0,0,0,0,0,0,0,0,0,0,0,0,0,0,0,0,0,0,0,0,0,0,0,0,0,0,0,0,0],"sum_hessian":[3.8270625E4,2.2081305E4,1.6189321E4,1.3955816E4,8.1254883E3,3.8668008E3,1.23225205E4,1.2363181E4,1.5926356E3,4.6701875E3,3.4553008E3,2.2804043E3,1.5863964E3,5.994004E3,6.3285166E3,6.6473687E3,5.715812E3,9.683696E2,6.242659E2,1.7202615E3,2.949926E3,1.351375E3,2.1039258E3,1.1098519E3,1.1705524E3,8.8321826E2,7.0317816E2,2.0257642E3,3.9682397E3,2.1656777E3,4.162839E3,6.018416E3,6.289525E2,3.8418838E3,1.8739283E3,7.756165E2,1.927531E2,4.298935E2,1.9437244E2,6.313133E2,1.0889481E3,2.342345E3,6.0758093E2,1.0996243E3,2.5175082E2,4.5489203E2,1.6490338E3,1.0469531E3,6.2898746E1,1.1052302E3,6.532215E1,2.352559E2,6.4796234E2,2.777926E2,4.253856E2,8.6843304E2,1.157331E3,2.1104714E3,1.8577683E3,4.46792E2,1.7188857E3,2.841575E3,1.3212637E3],"tree_param":{"num_deleted":"0","num_feature":"14","num_nodes":"63","size_leaf_vector":"1"}},{"base_weights":[-3.2322695E-3,-7.297522E-1,9.863005E-1,-1.1519909E0,-8.897714E-3,4.5369232E-1,1.3182188E0,-1.2310797E0,-5.250823E-1,-3.369907E-1,2.343274E-1,-2.3284176E-2,8.996536E-1,1.0814065E0,1.456232E0,-1.3939563E0,-1.0471634E0,-3.4588873E-1,-1.0483415E0,-2.7458617E-2,-5.417679E-1,1.8030871E-1,8.0928326E-1,-2.2166507E-1,3.8463086E-1,7.41055E-1,1.1091919E0,8.650314E-1,1.2317374E0,1.3698751E0,1.5249914E0,-1.3475503E-2,-1.602239E-2,-9.25567E-3,-1.29825445E-2,2.2538514E-3,-4.5353603E-3,-1.1164771E-2,2.276952E-3,-5.9460094E-3,2.740643E-3,-6.876773E-3,-3.9145767E-4,4.626709E-3,7.99465E-4,9.909272E-3,-7.2106835E-3,-5.014705E-3,1.6196447E-3,4.4628545E-3,-8.518975E-3,3.2926416E-3,8.712564E-3,1.0893793E-2,1.4874491E-2,1.003564E-2,7.320938E-3,1.2948831E-2,1.1485574E-2,1.1915241E-2,1.4171845E-2,1.4902665E-2,1.5807029E-2],"categories":[],"categories_nodes":[],"categories_segments":[],"categories_sizes":[],"default_left":[0,0,0,0,0,0,0,0,0,0,0,0,0,0,0,0,0,0,0,0,0,0,0,0,0,0,0,0,0,0,0,0,0,0,0,0,0,0,0,0,0,0,0,0,0,0,0,0,0,0,0,0,0,0,0,0,0,0,0,0,0,0,0],"id":20,"left_children":[1,3,5,7,9,11,13,15,17,19,21,23,25,27,29,31,33,35,37,39,41,43,45,47,49,51,53,55,57,59,61,-1,-1,-1,-1,-1,-1,-1,-1,-1,-1,-1,-1,-1,-1,-1,-1,-1,-1,-1,-1,-1,-1,-1,-1,-1,-1,-1,-1,-1,-1,-1,-1],"loss_changes":[2.7452902E4,6.702075E3,2.857544E3,6.879863E2,6.491696E2,1.3205868E3,3.244668E2,3.68375E2,1.4563083E2,2.1946112E2,1.4491507E2,2.4279337E2,1.0602539E2,1.18614746E2,3.6020508E1,6.1810547E1,1.760542E2,7.1433044E1,3.4705444E1,2.3604956E2,1.5276123E2,1.2096181E2,1.1182541E2,2.1678366E2,7.4985916E1,9.7742004E1,9.281006E0,2.7197754E1,1.0376465E1,2.2470215E1,5.2802734E0,0E0,0E0,0E0,0E0,0E0,0E0,0E0,0E0,0E0,0E0,0E0,0E0,0E0,0E0,0E0,0E0,0E0,0E0,0E0,0E0,0E0,0E0,0E0,0E0,0E0,0E0,0E0,0E0,0E0,0E0,0E0,0E0],"parents":[2147483647,0,0,1,1,2,2,3,3,4,4,5,5,6,6,7,7,8,8,9,9,10,10,11,11,12,12,13,13,14,14,15,15,16,16,17,17,18,18,19,19,20,20,21,21,22,22,23,23,24,24,25,25,26,26,27,27,28,28,29,29,30,30],"right_children":[2,4,6,8,10,12,14,16,18,20,22,24,26,28,30,32,34,36,38,40,42,44,46,48,50,52,54,56,58,60,62,-1,-1,-1,-1,-1,-1,-1,-1,-1,-1,-1,-1,-1,-1,-1,-1,-1,-1,-1,-1,-1,-1,-1,-1,-1,-1,-1,-1,-1,-1,-1,-1],"split_conditions":[1E0,3.6714578E-1,3E0,1.1114315E0,9.237137E-1,7.0151854E-1,5E0,-2.235875E-1,8.509091E-1,-1.6587879E-1,1.9376829E0,2E0,2E0,8.248257E-1,8E0,7.1909094E-1,2.8954545E-1,-2.7363637E-1,4.798063E0,-2.4366826E-1,1.378695E0,-3.162257E-1,1.0228099E0,7.507928E-2,1.2315757E0,1.0255802E0,2.9328198E0,-1.4979021E-1,1.1093939E-1,6.3995945E-1,1.3E1,-1.3475503E-2,-1.602239E-2,-9.25567E-3,-1.29825445E-2,2.2538514E-3,-4.5353603E-3,-1.1164771E-2,2.276952E-3,-5.9460094E-3,2.740643E-3,-6.876773E-3,-3.9145767E-4,4.626709E-3,7.99465E-4,9.909272E-3,-7.2106835E-3,-5.014705E-3,1.6196447E-3,4.4628545E-3,-8.518975E-3,3.2926416E-3,8.712564E-3,1.0893793E-2,1.4874491E-2,1.003564E-2,7.320938E-3,1.2948831E-2,1.1485574E-2,1.1915241E-2,1.4171845E-2,1.4902665E-2,1.5807029E-2],"split_indices":[0,4,0,5,4,4,0,4,6,6,5,0,0,4,0,6,6,6,5,5,5,5,6,4,6,4,4,6,6,4,0,0,0,0,0,0,0,0,0,0,0,0,0,0,0,0,0,0,0,0,0,0,0,0,0,0,0,0,0,0,0,0,0],"split_type":[0,0,0,0,0,0,0,0,0,0,0,0,0,0,0,0,0,0,0,0,0,0,0,0,0,0,0,0,0,0,0,0,0,0,0,0,0,0,0,0,0,0,0,0,0,0,0,0,0,0,0,0,0,0,0,0,0,0,0,0,0,0,0],"sum_hessian":[3.8185594E4,2.201921E4,1.6166382E4,1.3885423E4,8.133788E3,6.2073403E3,9.959042E3,1.232935E4,1.5560728E3,3.46286E3,4.670928E3,2.9994922E3,3.207848E3,3.6688755E3,6.2901665E3,6.5366475E3,5.792702E3,1.1598844E3,3.961884E2,1.379191E3,2.083669E3,4.270531E3,4.0039746E2,2.0183727E3,9.811196E2,1.8274246E3,1.3804233E3,1.5057112E3,2.1631643E3,2.7935679E3,3.4965984E3,5.349073E3,1.1875741E3,3.9045698E3,1.8881324E3,1.8367311E2,9.762113E2,3.762395E2,1.9948877E1,4.7867828E2,9.005128E2,1.6145792E3,4.6908975E2,1.119131E3,3.1513997E3,3.5813095E2,4.226652E1,1.1671807E3,8.51192E2,9.349047E2,4.6214912E1,4.3960577E2,1.3878187E3,1.3138121E3,6.661121E1,7.353674E2,7.7034375E2,1.2248436E3,9.3832074E2,5.8885626E2,2.2047117E3,2.1636626E3,1.3329359E3],"tree_param":{"num_deleted":"0","num_feature":"14","num_nodes":"63","size_leaf_vector":"1"}},{"base_weights":[1.8024133E-3,-5.75849E-1,1.2116331E0,-9.7510034E-1,2.560255E-1,9.2013353E-1,1.3975047E0,-1.2198015E0,-6.397603E-1,1.20568804E-1,7.112481E-1,5.0570965E-1,1.1252298E0,1.2401472E0,1.4486214E0,-1.2726219E0,-3.822414E-1,-7.3678523E-1,-5.567439E-2,-1.090989E-1,3.1054017E-1,3.0634612E-1,8.666962E-1,2.847388E-1,6.311344E-1,9.6576434E-1,1.1745487E0,1.2508012E0,3.00981E-1,1.4971908E0,1.4265027E0,-1.3269135E-2,-6.4649275E-3,-1.9349214E-3,-1.1236507E-2,-8.508905E-3,-2.0654325E-3,-4.443569E-3,1.0805946E-3,1.4248736E-3,-3.7234102E-3,4.5383517E-3,1.16179E-3,5.206426E-3,-3.031753E-4,1.0381651E-2,7.4448586E-3,4.393426E-3,-3.8322352E-4,5.718062E-3,1.131966E-2,1.1885278E-2,7.834099E-3,1.1551768E-2,1.4548285E-2,9.627018E-3,1.2731339E-2,1.3021935E-2,-8.443279E-3,1.3039223E-2,1.5077662E-2,1.3423959E-2,1.4499993E-2],"categories":[],"categories_nodes":[],"categories_segments":[],"categories_sizes":[],"default_left":[0,0,0,0,0,0,0,0,0,0,0,0,0,0,0,0,0,0,0,0,0,0,0,0,0,0,0,0,0,0,0,0,0,0,0,0,0,0,0,0,0,0,0,0,0,0,0,0,0,0,0,0,0,0,0,0,0,0,0,0,0,0,0],"id":21,"left_children":[1,3,5,7,9,11,13,15,17,19,21,23,25,27,29,31,33,35,37,39,41,43,45,47,49,51,53,55,57,59,61,-1,-1,-1,-1,-1,-1,-1,-1,-1,-1,-1,-1,-1,-1,-1,-1,-1,-1,-1,-1,-1,-1,-1,-1,-1,-1,-1,-1,-1,-1,-1,-1],"loss_changes":[2.6719082E4,8.59461E3,6.685586E2,1.4342305E3,5.1735767E2,4.0859326E2,5.9510742E1,4.4677344E2,4.180017E2,2.8225476E2,1.20864075E2,4.4003662E1,2.453247E1,1.8203125E1,4.751953E0,3.225879E2,8.378966E1,3.8258398E2,6.69851E1,1.9399081E2,9.8523254E1,3.8637684E1,2.8562744E1,2.8940361E1,2.9703766E1,3.0356323E1,1.2231689E1,1.0953857E1,2.5312353E1,2.3518066E0,6.498047E0,0E0,0E0,0E0,0E0,0E0,0E0,0E0,0E0,0E0,0E0,0E0,0E0,0E0,0E0,0E0,0E0,0E0,0E0,0E0,0E0,0E0,0E0,0E0,0E0,0E0,0E0,0E0,0E0,0E0,0E0,0E0,0E0],"parents":[2147483647,0,0,1,1,2,2,3,3,4,4,5,5,6,6,7,7,8,8,9,9,10,10,11,11,12,12,13,13,14,14,15,15,16,16,17,17,18,18,19,19,20,20,21,21,22,22,23,23,24,24,25,25,26,26,27,27,28,28,29,29,30,30],"right_children":[2,4,6,8,10,12,14,16,18,20,22,24,26,28,30,32,34,36,38,40,42,44,46,48,50,52,54,56,58,60,62,-1,-1,-1,-1,-1,-1,-1,-1,-1,-1,-1,-1,-1,-1,-1,-1,-1,-1,-1,-1,-1,-1,-1,-1,-1,-1,-1,-1,-1,-1,-1,-1],"split_conditions":[2E0,6.243051E-1,3E0,-5.6928664E-2,1E0,5.226707E-1,7.795446E-1,1.4094015E0,1E0,1.1339931E0,1.0255802E0,-1.1354915E-1,9.237137E-1,2.4423637E0,-2.531313E-1,1E0,1.0584848E0,1.1695161E0,7.507928E-2,2.7045455E-2,2.3603305E-1,1E0,-1.1767846E-1,2.920996E-1,1.4359031E0,-1.8242425E-1,2.9328198E0,1E0,-1.1354915E-1,1E0,1.1086875E0,-1.3269135E-2,-6.4649275E-3,-1.9349214E-3,-1.1236507E-2,-8.508905E-3,-2.0654325E-3,-4.443569E-3,1.0805946E-3,1.4248736E-3,-3.7234102E-3,4.5383517E-3,1.16179E-3,5.206426E-3,-3.031753E-4,1.0381651E-2,7.4448586E-3,4.393426E-3,-3.8322352E-4,5.718062E-3,1.131966E-2,1.1885278E-2,7.834099E-3,1.1551768E-2,1.4548285E-2,9.627018E-3,1.2731339E-2,1.3021935E-2,-8.443279E-3,1.3039223E-2,1.5077662E-2,1.3423959E-2,1.4499993E-2],"split_indices":[8,4,8,4,1,4,4,5,1,4,4,4,4,6,6,1,6,5,4,6,6,7,5,5,5,6,4,2,4,2,4,0,0,0,0,0,0,0,0,0,0,0,0,0,0,0,0,0,0,0,0,0,0,0,0,0,0,0,0,0,0,0,0],"split_type":[0,0,0,0,0,0,0,0,0,0,0,0,0,0,0,0,0,0,0,0,0,0,0,0,0,0,0,0,0,0,0,0,0,0,0,0,0,0,0,0,0,0,0,0,0,0,0,0,0,0,0,0,0,0,0,0,0,0,0,0,0,0,0],"sum_hessian":[3.8231273E4,2.587639E4,1.2354883E4,1.7484758E4,8.391633E3,4.8119263E3,7.542956E3,1.0107553E4,7.377204E3,6.46789E3,1.9237426E3,1.5937551E3,3.2181714E3,1.8530697E3,5.689886E3,9.507583E3,5.999701E2,6.3260547E3,1.0511492E3,2.9278835E3,3.5400066E3,5.3426074E2,1.3894818E3,5.779561E2,1.015799E3,7.6310425E2,2.4550671E3,1.8320149E3,2.1054789E1,1.7685519E3,3.9213345E3,8.748299E3,7.592846E2,4.7883328E2,1.211368E2,5.205391E3,1.1206638E3,3.1148315E2,7.396661E2,1.4970089E3,1.4308746E3,2.0370131E3,1.5029934E3,3.2647403E2,2.0778671E2,5.7631287E2,8.1316895E2,3.909792E2,1.8697694E2,9.093487E2,1.0645029E2,3.4200494E2,4.2109933E2,2.2990803E3,1.5598671E2,1.3370491E2,1.6983099E3,1.12441435E1,9.810646E0,9.5467094E1,1.6730847E3,8.635534E2,3.057781E3],"tree_param":{"num_deleted":"0","num_feature":"14","num_nodes":"63","size_leaf_vector":"1"}},{"base_weights":[-1.109506E-2,-5.8053946E-1,1.1927755E0,-1.0481954E0,1.2095034E-1,9.443744E-1,1.431407E0,-1.1316764E0,-3.2230493E-1,-2.1631885E-1,3.9339846E-1,5.8996785E-1,1.1272726E0,1.3407621E0,1.5044385E0,-1.2128621E0,-4.9702907E-1,-4.9870452E-1,9.998587E-2,-3.2870784E-1,2.602271E-1,-2.2876129E-2,4.9467358E-1,2.8451842E-1,8.1038743E-1,1.0600576E0,1.2079657E0,1.1178854E0,1.3863542E0,1.4728633E0,1.5562552E0,-1.3800333E-2,-1.023674E-2,-6.268927E-3,5.480496E-4,-8.401368E-3,-3.6209482E-3,4.5880608E-4,1.7619498E-2,-3.2859953E-4,-5.949238E-3,5.5423174E-3,-7.793487E-4,-2.4001068E-3,1.1721784E-3,3.3713637E-3,8.110112E-3,3.51673E-3,-1.244041E-2,-7.435242E-3,8.239483E-3,1.0430123E-2,1.4628503E-2,1.1798475E-2,1.4468806E-2,-2.8756713E-3,1.1398792E-2,7.0154783E-3,1.4000399E-2,1.4154603E-2,1.5124018E-2,1.5585538E-2,1.0925434E-2],"categories":[],"categories_nodes":[],"categories_segments":[],"categories_sizes":[],"default_left":[0,0,0,0,0,0,0,0,0,0,0,0,0,0,0,0,0,0,0,0,0,0,0,0,0,0,0,0,0,0,0,0,0,0,0,0,0,0,0,0,0,0,0,0,0,0,0,0,0,0,0,0,0,0,0,0,0,0,0,0,0,0,0],"id":22,"left_children":[1,3,5,7,9,11,13,15,17,19,21,23,25,27,29,31,33,35,37,39,41,43,45,47,49,51,53,55,57,59,61,-1,-1,-1,-1,-1,-1,-1,-1,-1,-1,-1,-1,-1,-1,-1,-1,-1,-1,-1,-1,-1,-1,-1,-1,-1,-1,-1,-1,-1,-1,-1,-1],"loss_changes":[2.6035354E4,8.458316E3,7.219863E2,9.371133E2,9.477402E2,3.8693115E2,3.9875E1,7.1436914E2,1.1898566E2,2.4688077E2,2.405766E2,1.3684137E2,2.0512207E1,2.7223633E1,4.1777344E0,3.8806055E2,1.1290683E2,5.2261658E1,4.2097786E1,2.9366336E2,8.751943E1,3.399553E1,2.2844385E2,8.78215E1,2.5222961E1,1.3783936E1,1.0888428E1,1.4934021E1,2.0905762E1,3.5112305E0,2.6098633E-1,0E0,0E0,0E0,0E0,0E0,0E0,0E0,0E0,0E0,0E0,0E0,0E0,0E0,0E0,0E0,0E0,0E0,0E0,0E0,0E0,0E0,0E0,0E0,0E0,0E0,0E0,0E0,0E0,0E0,0E0,0E0,0E0],"parents":[2147483647,0,0,1,1,2,2,3,3,4,4,5,5,6,6,7,7,8,8,9,9,10,10,11,11,12,12,13,13,14,14,15,15,16,16,17,17,18,18,19,19,20,20,21,21,22,22,23,23,24,24,25,25,26,26,27,27,28,28,29,29,30,30],"right_children":[2,4,6,8,10,12,14,16,18,20,22,24,26,28,30,32,34,36,38,40,42,44,46,48,50,52,54,56,58,60,62,-1,-1,-1,-1,-1,-1,-1,-1,-1,-1,-1,-1,-1,-1,-1,-1,-1,-1,-1,-1,-1,-1,-1,-1,-1,-1,-1,-1,-1,-1,-1,-1],"split_conditions":[2E0,3.6714578E-1,5E0,3.125E-2,3E0,5.9399885E-1,8E0,1.1114315E0,4.638139E-2,1.378695E0,9.237137E-1,3E0,1.3717587E0,4.512202E-1,1.3E1,-2.235875E-1,2.5313725E0,-3.3010635E-1,4.798063E0,-1.0818182E-1,2.0646465E-1,1E0,3.846154E-2,1.2315757E0,5.5555556E-2,2.9201336E0,2.9328198E0,-3.9754692E-1,2.1276595E-2,1.193636E0,3.70152E0,-1.3800333E-2,-1.023674E-2,-6.268927E-3,5.480496E-4,-8.401368E-3,-3.6209482E-3,4.5880608E-4,1.7619498E-2,-3.2859953E-4,-5.949238E-3,5.5423174E-3,-7.793487E-4,-2.4001068E-3,1.1721784E-3,3.3713637E-3,8.110112E-3,3.51673E-3,-1.244041E-2,-7.435242E-3,8.239483E-3,1.0430123E-2,1.4628503E-2,1.1798475E-2,1.4468806E-2,-2.8756713E-3,1.1398792E-2,7.0154783E-3,1.4000399E-2,1.4154603E-2,1.5124018E-2,1.5585538E-2,1.0925434E-2],"split_indices":[0,4,0,3,9,4,0,5,4,5,4,0,4,4,0,4,5,4,5,6,6,0,3,6,3,5,4,4,3,4,5,0,0,0,0,0,0,0,0,0,0,0,0,0,0,0,0,0,0,0,0,0,0,0,0,0,0,0,0,0,0,0,0],"split_type":[0,0,0,0,0,0,0,0,0,0,0,0,0,0,0,0,0,0,0,0,0,0,0,0,0,0,0,0,0,0,0,0,0,0,0,0,0,0,0,0,0,0,0,0,0,0,0,0,0,0,0,0,0,0,0,0,0,0,0,0,0,0,0],"sum_hessian":[3.797711E4,2.5782184E4,1.2194924E4,1.5469301E4,1.0312884E4,5.976572E3,6.2183525E3,1.3873375E4,1.5959255E3,4.6081255E3,5.7047583E3,2.0353264E3,3.941245E3,2.7795244E3,3.438828E3,1.2299392E4,1.5739833E3,1.1258014E3,4.7012415E2,3.7290322E3,8.7909314E2,1.1162006E3,4.5885576E3,8.537835E2,1.1815428E3,2.15473E3,1.7865153E3,4.7456577E2,2.3049587E3,2.147104E3,1.2917239E3,6.5276904E3,5.7717017E3,1.2742306E3,2.9975266E2,3.2077444E2,8.05027E2,4.5585767E2,1.4266478E1,1.7666631E3,1.9623691E3,4.702365E2,4.088566E2,4.378794E2,6.7832117E2,3.0640164E3,1.5245413E3,8.18284E2,3.5499477E1,9.925426E0,1.1716174E3,2.0692078E3,8.552214E1,1.601429E3,1.8508629E2,7.1489277E0,4.6741684E2,4.581682E1,2.2591418E3,8.842514E2,1.2628527E3,1.2839634E3,7.7604165E0],"tree_param":{"num_deleted":"0","num_feature":"14","num_nodes":"63","size_leaf_vector":"1"}},{"base_weights":[4.9147516E-4,-6.999088E-1,9.612253E-1,-1.1202507E0,8.844344E-3,2.2236359E-1,1.1909546E0,-1.2007122E0,-5.499903E-1,-2.2177492E-1,3.072852E-1,-1.5390939E-1,7.889656E-1,8.9916E-1,1.3770959E0,-1.3671768E0,-1.0100646E0,-4.1829154E-1,-1.0887347E0,4.238467E-3,-4.7137457E-1,5.8205634E-1,2.1027572E-1,-4.5530096E-1,1.3669918E-1,9.944187E-1,6.782996E-1,5.11142E-1,1.1136484E0,1.2452202E0,1.4310017E0,-1.3244204E-2,-1.5584352E-2,-8.795016E-3,-1.2851001E-2,-5.0668805E-3,1.0081623E-3,-1.54523915E-2,-5.1008225E-3,-4.3441155E-3,1.7935783E-3,-5.582199E-3,4.0855105E-3,1.611905E-3,7.011541E-3,3.1842995E-3,-2.377575E-3,-1.8143063E-2,-4.221388E-3,6.3355645E-4,7.417192E-3,7.4788574E-3,1.1717113E-2,9.815667E-3,5.1844683E-3,3.1754922E-3,6.3484684E-3,9.394939E-3,1.1564066E-2,1.16698425E-2,1.4397977E-2,1.367146E-2,1.4620454E-2],"categories":[],"categories_nodes":[],"categories_segments":[],"categories_sizes":[],"default_left":[0,0,0,0,0,0,0,0,0,0,0,0,0,0,0,0,0,0,0,0,0,0,0,0,0,0,0,0,0,0,0,0,0,0,0,0,0,0,0,0,0,0,0,0,0,0,0,0,0,0,0,0,0,0,0,0,0,0,0,0,0,0,0],"id":23,"left_children":[1,3,5,7,9,11,13,15,17,19,21,23,25,27,29,31,33,35,37,39,41,43,45,47,49,51,53,55,57,59,61,-1,-1,-1,-1,-1,-1,-1,-1,-1,-1,-1,-1,-1,-1,-1,-1,-1,-1,-1,-1,-1,-1,-1,-1,-1,-1,-1,-1,-1,-1,-1,-1],"loss_changes":[2.5652936E4,6.5688564E3,2.7281367E3,6.345547E2,5.6502124E2,8.130846E2,6.651406E2,3.8398242E2,1.2112323E2,2.6127533E2,9.524942E1,2.0079237E2,3.4098755E1,3.971333E2,5.2051758E1,5.1615234E1,2.0231592E2,6.3254105E1,8.813727E1,1.867092E2,1.6830188E2,4.663452E1,1.2825769E2,5.0107788E1,5.1679638E1,2.2596497E1,4.7638184E1,4.0557526E1,2.2151611E1,3.20271E1,9.2421875E0,0E0,0E0,0E0,0E0,0E0,0E0,0E0,0E0,0E0,0E0,0E0,0E0,0E0,0E0,0E0,0E0,0E0,0E0,0E0,0E0,0E0,0E0,0E0,0E0,0E0,0E0,0E0,0E0,0E0,0E0,0E0,0E0],"parents":[2147483647,0,0,1,1,2,2,3,3,4,4,5,5,6,6,7,7,8,8,9,9,10,10,11,11,12,12,13,13,14,14,15,15,16,16,17,17,18,18,19,19,20,20,21,21,22,22,23,23,24,24,25,25,26,26,27,27,28,28,29,29,30,30],"right_children":[2,4,6,8,10,12,14,16,18,20,22,24,26,28,30,32,34,36,38,40,42,44,46,48,50,52,54,56,58,60,62,-1,-1,-1,-1,-1,-1,-1,-1,-1,-1,-1,-1,-1,-1,-1,-1,-1,-1,-1,-1,-1,-1,-1,-1,-1,-1,-1,-1,-1,-1,-1,-1],"split_conditions":[1E0,3.6714578E-1,2E0,1.0429869E0,1.1339931E0,9.237137E-1,3E0,-2.235875E-1,1.0584848E0,2.7045455E-2,-3.162257E-1,3.823572E-2,-1.89E-1,6.085864E-1,8.769807E-1,7.1909094E-1,2.8954545E-1,2.5313725E0,1.8682915E0,-2.4366826E-1,2.276341E0,3E0,8.909091E-1,-4.1194212E-1,1.762501E0,-4.9E-1,-1.06468126E-1,-4.09725E-2,9.237137E-1,7.8571427E-1,5.3846157E-1,-1.3244204E-2,-1.5584352E-2,-8.795016E-3,-1.2851001E-2,-5.0668805E-3,1.0081623E-3,-1.54523915E-2,-5.1008225E-3,-4.3441155E-3,1.7935783E-3,-5.582199E-3,4.0855105E-3,1.611905E-3,7.011541E-3,3.1842995E-3,-2.377575E-3,-1.8143063E-2,-4.221388E-3,6.3355645E-4,7.417192E-3,7.4788574E-3,1.1717113E-2,9.815667E-3,5.1844683E-3,3.1754922E-3,6.3484684E-3,9.394939E-3,1.1564066E-2,1.16698425E-2,1.4397977E-2,1.367146E-2,1.4620454E-2],"split_indices":[1,4,8,5,4,4,8,4,6,6,5,4,6,4,4,6,6,5,5,5,5,9,6,4,5,6,5,4,4,3,3,0,0,0,0,0,0,0,0,0,0,0,0,0,0,0,0,0,0,0,0,0,0,0,0,0,0,0,0,0,0,0,0],"split_type":[0,0,0,0,0,0,0,0,0,0,0,0,0,0,0,0,0,0,0,0,0,0,0,0,0,0,0,0,0,0,0,0,0,0,0,0,0,0,0,0,0,0,0,0,0,0,0,0,0,0,0,0,0,0,0,0,0,0,0,0,0,0,0],"sum_hessian":[3.8122016E4,2.2048273E4,1.6073741E4,1.3840003E4,8.208271E3,3.8126882E3,1.2261054E4,1.2128054E4,1.7119489E3,4.6301387E3,3.5781326E3,2.291272E3,1.521416E3,4.7766484E3,7.4844053E3,6.472743E3,5.655311E3,1.3765245E3,3.3542432E2,2.429924E3,2.2002144E3,9.327278E2,2.6454048E3,1.1247986E3,1.1664735E3,5.308986E2,9.9051746E2,1.7012242E3,3.075424E3,2.175685E3,5.30872E3,5.2937886E3,1.1789545E3,3.8365254E3,1.8187855E3,1.1764045E3,2.0011998E2,1.8693863E2,1.4848567E2,6.929266E2,1.7369976E3,2.0028384E3,1.9737614E2,2.0617297E2,7.265548E2,2.1312852E3,5.1411957E2,2.6081736E1,1.0987169E3,