{"learner":{"attributes":{"best_iteration":"365","best_score":"0.8582687069632037","scikit_learn":"{\"_estimator_type\": \"classifier\"}"},"feature_names":["TotalPastDueCapped","DelinquencyScore","HasAnyDelinquency","HasMajorDelinquency","UtilizationPerAge","LatePaymentsPerCreditLine","IncomePerCreditLine","DebtToIncomeAgeRisk","DelinquencyBucket","UtilizationBucketLateBucket","UtilizationPerCreditLine","UtilizationTimesDelinquency","HighAgeRiskFlag","RevolvingUtilizationCappedLog","WasUtilizationPerAgeImputed","WasLatePaymentsPerCreditLineImputed","WasIncomePerCreditLineImputed","WasUtilizationPerCreditLineImputed"],"feature_types":["float","float","float","float","float","float","float","float","float","float","float","float","float","float","float","float","float","float"],"gradient_booster":{"model":{"cats":{"enc":[],"feature_segments":[],"sorted_idx":[]},"gbtree_model_param":{"num_parallel_tree":"1","num_trees":"466"},"iteration_indptr":[0,1,2,3,4,5,6,7,8,9,10,11,12,13,14,15,16,17,18,19,20,21,22,23,24,25,26,27,28,29,30,31,32,33,34,35,36,37,38,39,40,41,42,43,44,45,46,47,48,49,50,51,52,53,54,55,56,57,58,59,60,61,62,63,64,65,66,67,68,69,70,71,72,73,74,75,76,77,78,79,80,81,82,83,84,85,86,87,88,89,90,91,92,93,94,95,96,97,98,99,100,101,102,103,104,105,106,107,108,109,110,111,112,113,114,115,116,117,118,119,120,121,122,123,124,125,126,127,128,129,130,131,132,133,134,135,136,137,138,139,140,141,142,143,144,145,146,147,148,149,150,151,152,153,154,155,156,157,158,159,160,161,162,163,164,165,166,167,168,169,170,171,172,173,174,175,176,177,178,179,180,181,182,183,184,185,186,187,188,189,190,191,192,193,194,195,196,197,198,199,200,201,202,203,204,205,206,207,208,209,210,211,212,213,214,215,216,217,218,219,220,221,222,223,224,225,226,227,228,229,230,231,232,233,234,235,236,237,238,239,240,241,242,243,244,245,246,247,248,249,250,251,252,253,254,255,256,257,258,259,260,261,262,263,264,265,266,267,268,269,270,271,272,273,274,275,276,277,278,279,280,281,282,283,284,285,286,287,288,289,290,291,292,293,294,295,296,297,298,299,300,301,302,303,304,305,306,307,308,309,310,311,312,313,314,315,316,317,318,319,320,321,322,323,324,325,326,327,328,329,330,331,332,333,334,335,336,337,338,339,340,341,342,343,344,345,346,347,348,349,350,351,352,353,354,355,356,357,358,359,360,361,362,363,364,365,366,367,368,369,370,371,372,373,374,375,376,377,378,379,380,381,382,383,384,385,386,387,388,389,390,391,392,393,394,395,396,397,398,399,400,401,402,403,404,405,406,407,408,409,410,411,412,413,414,415,416,417,418,419,420,421,422,423,424,425,426,427,428,429,430,431,432,433,434,435,436,437,438,439,440,441,442,443,444,445,446,447,448,449,450,451,452,453,454,455,456,457,458,459,460,461,462,463,464,465,466],"tree_info":[0,0,0,0,0,0,0,0,0,0,0,0,0,0,0,0,0,0,0,0,0,0,0,0,0,0,0,0,0,0,0,0,0,0,0,0,0,0,0,0,0,0,0,0,0,0,0,0,0,0,0,0,0,0,0,0,0,0,0,0,0,0,0,0,0,0,0,0,0,0,0,0,0,0,0,0,0,0,0,0,0,0,0,0,0,0,0,0,0,0,0,0,0,0,0,0,0,0,0,0,0,0,0,0,0,0,0,0,0,0,0,0,0,0,0,0,0,0,0,0,0,0,0,0,0,0,0,0,0,0,0,0,0,0,0,0,0,0,0,0,0,0,0,0,0,0,0,0,0,0,0,0,0,0,0,0,0,0,0,0,0,0,0,0,0,0,0,0,0,0,0,0,0,0,0,0,0,0,0,0,0,0,0,0,0,0,0,0,0,0,0,0,0,0,0,0,0,0,0,0,0,0,0,0,0,0,0,0,0,0,0,0,0,0,0,0,0,0,0,0,0,0,0,0,0,0,0,0,0,0,0,0,0,0,0,0,0,0,0,0,0,0,0,0,0,0,0,0,0,0,0,0,0,0,0,0,0,0,0,0,0,0,0,0,0,0,0,0,0,0,0,0,0,0,0,0,0,0,0,0,0,0,0,0,0,0,0,0,0,0,0,0,0,0,0,0,0,0,0,0,0,0,0,0,0,0,0,0,0,0,0,0,0,0,0,0,0,0,0,0,0,0,0,0,0,0,0,0,0,0,0,0,0,0,0,0,0,0,0,0,0,0,0,0,0,0,0,0,0,0,0,0,0,0,0,0,0,0,0,0,0,0,0,0,0,0,0,0,0,0,0,0,0,0,0,0,0,0,0,0,0,0,0,0,0,0,0,0,0,0,0,0,0,0,0,0,0,0,0,0,0,0,0,0,0,0,0,0,0,0,0,0,0,0,0,0,0,0,0,0,0,0,0,0,0,0,0,0,0,0,0,0,0,0,0,0,0,0,0,0,0,0,0,0,0,0,0,0,0,0,0,0,0,0,0,0,0,0,0,0,0,0,0,0,0,0],"trees":[{"base_weights":[-1.8230814E-3,-8.6721563E-1,1.1860342E0,-1.3590299E0,-2.1885717E-2,2.949822E-1,1.4620812E0,-1.4512262E0,-6.220189E-1,-4.413477E-1,2.765464E-1,-2.6251876E-1,9.1828984E-1,1.1092681E0,1.6775297E0,-3.2068312E-2,-2.2343654E-2,-8.909615E-3,-2.7012637E-2,-1.5177367E-3,-1.2478715E-2,9.700267E-3,1.9688052E-3,-1.1865224E-2,2.193594E-3,9.593625E-3,2.1350622E-2,1.2335258E-2,2.7157778E-2,3.011687E-2,3.4714926E-2],"categories":[],"categories_nodes":[],"categories_segments":[],"categories_sizes":[],"default_left":[0,0,0,0,0,0,0,0,0,0,0,0,0,0,0,0,0,0,0,0,0,0,0,0,0,0,0,0,0,0,0],"id":0,"left_children":[1,3,5,7,9,11,13,15,17,19,21,23,25,27,29,-1,-1,-1,-1,-1,-1,-1,-1,-1,-1,-1,-1,-1,-1,-1,-1],"loss_changes":[3.767462E4,8.813814E3,3.7968125E3,9.069121E2,9.7702386E2,1.2718749E3,8.898164E2,5.9921875E2,1.8930334E2,2.1576306E2,1.685669E2,2.383275E2,1.1052905E2,5.4470996E2,6.464844E1,0E0,0E0,0E0,0E0,0E0,0E0,0E0,0E0,0E0,0E0,0E0,0E0,0E0,0E0,0E0,0E0],"parents":[2147483647,0,0,1,1,2,2,3,3,4,4,5,5,6,6,7,7,8,8,9,9,10,10,11,11,12,12,13,13,14,14],"right_children":[2,4,6,8,10,12,14,16,18,20,22,24,26,28,30,-1,-1,-1,-1,-1,-1,-1,-1,-1,-1,-1,-1,-1,-1,-1,-1],"split_conditions":[1E0,3.6338457E-1,2E0,1.1112695E0,9.145146E-1,7.4787766E-1,3E0,-6.0736157E-2,1.0584E0,3.5081393E-1,3.1818182E-3,1.525032E-2,1.0276824E0,5.651812E-1,8.8123554E-1,-3.2068312E-2,-2.2343654E-2,-8.909615E-3,-2.7012637E-2,-1.5177367E-3,-1.2478715E-2,9.700267E-3,1.9688052E-3,-1.1865224E-2,2.193594E-3,9.593625E-3,2.1350622E-2,1.2335258E-2,2.7157778E-2,3.011687E-2,3.4714926E-2],"split_indices":[0,4,8,7,4,13,8,4,6,10,6,4,4,13,13,0,0,0,0,0,0,0,0,0,0,0,0,0,0,0,0],"split_type":[0,0,0,0,0,0,0,0,0,0,0,0,0,0,0,0,0,0,0,0,0,0,0,0,0,0,0,0,0,0,0],"sum_hessian":[3.6646094E4,2.1201498E4,1.5444596E4,1.340187E4,7.799628E3,3.6548533E3,1.1789742E4,1.1908839E4,1.4930311E3,3.2433386E3,4.556289E3,1.9290337E3,1.7258196E3,4.47634E3,7.313403E3,8.1741313E3,3.7347075E3,1.2055336E3,2.8749765E2,1.0833193E3,2.1600193E3,2.095048E3,2.461241E3,1.022193E3,9.068407E2,4.4198584E2,1.2838337E3,1.5053337E3,2.9710059E3,1.869877E3,5.443526E3],"tree_param":{"num_deleted":"0","num_feature":"18","num_nodes":"31","size_leaf_vector":"1"}},{"base_weights":[1.0943302E-2,-8.480198E-1,1.1731976E0,-1.3438622E0,-8.128063E-3,2.8266603E-1,1.4453298E0,-1.4366732E0,-6.112766E-1,-3.9690194E-1,2.9548952E-1,-3.7357593E-1,8.337302E-1,1.1130317E0,1.6543249E0,-3.152388E-2,-2.2557046E-2,-1.4724907E-2,-1.057823E-3,-6.0768385E-4,-1.1482752E-2,4.716197E-3,1.7300354E-2,-1.5680946E-2,-3.5389285E-3,6.79784E-3,2.0129424E-2,1.2740691E-2,2.7005412E-2,3.0888299E-2,3.469882E-2],"categories":[],"categories_nodes":[],"categories_segments":[],"categories_sizes":[],"default_left":[0,0,0,0,0,0,0,0,0,0,0,0,0,0,0,0,0,0,0,0,0,0,0,0,0,0,0,0,0,0,0],"id":1,"left_children":[1,3,5,7,9,11,13,15,17,19,21,23,25,27,29,-1,-1,-1,-1,-1,-1,-1,-1,-1,-1,-1,-1,-1,-1,-1,-1],"loss_changes":[3.6892383E4,8.847795E3,3.8033906E3,9.04584E2,9.3173376E2,1.3315967E3,8.2885156E2,5.0454883E2,1.0429071E2,2.2427686E2,1.4907184E2,1.3434679E2,1.6869312E2,5.2160254E2,5.673047E1,0E0,0E0,0E0,0E0,0E0,0E0,0E0,0E0,0E0,0E0,0E0,0E0,0E0,0E0,0E0,0E0],"parents":[2147483647,0,0,1,1,2,2,3,3,4,4,5,5,6,6,7,7,8,8,9,9,10,10,11,11,12,12,13,13,14,14],"right_children":[2,4,6,8,10,12,14,16,18,20,22,24,26,28,30,-1,-1,-1,-1,-1,-1,-1,-1,-1,-1,-1,-1,-1,-1,-1,-1],"split_conditions":[1E0,3.6338457E-1,2E0,1.1112695E0,9.46152E-1,5.3450125E-1,3E0,-6.0736157E-2,2.5313725E0,3.5081393E-1,1.3354347E0,1.1250504E-3,1.1179793E-2,5.651812E-1,1.2192893E0,-3.152388E-2,-2.2557046E-2,-1.4724907E-2,-1.057823E-3,-6.0768385E-4,-1.1482752E-2,4.716197E-3,1.7300354E-2,-1.5680946E-2,-3.5389285E-3,6.79784E-3,2.0129424E-2,1.2740691E-2,2.7005412E-2,3.0888299E-2,3.469882E-2],"split_indices":[0,4,8,7,4,13,8,4,7,10,13,11,11,13,13,0,0,0,0,0,0,0,0,0,0,0,0,0,0,0,0],"split_type":[0,0,0,0,0,0,0,0,0,0,0,0,0,0,0,0,0,0,0,0,0,0,0,0,0,0,0,0,0,0,0],"sum_hessian":[3.694965E4,2.1246855E4,1.5702792E4,1.3358235E4,7.888621E3,3.6771975E3,1.2025594E4,1.1853263E4,1.5049727E3,3.46038E3,4.428241E3,1.67789E3,1.9993076E3,4.6498545E3,7.3757393E3,8.156726E3,3.6965364E3,1.2277661E3,2.7720657E2,1.1305088E3,2.329871E3,4.0123767E3,4.158645E2,5.398573E2,1.1380327E3,5.211497E2,1.4781578E3,1.5505034E3,3.099351E3,3.143163E3,4.2325767E3],"tree_param":{"num_deleted":"0","num_feature":"18","num_nodes":"31","size_leaf_vector":"1"}},{"base_weights":[-7.5422674E-3,-6.9791013E-1,1.4145862E0,-1.2371303E0,1.4309722E-1,1.1405119E0,1.6728908E0,-1.4393957E0,-8.750493E-1,-3.1757495E-1,4.1954428E-1,7.452142E-1,1.3363825E0,1.5791285E0,3.4942146E-2,-2.9872963E-2,-1.0818836E-2,-1.960972E-2,-7.730885E-4,-1.399336E-4,-1.0676473E-2,4.90351E-3,1.9033104E-2,8.991578E-3,1.9373136E-2,2.557333E-2,3.221196E-2,2.8500447E-2,3.3031493E-2],"categories":[],"categories_nodes":[],"categories_segments":[],"categories_sizes":[],"default_left":[0,0,0,0,0,0,0,0,0,0,0,0,0,0,0,0,0,0,0,0,0,0,0,0,0,0,0,0,0],"id":2,"left_children":[1,3,5,7,9,11,13,15,17,19,21,23,25,27,-1,-1,-1,-1,-1,-1,-1,-1,-1,-1,-1,-1,-1,-1,-1],"loss_changes":[3.593316E4,1.1175266E4,8.401172E2,1.0947773E3,1.2264045E3,4.4587988E2,3.3958984E1,4.6566992E2,4.740708E2,2.4192947E2,5.56787E2,1.25311646E2,5.4425293E1,2.285791E1,0E0,0E0,0E0,0E0,0E0,0E0,0E0,0E0,0E0,0E0,0E0,0E0,0E0,0E0,0E0],"parents":[2147483647,0,0,1,1,2,2,3,3,4,4,5,5,6,6,7,7,8,8,9,9,10,10,11,11,12,12,13,13],"right_children":[2,4,6,8,10,12,14,16,18,20,22,24,26,28,-1,-1,-1,-1,-1,-1,-1,-1,-1,-1,-1,-1,-1,-1,-1],"split_conditions":[2E0,4.0162325E-1,5E0,-6.0736157E-2,9.145146E-1,5.815829E-1,8E0,1.4094816E0,1.0950474E-5,-1.6587879E-1,1.1103692E-2,3E0,1.3354347E0,1.0191402E0,3.4942146E-2,-2.9872963E-2,-1.0818836E-2,-1.960972E-2,-7.730885E-4,-1.399336E-4,-1.0676473E-2,4.90351E-3,1.9033104E-2,8.991578E-3,1.9373136E-2,2.557333E-2,3.221196E-2,2.8500447E-2,3.3031493E-2],"split_indices":[1,4,1,4,4,13,1,7,11,6,11,1,13,13,0,0,0,0,0,0,0,0,0,0,0,0,0,0,0],"split_type":[0,0,0,0,0,0,0,0,0,0,0,0,0,0,0,0,0,0,0,0,0,0,0,0,0,0,0,0,0],"sum_hessian":[3.6596293E4,2.4637713E4,1.195858E4,1.5012529E4,9.625185E3,5.809309E3,6.1492705E3,9.626352E3,5.3861772E3,3.608333E3,6.0168516E3,1.9296622E3,3.8796467E3,2.7425142E3,3.4067566E3,9.075873E3,5.5047845E2,4.7818345E3,6.0434265E2,1.4838721E3,2.124461E3,4.535427E3,1.4814244E3,8.3516327E2,1.0944989E3,3.217427E3,6.622198E2,8.946262E2,1.8478878E3],"tree_param":{"num_deleted":"0","num_feature":"18","num_nodes":"29","size_leaf_vector":"1"}},{"base_weights":[-1.0900257E-2,-8.387893E-1,1.1181916E0,-1.3121998E0,-3.828071E-2,2.4551952E-1,1.3844339E0,-1.4014338E0,-6.0108566E-1,-4.1331998E-1,2.5390896E-1,-2.1444535E-1,9.225979E-1,1.1145861E0,1.6352363E0,-3.1523846E-2,-2.3865853E-2,-7.245718E-3,-1.9034678E-2,-1.0500429E-2,3.3744683E-3,6.313266E-3,-6.394076E-3,-1.3462234E-2,1.9870633E-3,2.1435762E-2,1.571877E-2,1.4397252E-2,2.6321407E-2,3.1161463E-2,3.447858E-2],"categories":[],"categories_nodes":[],"categories_segments":[],"categories_sizes":[],"default_left":[0,0,0,0,0,0,0,0,0,0,0,0,0,0,0,0,0,0,0,0,0,0,0,0,0,0,0,0,0,0,0],"id":3,"left_children":[1,3,5,7,9,11,13,15,17,19,21,23,25,27,29,-1,-1,-1,-1,-1,-1,-1,-1,-1,-1,-1,-1,-1,-1,-1,-1],"loss_changes":[3.4046258E4,7.962497E3,3.5775918E3,8.34209E2,8.5646106E2,1.123875E3,7.9252734E2,4.2011914E2,1.2166986E2,2.2310529E2,1.5573749E2,3.0979944E2,2.6217163E1,4.4896777E2,3.3176758E1,0E0,0E0,0E0,0E0,0E0,0E0,0E0,0E0,0E0,0E0,0E0,0E0,0E0,0E0,0E0,0E0],"parents":[2147483647,0,0,1,1,2,2,3,3,4,4,5,5,6,6,7,7,8,8,9,9,10,10,11,11,12,12,13,13,14,14],"right_children":[2,4,6,8,10,12,14,16,18,20,22,24,26,28,30,-1,-1,-1,-1,-1,-1,-1,-1,-1,-1,-1,-1,-1,-1,-1,-1],"split_conditions":[1E0,3.6338457E-1,2E0,1.1112695E0,9.46152E-1,1.1103692E-2,5E0,-2.1779126E-1,4.9636364E-1,1.4614838E0,5E0,2.8675988E-3,-1.2727273E-2,6.036916E-1,9E0,-3.1523846E-2,-2.3865853E-2,-7.245718E-3,-1.9034678E-2,-1.0500429E-2,3.3744683E-3,6.313266E-3,-6.394076E-3,-1.3462234E-2,1.9870633E-3,2.1435762E-2,1.571877E-2,1.4397252E-2,2.6321407E-2,3.1161463E-2,3.447858E-2],"split_indices":[0,4,1,7,4,11,1,4,6,7,9,11,6,4,1,0,0,0,0,0,0,0,0,0,0,0,0,0,0,0,0],"split_type":[0,0,0,0,0,0,0,0,0,0,0,0,0,0,0,0,0,0,0,0,0,0,0,0,0,0,0,0,0,0,0],"sum_hessian":[3.6418645E4,2.1012762E4,1.5405881E4,1.3202465E4,7.810297E3,3.6031855E3,1.1802695E4,1.1727496E4,1.4749688E3,3.421383E3,4.3889136E3,2.1455332E3,1.4576521E3,5.692644E3,6.1100513E3,6.365215E3,5.3622817E3,8.815384E2,5.9343036E2,2.8721038E3,5.4927936E2,3.9647202E3,4.241935E2,8.719446E2,1.2735887E3,6.868352E2,7.708169E2,1.9285571E3,3.7640872E3,3.293284E3,2.816767E3],"tree_param":{"num_deleted":"0","num_feature":"18","num_nodes":"31","size_leaf_vector":"1"}},{"base_weights":[1.2592735E-3,-8.1240505E-1,1.1072419E0,-1.2899649E0,-1.0967782E-2,2.7469882E-1,1.361712E0,-1.3712455E0,-6.3147414E-1,-3.4534407E-1,2.5814986E-1,-2.3681597E-1,8.574331E-1,1.098986E0,1.6081578E0,-3.0905737E-2,-2.3273336E-2,2.0260592E-3,-1.5228244E-2,-8.888952E-3,3.3482239E-3,-7.745946E-4,7.908861E-3,-1.1309099E-2,9.912347E-4,7.814763E-3,1.9339094E-2,1.38455415E-2,2.5890393E-2,3.0277587E-2,3.363304E-2],"categories":[],"categories_nodes":[],"categories_segments":[],"categories_sizes":[],"default_left":[0,0,0,0,0,0,0,0,0,0,0,0,0,0,0,0,0,0,0,0,0,0,0,0,0,0,0,0,0,0,0],"id":4,"left_children":[1,3,5,7,9,11,13,15,17,19,21,23,25,27,29,-1,-1,-1,-1,-1,-1,-1,-1,-1,-1,-1,-1,-1,-1,-1,-1],"loss_changes":[3.3008902E4,8.0867812E3,3.2915547E3,7.049629E2,7.1056213E2,1.0869805E3,7.646914E2,4.1939062E2,1.3981897E2,1.7942078E2,1.7862643E2,1.8323106E2,8.5003174E1,4.551836E2,3.423828E1,0E0,0E0,0E0,0E0,0E0,0E0,0E0,0E0,0E0,0E0,0E0,0E0,0E0,0E0,0E0,0E0],"parents":[2147483647,0,0,1,1,2,2,3,3,4,4,5,5,6,6,7,7,8,8,9,9,10,10,11,11,12,12,13,13,14,14],"right_children":[2,4,6,8,10,12,14,16,18,20,22,24,26,28,30,-1,-1,-1,-1,-1,-1,-1,-1,-1,-1,-1,-1,-1,-1,-1,-1],"split_conditions":[1E0,3.6338457E-1,2E0,1.1112695E0,9.46152E-1,7.4787766E-1,5E0,-2.1779126E-1,-2.2072728E-1,1.4354786E0,1.0853239E0,2.8675988E-3,1.1179793E-2,5.815829E-1,8E0,-3.0905737E-2,-2.3273336E-2,2.0260592E-3,-1.5228244E-2,-8.888952E-3,3.3482239E-3,-7.745946E-4,7.908861E-3,-1.1309099E-2,9.912347E-4,7.814763E-3,1.9339094E-2,1.38455415E-2,2.5890393E-2,3.0277587E-2,3.363304E-2],"split_indices":[1,4,1,7,4,13,1,4,6,7,13,11,11,13,1,0,0,0,0,0,0,0,0,0,0,0,0,0,0,0,0],"split_type":[0,0,0,0,0,0,0,0,0,0,0,0,0,0,0,0,0,0,0,0,0,0,0,0,0,0,0,0,0,0,0],"sum_hessian":[3.667636E4,2.113045E4,1.5545911E4,1.3239086E4,7.891364E3,3.6411963E3,1.1904715E4,1.1781194E4,1.4578918E3,3.5204211E3,4.3709424E3,1.9388105E3,1.7023856E3,5.7692856E3,6.1354287E3,6.3986416E3,5.3825527E3,2.1848802E2,1.2394038E3,2.9520715E3,5.6834955E2,1.3803208E3,2.9906218E3,9.035104E2,1.0353002E3,3.270446E2,1.3753411E3,1.8777566E3,3.891529E3,2.712563E3,3.4228657E3],"tree_param":{"num_deleted":"0","num_feature":"18","num_nodes":"31","size_leaf_vector":"1"}},{"base_weights":[-4.2841956E-3,-7.9069036E-1,1.0786498E0,-1.2560165E0,-5.862485E-3,4.885699E-1,1.4362706E0,-1.3386672E0,-5.984269E-1,-3.5417578E-1,2.867907E-1,-9.5673405E-2,9.281731E-1,1.1898187E0,1.5805916E0,-2.9385552E-2,-2.1013744E-2,-8.573988E-3,-2.1458443E-2,-2.4623494E-3,-1.2535583E-2,4.447692E-3,1.711807E-2,-5.8230525E-3,6.626073E-3,1.2121974E-2,2.1406624E-2,1.77852E-2,2.6817935E-2,2.8433096E-2,3.242969E-2],"categories":[],"categories_nodes":[],"categories_segments":[],"categories_sizes":[],"default_left":[0,0,0,0,0,0,0,0,0,0,0,0,0,0,0,0,0,0,0,0,0,0,0,0,0,0,0,0,0,0,0],"id":5,"left_children":[1,3,5,7,9,11,13,15,17,19,21,23,25,27,29,-1,-1,-1,-1,-1,-1,-1,-1,-1,-1,-1,-1,-1,-1,-1,-1],"loss_changes":[3.1127123E4,7.7317676E3,3.2413477E3,7.1890625E2,8.0396436E2,1.4922573E3,3.3391016E2,4.3842578E2,1.1750409E2,2.2599557E2,1.5557056E2,2.083006E2,1.4877783E2,1.5638477E2,3.152539E1,0E0,0E0,0E0,0E0,0E0,0E0,0E0,0E0,0E0,0E0,0E0,0E0,0E0,0E0,0E0,0E0],"parents":[2147483647,0,0,1,1,2,2,3,3,4,4,5,5,6,6,7,7,8,8,9,9,10,10,11,11,12,12,13,13,14,14],"right_children":[2,4,6,8,10,12,14,16,18,20,22,24,26,28,30,-1,-1,-1,-1,-1,-1,-1,-1,-1,-1,-1,-1,-1,-1,-1,-1],"split_conditions":[1E0,3.6338457E-1,3E0,1.1112695E0,9.7892195E-1,5.651812E-1,5E0,-6.0736157E-2,8.509091E-1,3.593583E-2,1.3354347E0,2E0,1.0351573E0,7.3136836E-1,7.4124706E-1,-2.9385552E-2,-2.1013744E-2,-8.573988E-3,-2.1458443E-2,-2.4623494E-3,-1.2535583E-2,4.447692E-3,1.711807E-2,-5.8230525E-3,6.626073E-3,1.2121974E-2,2.1406624E-2,1.77852E-2,2.6817935E-2,2.8433096E-2,3.242969E-2],"split_indices":[1,4,1,7,4,13,1,4,6,6,13,1,13,13,4,0,0,0,0,0,0,0,0,0,0,0,0,0,0,0,0],"split_type":[0,0,0,0,0,0,0,0,0,0,0,0,0,0,0,0,0,0,0,0,0,0,0,0,0,0,0,0,0,0,0],"sum_hessian":[3.6546566E4,2.1172768E4,1.53738E4,1.3290391E4,7.882376E3,5.8042407E3,9.569559E3,1.1803276E4,1.4871145E3,3.6003123E3,4.282064E3,2.4918293E3,3.3124114E3,3.543636E3,6.025923E3,8.1123306E3,3.6909456E3,1.0996743E3,3.8744025E2,1.9522008E3,1.6481115E3,3.850809E3,4.3125464E2,1.711326E3,7.8050336E2,1.01971027E3,2.2927012E3,1.1922108E3,2.3514253E3,1.2527819E3,4.7731406E3],"tree_param":{"num_deleted":"0","num_feature":"18","num_nodes":"31","size_leaf_vector":"1"}},{"base_weights":[3.716278E-4,-7.8225607E-1,1.0668452E0,-1.2086307E0,1.1219988E-2,2.5103873E-1,1.3150313E0,-1.3075216E0,-4.829458E-1,-3.8749647E-1,1.8994157E-1,-2.8680354E-1,8.3061534E-1,1.0690192E0,1.5535393E0,-2.9204678E-2,-2.1850176E-2,3.6434885E-3,-1.19785555E-2,-1.2546024E-2,-1.490085E-3,7.135482E-3,-1.0856267E-3,-1.2638754E-2,3.0190125E-4,6.3953614E-3,1.8803742E-2,1.4010397E-2,2.5158865E-2,2.7988242E-2,3.1856287E-2],"categories":[],"categories_nodes":[],"categories_segments":[],"categories_sizes":[],"default_left":[0,0,0,0,0,0,0,0,0,0,0,0,0,0,0,0,0,0,0,0,0,0,0,0,0,0,0,0,0,0,0],"id":6,"left_children":[1,3,5,7,9,11,13,15,17,19,21,23,25,27,29,-1,-1,-1,-1,-1,-1,-1,-1,-1,-1,-1,-1,-1,-1,-1,-1],"loss_changes":[3.0501904E4,7.131742E3,3.1295547E3,9.8085547E2,5.2498694E2,1.1267715E3,6.8985547E2,3.9036914E2,1.2781601E2,1.7028793E2,2.0775487E2,1.95871E2,9.551587E1,4.0325586E2,2.8958984E1,0E0,0E0,0E0,0E0,0E0,0E0,0E0,0E0,0E0,0E0,0E0,0E0,0E0,0E0,0E0,0E0],"parents":[2147483647,0,0,1,1,2,2,3,3,4,4,5,5,6,6,7,7,8,8,9,9,10,10,11,11,12,12,13,13,14,14],"right_children":[2,4,6,8,10,12,14,16,18,20,22,24,26,28,30,-1,-1,-1,-1,-1,-1,-1,-1,-1,-1,-1,-1,-1,-1,-1,-1],"split_conditions":[1E0,4.27182E-1,2E0,1.1112695E0,7.951717E-1,7.4787766E-1,5E0,-1.6531482E-1,-2.2072728E-1,5.9345835E-1,2.1424243E-1,2.9479295E-3,1.1103692E-2,8.424595E-3,9.569179E-3,-2.9204678E-2,-2.1850176E-2,3.6434885E-3,-1.19785555E-2,-1.2546024E-2,-1.490085E-3,7.135482E-3,-1.0856267E-3,-1.2638754E-2,3.0190125E-4,6.3953614E-3,1.8803742E-2,1.4010397E-2,2.5158865E-2,2.7988242E-2,3.1856287E-2],"split_indices":[0,13,1,7,13,13,1,13,6,7,6,11,11,11,11,0,0,0,0,0,0,0,0,0,0,0,0,0,0,0,0],"split_type":[0,0,0,0,0,0,0,0,0,0,0,0,0,0,0,0,0,0,0,0,0,0,0,0,0,0,0,0,0,0,0],"sum_hessian":[3.654013E4,2.1074373E4,1.5465756E4,1.3708382E4,7.36599E3,3.6094087E3,1.1856348E4,1.206172E4,1.6466621E3,2.2773765E3,5.088614E3,1.8717372E3,1.7376715E3,5.8438237E3,6.012524E3,7.0431255E3,5.018594E3,2.4305501E2,1.403607E3,1.2864985E3,9.908779E2,3.0252144E3,2.0633992E3,8.738579E2,9.978792E2,3.0988477E2,1.4277867E3,1.9855958E3,3.8582278E3,1.2410364E3,4.7714873E3],"tree_param":{"num_deleted":"0","num_feature":"18","num_nodes":"31","size_leaf_vector":"1"}},{"base_weights":[3.7435947E-3,-7.6368237E-1,1.04662E0,-1.2129617E0,-8.030056E-3,5.1314384E-1,1.3642933E0,-1.27848E0,-3.495514E-1,-3.8252154E-1,2.338369E-1,-6.5803126E-2,9.1928583E-1,1.1416023E0,1.5366517E0,-2.9595524E-2,-2.103014E-2,-1.1184901E-2,2.3449026E-3,-2.252067E-3,-1.2218166E-2,7.936134E-3,-7.6632365E-5,-6.0040867E-3,1.0211465E-2,1.4480129E-2,2.3444828E-2,1.5325791E-2,2.6079666E-2,2.7761811E-2,3.153662E-2],"categories":[],"categories_nodes":[],"categories_segments":[],"categories_sizes":[],"default_left":[0,0,0,0,0,0,0,0,0,0,0,0,0,0,0,0,0,0,0,0,0,0,0,0,0,0,0,0,0,0,0],"id":7,"left_children":[1,3,5,7,9,11,13,15,17,19,21,23,25,27,29,-1,-1,-1,-1,-1,-1,-1,-1,-1,-1,-1,-1,-1,-1,-1,-1],"loss_changes":[2.928529E4,7.155002E3,2.6256133E3,7.4523047E2,7.1248517E2,1.3633505E3,3.669043E2,5.556094E2,9.2206154E1,1.8948285E2,1.8541248E2,3.229482E2,1.6467017E2,2.5501709E2,2.531543E1,0E0,0E0,0E0,0E0,0E0,0E0,0E0,0E0,0E0,0E0,0E0,0E0,0E0,0E0,0E0,0E0],"parents":[2147483647,0,0,1,1,2,2,3,3,4,4,5,5,6,6,7,7,8,8,9,9,10,10,11,11,12,12,13,13,14,14],"right_children":[2,4,6,8,10,12,14,16,18,20,22,24,26,28,30,-1,-1,-1,-1,-1,-1,-1,-1,-1,-1,-1,-1,-1,-1,-1,-1],"split_conditions":[1E0,3.6338457E-1,1E0,1.4614838E0,8.6440426E-1,5.4975307E-1,3E0,-2.1779126E-1,2.5313725E0,-7.636364E-2,2.1424243E-1,2E0,2E0,6.2406677E-1,7.4124706E-1,-2.9595524E-2,-2.103014E-2,-1.1184901E-2,2.3449026E-3,-2.252067E-3,-1.2218166E-2,7.936134E-3,-7.6632365E-5,-6.0040867E-3,1.0211465E-2,1.4480129E-2,2.3444828E-2,1.5325791E-2,2.6079666E-2,2.7761811E-2,3.153662E-2],"split_indices":[0,4,3,7,13,13,0,4,7,6,6,0,0,13,4,0,0,0,0,0,0,0,0,0,0,0,0,0,0,0,0],"split_type":[0,0,0,0,0,0,0,0,0,0,0,0,0,0,0,0,0,0,0,0,0,0,0,0,0,0,0,0,0,0,0],"sum_hessian":[3.658715E4,2.1076828E4,1.5510321E4,1.3216384E4,7.860445E3,5.7920234E3,9.718298E3,1.2282248E4,9.341365E2,3.0857056E3,4.7747393E3,2.3876672E3,3.404356E3,4.2492354E3,5.4690625E3,6.5011294E3,5.781118E3,6.4578436E2,2.8835208E2,1.4176385E3,1.6680669E3,2.8341946E3,1.9405448E3,1.6992914E3,6.883759E2,1.9277942E3,1.4765616E3,1.2885631E3,2.9606724E3,1.1846967E3,4.2843657E3],"tree_param":{"num_deleted":"0","num_feature":"18","num_nodes":"31","size_leaf_vector":"1"}},{"base_weights":[-1.1084032E-3,-7.6192933E-1,1.0278797E0,-1.1383355E0,6.738633E-2,2.4916328E-1,1.2666463E0,-1.227711E0,-4.3657133E-1,-1.9620144E-1,3.0791953E-1,-2.5076234E-1,7.723662E-1,1.0254447E0,1.4986353E0,-2.7836842E-2,-1.8815203E-2,-3.3030713E-3,-1.7633237E-2,-5.4966304E-3,8.803174E-3,1.170486E-2,3.8995338E-3,-1.1259649E-2,7.353215E-4,8.012669E-3,1.8702276E-2,1.3371516E-2,2.4361694E-2,2.8345367E-2,3.1782933E-2],"categories":[],"categories_nodes":[],"categories_segments":[],"categories_sizes":[],"default_left":[0,0,0,0,0,0,0,0,0,0,0,0,0,0,0,0,0,0,0,0,0,0,0,0,0,0,0,0,0,0,0],"id":8,"left_children":[1,3,5,7,9,11,13,15,17,19,21,23,25,27,29,-1,-1,-1,-1,-1,-1,-1,-1,-1,-1,-1,-1,-1,-1,-1,-1],"loss_changes":[2.8548416E4,6.5458535E3,2.8799336E3,9.017871E2,4.1527115E2,9.5324396E2,6.5814453E2,5.974238E2,1.9600623E2,1.5632455E2,1.0628531E2,1.6776134E2,1.0563403E2,3.9686133E2,3.6969727E1,0E0,0E0,0E0,0E0,0E0,0E0,0E0,0E0,0E0,0E0,0E0,0E0,0E0,0E0,0E0,0E0],"parents":[2147483647,0,0,1,1,2,2,3,3,4,4,5,5,6,6,7,7,8,8,9,9,10,10,11,11,12,12,13,13,14,14],"right_children":[2,4,6,8,10,12,14,16,18,20,22,24,26,28,30,-1,-1,-1,-1,-1,-1,-1,-1,-1,-1,-1,-1,-1,-1,-1,-1],"split_conditions":[1E0,5.614794E-1,2E0,1.1694773E0,1.1339931E0,9.164953E-3,5E0,-6.0736157E-2,4.9636364E-1,1.7629597E0,1.1032927E0,2.8675988E-3,1.0687652E0,6.522555E-1,9E0,-2.7836842E-2,-1.8815203E-2,-3.3030713E-3,-1.7633237E-2,-5.4966304E-3,8.803174E-3,1.170486E-2,3.8995338E-3,-1.1259649E-2,7.353215E-4,8.012669E-3,1.8702276E-2,1.3371516E-2,2.4361694E-2,2.8345367E-2,3.1782933E-2],"split_indices":[0,4,1,7,4,11,1,4,6,7,10,11,13,13,1,0,0,0,0,0,0,0,0,0,0,0,0,0,0,0,0],"split_type":[0,0,0,0,0,0,0,0,0,0,0,0,0,0,0,0,0,0,0,0,0,0,0,0,0,0,0,0,0,0,0],"sum_hessian":[3.646243E4,2.0963656E4,1.5498774E4,1.4419472E4,6.544184E3,3.638945E3,1.1859829E4,1.2787901E4,1.6315706E3,3.120644E3,3.42354E3,1.8604229E3,1.7785223E3,5.8218955E3,6.0379336E3,8.1277656E3,4.6601353E3,1.0166206E3,6.1495E2,2.7798652E3,3.4077875E2,9.8578754E2,2.4377524E3,8.926633E2,9.6775946E2,5.455336E2,1.2329886E3,2.0459215E3,3.775974E3,3.202947E3,2.8349868E3],"tree_param":{"num_deleted":"0","num_feature":"18","num_nodes":"31","size_leaf_vector":"1"}},{"base_weights":[-3.0884997E-3,-7.4686736E-1,1.0090288E0,-1.1771741E0,-2.5096945E-2,4.45842E-1,1.350323E0,-1.2373879E0,-3.6382642E-1,-3.690183E-1,2.2285356E-1,-1.2008734E-1,8.7075925E-1,1.11889E0,1.4858593E0,-2.73684E-2,-1.9207757E-2,-2.4205996E-3,-1.7196484E-2,-6.695584E-4,-1.0756158E-2,3.2899915E-3,1.6761584E-2,-6.438788E-3,6.067036E-3,1.1736356E-2,1.9978179E-2,1.8602252E-2,2.6530156E-2,2.7598904E-2,3.079173E-2],"categories":[],"categories_nodes":[],"categories_segments":[],"categories_sizes":[],"default_left":[0,0,0,0,0,0,0,0,0,0,0,0,0,0,0,0,0,0,0,0,0,0,0,0,0,0,0,0,0,0,0],"id":9,"left_children":[1,3,5,7,9,11,13,15,17,19,21,23,25,27,29,-1,-1,-1,-1,-1,-1,-1,-1,-1,-1,-1,-1,-1,-1,-1,-1],"loss_changes":[2.7342838E4,6.5014434E3,2.9542217E3,6.3985547E2,6.674234E2,1.3979844E3,2.944961E2,4.382168E2,1.08165184E2,1.8514175E2,1.6190254E2,2.1321902E2,1.1802417E2,1.3434375E2,2.7154297E1,0E0,0E0,0E0,0E0,0E0,0E0,0E0,0E0,0E0,0E0,0E0,0E0,0E0,0E0,0E0,0E0],"parents":[2147483647,0,0,1,1,2,2,3,3,4,4,5,5,6,6,7,7,8,8,9,9,10,10,11,11,12,12,13,13,14,14],"right_children":[2,4,6,8,10,12,14,16,18,20,22,24,26,28,30,-1,-1,-1,-1,-1,-1,-1,-1,-1,-1,-1,-1,-1,-1,-1,-1],"split_conditions":[1E0,3.6338457E-1,3E0,1.4614838E0,9.145146E-1,5.651812E-1,5E0,-6.0736157E-2,6.933333E-1,3.5081393E-1,1.9376829E0,2E0,1.0351573E0,1.1780306E0,7E0,-2.73684E-2,-1.9207757E-2,-2.4205996E-3,-1.7196484E-2,-6.695584E-4,-1.0756158E-2,3.2899915E-3,1.6761584E-2,-6.438788E-3,6.067036E-3,1.1736356E-2,1.9978179E-2,1.8602252E-2,2.6530156E-2,2.7598904E-2,3.079173E-2],"split_indices":[0,4,1,7,4,13,1,4,6,10,7,1,13,13,1,0,0,0,0,0,0,0,0,0,0,0,0,0,0,0,0],"split_type":[0,0,0,0,0,0,0,0,0,0,0,0,0,0,0,0,0,0,0,0,0,0,0,0,0,0,0,0,0,0,0],"sum_hessian":[3.6318277E4,2.0935113E4,1.5383162E4,1.3114082E4,7.8210317E3,5.8074824E3,9.575679E3,1.2208025E4,9.060573E2,3.2777139E3,4.543318E3,2.4901023E3,3.3173804E3,3.5462395E3,6.0294395E3,8.279841E3,3.9281846E3,6.113157E2,2.9474167E2,1.0997733E3,2.1779407E3,4.153518E3,3.8979984E2,1.688189E3,8.0191327E2,1.037516E3,2.2798643E3,1.8656577E3,1.6805818E3,2.0534329E3,3.9760068E3],"tree_param":{"num_deleted":"0","num_feature":"18","num_nodes":"31","size_leaf_vector":"1"}},{"base_weights":[-2.3640008E-3,-7.2975385E-1,9.8739487E-1,-1.1501913E0,-2.3661064E-2,2.4355474E-1,1.221339E0,-1.3088712E0,-8.3724606E-1,-2.670093E-1,2.887394E-1,-1.8095265E-1,8.5292435E-1,9.278277E-1,1.4079936E0,-2.717702E-2,-9.875697E-3,-1.7647747E-2,3.0944445E-3,-7.403546E-3,4.758333E-3,4.449831E-3,1.5712366E-2,-9.274767E-3,3.0084278E-3,9.5513975E-3,1.9219318E-2,1.0125173E-2,2.2287294E-2,2.6715819E-2,3.0437887E-2],"categories":[],"categories_nodes":[],"categories_segments":[],"categories_sizes":[],"default_left":[0,0,0,0,0,0,0,0,0,0,0,0,0,0,0,0,0,0,0,0,0,0,0,0,0,0,0,0,0,0,0],"id":10,"left_children":[1,3,5,7,9,11,13,15,17,19,21,23,25,27,29,-1,-1,-1,-1,-1,-1,-1,-1,-1,-1,-1,-1,-1,-1,-1,-1],"loss_changes":[2.6080352E4,6.197718E3,2.668213E3,6.45541E2,5.92807E2,9.516195E2,6.345039E2,3.5033887E2,1.9851416E2,2.2874393E2,1.1098422E2,2.0348938E2,5.8889404E1,3.5467603E2,5.1703125E1,0E0,0E0,0E0,0E0,0E0,0E0,0E0,0E0,0E0,0E0,0E0,0E0,0E0,0E0,0E0,0E0],"parents":[2147483647,0,0,1,1,2,2,3,3,4,4,5,5,6,6,7,7,8,8,9,9,10,10,11,11,12,12,13,13,14,14],"right_children":[2,4,6,8,10,12,14,16,18,20,22,24,26,28,30,-1,-1,-1,-1,-1,-1,-1,-1,-1,-1,-1,-1,-1,-1,-1,-1],"split_conditions":[1E0,3.6338457E-1,2E0,-6.0736157E-2,1.1339931E0,1.1103692E-2,3E0,1.3790632E0,2.2749176E0,1.3790632E0,1.3354347E0,1.4097428E-1,1.0687652E0,4.530389E-1,5E0,-2.717702E-2,-9.875697E-3,-1.7647747E-2,3.0944445E-3,-7.403546E-3,4.758333E-3,4.449831E-3,1.5712366E-2,-9.274767E-3,3.0084278E-3,9.5513975E-3,1.9219318E-2,1.0125173E-2,2.2287294E-2,2.6715819E-2,3.0437887E-2],"split_indices":[0,4,8,4,4,11,8,7,7,7,13,13,13,13,0,0,0,0,0,0,0,0,0,0,0,0,0,0,0,0,0],"split_type":[0,0,0,0,0,0,0,0,0,0,0,0,0,0,0,0,0,0,0,0,0,0,0,0,0,0,0,0,0,0,0],"sum_hessian":[3.622206E4,2.087916E4,1.5342898E4,1.3085078E4,7.794082E3,3.6729336E3,1.1669965E4,8.676216E3,4.408863E3,4.3832144E3,3.4108674E3,2.1646975E3,1.5082361E3,4.5431807E3,7.1267837E3,8.172527E3,5.0368866E2,4.218137E3,1.9072528E2,3.6416545E3,7.415598E2,3.0139338E3,3.9693365E2,1.1691743E3,9.955231E2,3.4159036E2,1.1666458E3,1.3975477E3,3.145633E3,4.382759E3,2.7440251E3],"tree_param":{"num_deleted":"0","num_feature":"18","num_nodes":"31","size_leaf_vector":"1"}},{"base_weights":[2.2866523E-3,-5.6450516E-1,1.1999753E0,-1.0309886E0,1.0940285E-1,9.635403E-1,1.428914E0,-1.1156437E0,-2.8790826E-1,-2.4706271E-1,3.5186958E-1,5.990961E-1,1.1461532E0,1.3083284E0,2.9788023E-2,-2.3938317E-2,-9.432399E-3,-9.501076E-3,2.3162786E-3,4.7699906E-4,-8.35593E-3,4.2779786E-3,1.569543E-2,5.1361625E-3,1.68902E-2,1.959185E-2,2.3769733E-2,2.1171836E-2,2.7439231E-2],"categories":[],"categories_nodes":[],"categories_segments":[],"categories_sizes":[],"default_left":[0,0,0,0,0,0,0,0,0,0,0,0,0,0,0,0,0,0,0,0,0,0,0,0,0,0,0,0,0],"id":11,"left_children":[1,3,5,7,9,11,13,15,17,19,21,23,25,27,-1,-1,-1,-1,-1,-1,-1,-1,-1,-1,-1,-1,-1,-1,-1],"loss_changes":[2.4522096E4,7.7089897E3,6.229668E2,9.094697E2,8.672173E2,3.7734814E2,3.6259766E1,6.779678E2,1.127335E2,1.8821101E2,3.5537628E2,1.5927435E2,2.2329102E1,2.62771E1,0E0,0E0,0E0,0E0,0E0,0E0,0E0,0E0,0E0,0E0,0E0,0E0,0E0,0E0,0E0],"parents":[2147483647,0,0,1,1,2,2,3,3,4,4,5,5,6,6,7,7,8,8,9,9,10,10,11,11,12,12,13,13],"right_children":[2,4,6,8,10,12,14,16,18,20,22,24,26,28,-1,-1,-1,-1,-1,-1,-1,-1,-1,-1,-1,-1,-1,-1,-1],"split_conditions":[2E0,3.494449E-1,5E0,3.125E-2,9.145146E-1,5.89772E-1,7E0,1.1112695E0,1.525032E-2,-1.9472727E-1,3.846154E-2,3E0,9.3182045E-1,6.491626E-1,2.9788023E-2,-2.3938317E-2,-9.432399E-3,-9.501076E-3,2.3162786E-3,4.7699906E-4,-8.35593E-3,4.2779786E-3,1.569543E-2,5.1361625E-3,1.68902E-2,1.959185E-2,2.3769733E-2,2.1171836E-2,2.7439231E-2],"split_indices":[1,4,1,5,4,4,1,7,4,6,5,1,4,4,0,0,0,0,0,0,0,0,0,0,0,0,0,0,0],"split_type":[0,0,0,0,0,0,0,0,0,0,0,0,0,0,0,0,0,0,0,0,0,0,0,0,0,0,0,0,0],"sum_hessian":[3.611859E4,2.4516617E4,1.1601974E4,1.448821E4,1.0028407E4,5.714816E3,5.8871577E3,1.3004346E4,1.4838644E3,4.0581316E3,5.970276E3,1.9123462E3,3.80247E3,1.9872439E3,3.8999136E3,1.1544259E4,1.4600874E3,1.01533093E3,4.6853345E2,1.5672129E3,2.4909187E3,4.5313745E3,1.4389014E3,8.0197253E2,1.1103735E3,7.851627E2,3.0173071E3,4.1388553E2,1.5733584E3],"tree_param":{"num_deleted":"0","num_feature":"18","num_nodes":"29","size_leaf_vector":"1"}},{"base_weights":[4.0320302E-3,-7.021897E-1,9.627188E-1,-1.1212063E0,-8.79777E-3,2.3610663E-1,1.1882087E0,-1.2699659E0,-8.268114E-1,-3.2804415E-1,2.4110681E-1,-1.5346827E-1,8.0383736E-1,8.988745E-1,1.3695586E0,-2.433824E-2,-2.8616352E-2,-9.7816E-3,-1.859704E-2,-2.9055073E-4,-1.0692688E-2,-6.9122243E-4,7.714869E-3,-9.407539E-3,2.991867E-3,1.4421957E-2,2.3710463E-2,1.0638797E-2,2.2264771E-2,2.6025074E-2,2.959022E-2],"categories":[],"categories_nodes":[],"categories_segments":[],"categories_sizes":[],"default_left":[0,0,0,0,0,0,0,0,0,0,0,0,0,0,0,0,0,0,0,0,0,0,0,0,0,0,0,0,0,0,0],"id":12,"left_children":[1,3,5,7,9,11,13,15,17,19,21,23,25,27,29,-1,-1,-1,-1,-1,-1,-1,-1,-1,-1,-1,-1,-1,-1,-1,-1],"loss_changes":[2.450985E4,6.055079E3,2.514044E3,5.647754E2,6.268886E2,8.060642E2,6.101133E2,6.747266E1,1.4971973E2,2.2298053E2,1.7601813E2,2.0787515E2,4.3212402E1,3.5291602E2,4.74209E1,0E0,0E0,0E0,0E0,0E0,0E0,0E0,0E0,0E0,0E0,0E0,0E0,0E0,0E0,0E0,0E0],"parents":[2147483647,0,0,1,1,2,2,3,3,4,4,5,5,6,6,7,7,8,8,9,9,10,10,11,11,12,12,13,13,14,14],"right_children":[2,4,6,8,10,12,14,16,18,20,22,24,26,28,30,-1,-1,-1,-1,-1,-1,-1,-1,-1,-1,-1,-1,-1,-1,-1,-1],"split_conditions":[1E0,3.6338457E-1,2E0,-6.0736157E-2,9.46152E-1,1.1103692E-2,3E0,5.4663634E-1,-3.8784884E-2,4.3320632E-1,1.1168836E0,4.322732E-2,1.3354347E0,6.522555E-1,5E0,-2.433824E-2,-2.8616352E-2,-9.7816E-3,-1.859704E-2,-2.9055073E-4,-1.0692688E-2,-6.9122243E-4,7.714869E-3,-9.407539E-3,2.991867E-3,1.4421957E-2,2.3710463E-2,1.0638797E-2,2.2264771E-2,2.6025074E-2,2.959022E-2],"split_indices":[0,4,8,4,4,11,8,6,10,10,13,4,13,13,0,0,0,0,0,0,0,0,0,0,0,0,0,0,0,0,0],"split_type":[0,0,0,0,0,0,0,0,0,0,0,0,0,0,0,0,0,0,0,0,0,0,0,0,0,0,0,0,0,0,0],"sum_hessian":[3.619681E4,2.0842537E4,1.5354272E4,1.2990003E4,7.852533E3,3.6384302E3,1.1715843E4,8.622817E3,4.367186E3,3.4493972E3,4.403136E3,2.1575942E3,1.4808359E3,4.52071E3,7.1951323E3,6.501704E3,2.121113E3,1.0258865E3,3.3412993E3,1.3728989E3,2.0764983E3,1.5133668E3,2.889769E3,1.0557754E3,1.101819E3,1.2239203E3,2.5691562E2,1.6713792E3,2.849331E3,4.459536E3,2.7355962E3],"tree_param":{"num_deleted":"0","num_feature":"18","num_nodes":"31","size_leaf_vector":"1"}},{"base_weights":[1.0593648E-3,-6.837997E-1,9.419249E-1,-1.023155E0,9.563658E-2,4.2791304E-1,1.2612407E0,-1.2292813E0,-7.213732E-1,-4.0268004E-1,1.8722335E-1,-1.0402777E-1,8.20849E-1,1.0348912E0,1.3938498E0,-2.5575638E-2,-1.2320903E-2,-1.6265929E-2,-1.2199723E-3,-2.0668984E-3,-1.5738774E-2,6.1472673E-3,-4.172345E-4,-1.0404541E-2,1.5562874E-3,1.31399175E-2,2.0800702E-2,1.737046E-2,2.4396228E-2,2.5170175E-2,2.8744688E-2],"categories":[],"categories_nodes":[],"categories_segments":[],"categories_sizes":[],"default_left":[0,0,0,0,0,0,0,0,0,0,0,0,0,0,0,0,0,0,0,0,0,0,0,0,0,0,0,0,0,0,0],"id":13,"left_children":[1,3,5,7,9,11,13,15,17,19,21,23,25,27,29,-1,-1,-1,-1,-1,-1,-1,-1,-1,-1,-1,-1,-1,-1,-1,-1],"loss_changes":[2.3135223E4,5.497076E3,2.4798242E3,8.968047E2,2.876194E2,1.2132103E3,2.7466016E2,2.5749023E2,3.5608472E2,1.1139206E2,1.3349199E2,1.8707077E2,1.16789795E2,1.02128174E2,2.8170898E1,0E0,0E0,0E0,0E0,0E0,0E0,0E0,0E0,0E0,0E0,0E0,0E0,0E0,0E0,0E0,0E0],"parents":[2147483647,0,0,1,1,2,2,3,3,4,4,5,5,6,6,7,7,8,8,9,9,10,10,11,11,12,12,13,13,14,14],"right_children":[2,4,6,8,10,12,14,16,18,20,22,24,26,28,30,-1,-1,-1,-1,-1,-1,-1,-1,-1,-1,-1,-1,-1,-1,-1,-1],"split_conditions":[1E0,5.952853E-1,3E0,-6.0736157E-2,6.9632167E-1,5.651812E-1,5E0,1.1895922E0,1.4614838E0,-1.8512396E-2,3.2859504E-1,1.1250504E-3,2E0,1.1780306E0,8.3310866E-1,-2.5575638E-2,-1.2320903E-2,-1.6265929E-2,-1.2199723E-3,-2.0668984E-3,-1.5738774E-2,6.1472673E-3,-4.172345E-4,-1.0404541E-2,1.5562874E-3,1.31399175E-2,2.0800702E-2,1.737046E-2,2.4396228E-2,2.5170175E-2,2.8744688E-2],"split_indices":[0,13,1,4,4,13,1,7,7,6,6,11,1,13,4,0,0,0,0,0,0,0,0,0,0,0,0,0,0,0,0],"split_type":[0,0,0,0,0,0,0,0,0,0,0,0,0,0,0,0,0,0,0,0,0,0,0,0,0,0,0,0,0,0,0],"sum_hessian":[3.5899773E4,2.0776195E4,1.5123576E4,1.4474755E4,6.3014414E3,5.7980684E3,9.325507E3,8.594787E3,5.8799673E3,9.755945E2,5.325847E3,2.462866E3,3.3352026E3,3.4543882E3,5.871119E3,7.9493154E3,6.4547205E2,5.159758E3,7.202094E2,5.5128625E2,4.2430826E2,3.3788726E3,1.9469745E3,7.494063E2,1.7134596E3,1.9156848E3,1.4195178E3,1.8272532E3,1.627135E3,1.4453428E3,4.4257764E3],"tree_param":{"num_deleted":"0","num_feature":"18","num_nodes":"31","size_leaf_vector":"1"}},{"base_weights":[4.4060657E-3,-5.4893756E-1,1.1568129E0,-9.393878E-1,2.1879804E-1,9.2693543E-1,1.3795166E0,-1.1187644E0,-5.521903E-1,1.0336867E-1,7.692308E-1,6.408675E-1,1.1089598E0,1.2217238E0,1.4200106E0,-2.3818323E-2,-8.892853E-3,-1.4031827E-2,-1.1786281E-3,-1.7073968E-3,6.584405E-3,3.9808983E-3,1.6545627E-2,8.073006E-3,1.6435115E-2,2.1097519E-2,2.7110763E-2,2.1542124E-2,2.7428297E-2,2.737924E-2,2.9477281E-2],"categories":[],"categories_nodes":[],"categories_segments":[],"categories_sizes":[],"default_left":[0,0,0,0,0,0,0,0,0,0,0,0,0,0,0,0,0,0,0,0,0,0,0,0,0,0,0,0,0,0,0],"id":14,"left_children":[1,3,5,7,9,11,13,15,17,19,21,23,25,27,29,-1,-1,-1,-1,-1,-1,-1,-1,-1,-1,-1,-1,-1,-1,-1,-1],"loss_changes":[2.295066E4,7.28967E3,5.9286914E2,1.1166035E3,5.1981665E2,2.9642822E2,3.1742188E1,5.3291113E2,3.7564697E2,2.8932715E2,4.562213E1,9.4411804E1,4.155713E1,2.120642E1,6.0341797E0,0E0,0E0,0E0,0E0,0E0,0E0,0E0,0E0,0E0,0E0,0E0,0E0,0E0,0E0,0E0,0E0],"parents":[2147483647,0,0,1,1,2,2,3,3,4,4,5,5,6,6,7,7,8,8,9,9,10,10,11,11,12,12,13,13,14,14],"right_children":[2,4,6,8,10,12,14,16,18,20,22,24,26,28,30,-1,-1,-1,-1,-1,-1,-1,-1,-1,-1,-1,-1,-1,-1,-1,-1],"split_conditions":[2E0,5.952853E-1,5E0,2E0,1.1179793E-2,7.4787766E-1,7.4124706E-1,1.1895922E0,1.1250504E-3,1.1952962E0,9.1446954E-1,3E0,1.3354347E0,8E0,9E0,-2.3818323E-2,-8.892853E-3,-1.4031827E-2,-1.1786281E-3,-1.7073968E-3,6.584405E-3,3.9808983E-3,1.6545627E-2,8.073006E-3,1.6435115E-2,2.1097519E-2,2.7110763E-2,2.1542124E-2,2.7428297E-2,2.737924E-2,2.9477281E-2],"split_indices":[1,13,1,9,11,13,4,7,11,4,13,1,13,1,1,0,0,0,0,0,0,0,0,0,0,0,0,0,0,0,0],"split_type":[0,0,0,0,0,0,0,0,0,0,0,0,0,0,0,0,0,0,0,0,0,0,0,0,0,0,0,0,0,0,0],"sum_hessian":[3.5986098E4,2.431237E4,1.16737295E4,1.6116694E4,8.195675E3,5.751634E3,5.9220957E3,1.1009824E4,5.10687E3,6.778393E3,1.4172814E3,2.2422573E3,3.5093765E3,1.2271803E3,4.6949155E3,9.942639E3,1.0671852E3,3.9174563E3,1.1894137E3,3.6908547E3,3.0875383E3,1.3337071E2,1.2839106E3,9.752733E2,1.266984E3,2.8900842E3,6.192923E2,6.359024E2,5.912779E2,2.4468884E3,2.248027E3],"tree_param":{"num_deleted":"0","num_feature":"18","num_nodes":"31","size_leaf_vector":"1"}},{"base_weights":[1.6451373E-3,-5.2380127E-1,1.1251482E0,-9.746009E-1,1.3329831E-1,8.828282E-1,1.3536695E0,-1.0665945E0,-3.291374E-1,-1.8024163E-1,4.0555963E-1,5.4866797E-1,1.0685813E0,1.2631518E0,2.8479459E-2,-2.265207E-2,-6.1403853E-3,-9.566262E-3,2.6609024E-3,2.7053447E-3,-6.344428E-3,5.4518324E-3,1.6068144E-2,5.7096225E-3,1.4974608E-2,2.0290894E-2,2.648399E-2,1.9469293E-2,2.626323E-2],"categories":[],"categories_nodes":[],"categories_segments":[],"categories_sizes":[],"default_left":[0,0,0,0,0,0,0,0,0,0,0,0,0,0,0,0,0,0,0,0,0,0,0,0,0,0,0,0,0],"id":15,"left_children":[1,3,5,7,9,11,13,15,17,19,21,23,25,27,-1,-1,-1,-1,-1,-1,-1,-1,-1,-1,-1,-1,-1,-1,-1],"loss_changes":[2.1176684E4,7.24069E3,6.283721E2,8.586846E2,8.4935394E2,3.4207275E2,3.111621E1,6.3392285E2,1.2544542E2,2.0002077E2,2.8020483E2,1.0337384E2,4.424292E1,3.272412E1,0E0,0E0,0E0,0E0,0E0,0E0,0E0,0E0,0E0,0E0,0E0,0E0,0E0,0E0,0E0],"parents":[2147483647,0,0,1,1,2,2,3,3,4,4,5,5,6,6,7,7,8,8,9,9,10,10,11,11,12,12,13,13],"right_children":[2,4,6,8,10,12,14,16,18,20,22,24,26,28,-1,-1,-1,-1,-1,-1,-1,-1,-1,-1,-1,-1,-1,-1,-1],"split_conditions":[2E0,3.7593925E-1,5E0,1.0925115E0,1.0276824E0,6.522555E-1,8E0,2.658036E-4,2.2749176E0,3.5081393E-1,1E0,3E0,1.3354347E0,1.5215018E-1,2.8479459E-2,-2.265207E-2,-6.1403853E-3,-9.566262E-3,2.6609024E-3,2.7053447E-3,-6.344428E-3,5.4518324E-3,1.6068144E-2,5.7096225E-3,1.4974608E-2,2.0290894E-2,2.648399E-2,1.9469293E-2,2.626323E-2],"split_indices":[1,4,1,7,4,13,1,11,7,10,0,1,13,10,0,0,0,0,0,0,0,0,0,0,0,0,0,0,0],"split_type":[0,0,0,0,0,0,0,0,0,0,0,0,0,0,0,0,0,0,0,0,0,0,0,0,0,0,0,0,0],"sum_hessian":[3.586696E4,2.4437885E4,1.1429074E4,1.4494539E4,9.943346E3,5.5539106E3,5.875164E3,1.2683931E4,1.8106088E3,4.61995E3,5.323396E3,1.9890338E3,3.5648767E3,2.5911465E3,3.2840178E3,1.1667681E4,1.01625024E3,1.3703904E3,4.402184E2,1.3963734E3,3.2235767E3,3.994308E3,1.3290879E3,8.6325464E2,1.1257792E3,2.9542173E3,6.106594E2,3.9043506E2,2.2007114E3],"tree_param":{"num_deleted":"0","num_feature":"18","num_nodes":"29","size_leaf_vector":"1"}},{"base_weights":[-2.1298504E-3,-5.2304846E-1,1.1119866E0,-9.5612806E-1,1.1254387E-1,8.8211673E-1,1.3378874E0,-1.0296668E0,-2.4018995E-1,-1.341471E-1,4.0088725E-1,5.573339E-1,1.038827E0,1.2655836E0,2.8458856E-2,-2.2237515E-2,-8.234758E-3,-9.06413E-3,2.318508E-3,2.7525013E-3,-5.9995977E-3,5.562827E-3,1.5465086E-2,6.1569624E-3,1.5098122E-2,1.8983146E-2,2.2859635E-2,2.1128923E-2,2.6281783E-2],"categories":[],"categories_nodes":[],"categories_segments":[],"categories_sizes":[],"default_left":[0,0,0,0,0,0,0,0,0,0,0,0,0,0,0,0,0,0,0,0,0,0,0,0,0,0,0,0,0],"id":16,"left_children":[1,3,5,7,9,11,13,15,17,19,21,23,25,27,-1,-1,-1,-1,-1,-1,-1,-1,-1,-1,-1,-1,-1,-1,-1],"loss_changes":[2.0640656E4,6.672141E3,5.837949E2,7.5718066E2,6.990476E2,2.834922E2,2.8816406E1,6.615332E2,1.0259534E2,2.387976E2,2.0562225E2,8.901288E1,3.1127686E1,2.6402344E1,0E0,0E0,0E0,0E0,0E0,0E0,0E0,0E0,0E0,0E0,0E0,0E0,0E0,0E0,0E0],"parents":[2147483647,0,0,1,1,2,2,3,3,4,4,5,5,6,6,7,7,8,8,9,9,10,10,11,11,12,12,13,13],"right_children":[2,4,6,8,10,12,14,16,18,20,22,24,26,28,-1,-1,-1,-1,-1,-1,-1,-1,-1,-1,-1,-1,-1,-1,-1],"split_conditions":[2E0,3.7593925E-1,5E0,4.1244923E-5,1.1339931E0,5.172632E-1,9E0,1.1112695E0,1.525032E-2,-1.825091E-1,1E0,3E0,1.4722383E-2,4.197662E-1,2.8458856E-2,-2.2237515E-2,-8.234758E-3,-9.06413E-3,2.318508E-3,2.7525013E-3,-5.9995977E-3,5.562827E-3,1.5465086E-2,6.1569624E-3,1.5098122E-2,1.8983146E-2,2.2859635E-2,2.1128923E-2,2.6281783E-2],"split_indices":[1,4,1,11,4,4,1,7,4,6,1,1,11,10,0,0,0,0,0,0,0,0,0,0,0,0,0,0,0],"split_type":[0,0,0,0,0,0,0,0,0,0,0,0,0,0,0,0,0,0,0,0,0,0,0,0,0,0,0,0,0],"sum_hessian":[3.556203E4,2.423338E4,1.132865E4,1.4413132E4,9.820249E3,5.6220527E3,5.706598E3,1.3068506E4,1.3446257E3,5.291085E3,4.529164E3,1.834837E3,3.7872153E3,3.10804E3,2.5985579E3,1.1531185E4,1.5373212E3,8.4277075E2,5.0185504E2,2.0029294E3,3.2881555E3,3.410964E3,1.1181998E3,8.153836E2,1.0194535E3,2.0511504E3,1.7360651E3,5.975982E2,2.510442E3],"tree_param":{"num_deleted":"0","num_feature":"18","num_nodes":"29","size_leaf_vector":"1"}},{"base_weights":[3.596293E-3,-5.1091844E-1,1.0963905E0,-8.8765997E-1,2.2230327E-1,8.7618095E-1,1.3143181E0,-1.1145866E0,-5.8067846E-1,1.15714975E-1,7.381856E-1,6.0641176E-1,1.0530292E0,1.169512E0,1.3527615E0,-2.3515081E-2,-8.765132E-3,-1.325701E-2,1.067588E-3,-1.1222576E-3,6.455275E-3,3.5579216E-3,1.5860667E-2,7.5382367E-3,1.5632989E-2,1.9910347E-2,2.6023848E-2,2.010491E-2,2.5514519E-2,2.5967892E-2,2.816429E-2],"categories":[],"categories_nodes":[],"categories_segments":[],"categories_sizes":[],"default_left":[0,0,0,0,0,0,0,0,0,0,0,0,0,0,0,0,0,0,0,0,0,0,0,0,0,0,0,0,0,0,0],"id":17,"left_children":[1,3,5,7,9,11,13,15,17,19,21,23,25,27,29,-1,-1,-1,-1,-1,-1,-1,-1,-1,-1,-1,-1,-1,-1,-1,-1],"loss_changes":[2.0005379E4,6.683033E3,5.4210254E2,1.1102422E3,4.504755E2,2.6773926E2,2.6148438E1,3.7730176E2,3.5487842E2,2.4254498E2,4.1893738E1,8.888275E1,4.395288E1,1.64375E1,7.2041016E0,0E0,0E0,0E0,0E0,0E0,0E0,0E0,0E0,0E0,0E0,0E0,0E0,0E0,0E0,0E0,0E0],"parents":[2147483647,0,0,1,1,2,2,3,3,4,4,5,5,6,6,7,7,8,8,9,9,10,10,11,11,12,12,13,13,14,14],"right_children":[2,4,6,8,10,12,14,16,18,20,22,24,26,28,30,-1,-1,-1,-1,-1,-1,-1,-1,-1,-1,-1,-1,-1,-1,-1,-1],"split_conditions":[2E0,5.952853E-1,5E0,-6.0736157E-2,1.1179793E-2,7.4787766E-1,7.4124706E-1,4.1244923E-5,3.3611548E-3,1.1952962E0,9.1446954E-1,3E0,1.3354347E0,7E0,9E0,-2.3515081E-2,-8.765132E-3,-1.325701E-2,1.067588E-3,-1.1222576E-3,6.455275E-3,3.5579216E-3,1.5860667E-2,7.5382367E-3,1.5632989E-2,1.9910347E-2,2.6023848E-2,2.010491E-2,2.5514519E-2,2.5967892E-2,2.816429E-2],"split_indices":[1,13,1,4,11,13,4,11,11,4,13,1,13,1,1,0,0,0,0,0,0,0,0,0,0,0,0,0,0,0,0],"split_type":[0,0,0,0,0,0,0,0,0,0,0,0,0,0,0,0,0,0,0,0,0,0,0,0,0,0,0,0,0,0,0],"sum_hessian":[3.5575348E4,2.4187445E4,1.1387901E4,1.5978412E4,8.209032E3,5.671572E3,5.7163296E3,9.18222E3,6.796193E3,6.8070005E3,1.4020317E3,2.251533E3,3.420039E3,1.2178547E3,4.4984746E3,8.417942E3,7.642769E2,6.017791E3,7.7840204E2,3.718052E3,3.0889482E3,1.2739251E2,1.2746393E3,9.80037E2,1.2714958E3,2.7879778E3,6.320613E2,4.901501E2,7.2770465E2,2.3052463E3,2.1932283E3],"tree_param":{"num_deleted":"0","num_feature":"18","num_nodes":"31","size_leaf_vector":"1"}},{"base_weights":[-1.897541E-3,-6.295895E-1,8.6801314E-1,-9.514211E-1,9.205536E-2,4.0329903E-1,1.1678629E0,-1.184991E0,-6.9548273E-1,-1.15540795E-1,3.0328357E-1,-1.607696E-2,8.090352E-1,9.5392686E-1,1.2949783E0,-2.4611013E-2,-9.103187E-3,-1.6177632E-2,-4.649038E-3,-3.7293057E-3,1.3386175E-2,1.3738468E-2,4.571147E-3,-1.1224991E-2,1.6384776E-3,1.0007811E-2,1.7935047E-2,1.6343372E-2,2.306579E-2,2.4542054E-2,2.750567E-2],"categories":[],"categories_nodes":[],"categories_segments":[],"categories_sizes":[],"default_left":[0,0,0,0,0,0,0,0,0,0,0,0,0,0,0,0,0,0,0,0,0,0,0,0,0,0,0,0,0,0,0],"id":18,"left_children":[1,3,5,7,9,11,13,15,17,19,21,23,25,27,29,-1,-1,-1,-1,-1,-1,-1,-1,-1,-1,-1,-1,-1,-1,-1,-1],"loss_changes":[1.9357057E4,4.783674E3,2.067835E3,8.478906E2,2.7880066E2,9.930577E2,2.4080469E2,2.4464258E2,3.5577832E2,1.7804404E2,8.911673E1,1.5381296E2,7.7981445E1,8.8177734E1,2.4845703E1,0E0,0E0,0E0,0E0,0E0,0E0,0E0,0E0,0E0,0E0,0E0,0E0,0E0,0E0,0E0,0E0],"parents":[2147483647,0,0,1,1,2,2,3,3,4,4,5,5,6,6,7,7,8,8,9,9,10,10,11,11,12,12,13,13,14,14],"right_children":[2,4,6,8,10,12,14,16,18,20,22,24,26,28,30,-1,-1,-1,-1,-1,-1,-1,-1,-1,-1,-1,-1,-1,-1,-1,-1],"split_conditions":[1E0,6.036916E-1,3E0,-1.5141144E-1,1.1952962E0,7.4787766E-1,5E0,1.3245014E0,1.0429785E0,2.0821002E0,7.6811945E-1,-3.400435E-1,1.0351573E0,1.2449976E0,9E0,-2.4611013E-2,-9.103187E-3,-1.6177632E-2,-4.649038E-3,-3.7293057E-3,1.3386175E-2,1.3738468E-2,4.571147E-3,-1.1224991E-2,1.6384776E-3,1.0007811E-2,1.7935047E-2,1.6343372E-2,2.306579E-2,2.4542054E-2,2.750567E-2],"split_indices":[0,4,1,4,4,13,1,7,7,7,10,13,13,13,1,0,0,0,0,0,0,0,0,0,0,0,0,0,0,0,0],"split_type":[0,0,0,0,0,0,0,0,0,0,0,0,0,0,0,0,0,0,0,0,0,0,0,0,0,0,0,0,0,0,0],"sum_hessian":[3.5446586E4,2.0590805E4,1.485578E4,1.4240656E4,6.3501494E3,5.829347E3,9.026434E3,7.439858E3,6.8007983E3,3.2006785E3,3.149471E3,2.866224E3,2.963123E3,3.3735693E3,5.652864E3,7.000134E3,4.397239E2,5.459968E3,1.3408303E3,2.937981E3,2.6269754E2,5.085972E2,2.6408738E3,4.3684308E2,2.4293809E3,6.6124664E2,2.3018765E3,2.0099818E3,1.3635876E3,3.087913E3,2.5649507E3],"tree_param":{"num_deleted":"0","num_feature":"18","num_nodes":"31","size_leaf_vector":"1"}},{"base_weights":[2.4224175E-3,-5.045054E-1,1.0730586E0,-9.072898E-1,1.2502754E-1,8.5592455E-1,1.2869265E0,-1.0865731E0,-6.2492096E-1,-2.1510717E-1,3.227447E-1,5.1273054E-1,1.0208651E0,1.2177047E0,2.7358187E-2,-2.2650894E-2,-7.317795E-3,-1.4134808E-2,2.3198416E-5,5.1429274E-4,-7.433345E-3,3.940636E-3,1.4277841E-2,5.352302E-3,1.4028963E-2,1.9413782E-2,2.5451478E-2,2.015495E-2,2.5415093E-2],"categories":[],"categories_nodes":[],"categories_segments":[],"categories_sizes":[],"default_left":[0,0,0,0,0,0,0,0,0,0,0,0,0,0,0,0,0,0,0,0,0,0,0,0,0,0,0,0,0],"id":19,"left_children":[1,3,5,7,9,11,13,15,17,19,21,23,25,27,-1,-1,-1,-1,-1,-1,-1,-1,-1,-1,-1,-1,-1,-1,-1],"loss_changes":[1.9167875E4,6.0782686E3,5.226787E2,7.369004E2,6.2918463E2,3.1666797E2,2.6098633E1,2.937168E2,2.9184302E2,1.2995998E2,2.8975653E2,8.361487E1,4.334375E1,2.9734375E1,0E0,0E0,0E0,0E0,0E0,0E0,0E0,0E0,0E0,0E0,0E0,0E0,0E0,0E0,0E0],"parents":[2147483647,0,0,1,1,2,2,3,3,4,4,5,5,6,6,7,7,8,8,9,9,10,10,11,11,12,12,13,13],"right_children":[2,4,6,8,10,12,14,16,18,20,22,24,26,28,-1,-1,-1,-1,-1,-1,-1,-1,-1,-1,-1,-1,-1,-1,-1],"split_conditions":[2E0,4.27182E-1,5E0,-7.598612E-2,9.145146E-1,5.651812E-1,9E0,1.4094816E0,2.8675988E-3,-1.9472727E-1,4E-2,3E0,1.3354347E0,4.197662E-1,2.7358187E-2,-2.2650894E-2,-7.317795E-3,-1.4134808E-2,2.3198416E-5,5.1429274E-4,-7.433345E-3,3.940636E-3,1.4277841E-2,5.352302E-3,1.4028963E-2,1.9413782E-2,2.5451478E-2,2.015495E-2,2.5415093E-2],"split_indices":[1,13,1,4,4,13,1,7,11,6,5,1,13,10,0,0,0,0,0,0,0,0,0,0,0,0,0,0,0],"split_type":[0,0,0,0,0,0,0,0,0,0,0,0,0,0,0,0,0,0,0,0,0,0,0,0,0,0,0,0,0],"sum_hessian":[3.531213E4,2.3965162E4,1.1346969E4,1.4614985E4,9.350176E3,5.637775E3,5.7091934E3,8.933584E3,5.6814023E3,3.4352495E3,5.9149263E3,1.8346577E3,3.8031172E3,3.10206E3,2.6071333E3,8.395513E3,5.38071E2,5.0259277E3,6.554747E2,1.351558E3,2.0836914E3,4.480484E3,1.4344423E3,8.024858E2,1.032172E3,3.182417E3,6.207003E2,6.375722E2,2.4644878E3],"tree_param":{"num_deleted":"0","num_feature":"18","num_nodes":"29","size_leaf_vector":"1"}},{"base_weights":[6.976013E-3,-4.8501492E-1,1.0560523E0,-1.016548E0,-5.4854576E-2,8.392736E-1,1.2726305E0,-1.086289E0,-3.9579207E-1,1.6523972E-1,-5.0158197E-1,5.417669E-1,9.9788916E-1,1.1609198E0,1.3282164E0,-1.761292E-2,-2.3892138E-2,9.766636E-3,-1.0261737E-2,1.1737894E-3,1.3940619E-2,-1.2068833E-2,3.073591E-3,5.3043915E-3,1.4792262E-2,1.6307877E-2,2.089493E-2,1.7838402E-2,2.4601717E-2,2.5884012E-2,2.7967881E-2],"categories":[],"categories_nodes":[],"categories_segments":[],"categories_sizes":[],"default_left":[0,0,0,0,0,0,0,0,0,0,0,0,0,0,0,0,0,0,0,0,0,0,0,0,0,0,0,0,0,0,0],"id":20,"left_children":[1,3,5,7,9,11,13,15,17,19,21,23,25,27,29,-1,-1,-1,-1,-1,-1,-1,-1,-1,-1,-1,-1,-1,-1,-1,-1],"loss_changes":[1.8241477E4,5.4995054E3,5.255049E2,4.6347363E2,1.3081909E3,2.6387036E2,2.94375E1,2.1122754E2,1.1370169E2,5.0403503E2,2.937693E2,1.06411255E2,2.7895508E1,3.0944824E1,2.6274414E0,0E0,0E0,0E0,0E0,0E0,0E0,0E0,0E0,0E0,0E0,0E0,0E0,0E0,0E0,0E0,0E0],"parents":[2147483647,0,0,1,1,2,2,3,3,4,4,5,5,6,6,7,7,8,8,9,9,10,10,11,11,12,12,13,13,14,14],"right_children":[2,4,6,8,10,12,14,16,18,20,22,24,26,28,30,-1,-1,-1,-1,-1,-1,-1,-1,-1,-1,-1,-1,-1,-1,-1,-1],"split_conditions":[2E0,2E0,5E0,1.1895922E0,5E0,8.357282E-3,7E0,1E0,-3.0044848E-1,1.1103692E-2,1.4614838E0,3E0,1.1179793E-2,4.197662E-1,1.3E1,-1.761292E-2,-2.3892138E-2,9.766636E-3,-1.0261737E-2,1.1737894E-3,1.3940619E-2,-1.2068833E-2,3.073591E-3,5.3043915E-3,1.4792262E-2,1.6307877E-2,2.089493E-2,1.7838402E-2,2.4601717E-2,2.5884012E-2,2.7967881E-2],"split_indices":[1,9,1,7,9,11,1,9,6,11,7,1,11,10,1,0,0,0,0,0,0,0,0,0,0,0,0,0,0,0,0],"split_type":[0,0,0,0,0,0,0,0,0,0,0,0,0,0,0,0,0,0,0,0,0,0,0,0,0,0,0,0,0,0,0],"sum_hessian":[3.5337293E4,2.4055824E4,1.1281467E4,1.0757782E4,1.3298043E4,5.6453022E3,5.636165E3,9.6684375E3,1.0893444E3,8.908173E3,4.3898696E3,1.9684058E3,3.6768962E3,1.8931927E3,3.7429722E3,3.3451375E3,6.3233003E3,1.2585379E2,9.6349054E2,7.424661E3,1.4835117E3,3.8007341E3,5.891357E2,8.249857E2,1.14342E3,7.630791E2,2.9138171E3,3.9586176E2,1.497331E3,2.5568025E3,1.1861697E3],"tree_param":{"num_deleted":"0","num_feature":"18","num_nodes":"31","size_leaf_vector":"1"}},{"base_weights":[-6.7553353E-3,-4.8568046E-1,1.0267698E0,-8.991271E-1,1.0517793E-1,8.145552E-1,1.239552E0,-9.762681E-1,-2.4592607E-1,-2.0528153E-1,3.0276236E-1,5.106187E-1,9.777512E-1,1.1652093E0,2.652046E-2,-2.1145906E-2,-8.6997505E-3,-6.2761675E-3,1.4445216E-2,2.1586395E-3,-7.249183E-3,3.8483026E-3,1.4070836E-2,4.380989E-3,1.4438089E-2,1.7989077E-2,2.1292482E-2,1.8677618E-2,2.4103643E-2],"categories":[],"categories_nodes":[],"categories_segments":[],"categories_sizes":[],"default_left":[0,0,0,0,0,0,0,0,0,0,0,0,0,0,0,0,0,0,0,0,0,0,0,0,0,0,0,0,0],"id":21,"left_children":[1,3,5,7,9,11,13,15,17,19,21,23,25,27,-1,-1,-1,-1,-1,-1,-1,-1,-1,-1,-1,-1,-1,-1,-1],"loss_changes":[1.7313521E4,5.840337E3,4.960537E2,7.0697656E2,6.039041E2,2.7296997E2,2.9932617E1,5.4918164E2,9.7942406E1,1.8871738E2,2.6491913E2,1.1865323E2,2.0668701E1,2.3287354E1,0E0,0E0,0E0,0E0,0E0,0E0,0E0,0E0,0E0,0E0,0E0,0E0,0E0,0E0,0E0],"parents":[2147483647,0,0,1,1,2,2,3,3,4,4,5,5,6,6,7,7,8,8,9,9,10,10,11,11,12,12,13,13],"right_children":[2,4,6,8,10,12,14,16,18,20,22,24,26,28,-1,-1,-1,-1,-1,-1,-1,-1,-1,-1,-1,-1,-1,-1,-1],"split_conditions":[2E0,3.7593925E-1,5E0,3.125E-2,9.145146E-1,6.036916E-1,9E0,1.0429785E0,2.0108795E0,3.5081393E-1,1.1907227E-2,3E0,1.4722383E-2,1.318367E-1,2.652046E-2,-2.1145906E-2,-8.6997505E-3,-6.2761675E-3,1.4445216E-2,2.1586395E-3,-7.249183E-3,3.8483026E-3,1.4070836E-2,4.380989E-3,1.4438089E-2,1.7989077E-2,2.1292482E-2,1.8677618E-2,2.4103643E-2],"split_indices":[1,4,1,5,4,4,1,7,7,10,11,1,11,10,0,0,0,0,0,0,0,0,0,0,0,0,0,0,0],"split_type":[0,0,0,0,0,0,0,0,0,0,0,0,0,0,0,0,0,0,0,0,0,0,0,0,0,0,0,0,0],"sum_hessian":[3.497522E4,2.3901521E4,1.1073697E4,1.406226E4,9.839263E3,5.551433E3,5.5222646E3,1.2574706E4,1.4875533E3,3.8246099E3,6.0146523E3,1.9444573E3,3.6069758E3,2.9911587E3,2.531106E3,1.0934159E4,1.6405472E3,1.3923186E3,9.523475E1,1.2760479E3,2.548562E3,4.720426E3,1.2942269E3,8.207072E2,1.12375E3,1.9151211E3,1.6918547E3,4.5157642E2,2.5395823E3],"tree_param":{"num_deleted":"0","num_feature":"18","num_nodes":"29","size_leaf_vector":"1"}},{"base_weights":[-8.4128836E-4,-5.87869E-1,8.1598985E-1,-8.924566E-1,8.562522E-2,3.6973667E-1,1.1067507E0,-1.1153519E0,-6.5949094E-1,-2.4307793E-1,1.923536E-1,-8.468765E-2,7.1704483E-1,8.960919E-1,1.2342275E0,-2.11781E-2,-2.6396504E-2,-9.997801E-3,-1.6472181E-2,-2.68837E-3,-1.704467E-2,6.994276E-3,-6.267807E-4,-4.9283146E-3,4.9652625E-3,1.3039039E-2,2.2172589E-2,1.47654E-2,2.2131445E-2,2.279999E-2,2.6183037E-2],"categories":[],"categories_nodes":[],"categories_segments":[],"categories_sizes":[],"default_left":[0,0,0,0,0,0,0,0,0,0,0,0,0,0,0,0,0,0,0,0,0,0,0,0,0,0,0,0,0,0,0],"id":22,"left_children":[1,3,5,7,9,11,13,15,17,19,21,23,25,27,29,-1,-1,-1,-1,-1,-1,-1,-1,-1,-1,-1,-1,-1,-1,-1,-1],"loss_changes":[1.6738568E4,4.1677676E3,1.8916377E3,7.231045E2,2.2198164E2,9.1027515E2,2.3293066E2,7.7274414E1,1.771875E2,1.0132802E2,1.6856522E2,1.345769E2,8.008911E1,1.0751294E2,3.3370117E1,0E0,0E0,0E0,0E0,0E0,0E0,0E0,0E0,0E0,0E0,0E0,0E0,0E0,0E0,0E0,0E0],"parents":[2147483647,0,0,1,1,2,2,3,3,4,4,5,5,6,6,7,7,8,8,9,9,10,10,11,11,12,12,13,13,14,14],"right_children":[2,4,6,8,10,12,14,16,18,20,22,24,26,28,30,-1,-1,-1,-1,-1,-1,-1,-1,-1,-1,-1,-1,-1,-1,-1,-1],"split_conditions":[1E0,5.952853E-1,3E0,-1.6531482E-1,8.6440426E-1,5.651812E-1,5E0,6.4476365E-1,8.913191E-1,6.834546E-1,2.1424243E-1,2E0,1.3354347E0,1.2318449E0,8E0,-2.11781E-2,-2.6396504E-2,-9.997801E-3,-1.6472181E-2,-2.68837E-3,-1.704467E-2,6.994276E-3,-6.267807E-4,-4.9283146E-3,4.9652625E-3,1.3039039E-2,2.2172589E-2,1.47654E-2,2.2131445E-2,2.279999E-2,2.6183037E-2],"split_indices":[0,13,1,13,13,13,1,6,12,6,6,1,13,13,1,0,0,0,0,0,0,0,0,0,0,0,0,0,0,0,0],"split_type":[0,0,0,0,0,0,0,0,0,0,0,0,0,0,0,0,0,0,0,0,0,0,0,0,0,0,0,0,0,0,0],"sum_hessian":[3.4904676E4,2.031022E4,1.4594453E4,1.3985924E4,6.3242964E3,5.7608364E3,8.833617E3,7.141376E3,6.8445483E3,1.547222E3,4.777074E3,2.4949854E3,3.265851E3,3.3392761E3,5.494341E3,5.6099424E3,1.5314335E3,3.477221E3,3.3673274E3,1.3164758E3,2.3074619E2,2.8062888E3,1.9707855E3,1.6816573E3,8.133279E2,2.8071108E3,4.587403E2,1.916224E3,1.4230522E3,2.4539397E3,3.0404011E3],"tree_param":{"num_deleted":"0","num_feature":"18","num_nodes":"31","size_leaf_vector":"1"}},{"base_weights":[5.300648E-3,-5.747887E-1,8.0845296E-1,-9.125072E-1,1.6556136E-2,3.6750472E-1,1.094221E0,-9.9354255E-1,-3.30932E-1,-8.886303E-2,3.9182135E-1,-7.247557E-2,7.0525914E-1,8.7977505E-1,1.2228634E0,-2.3343869E-2,-1.6127747E-2,-1.0006261E-2,1.5154417E-3,-3.6868271E-3,8.035179E-3,8.5208705E-3,-2.3625555E-2,-1.088499E-2,4.7987237E-4,8.566958E-3,1.6383592E-2,1.48793E-2,2.1379007E-2,2.2671916E-2,2.5885541E-2],"categories":[],"categories_nodes":[],"categories_segments":[],"categories_sizes":[],"default_left":[0,0,0,0,0,0,0,0,0,0,0,0,0,0,0,0,0,0,0,0,0,0,0,0,0,0,0,0,0,0,0],"id":23,"left_children":[1,3,5,7,9,11,13,15,17,19,21,23,25,27,29,-1,-1,-1,-1,-1,-1,-1,-1,-1,-1,-1,-1,-1,-1,-1,-1],"loss_changes":[1.6264449E4,4.0487402E3,1.8425781E3,6.060664E2,2.9187668E2,8.569292E2,2.407461E2,3.6409375E2,1.0950789E2,2.693836E2,8.738127E1,1.1444588E2,1.00918335E2,8.240869E1,2.9973633E1,0E0,0E0,0E0,0E0,0E0,0E0,0E0,0E0,0E0,0E0,0E0,0E0,0E0,0E0,0E0,0E0],"parents":[2147483647,0,0,1,1,2,2,3,3,4,4,5,5,6,6,7,7,8,8,9,9,10,10,11,11,12,12,13,13,14,14],"right_children":[2,4,6,8,10,12,14,16,18,20,22,24,26,28,30,-1,-1,-1,-1,-1,-1,-1,-1,-1,-1,-1,-1,-1,-1,-1,-1],"split_conditions":[1E0,4.3104944E-1,3E0,1.1112695E0,1.6767426E0,5.651812E-1,5E0,-2.1779126E-1,2.0821002E0,1.4614838E0,4.139011E0,-3.400435E-1,1.0191402E0,1.2318449E0,8E0,-2.3343869E-2,-1.6127747E-2,-1.0006261E-2,1.5154417E-3,-3.6868271E-3,8.035179E-3,8.5208705E-3,-2.3625555E-2,-1.088499E-2,4.7987237E-4,8.566958E-3,1.6383592E-2,1.48793E-2,2.1379007E-2,2.2671916E-2,2.5885541E-2],"split_indices":[1,4,1,7,4,13,1,4,7,7,13,13,13,13,1,0,0,0,0,0,0,0,0,0,0,0,0,0,0,0,0],"split_type":[0,0,0,0,0,0,0,0,0,0,0,0,0,0,0,0,0,0,0,0,0,0,0,0,0,0,0,0,0,0,0],"sum_hessian":[3.490524E4,2.0266654E4,1.4638586E4,1.2900024E4,7.36663E3,5.759533E3,8.879053E3,1.1319636E4,1.5803885E3,5.750161E3,1.6164685E3,2.5006448E3,3.2588884E3,3.338032E3,5.5410205E3,5.863451E3,5.4561846E3,1.1171321E3,4.632564E2,4.816186E3,9.339752E2,1.5841011E3,3.2367455E1,4.2471188E2,2.0759329E3,9.5524176E2,2.3036467E3,1.9519022E3,1.3861298E3,2.4838896E3,3.0571309E3],"tree_param":{"num_deleted":"0","num_feature":"18","num_nodes":"31","size_leaf_vector":"1"}},{"base_weights":[-1.6020159E-3,-4.5891508E-1,9.917435E-1,-8.658828E-1,1.056845E-1,7.9166454E-1,1.198432E0,-9.380318E-1,-1.9821765E-1,-2.626997E-1,2.789688E-1,4.7827145E-1,9.495289E-1,1.0832934E0,1.2577765E0,-2.256662E-2,-1.4844381E-2,-5.354335E-3,1.5470933E-2,-7.044917E-3,5.55835E-3,3.6221768E-3,1.3548302E-2,4.6267095E-3,1.3317047E-2,1.8023994E-2,2.3865966E-2,1.7693348E-2,2.2776786E-2,2.445717E-2,2.6581902E-2],"categories":[],"categories_nodes":[],"categories_segments":[],"categories_sizes":[],"default_left":[0,0,0,0,0,0,0,0,0,0,0,0,0,0,0,0,0,0,0,0,0,0,0,0,0,0,0,0,0,0,0],"id":24,"left_children":[1,3,5,7,9,11,13,15,17,19,21,23,25,27,29,-1,-1,-1,-1,-1,-1,-1,-1,-1,-1,-1,-1,-1,-1,-1,-1],"loss_changes":[1.5778155E4,5.466133E3,4.4890234E2,6.643789E2,6.362033E2,2.7332373E2,3.1688477E1,4.612461E2,9.121658E1,1.5453815E2,2.6322656E2,8.553638E1,3.935913E1,1.6369385E1,2.9921875E0,0E0,0E0,0E0,0E0,0E0,0E0,0E0,0E0,0E0,0E0,0E0,0E0,0E0,0E0,0E0,0E0],"parents":[2147483647,0,0,1,1,2,2,3,3,4,4,5,5,6,6,7,7,8,8,9,9,10,10,11,11,12,12,13,13,14,14],"right_children":[2,4,6,8,10,12,14,16,18,20,22,24,26,28,30,-1,-1,-1,-1,-1,-1,-1,-1,-1,-1,-1,-1,-1,-1,-1,-1],"split_conditions":[2E0,3.6338457E-1,5E0,4.1244923E-5,7.951717E-1,5.651812E-1,7E0,-2.1779126E-1,2.0108795E0,1.5940018E0,1.1103692E-2,3E0,1.3354347E0,4.197662E-1,1.3E1,-2.256662E-2,-1.4844381E-2,-5.354335E-3,1.5470933E-2,-7.044917E-3,5.55835E-3,3.6221768E-3,1.3548302E-2,4.6267095E-3,1.3317047E-2,1.8023994E-2,2.3865966E-2,1.7693348E-2,2.2776786E-2,2.445717E-2,2.6581902E-2],"split_indices":[1,4,1,11,13,13,1,4,7,7,11,1,13,10,1,0,0,0,0,0,0,0,0,0,0,0,0,0,0,0,0],"split_type":[0,0,0,0,0,0,0,0,0,0,0,0,0,0,0,0,0,0,0,0,0,0,0,0,0,0,0,0,0,0,0],"sum_hessian":[3.473017E4,2.3783078E4,1.0947092E4,1.382129E4,9.961789E3,5.569852E3,5.3772393E3,1.2471312E4,1.3499781E3,3.184684E3,6.7771045E3,1.8706405E3,3.6992114E3,1.8477166E3,3.529523E3,6.3172764E3,6.1540356E3,1.2621865E3,8.779161E1,2.7343252E3,4.503587E2,5.445169E3,1.3319358E3,8.11785E2,1.0588555E3,3.0984214E3,6.0079016E2,4.151269E2,1.4325896E3,2.4032117E3,1.126311E3],"tree_param":{"num_deleted":"0","num_feature":"18","num_nodes":"31","size_leaf_vector":"1"}},{"base_weights":[-3.7666063E-3,-4.5707747E-1,9.7342056E-1,-8.475924E-1,8.794113E-2,7.5706077E-1,1.1924586E0,-9.172882E-1,-2.6073295E-1,-2.3210166E-1,2.757791E-1,4.7243634E-1,9.206312E-1,1.120682E0,2.5538743E-2,-1.9747555E-2,-7.732985E-3,-7.2620776E-3,7.168619E-3,-6.148792E-3,4.945443E-3,3.3325844E-3,1.256008E-2,5.2874265E-3,1.2764204E-2,1.7315725E-2,2.3639245E-2,1.9722365E-2,2.416867E-2],"categories":[],"categories_nodes":[],"categories_segments":[],"categories_sizes":[],"default_left":[0,0,0,0,0,0,0,0,0,0,0,0,0,0,0,0,0,0,0,0,0,0,0,0,0,0,0,0,0],"id":25,"left_children":[1,3,5,7,9,11,13,15,17,19,21,23,25,27,-1,-1,-1,-1,-1,-1,-1,-1,-1,-1,-1,-1,-1,-1,-1],"loss_changes":[1.52948955E4,5.0213203E3,5.147637E2,5.6045605E2,5.9213245E2,2.5435742E2,2.7672852E1,4.5465137E2,9.300833E1,1.3170613E2,2.3766339E2,6.836401E1,4.601416E1,3.036377E1,0E0,0E0,0E0,0E0,0E0,0E0,0E0,0E0,0E0,0E0,0E0,0E0,0E0,0E0,0E0],"parents":[2147483647,0,0,1,1,2,2,3,3,4,4,5,5,6,6,7,7,8,8,9,9,10,10,11,11,12,12,13,13],"right_children":[2,4,6,8,10,12,14,16,18,20,22,24,26,28,-1,-1,-1,-1,-1,-1,-1,-1,-1,-1,-1,-1,-1,-1,-1],"split_conditions":[2E0,3.6338457E-1,5E0,1E0,8.6440426E-1,6.522555E-1,9E0,1.1112695E0,2.6148707E-1,1.5940018E0,8.61348E-3,3E0,1.3354347E0,1.1644138E0,2.5538743E-2,-1.9747555E-2,-7.732985E-3,-7.2620776E-3,7.168619E-3,-6.148792E-3,4.945443E-3,3.3325844E-3,1.256008E-2,5.2874265E-3,1.2764204E-2,1.7315725E-2,2.3639245E-2,1.9722365E-2,2.416867E-2],"split_indices":[1,4,1,0,13,13,1,7,10,7,11,1,13,13,0,0,0,0,0,0,0,0,0,0,0,0,0,0,0],"split_type":[0,0,0,0,0,0,0,0,0,0,0,0,0,0,0,0,0,0,0,0,0,0,0,0,0,0,0,0,0],"sum_hessian":[3.4525254E4,2.3585963E4,1.0939289E4,1.3741019E4,9.844945E3,5.5100703E3,5.4292188E3,1.2279829E4,1.4611891E3,3.6389758E3,6.205969E3,2.0159902E3,3.4940803E3,2.9571052E3,2.4721135E3,1.0843902E4,1.4359268E3,1.255972E3,2.0521693E2,3.1471729E3,4.9180313E2,4.742207E3,1.4637622E3,8.989402E2,1.1170499E3,2.898278E3,5.9580225E2,1.1813766E3,1.7757288E3],"tree_param":{"num_deleted":"0","num_feature":"18","num_nodes":"29","size_leaf_vector":"1"}},{"base_weights":[-9.042384E-3,-5.5697703E-1,7.5882494E-1,-8.866779E-1,8.091487E-3,3.1956533E-1,1.0463115E0,-9.5092237E-1,-1.9785884E-1,-1.8467608E-1,2.3235177E-1,-8.4043264E-2,6.371246E-1,8.38694E-1,1.1741403E0,-2.1564376E-2,-1.4233611E-2,1.3908307E-3,-1.1908741E-2,8.362473E-4,-8.778766E-3,9.9294875E-3,2.531387E-3,-1.1201958E-2,2.792258E-4,7.902169E-3,1.4967365E-2,1.42915035E-2,2.0268977E-2,2.1189254E-2,2.466906E-2],"categories":[],"categories_nodes":[],"categories_segments":[],"categories_sizes":[],"default_left":[0,0,0,0,0,0,0,0,0,0,0,0,0,0,0,0,0,0,0,0,0,0,0,0,0,0,0,0,0,0,0],"id":26,"left_children":[1,3,5,7,9,11,13,15,17,19,21,23,25,27,29,-1,-1,-1,-1,-1,-1,-1,-1,-1,-1,-1,-1,-1,-1,-1,-1],"loss_changes":[1.4399358E4,3.721959E3,1.7976172E3,5.5670703E2,3.183278E2,7.237584E2,2.2456055E2,3.4801953E2,1.1542829E2,2.2830026E2,9.4402176E1,1.16484924E2,8.331604E1,6.821826E1,3.1291992E1,0E0,0E0,0E0,0E0,0E0,0E0,0E0,0E0,0E0,0E0,0E0,0E0,0E0,0E0,0E0,0E0],"parents":[2147483647,0,0,1,1,2,2,3,3,4,4,5,5,6,6,7,7,8,8,9,9,10,10,11,11,12,12,13,13,14,14],"right_children":[2,4,6,8,10,12,14,16,18,20,22,24,26,28,30,-1,-1,-1,-1,-1,-1,-1,-1,-1,-1,-1,-1,-1,-1,-1,-1],"split_conditions":[1E0,4.3104944E-1,3E0,1.3790632E0,1.1339931E0,5.651812E-1,5E0,-6.0736157E-2,4.9636364E-1,2.6958678E-2,1.1032927E0,-3.400435E-1,1.0351573E0,1.2318449E0,7E0,-2.1564376E-2,-1.4233611E-2,1.3908307E-3,-1.1908741E-2,8.362473E-4,-8.778766E-3,9.9294875E-3,2.531387E-3,-1.1201958E-2,2.792258E-4,7.902169E-3,1.4967365E-2,1.42915035E-2,2.0268977E-2,2.1189254E-2,2.466906E-2],"split_indices":[1,4,1,7,4,13,1,4,6,6,10,13,13,13,1,0,0,0,0,0,0,0,0,0,0,0,0,0,0,0,0],"split_type":[0,0,0,0,0,0,0,0,0,0,0,0,0,0,0,0,0,0,0,0,0,0,0,0,0,0,0,0,0,0,0],"sum_hessian":[3.422027E4,1.9971127E4,1.4249142E4,1.2612647E4,7.358479E3,5.6397285E3,8.609413E3,1.1534629E4,1.0780192E3,3.9548767E3,3.403602E3,2.4826606E3,3.1570676E3,3.289539E3,5.319874E3,7.5214194E3,4.013209E3,6.440102E2,4.3400897E2,2.090482E3,1.8643947E3,9.6851855E2,2.4350835E3,4.2397693E2,2.0586838E3,9.998772E2,2.1571904E3,1.9327281E3,1.3568109E3,1.8321333E3,3.4877407E3],"tree_param":{"num_deleted":"0","num_feature":"18","num_nodes":"31","size_leaf_vector":"1"}},{"base_weights":[-4.0690303E-3,-4.3788868E-1,9.489949E-1,-7.639306E-1,1.7632912E-1,7.434353E-1,1.1587507E0,-9.304272E-1,-4.2441475E-1,6.802617E-2,5.40815E-1,4.4489992E-1,8.7590206E-1,1.0455562E0,1.2172278E0,-1.9837996E-2,-7.5725345E-3,-1.0401681E-2,4.7319215E-3,-1.8980754E-4,1.00499755E-2,3.8204028E-3,1.2725675E-2,7.0311367E-3,1.7092213E-2,1.6564973E-2,2.2712661E-2,1.665359E-2,2.2792531E-2,2.3652855E-2,2.5806438E-2],"categories":[],"categories_nodes":[],"categories_segments":[],"categories_sizes":[],"default_left":[0,0,0,0,0,0,0,0,0,0,0,0,0,0,0,0,0,0,0,0,0,0,0,0,0,0,0,0,0,0,0],"id":27,"left_children":[1,3,5,7,9,11,13,15,17,19,21,23,25,27,29,-1,-1,-1,-1,-1,-1,-1,-1,-1,-1,-1,-1,-1,-1,-1,-1],"loss_changes":[1.4157731E4,4.7135483E3,4.5819238E2,8.669238E2,3.214613E2,2.1213867E2,3.0242188E1,3.4765918E2,3.2078693E2,2.1253528E2,6.1276855E1,6.2114014E1,4.2544434E1,3.2651123E1,3.2558594E0,0E0,0E0,0E0,0E0,0E0,0E0,0E0,0E0,0E0,0E0,0E0,0E0,0E0,0E0,0E0,0E0],"parents":[2147483647,0,0,1,1,2,2,3,3,4,4,5,5,6,6,7,7,8,8,9,9,10,10,11,11,12,12,13,13,14,14],"right_children":[2,4,6,8,10,12,14,16,18,20,22,24,26,28,30,-1,-1,-1,-1,-1,-1,-1,-1,-1,-1,-1,-1,-1,-1,-1,-1],"split_conditions":[2E0,5.952853E-1,5E0,2E0,2.9411765E-2,4.530389E-1,7E0,1.1895922E0,1.4614838E0,1.4354786E0,9.1446954E-1,4E0,1.3354347E0,1.0191402E0,1.3E1,-1.9837996E-2,-7.5725345E-3,-1.0401681E-2,4.7319215E-3,-1.8980754E-4,1.00499755E-2,3.8204028E-3,1.2725675E-2,7.0311367E-3,1.7092213E-2,1.6564973E-2,2.2712661E-2,1.665359E-2,2.2792531E-2,2.3652855E-2,2.5806438E-2],"split_indices":[1,13,1,9,5,13,1,7,7,7,13,1,13,13,1,0,0,0,0,0,0,0,0,0,0,0,0,0,0,0,0],"split_type":[0,0,0,0,0,0,0,0,0,0,0,0,0,0,0,0,0,0,0,0,0,0,0,0,0,0,0,0,0,0,0],"sum_hessian":[3.423949E4,2.353078E4,1.0708709E4,1.5372055E4,8.158724E3,5.4154507E3,5.293258E3,1.0309774E4,5.06228E3,6.2937295E3,1.864995E3,1.6694164E3,3.7460344E3,1.8217491E3,3.4715088E3,9.273289E3,1.0364858E3,4.4239346E3,6.38345E2,5.3405483E3,9.531807E2,4.0340518E2,1.4615898E3,1.3646658E3,3.0475058E2,3.175624E3,5.7041034E2,5.676098E2,1.2541394E3,2.3891223E3,1.0823864E3],"tree_param":{"num_deleted":"0","num_feature":"18","num_nodes":"31","size_leaf_vector":"1"}},{"base_weights":[5.682648E-3,-4.166604E-1,9.377645E-1,-7.882388E-1,8.749827E-2,7.2921544E-1,1.1523647E0,-9.448737E-1,-5.039153E-1,-2.0032363E-1,2.802876E-1,3.6883074E-1,8.600922E-1,1.0583429E0,1.2267061E0,-2.0053295E-2,-6.7621013E-3,-2.7498049E-3,-1.2810892E-2,1.9683507E-3,-7.1137673E-3,3.5192352E-3,1.3076084E-2,5.582831E-3,1.5724799E-2,1.4516862E-2,1.8411363E-2,1.6178174E-2,2.241505E-2,2.3720097E-2,2.577298E-2],"categories":[],"categories_nodes":[],"categories_segments":[],"categories_sizes":[],"default_left":[0,0,0,0,0,0,0,0,0,0,0,0,0,0,0,0,0,0,0,0,0,0,0,0,0,0,0,0,0,0,0],"id":28,"left_children":[1,3,5,7,9,11,13,15,17,19,21,23,25,27,29,-1,-1,-1,-1,-1,-1,-1,-1,-1,-1,-1,-1,-1,-1,-1,-1],"loss_changes":[1.3441327E4,4.402427E3,4.729629E2,6.000615E2,5.5342E2,2.5319507E2,3.1756836E1,3.0368506E2,2.3994775E2,1.8590869E2,2.317175E2,5.2636932E1,2.9196045E1,3.2606934E1,1.8017578E0,0E0,0E0,0E0,0E0,0E0,0E0,0E0,0E0,0E0,0E0,0E0,0E0,0E0,0E0,0E0,0E0],"parents":[2147483647,0,0,1,1,2,2,3,3,4,4,5,5,6,6,7,7,8,8,9,9,10,10,11,11,12,12,13,13,14,14],"right_children":[2,4,6,8,10,12,14,16,18,20,22,24,26,28,30,-1,-1,-1,-1,-1,-1,-1,-1,-1,-1,-1,-1,-1,-1,-1,-1],"split_conditions":[2E0,3.494449E-1,5E0,-6.0736157E-2,9.145146E-1,3.002576E-1,8E0,4.1244923E-5,-2.4307368E-2,3.5081393E-1,1.1907227E-2,4E0,1.1179793E-2,4.197662E-1,1.3E1,-2.0053295E-2,-6.7621013E-3,-2.7498049E-3,-1.2810892E-2,1.9683507E-3,-7.1137673E-3,3.5192352E-3,1.3076084E-2,5.582831E-3,1.5724799E-2,1.4516862E-2,1.8411363E-2,1.6178174E-2,2.241505E-2,2.3720097E-2,2.577298E-2],"split_indices":[1,4,1,4,4,4,1,11,10,10,11,1,11,10,1,0,0,0,0,0,0,0,0,0,0,0,0,0,0,0,0],"split_type":[0,0,0,0,0,0,0,0,0,0,0,0,0,0,0,0,0,0,0,0,0,0,0,0,0,0,0,0,0,0,0],"sum_hessian":[3.4139348E4,2.349388E4,1.0645467E4,1.3525835E4,9.968045E3,5.4056733E3,5.239793E3,8.715997E3,4.8098384E3,3.9964062E3,5.971639E3,1.4441932E3,3.96148E3,2.3330447E3,2.9067483E3,7.955344E3,7.606523E2,1.3094277E3,3.5004106E3,1.365352E3,2.6310542E3,4.672262E3,1.2993767E3,1.1934818E3,2.5071153E2,1.2435319E3,2.7179482E3,4.7570874E2,1.857336E3,1.7882E3,1.1185485E3],"tree_param":{"num_deleted":"0","num_feature":"18","num_nodes":"31","size_leaf_vector":"1"}},{"base_weights":[-1.9454813E-3,-4.1910106E-1,9.2343205E-1,-8.1162757E-1,4.71838E-2,7.158214E-1,1.1389077E0,-8.723234E-1,-1.4039859E-1,-2.243345E-1,2.718069E-1,4.500523E-1,8.6197144E-1,1.0646462E0,2.4512505E-2,-1.8597411E-2,-7.031219E-3,5.5797594E-3,-7.3780487E-3,-6.3471347E-3,5.5855E-3,3.2048007E-3,1.2135484E-2,5.1244693E-3,1.1989244E-2,1.6196344E-2,2.2370024E-2,1.8344026E-2,2.2722218E-2],"categories":[],"categories_nodes":[],"categories_segments":[],"categories_sizes":[],"default_left":[0,0,0,0,0,0,0,0,0,0,0,0,0,0,0,0,0,0,0,0,0,0,0,0,0,0,0,0,0],"id":29,"left_children":[1,3,5,7,9,11,13,15,17,19,21,23,25,27,-1,-1,-1,-1,-1,-1,-1,-1,-1,-1,-1,-1,-1,-1,-1],"loss_changes":[1.31100205E4,4.2856465E3,4.685703E2,5.1663086E2,6.527962E2,2.0695898E2,2.8408691E1,3.4737402E2,1.0167522E2,2.2712793E2,2.1799567E2,5.4328613E1,4.265625E1,2.5447754E1,0E0,0E0,0E0,0E0,0E0,0E0,0E0,0E0,0E0,0E0,0E0,0E0,0E0,0E0,0E0],"parents":[2147483647,0,0,1,1,2,2,3,3,4,4,5,5,6,6,7,7,8,8,9,9,10,10,11,11,12,12,13,13],"right_children":[2,4,6,8,10,12,14,16,18,20,22,24,26,28,-1,-1,-1,-1,-1,-1,-1,-1,-1,-1,-1,-1,-1,-1,-1],"split_conditions":[2E0,2.5157776E-1,5E0,1.4094816E0,9.1446954E-1,5.89772E-1,9E0,3.125E-2,8.2727276E-2,1.4614838E0,1E0,3E0,1.3354347E0,1.0351573E0,2.4512505E-2,-1.8597411E-2,-7.031219E-3,5.5797594E-3,-7.3780487E-3,-6.3471347E-3,5.5855E-3,3.2048007E-3,1.2135484E-2,5.1244693E-3,1.1989244E-2,1.6196344E-2,2.2370024E-2,1.8344026E-2,2.2722218E-2],"split_indices":[1,13,1,7,13,4,1,5,6,7,0,1,13,13,0,0,0,0,0,0,0,0,0,0,0,0,0,0,0],"split_type":[0,0,0,0,0,0,0,0,0,0,0,0,0,0,0,0,0,0,0,0,0,0,0,0,0,0,0,0,0],"sum_hessian":[3.3958766E4,2.3408502E4,1.0550262E4,1.2709821E4,1.0698681E4,5.379959E3,5.1703027E3,1.1653928E4,1.0558937E3,4.841707E3,5.8569736E3,1.9141464E3,3.4658125E3,2.805702E3,2.3646006E3,1.049111E4,1.162818E3,3.7070282E2,6.8519086E2,4.0891257E3,7.5258136E2,4.3980625E3,1.4589113E3,8.384943E2,1.0756521E3,2.8903896E3,5.75423E2,9.295422E2,1.8761598E3],"tree_param":{"num_deleted":"0","num_feature":"18","num_nodes":"29","size_leaf_vector":"1"}},{"base_weights":[8.035988E-3,-4.0199298E-1,9.122797E-1,-7.6841414E-1,1.02917254E-1,6.648278E-1,1.0796108E0,-9.368015E-1,-5.0611055E-1,-1.8265884E-1,2.8616676E-1,3.677471E-1,8.496581E-1,9.2338496E-1,1.1384447E0,-1.9697074E-2,-3.357992E-3,-1.1718648E-2,1.5573272E-3,2.6102304E-3,-6.8552652E-3,4.329519E-3,1.6672218E-2,6.7105317E-3,2.1560855E-2,1.4909865E-2,1.9235862E-2,1.6872013E-2,2.2542829E-2,2.1689542E-2,2.4408989E-2],"categories":[],"categories_nodes":[],"categories_segments":[],"categories_sizes":[],"default_left":[0,0,0,0,0,0,0,0,0,0,0,0,0,0,0,0,0,0,0,0,0,0,0,0,0,0,0,0,0,0,0],"id":30,"left_children":[1,3,5,7,9,11,13,15,17,19,21,23,25,27,29,-1,-1,-1,-1,-1,-1,-1,-1,-1,-1,-1,-1,-1,-1,-1,-1],"loss_changes":[1.258515E4,4.321202E3,4.3531738E2,5.953545E2,5.141524E2,2.3316309E2,5.3854492E1,3.028706E2,2.4755042E2,1.9272772E2,2.2693256E2,3.5558334E1,2.76344E1,2.4447754E1,1.5283203E1,0E0,0E0,0E0,0E0,0E0,0E0,0E0,0E0,0E0,0E0,0E0,0E0,0E0,0E0,0E0,0E0],"parents":[2147483647,0,0,1,1,2,2,3,3,4,4,5,5,6,6,7,7,8,8,9,9,10,10,11,11,12,12,13,13,14,14],"right_children":[2,4,6,8,10,12,14,16,18,20,22,24,26,28,30,-1,-1,-1,-1,-1,-1,-1,-1,-1,-1,-1,-1,-1,-1,-1,-1],"split_conditions":[2E0,3.7593925E-1,3E0,-9.173954E-2,9.145146E-1,6.522555E-1,1.0496417E-2,1.4614838E0,2.6980469E-3,3.5081393E-1,1.3354347E0,2.6908703E0,1.3006281E0,7.8571427E-1,5E0,-1.9697074E-2,-3.357992E-3,-1.1718648E-2,1.5573272E-3,2.6102304E-3,-6.8552652E-3,4.329519E-3,1.6672218E-2,6.7105317E-3,2.1560855E-2,1.4909865E-2,1.9235862E-2,1.6872013E-2,2.2542829E-2,2.1689542E-2,2.4408989E-2],"split_indices":[8,4,8,4,4,13,11,7,11,10,13,7,13,5,0,0,0,0,0,0,0,0,0,0,0,0,0,0,0,0,0],"split_type":[0,0,0,0,0,0,0,0,0,0,0,0,0,0,0,0,0,0,0,0,0,0,0,0,0,0,0,0,0,0,0],"sum_hessian":[3.3938277E4,2.3350162E4,1.0588116E4,1.3531257E4,9.818904E3,4.2778643E3,6.3102524E3,8.235483E3,5.295773E3,3.835777E3,5.9831274E3,1.6450839E3,2.6327803E3,1.7400779E3,4.5701743E3,7.7493296E3,4.861542E2,4.6604565E3,6.3531647E2,1.2956196E3,2.5401575E3,5.311571E3,6.7155664E2,1.5778613E3,6.722254E1,1.3774498E3,1.2553304E3,1.2613593E3,4.787186E2,2.780779E3,1.7893954E3],"tree_param":{"num_deleted":"0","num_feature":"18","num_nodes":"31","size_leaf_vector":"1"}},{"base_weights":[2.125672E-3,-4.0788713E-1,9.052028E-1,-7.97066E-1,3.7349813E-2,6.964213E-1,1.1178511E0,-8.749274E-1,-2.856906E-1,2.029572E-1,-3.3918703E-1,4.1426852E-1,8.4373593E-1,9.892009E-1,1.1814473E0,-1.8534949E-2,-6.542854E-3,-7.7396226E-3,1.1412298E-2,2.975012E-3,1.5430315E-2,-1.0843669E-2,-1.1095755E-3,6.394983E-3,1.6222294E-2,1.5753057E-2,2.2285465E-2,1.3060571E-2,2.0813664E-2,1.7780837E-2,2.378596E-2],"categories":[],"categories_nodes":[],"categories_segments":[],"categories_sizes":[],"default_left":[0,0,0,0,0,0,0,0,0,0,0,0,0,0,0,0,0,0,0,0,0,0,0,0,0,0,0,0,0,0,0],"id":31,"left_children":[1,3,5,7,9,11,13,15,17,19,21,23,25,27,29,-1,-1,-1,-1,-1,-1,-1,-1,-1,-1,-1,-1,-1,-1,-1,-1],"loss_changes":[1.2509012E4,4.0265068E3,4.649795E2,4.9198486E2,6.7574536E2,2.196128E2,3.820459E1,3.0349414E2,1.4275932E2,2.3090659E2,1.8992178E2,6.717175E1,4.941504E1,2.7138428E1,3.7910156E0,0E0,0E0,0E0,0E0,0E0,0E0,0E0,0E0,0E0,0E0,0E0,0E0,0E0,0E0,0E0,0E0],"parents":[2147483647,0,0,1,1,2,2,3,3,4,4,5,5,6,6,7,7,8,8,9,9,10,10,11,11,12,12,13,13,14,14],"right_children":[2,4,6,8,10,12,14,16,18,20,22,24,26,28,30,-1,-1,-1,-1,-1,-1,-1,-1,-1,-1,-1,-1,-1,-1,-1,-1],"split_conditions":[2E0,2.291544E-1,5E0,1.0429785E0,5E0,5.815829E-1,7E0,4.1244923E-5,3.224669E0,1.3354347E0,5.9345835E-1,4E0,1.3354347E0,6.0070353E-3,-1.5199117E-1,-1.8534949E-2,-6.542854E-3,-7.7396226E-3,1.1412298E-2,2.975012E-3,1.5430315E-2,-1.0843669E-2,-1.1095755E-3,6.394983E-3,1.6222294E-2,1.5753057E-2,2.2285465E-2,1.3060571E-2,2.0813664E-2,1.7780837E-2,2.378596E-2],"split_indices":[1,13,1,7,9,13,1,11,7,13,7,1,13,11,10,0,0,0,0,0,0,0,0,0,0,0,0,0,0,0,0],"split_type":[0,0,0,0,0,0,0,0,0,0,0,0,0,0,0,0,0,0,0,0,0,0,0,0,0,0,0,0,0,0,0],"sum_hessian":[3.3777855E4,2.3230701E4,1.0547155E4,1.2396054E4,1.0834647E4,5.3286533E3,5.218502E3,1.0755115E4,1.6409385E3,7.527501E3,3.3071467E3,1.8327623E3,3.4958909E3,1.7424629E3,3.4760393E3,9.822686E3,9.3242957E2,1.4693914E3,1.7154715E2,6.876203E3,6.512977E2,1.9246741E3,1.3824727E3,1.485163E3,3.475993E2,2.9051624E3,5.907284E2,2.376219E2,1.5048411E3,1.0019148E2,3.3758477E3],"tree_param":{"num_deleted":"0","num_feature":"18","num_nodes":"31","size_leaf_vector":"1"}},{"base_weights":[-2.0673554E-3,-4.0629405E-1,8.918985E-1,-7.0632285E-1,1.5313505E-1,6.8935376E-1,1.1032217E0,-7.7361894E-1,-1.6354494E-2,7.295311E-2,5.5060476E-1,4.1165558E-1,8.3021486E-1,1.0297424E0,2.37915E-2,-1.8890893E-2,-1.0664985E-2,8.222277E-3,-5.225057E-3,4.754131E-4,1.1981938E-2,-4.8130247E-4,1.2277561E-2,6.671187E-3,1.5271295E-2,1.569956E-2,2.2161247E-2,1.662758E-2,2.1605603E-2],"categories":[],"categories_nodes":[],"categories_segments":[],"categories_sizes":[],"default_left":[0,0,0,0,0,0,0,0,0,0,0,0,0,0,0,0,0,0,0,0,0,0,0,0,0,0,0,0,0],"id":32,"left_children":[1,3,5,7,9,11,13,15,17,19,21,23,25,27,-1,-1,-1,-1,-1,-1,-1,-1,-1,-1,-1,-1,-1,-1,-1],"loss_changes":[1.21097E4,3.8743186E3,4.4329395E2,6.967495E2,2.5606708E2,2.0678271E2,2.76958E1,5.598447E2,1.4018181E2,1.729518E2,4.970999E1,4.791623E1,4.0805664E1,2.4130127E1,0E0,0E0,0E0,0E0,0E0,0E0,0E0,0E0,0E0,0E0,0E0,0E0,0E0,0E0,0E0],"parents":[2147483647,0,0,1,1,2,2,3,3,4,4,5,5,6,6,7,7,8,8,9,9,10,10,11,11,12,12,13,13],"right_children":[2,4,6,8,10,12,14,16,18,20,22,24,26,28,-1,-1,-1,-1,-1,-1,-1,-1,-1,-1,-1,-1,-1,-1,-1],"split_conditions":[2E0,5.952853E-1,5E0,1.4614838E0,1.1103692E-2,5.651812E-1,9E0,-6.0736157E-2,7.509091E-2,1.9376829E0,9.1446954E-1,4E0,1.3542013E0,4.3320632E-1,2.37915E-2,-1.8890893E-2,-1.0664985E-2,8.222277E-3,-5.225057E-3,4.754131E-4,1.1981938E-2,-4.8130247E-4,1.2277561E-2,6.671187E-3,1.5271295E-2,1.569956E-2,2.2161247E-2,1.662758E-2,2.1605603E-2],"split_indices":[1,13,1,7,11,13,1,4,6,7,13,1,13,10,0,0,0,0,0,0,0,0,0,0,0,0,0,0,0],"split_type":[0,0,0,0,0,0,0,0,0,0,0,0,0,0,0,0,0,0,0,0,0,0,0,0,0,0,0,0,0],"sum_hessian":[3.3508348E4,2.3076154E4,1.0432191E4,1.5021305E4,8.0548506E3,5.333501E3,5.0986904E3,1.3684859E4,1.3364451E3,6.7067705E3,1.3480802E3,1.7999547E3,3.5335461E3,2.7749104E3,2.32378E3,7.9918643E3,5.6929946E3,4.847961E2,8.516489E2,6.137084E3,5.696866E2,1.3226253E2,1.2158177E3,1.4785663E3,3.2138834E2,3.0484688E3,4.8507748E2,5.745319E2,2.2003784E3],"tree_param":{"num_deleted":"0","num_feature":"18","num_nodes":"29","size_leaf_vector":"1"}},{"base_weights":[7.911227E-3,-4.446201E-1,7.5166535E-1,-6.739782E-1,9.935908E-2,5.0077593E-1,1.0500039E0,-7.3088837E-1,7.4729186E-1,3.0970586E-2,4.859558E-1,1.9853652E-1,7.042396E-1,9.3312776E-1,1.1503747E0,-1.803902E-2,-9.781586E-3,1.2348622E-2,2.2518797E-2,-1.4505093E-3,5.4730116E-3,1.2627197E-2,-1.1029052E-2,-4.259068E-4,8.759583E-3,1.2818704E-2,2.0471228E-2,1.5652664E-2,2.025207E-2,2.0381685E-3,2.30521E-2],"categories":[],"categories_nodes":[],"categories_segments":[],"categories_sizes":[],"default_left":[0,0,0,0,0,0,0,0,0,0,0,0,0,0,0,0,0,0,0,0,0,0,0,0,0,0,0,0,0,0,0],"id":33,"left_children":[1,3,5,7,9,11,13,15,17,19,21,23,25,27,29,-1,-1,-1,-1,-1,-1,-1,-1,-1,-1,-1,-1,-1,-1,-1,-1],"loss_changes":[1.129874E4,2.6045479E3,9.479453E2,1.188602E3,1.631104E2,4.2337073E2,6.3779297E1,5.817178E2,2.467572E1,1.3245284E2,1.4077223E2,1.4689618E2,8.037634E1,2.8838379E1,5.772949E0,0E0,0E0,0E0,0E0,0E0,0E0,0E0,0E0,0E0,0E0,0E0,0E0,0E0,0E0,0E0,0E0],"parents":[2147483647,0,0,1,1,2,2,3,3,4,4,5,5,6,6,7,7,8,8,9,9,10,10,11,11,12,12,13,13,14,14],"right_children":[2,4,6,8,10,12,14,16,18,20,22,24,26,28,30,-1,-1,-1,-1,-1,-1,-1,-1,-1,-1,-1,-1,-1,-1,-1,-1],"split_conditions":[8.7561755E-4,6.337346E-1,4E0,3E0,1.4354786E0,7.4787766E-1,7E0,-5.4102816E-2,8E0,1.6041417E0,1.0228099E0,2E0,1.3354347E0,1.0515578E0,-2.9150185E-1,-1.803902E-2,-9.781586E-3,1.2348622E-2,2.2518797E-2,-1.4505093E-3,5.4730116E-3,1.2627197E-2,-1.1029052E-2,-4.259068E-4,8.759583E-3,1.2818704E-2,2.0471228E-2,1.5652664E-2,2.025207E-2,2.0381685E-3,2.30521E-2],"split_indices":[11,4,1,1,7,13,1,4,1,4,6,1,13,13,10,0,0,0,0,0,0,0,0,0,0,0,0,0,0,0,0],"split_type":[0,0,0,0,0,0,0,0,0,0,0,0,0,0,0,0,0,0,0,0,0,0,0,0,0,0,0,0,0,0,0],"sum_hessian":[3.356515E4,2.0867775E4,1.2697372E4,1.467972E4,6.188055E3,6.901894E3,5.795478E3,1.4116159E4,5.635608E2,5.2619663E3,9.2608856E2,2.7804631E3,4.121431E3,2.6917012E3,3.103777E3,8.261877E3,5.854282E3,4.255253E2,1.380355E2,3.6868938E3,1.5750726E3,8.137758E2,1.1231277E2,1.4483663E3,1.3320968E3,3.4471853E3,6.742458E2,9.420747E2,1.7496263E3,7.7384205E0,3.0960388E3],"tree_param":{"num_deleted":"0","num_feature":"18","num_nodes":"31","size_leaf_vector":"1"}},{"base_weights":[2.963063E-3,-4.469406E-1,7.432043E-1,-8.383844E-1,-8.7864734E-2,3.8059953E-1,9.732449E-1,-9.985133E-1,-6.0560226E-1,1.18616916E-1,-4.0090168E-1,9.771183E-2,5.8601016E-1,7.906689E-1,1.0852273E0,-2.090807E-2,-4.4487556E-3,-1.2826804E-2,2.851012E-3,1.5553514E-3,1.777485E-2,-1.1460964E-2,-2.480142E-3,1.19745135E-4,1.3352848E-2,1.039984E-2,1.9119348E-2,1.3260238E-2,1.8993175E-2,2.0017283E-2,2.3568429E-2],"categories":[],"categories_nodes":[],"categories_segments":[],"categories_sizes":[],"default_left":[0,0,0,0,0,0,0,0,0,0,0,0,0,0,0,0,0,0,0,0,0,0,0,0,0,0,0,0,0,0,0],"id":34,"left_children":[1,3,5,7,9,11,13,15,17,19,21,23,25,27,29,-1,-1,-1,-1,-1,-1,-1,-1,-1,-1,-1,-1,-1,-1,-1,-1],"loss_changes":[1.1113969E4,2.9161953E3,1.0502339E3,3.672661E2,7.002972E2,2.8404144E2,1.5416113E2,2.1211475E2,1.090719E2,2.0414705E2,2.0442096E2,1.0734848E2,6.6829834E1,5.688208E1,3.299414E1,0E0,0E0,0E0,0E0,0E0,0E0,0E0,0E0,0E0,0E0,0E0,0E0,0E0,0E0,0E0,0E0],"parents":[2147483647,0,0,1,1,2,2,3,3,4,4,5,5,6,6,7,7,8,8,9,9,10,10,11,11,12,12,13,13,14,14],"right_children":[2,4,6,8,10,12,14,16,18,20,22,24,26,28,30,-1,-1,-1,-1,-1,-1,-1,-1,-1,-1,-1,-1,-1,-1,-1,-1],"split_conditions":[8.7561755E-4,2E0,3E0,-2.1779126E-1,5E0,9.164953E-3,5E0,1.3790632E0,2.167703E0,4E0,5.9345835E-1,1.4354786E0,1.3354347E0,1.2449976E0,9E0,-2.090807E-2,-4.4487556E-3,-1.2826804E-2,2.851012E-3,1.5553514E-3,1.777485E-2,-1.1460964E-2,-2.480142E-3,1.19745135E-4,1.3352848E-2,1.039984E-2,1.9119348E-2,1.3260238E-2,1.8993175E-2,2.0017283E-2,2.3568429E-2],"split_indices":[11,9,1,4,9,11,1,7,7,1,7,7,13,13,1,0,0,0,0,0,0,0,0,0,0,0,0,0,0,0,0],"split_type":[0,0,0,0,0,0,0,0,0,0,0,0,0,0,0,0,0,0,0,0,0,0,0,0,0,0,0,0,0,0,0],"sum_hessian":[3.3366664E4,2.0752908E4,1.2613757E4,9.926335E3,1.0826573E4,4.8998906E3,7.713866E3,5.8744653E3,4.05187E3,6.5223965E3,4.304177E3,2.064508E3,2.8353828E3,2.9421067E3,4.7717593E3,5.537885E3,3.3658017E2,3.8686917E3,1.8317836E2,6.197183E3,3.2521326E2,2.6505613E3,1.6536154E3,1.7815597E3,2.8294843E2,2.4124077E3,4.2297507E2,1.6410754E3,1.3010312E3,2.5225005E3,2.2492588E3],"tree_param":{"num_deleted":"0","num_feature":"18","num_nodes":"31","size_leaf_vector":"1"}},{"base_weights":[5.64589E-3,-4.7361317E-1,6.81584E-1,-7.9177886E-1,-2.4996296E-2,3.1215835E-1,9.378476E-1,-8.6910737E-1,-2.7768835E-1,-1.950301E-1,2.4275132E-1,9.018616E-3,6.1577547E-1,7.3458564E-1,1.0669655E0,-2.0385431E-2,-1.3840872E-2,-2.3238903E-3,-1.9327402E-2,2.3680732E-4,-8.275033E-3,1.1142799E-2,2.430462E-3,-1.1480546E-2,2.1680614E-3,1.0223927E-2,1.5215717E-2,1.1846466E-2,1.8783962E-2,1.8835459E-2,2.2212515E-2],"categories":[],"categories_nodes":[],"categories_segments":[],"categories_sizes":[],"default_left":[0,0,0,0,0,0,0,0,0,0,0,0,0,0,0,0,0,0,0,0,0,0,0,0,0,0,0,0,0,0,0],"id":35,"left_children":[1,3,5,7,9,11,13,15,17,19,21,23,25,27,29,-1,-1,-1,-1,-1,-1,-1,-1,-1,-1,-1,-1,-1,-1,-1,-1],"loss_changes":[1.0787481E4,2.7801064E3,1.3061099E3,4.5147314E2,3.6825156E2,5.2058966E2,2.1064795E2,2.602334E2,1.6495132E2,2.2437895E2,1.18855576E2,1.6407805E2,4.0831787E1,8.98407E1,2.3073242E1,0E0,0E0,0E0,0E0,0E0,0E0,0E0,0E0,0E0,0E0,0E0,0E0,0E0,0E0,0E0,0E0],"parents":[2147483647,0,0,1,1,2,2,3,3,4,4,5,5,6,6,7,7,8,8,9,9,10,10,11,11,12,12,13,13,14,14],"right_children":[2,4,6,8,10,12,14,16,18,20,22,24,26,28,30,-1,-1,-1,-1,-1,-1,-1,-1,-1,-1,-1,-1,-1,-1,-1,-1],"split_conditions":[1E0,3.1248045E-1,3E0,1.0429785E0,1.1952962E0,7.4787766E-1,5E0,-2.1779126E-1,1.0584E0,1.4545455E-2,1.1032927E0,-3.400435E-1,2E0,1.2449976E0,1.0496417E-2,-2.0385431E-2,-1.3840872E-2,-2.3238903E-3,-1.9327402E-2,2.3680732E-4,-8.275033E-3,1.1142799E-2,2.430462E-3,-1.1480546E-2,2.1680614E-3,1.0223927E-2,1.5215717E-2,1.1846466E-2,1.8783962E-2,1.8835459E-2,2.2212515E-2],"split_indices":[0,4,1,7,4,13,1,4,6,6,10,13,1,13,11,0,0,0,0,0,0,0,0,0,0,0,0,0,0,0,0],"split_type":[0,0,0,0,0,0,0,0,0,0,0,0,0,0,0,0,0,0,0,0,0,0,0,0,0,0,0,0,0,0,0],"sum_hessian":[3.3295254E4,1.9481467E4,1.3813788E4,1.1395706E4,8.085761E3,5.6611304E3,8.1526577E3,9.902816E3,1.4928896E3,4.9478774E3,3.1378838E3,2.8354707E3,2.8256597E3,3.175226E3,4.9774316E3,5.350232E3,4.5525845E3,1.2123798E3,2.8050998E2,2.541451E3,2.4064263E3,8.689477E2,2.2689363E3,4.1008203E2,2.4253887E3,1.650961E3,1.1746986E3,1.8804613E3,1.2947648E3,1.3046077E3,3.672824E3],"tree_param":{"num_deleted":"0","num_feature":"18","num_nodes":"31","size_leaf_vector":"1"}},{"base_weights":[1.1952928E-3,-3.7664154E-1,8.4681153E-1,-6.688126E-1,1.6276656E-1,6.574329E-1,1.0522984E0,-8.808948E-1,-4.346512E-1,1.0861376E-1,7.586594E-1,3.8370237E-1,8.0981696E-1,9.432511E-1,1.110933E0,-1.8804286E-2,-5.4621636E-3,-1.0225787E-2,1.8450869E-3,8.182949E-4,9.311829E-3,1.7472576E-2,-2.1054735E-2,3.5715334E-3,1.0736743E-2,1.5298168E-2,2.076011E-2,1.4155406E-2,2.021302E-2,2.1452565E-2,2.3867203E-2],"categories":[],"categories_nodes":[],"categories_segments":[],"categories_sizes":[],"default_left":[0,0,0,0,0,0,0,0,0,0,0,0,0,0,0,0,0,0,0,0,0,0,0,0,0,0,0,0,0,0,0],"id":36,"left_children":[1,3,5,7,9,11,13,15,17,19,21,23,25,27,29,-1,-1,-1,-1,-1,-1,-1,-1,-1,-1,-1,-1,-1,-1,-1,-1],"loss_changes":[1.0592008E4,3.6115493E3,3.9533252E2,7.3604736E2,2.5874243E2,2.2075757E2,2.7209473E1,2.7931543E2,2.8601135E2,1.7789154E2,1.4093289E2,5.922577E1,3.1692383E1,2.4375244E1,5.1899414E0,0E0,0E0,0E0,0E0,0E0,0E0,0E0,0E0,0E0,0E0,0E0,0E0,0E0,0E0,0E0,0E0],"parents":[2147483647,0,0,1,1,2,2,3,3,4,4,5,5,6,6,7,7,8,8,9,9,10,10,11,11,12,12,13,13,14,14],"right_children":[2,4,6,8,10,12,14,16,18,20,22,24,26,28,30,-1,-1,-1,-1,-1,-1,-1,-1,-1,-1,-1,-1,-1,-1,-1,-1],"split_conditions":[2E0,6.1820036E-1,5E0,-1.0456534E-1,1.3354347E0,6.036916E-1,7E0,4.1244923E-5,2.8675988E-3,1.1179793E-2,4.139011E0,3E0,1.3354347E0,4.197662E-1,1.3E1,-1.8804286E-2,-5.4621636E-3,-1.0225787E-2,1.8450869E-3,8.182949E-4,9.311829E-3,1.7472576E-2,-2.1054735E-2,3.5715334E-3,1.0736743E-2,1.5298168E-2,2.076011E-2,1.4155406E-2,2.021302E-2,2.1452565E-2,2.3867203E-2],"split_indices":[1,4,1,4,13,4,1,11,11,11,13,1,13,10,1,0,0,0,0,0,0,0,0,0,0,0,0,0,0,0,0],"split_type":[0,0,0,0,0,0,0,0,0,0,0,0,0,0,0,0,0,0,0,0,0,0,0,0,0,0,0,0,0,0,0],"sum_hessian":[3.3145836E4,2.2909416E4,1.0236421E4,1.4861203E4,8.0482134E3,5.333907E3,4.9025137E3,7.7931113E3,7.0680923E3,7.3814536E3,6.667597E2,1.9123363E3,3.421571E3,1.7322109E3,3.1703025E3,7.097647E3,6.954639E2,6.1722925E3,8.9580005E2,6.208982E3,1.1724717E3,6.2845886E2,3.830083E1,8.220518E2,1.0902844E3,2.8698567E3,5.517143E2,3.9388824E2,1.3383228E3,2.191875E3,9.784275E2],"tree_param":{"num_deleted":"0","num_feature":"18","num_nodes":"31","size_leaf_vector":"1"}},{"base_weights":[4.6741887E-4,-3.9381984E-1,7.616276E-1,-8.0484366E-1,-5.6706283E-2,4.450001E-1,9.515639E-1,-9.749523E-1,-5.6178755E-1,1.2649213E-1,-3.8554007E-1,1.9414288E-1,6.305541E-1,7.7579415E-1,1.0535984E0,-2.0592026E-2,-2.3431177E-3,-8.813373E-3,-1.6588842E-2,1.3786115E-3,1.6712533E-2,-9.492297E-3,3.3343695E-3,7.6181106E-3,1.682811E-3,1.6131464E-2,1.0653556E-2,1.2884559E-2,1.7747562E-2,1.9672375E-2,2.2663232E-2],"categories":[],"categories_nodes":[],"categories_segments":[],"categories_sizes":[],"default_left":[0,0,0,0,0,0,0,0,0,0,0,0,0,0,0,0,0,0,0,0,0,0,0,0,0,0,0,0,0,0,0],"id":37,"left_children":[1,3,5,7,9,11,13,15,17,19,21,23,25,27,29,-1,-1,-1,-1,-1,-1,-1,-1,-1,-1,-1,-1,-1,-1,-1,-1],"loss_changes":[9.864206E3,2.998961E3,6.722998E2,4.006665E2,7.171214E2,1.9495703E2,1.2220508E2,2.673662E2,1.2842212E2,3.1086444E2,2.0999792E2,3.6363472E1,3.9451477E1,3.527173E1,2.028711E1,0E0,0E0,0E0,0E0,0E0,0E0,0E0,0E0,0E0,0E0,0E0,0E0,0E0,0E0,0E0,0E0],"parents":[2147483647,0,0,1,1,2,2,3,3,4,4,5,5,6,6,7,7,8,8,9,9,10,10,11,11,12,12,13,13,14,14],"right_children":[2,4,6,8,10,12,14,16,18,20,22,24,26,28,30,-1,-1,-1,-1,-1,-1,-1,-1,-1,-1,-1,-1,-1,-1,-1,-1],"split_conditions":[3.28008E-3,2E0,3E0,-2.1779126E-1,5E0,9.1446954E-1,5E0,1.3790632E0,1.0400956E-1,4E0,1.4614838E0,-2.4139394E-1,-1.9472727E-1,1.1780306E0,9E0,-2.0592026E-2,-2.3431177E-3,-8.813373E-3,-1.6588842E-2,1.3786115E-3,1.6712533E-2,-9.492297E-3,3.3343695E-3,7.6181106E-3,1.682811E-3,1.6131464E-2,1.0653556E-2,1.2884559E-2,1.7747562E-2,1.9672375E-2,2.2663232E-2],"split_indices":[11,9,1,4,9,13,1,7,10,1,7,6,6,13,1,0,0,0,0,0,0,0,0,0,0,0,0,0,0,0,0],"split_type":[0,0,0,0,0,0,0,0,0,0,0,0,0,0,0,0,0,0,0,0,0,0,0,0,0,0,0,0,0,0,0],"sum_hessian":[3.2862777E4,2.1648385E4,1.1214391E4,9.752259E3,1.1896127E4,4.2093203E3,7.0050703E3,5.731085E3,4.0211738E3,7.6386855E3,4.257441E3,1.7937567E3,2.4155637E3,2.5828057E3,4.422264E3,5.386361E3,3.4472415E2,2.774629E3,1.2465449E3,7.0685273E3,5.701586E2,3.6679263E3,5.8951465E2,6.596991E2,1.1340576E3,8.5437335E2,1.5611903E3,1.1956042E3,1.3872015E3,2.3737412E3,2.0485232E3],"tree_param":{"num_deleted":"0","num_feature":"18","num_nodes":"31","size_leaf_vector":"1"}},{"base_weights":[-1.0190667E-3,-3.6134753E-1,8.20726E-1,-7.2187096E-1,4.9872633E-2,6.257686E-1,1.0309993E0,-7.797525E-1,-1.7828898E-1,-1.1761677E-1,2.7754888E-1,4.3337876E-1,8.0854464E-1,9.4050443E-1,1.1059192E0,-1.8873503E-2,-1.1973053E-2,-1.7317955E-3,-1.5488984E-2,-3.990729E-3,6.6220914E-3,4.245236E-3,1.4260648E-2,5.853511E-3,1.092308E-2,1.5202145E-2,2.0837775E-2,1.3454275E-2,2.0166568E-2,2.1354625E-2,2.337844E-2],"categories":[],"categories_nodes":[],"categories_segments":[],"categories_sizes":[],"default_left":[0,0,0,0,0,0,0,0,0,0,0,0,0,0,0,0,0,0,0,0,0,0,0,0,0,0,0,0,0,0,0],"id":38,"left_children":[1,3,5,7,9,11,13,15,17,19,21,23,25,27,29,-1,-1,-1,-1,-1,-1,-1,-1,-1,-1,-1,-1,-1,-1,-1,-1],"loss_changes":[9.687644E3,3.3729932E3,4.0588428E2,3.801538E2,4.0545447E2,1.8029443E2,2.8365723E1,3.2248047E2,6.300852E1,2.2501959E2,1.26917694E2,3.9015778E1,2.6595825E1,3.6738525E1,1.5334473E0,0E0,0E0,0E0,0E0,0E0,0E0,0E0,0E0,0E0,0E0,0E0,0E0,0E0,0E0,0E0,0E0],"parents":[2147483647,0,0,1,1,2,2,3,3,4,4,5,5,6,6,7,7,8,8,9,9,10,10,11,11,12,12,13,13,14,14],"right_children":[2,4,6,8,10,12,14,16,18,20,22,24,26,28,30,-1,-1,-1,-1,-1,-1,-1,-1,-1,-1,-1,-1,-1,-1,-1,-1],"split_conditions":[2E0,2.5157776E-1,5E0,4.1244923E-5,1.1179377E0,9.6658057E-1,8E0,-2.1779126E-1,7.29697E-1,1.4354786E0,1.3354347E0,3E0,1.3542013E0,4.197662E-1,1.3E1,-1.8873503E-2,-1.1973053E-2,-1.7317955E-3,-1.5488984E-2,-3.990729E-3,6.6220914E-3,4.245236E-3,1.4260648E-2,5.853511E-3,1.092308E-2,1.5202145E-2,2.0837775E-2,1.3454275E-2,2.0166568E-2,2.1354625E-2,2.337844E-2],"split_indices":[1,13,1,11,4,13,1,4,6,7,13,1,13,10,1,0,0,0,0,0,0,0,0,0,0,0,0,0,0,0,0],"split_type":[0,0,0,0,0,0,0,0,0,0,0,0,0,0,0,0,0,0,0,0,0,0,0,0,0,0,0,0,0,0,0],"sum_hessian":[3.2715227E4,2.2744352E4,9.970874E3,1.2119718E4,1.0624634E4,5.180458E3,4.790416E3,1.0950936E4,1.1687828E3,6.1194507E3,4.5051826E3,2.5298035E3,2.6506548E3,2.1880056E3,2.6024104E3,5.7407476E3,5.2101875E3,1.01641016E3,1.5237262E2,5.1775615E3,9.418891E2,3.9224116E3,5.827712E2,1.1326805E3,1.3971228E3,2.2056155E3,4.450392E2,4.495645E2,1.7384412E3,1.6525295E3,9.4988074E2],"tree_param":{"num_deleted":"0","num_feature":"18","num_nodes":"31","size_leaf_vector":"1"}},{"base_weights":[1.80859E-3,-3.592066E-1,8.1903464E-1,-6.398478E-1,1.6624935E-1,5.791477E-1,9.8695576E-1,-7.071921E-1,2.2493E-2,1.1194163E-1,7.443282E-1,2.874826E-1,7.511463E-1,8.7894285E-1,1.0586643E0,-1.8305851E-2,-1.0858422E-2,9.085133E-3,-4.519901E-3,5.500369E-3,-1.1992182E-3,1.7305814E-2,-2.1847721E-2,1.5526504E-3,7.6576625E-3,1.285831E-2,1.7392062E-2,1.55903455E-2,2.1290408E-2,1.4615582E-2,2.137101E-2],"categories":[],"categories_nodes":[],"categories_segments":[],"categories_sizes":[],"default_left":[0,0,0,0,0,0,0,0,0,0,0,0,0,0,0,0,0,0,0,0,0,0,0,0,0,0,0,0,0,0,0],"id":39,"left_children":[1,3,5,7,9,11,13,15,17,19,21,23,25,27,29,-1,-1,-1,-1,-1,-1,-1,-1,-1,-1,-1,-1,-1,-1,-1,-1],"loss_changes":[9.628856E3,3.3385288E3,4.001255E2,6.5891797E2,2.46383E2,2.0546826E2,4.1723145E1,4.5548047E2,1.4660886E2,2.023067E2,1.515935E2,3.0222824E1,3.0593506E1,4.0084595E1,8.039307E0,0E0,0E0,0E0,0E0,0E0,0E0,0E0,0E0,0E0,0E0,0E0,0E0,0E0,0E0,0E0,0E0],"parents":[2147483647,0,0,1,1,2,2,3,3,4,4,5,5,6,6,7,7,8,8,9,9,10,10,11,11,12,12,13,13,14,14],"right_children":[2,4,6,8,10,12,14,16,18,20,22,24,26,28,30,-1,-1,-1,-1,-1,-1,-1,-1,-1,-1,-1,-1,-1,-1,-1,-1],"split_conditions":[2E0,6.337346E-1,3E0,1.4614838E0,1.3354347E0,6.036916E-1,1.1644138E0,-2.1779126E-1,7.509091E-2,5.5421486E-2,4.139011E0,-1.5777104E-1,1.3006281E0,6.923077E-1,1E0,-1.8305851E-2,-1.0858422E-2,9.085133E-3,-4.519901E-3,5.500369E-3,-1.1992182E-3,1.7305814E-2,-2.1847721E-2,1.5526504E-3,7.6576625E-3,1.285831E-2,1.7392062E-2,1.55903455E-2,2.1290408E-2,1.4615582E-2,2.137101E-2],"split_indices":[8,4,8,7,13,4,13,4,6,6,13,4,13,5,3,0,0,0,0,0,0,0,0,0,0,0,0,0,0,0,0],"split_type":[0,0,0,0,0,0,0,0,0,0,0,0,0,0,0,0,0,0,0,0,0,0,0,0,0,0,0,0,0,0,0],"sum_hessian":[3.2631209E4,2.2632877E4,9.998331E3,1.475424E4,7.878637E3,4.1230806E3,5.87525E3,1.3393784E4,1.3604556E3,7.2058037E3,6.728335E2,1.533618E3,2.5894626E3,2.3603557E3,3.5148943E3,5.901925E3,7.4918594E3,4.9782367E2,8.6263184E2,3.7001973E3,3.5056067E3,6.327631E2,4.007033E1,4.837142E2,1.0499038E3,1.3642665E3,1.2251963E3,1.5472087E3,8.131469E2,1.1022484E2,3.4046694E3],"tree_param":{"num_deleted":"0","num_feature":"18","num_nodes":"31","size_leaf_vector":"1"}},{"base_weights":[-4.5710225E-3,-3.549344E-1,7.9835635E-1,-6.98294E-1,4.5151714E-2,6.1049426E-1,1.0061196E0,-7.4831617E-1,-5.9522107E-2,-1.1756198E-1,2.9826105E-1,3.5567462E-1,7.629169E-1,8.5964346E-1,1.0621395E0,-1.7947707E-2,-1.1572386E-2,1.563639E-4,-2.0413423E-2,1.8419141E-3,-4.849503E-3,1.2620522E-2,3.9188466E-3,3.4253416E-3,1.0069482E-2,1.4367732E-2,1.9763906E-2,1.5262954E-2,2.028906E-2,2.0303464E-2,2.2687234E-2],"categories":[],"categories_nodes":[],"categories_segments":[],"categories_sizes":[],"default_left":[0,0,0,0,0,0,0,0,0,0,0,0,0,0,0,0,0,0,0,0,0,0,0,0,0,0,0,0,0,0,0],"id":40,"left_children":[1,3,5,7,9,11,13,15,17,19,21,23,25,27,29,-1,-1,-1,-1,-1,-1,-1,-1,-1,-1,-1,-1,-1,-1,-1,-1],"loss_changes":[9.12456E3,3.1030923E3,3.8173584E2,3.874834E2,4.2983298E2,1.9961182E2,3.4598633E1,2.8258984E2,5.83965E1,1.6644678E2,1.3799728E2,5.21848E1,2.9359497E1,1.6217346E1,6.9682617E0,0E0,0E0,0E0,0E0,0E0,0E0,0E0,0E0,0E0,0E0,0E0,0E0,0E0,0E0,0E0,0E0],"parents":[2147483647,0,0,1,1,2,2,3,3,4,4,5,5,6,6,7,7,8,8,9,9,10,10,11,11,12,12,13,13,14,14],"right_children":[2,4,6,8,10,12,14,16,18,20,22,24,26,28,30,-1,-1,-1,-1,-1,-1,-1,-1,-1,-1,-1,-1,-1,-1,-1,-1],"split_conditions":[2E0,2.7521482E-1,5E0,8.7561755E-4,1.1952962E0,6.522555E-1,1.0191402E0,-2.1779126E-1,1.1432272E0,-1.825091E-1,9.620589E-1,3E0,1.3354347E0,9E0,1E1,-1.7947707E-2,-1.1572386E-2,1.563639E-4,-2.0413423E-2,1.8419141E-3,-4.849503E-3,1.2620522E-2,3.9188466E-3,3.4253416E-3,1.0069482E-2,1.4367732E-2,1.9763906E-2,1.5262954E-2,2.028906E-2,2.0303464E-2,2.2687234E-2],"split_indices":[1,4,1,11,4,13,13,4,6,6,10,1,13,1,1,0,0,0,0,0,0,0,0,0,0,0,0,0,0,0,0],"split_type":[0,0,0,0,0,0,0,0,0,0,0,0,0,0,0,0,0,0,0,0,0,0,0,0,0,0,0,0,0,0,0],"sum_hessian":[3.243279E4,2.258153E4,9.851259E3,1.2152818E4,1.0428712E4,5.180067E3,4.671192E3,1.1268476E4,8.8434247E2,6.34615E3,4.0825615E3,1.9437468E3,3.2363198E3,1.3062532E3,3.3649387E3,5.9911323E3,5.2773433E3,8.273217E2,5.7020744E1,2.3665637E3,3.9795862E3,9.55368E2,3.1271936E3,8.697074E2,1.0740394E3,2.712886E3,5.234338E2,8.1596533E2,4.9028784E2,2.0656206E3,1.2993181E3],"tree_param":{"num_deleted":"0","num_feature":"18","num_nodes":"31","size_leaf_vector":"1"}},{"base_weights":[4.18347E-3,-3.3623248E-1,7.866251E-1,-7.217829E-1,1.2474549E-2,5.998699E-1,9.9430233E-1,-7.9418254E-1,-2.1724282E-1,-2.0543471E-1,2.3061748E-1,3.532681E-1,7.496003E-1,8.900332E-1,1.0503814E0,-1.7017428E-2,-5.8251666E-3,-1.368607E-3,-1.6667869E-2,-5.3528226E-3,3.352715E-3,8.7236855E-3,1.9160983E-3,3.8531236E-3,9.653331E-3,1.4193727E-2,1.9150486E-2,1.2992392E-2,1.912981E-2,2.0307506E-2,2.254649E-2],"categories":[],"categories_nodes":[],"categories_segments":[],"categories_sizes":[],"default_left":[0,0,0,0,0,0,0,0,0,0,0,0,0,0,0,0,0,0,0,0,0,0,0,0,0,0,0,0,0,0,0],"id":41,"left_children":[1,3,5,7,9,11,13,15,17,19,21,23,25,27,29,-1,-1,-1,-1,-1,-1,-1,-1,-1,-1,-1,-1,-1,-1,-1,-1],"loss_changes":[8.656768E3,3.045282E3,3.793833E2,3.9154346E2,5.6538684E2,1.9021313E2,2.34375E1,2.6646582E2,1.2315608E2,1.3822026E2,1.6416028E2,4.0064407E1,2.3767456E1,2.3498657E1,3.6831055E0,0E0,0E0,0E0,0E0,0E0,0E0,0E0,0E0,0E0,0E0,0E0,0E0,0E0,0E0,0E0,0E0],"parents":[2147483647,0,0,1,1,2,2,3,3,4,4,5,5,6,6,7,7,8,8,9,9,10,10,11,11,12,12,13,13,14,14],"right_children":[2,4,6,8,10,12,14,16,18,20,22,24,26,28,30,-1,-1,-1,-1,-1,-1,-1,-1,-1,-1,-1,-1,-1,-1,-1,-1],"split_conditions":[2E0,1.0048772E-1,5E0,1.0429785E0,9.145146E-1,6.522555E-1,7E0,3.125E-2,1.0584E0,1.4614838E0,-7.636364E-2,3E0,1.3354347E0,4.197662E-1,1.3E1,-1.7017428E-2,-5.8251666E-3,-1.368607E-3,-1.6667869E-2,-5.3528226E-3,3.352715E-3,8.7236855E-3,1.9160983E-3,3.8531236E-3,9.653331E-3,1.4193727E-2,1.9150486E-2,1.2992392E-2,1.912981E-2,2.0307506E-2,2.254649E-2],"split_indices":[1,4,1,7,4,13,1,5,6,7,6,1,13,10,1,0,0,0,0,0,0,0,0,0,0,0,0,0,0,0,0],"split_type":[0,0,0,0,0,0,0,0,0,0,0,0,0,0,0,0,0,0,0,0,0,0,0,0,0,0,0,0,0,0,0],"sum_hessian":[3.249511E4,2.2643494E4,9.851615E3,1.0753992E4,1.1889502E4,5.19372E3,4.6578955E3,9.401747E3,1.3522454E3,5.9457017E3,5.9438003E3,1.967197E3,3.2265232E3,1.6470586E3,3.010837E3,8.446318E3,9.5542816E2,1.0922828E3,2.5996262E2,5.0987695E3,8.46932E2,2.3494263E3,3.5943743E3,8.834043E2,1.0837927E3,2.7183362E3,5.0818704E2,3.6462018E2,1.2824385E3,2.0978052E3,9.130318E2],"tree_param":{"num_deleted":"0","num_feature":"18","num_nodes":"31","size_leaf_vector":"1"}},{"base_weights":[3.5023256E-3,-4.2450842E-1,6.188495E-1,-6.774428E-1,5.1566567E-2,2.7495024E-1,8.635641E-1,-8.958123E-1,-4.992603E-1,-1.285645E-1,2.1541557E-1,6.0964897E-3,5.512805E-1,6.679756E-1,9.924556E-1,-1.9452713E-2,-1.00536235E-2,-1.0879568E-2,1.0284132E-3,1.2685832E-3,-7.138693E-3,1.2149573E-2,3.0515282E-3,-9.536935E-3,1.7936627E-3,9.743406E-3,1.7828586E-2,1.0716489E-2,1.7063824E-2,1.8241545E-2,2.1738581E-2],"categories":[],"categories_nodes":[],"categories_segments":[],"categories_sizes":[],"default_left":[0,0,0,0,0,0,0,0,0,0,0,0,0,0,0,0,0,0,0,0,0,0,0,0,0,0,0,0,0,0,0],"id":42,"left_children":[1,3,5,7,9,11,13,15,17,19,21,23,25,27,29,-1,-1,-1,-1,-1,-1,-1,-1,-1,-1,-1,-1,-1,-1,-1,-1],"loss_changes":[8.500645E3,2.2927002E3,1.112708E3,4.8141943E2,1.95069E2,4.0875204E2,1.9197168E2,1.6609766E2,1.6930054E2,1.3820164E2,8.435268E1,1.1258229E2,5.696167E1,7.311145E1,3.1361328E1,0E0,0E0,0E0,0E0,0E0,0E0,0E0,0E0,0E0,0E0,0E0,0E0,0E0,0E0,0E0,0E0],"parents":[2147483647,0,0,1,1,2,2,3,3,4,4,5,5,6,6,7,7,8,8,9,9,10,10,11,11,12,12,13,13,14,14],"right_children":[2,4,6,8,10,12,14,16,18,20,22,24,26,28,30,-1,-1,-1,-1,-1,-1,-1,-1,-1,-1,-1,-1,-1,-1,-1,-1],"split_conditions":[1E0,5.614794E-1,3E0,-2.1779126E-1,1.1339931E0,7.4787766E-1,5E0,5.9345835E-1,1.7629597E0,9.087861E-1,6.672225E-1,-3.400435E-1,1.3354347E0,1.2318449E0,9E0,-1.9452713E-2,-1.00536235E-2,-1.0879568E-2,1.0284132E-3,1.2685832E-3,-7.138693E-3,1.2149573E-2,3.0515282E-3,-9.536935E-3,1.7936627E-3,9.743406E-3,1.7828586E-2,1.0716489E-2,1.7063824E-2,1.8241545E-2,2.1738581E-2],"split_indices":[0,4,1,4,4,13,1,7,7,10,10,13,13,13,1,0,0,0,0,0,0,0,0,0,0,0,0,0,0,0,0],"split_type":[0,0,0,0,0,0,0,0,0,0,0,0,0,0,0,0,0,0,0,0,0,0,0,0,0,0,0,0,0,0,0],"sum_hessian":[3.227106E4,1.9032096E4,1.3238965E4,1.242961E4,6.602486E3,5.507528E3,7.7314375E3,5.5788486E3,6.850761E3,3.1422788E3,3.460207E3,2.7943987E3,2.7131294E3,3.0791128E3,4.6523247E3,4.6622812E3,9.1656757E2,6.337929E3,5.1283215E2,1.705505E3,1.4367739E3,4.733922E2,2.986815E3,4.091362E2,2.3852625E3,2.2894294E3,4.2369992E2,1.8046685E3,1.2744442E3,2.5309126E3,2.1214119E3],"tree_param":{"num_deleted":"0","num_feature":"18","num_nodes":"31","size_leaf_vector":"1"}},{"base_weights":[2.1051955E-3,-3.3193037E-1,7.731341E-1,-6.025091E-1,1.5463483E-1,5.8124334E-1,9.8614204E-1,-7.902608E-1,-3.7133512E-1,8.7280415E-2,5.1893646E-1,3.336612E-1,7.15413E-1,9.2137104E-1,1.0975353E0,-1.688809E-2,-5.1928023E-3,-8.576692E-3,3.0874673E-4,4.6670353E-3,-1.0448403E-3,1.4120526E-2,7.748587E-3,5.5434834E-3,1.2186978E-2,1.2217643E-2,1.666027E-2,1.5425475E-2,1.9841472E-2,2.1994254E-2,5.0856494E-3],"categories":[],"categories_nodes":[],"categories_segments":[],"categories_sizes":[],"default_left":[0,0,0,0,0,0,0,0,0,0,0,0,0,0,0,0,0,0,0,0,0,0,0,0,0,0,0,0,0,0,0],"id":43,"left_children":[1,3,5,7,9,11,13,15,17,19,21,23,25,27,29,-1,-1,-1,-1,-1,-1,-1,-1,-1,-1,-1,-1,-1,-1,-1,-1],"loss_changes":[8.2798125E3,2.953437E3,3.9450537E2,6.2390967E2,1.9598166E2,1.685426E2,2.9149414E1,2.268706E2,1.4423859E2,1.3816924E2,2.9064636E1,2.6896347E1,3.830188E1,2.776831E1,1.1628418E0,0E0,0E0,0E0,0E0,0E0,0E0,0E0,0E0,0E0,0E0,0E0,0E0,0E0,0E0,0E0,0E0],"parents":[2147483647,0,0,1,1,2,2,3,3,4,4,5,5,6,6,7,7,8,8,9,9,10,10,11,11,12,12,13,13,14,14],"right_children":[2,4,6,8,10,12,14,16,18,20,22,24,26,28,30,-1,-1,-1,-1,-1,-1,-1,-1,-1,-1,-1,-1,-1,-1,-1,-1],"split_conditions":[2E0,6.1820036E-1,5E0,-6.0736157E-2,1.1907227E-2,5.815829E-1,1E1,4.1244923E-5,1.0950474E-5,2.6958678E-2,-9.568595E-2,4E0,1.3006281E0,1.0351573E0,8.832727E0,-1.688809E-2,-5.1928023E-3,-8.576692E-3,3.0874673E-4,4.6670353E-3,-1.0448403E-3,1.4120526E-2,7.748587E-3,5.5434834E-3,1.2186978E-2,1.2217643E-2,1.666027E-2,1.5425475E-2,1.9841472E-2,2.1994254E-2,5.0856494E-3],"split_indices":[1,4,1,4,11,13,1,11,11,6,6,1,13,13,6,0,0,0,0,0,0,0,0,0,0,0,0,0,0,0,0],"split_type":[0,0,0,0,0,0,0,0,0,0,0,0,0,0,0,0,0,0,0,0,0,0,0,0,0,0,0,0,0,0,0],"sum_hessian":[3.2142531E4,2.2426473E4,9.716058E3,1.4412991E4,8.0134814E3,5.1177876E3,4.5982695E3,7.948404E3,6.464588E3,6.767489E3,1.2459926E3,1.8037571E3,3.3140305E3,2.925007E3,1.6732626E3,7.209673E3,7.3873096E2,5.6299756E3,8.34612E2,3.3089963E3,3.4584924E3,5.0756232E2,7.3843024E2,1.5033635E3,3.003935E2,1.7655714E3,1.5484592E3,9.4877563E2,1.9762314E3,1.6671635E3,6.09913E0],"tree_param":{"num_deleted":"0","num_feature":"18","num_nodes":"31","size_leaf_vector":"1"}},{"base_weights":[4.5727394E-3,-3.2450357E-1,7.625284E-1,-6.638158E-1,4.0940724E-2,5.7546663E-1,9.7103584E-1,-7.3403543E-1,-1.2217654E-1,-2.0588772E-1,1.965613E-1,3.8502717E-1,7.281229E-1,8.30495E-1,1.0262552E0,-1.5689034E-2,-4.844874E-3,2.7720463E-3,-1.0849509E-2,-5.636279E-3,4.4429214E-3,2.5874774E-3,1.0285997E-2,8.555298E-3,-3.3954596E-3,1.3624235E-2,1.8849764E-2,1.3441763E-2,1.8712124E-2,1.9599073E-2,2.191991E-2],"categories":[],"categories_nodes":[],"categories_segments":[],"categories_sizes":[],"default_left":[0,0,0,0,0,0,0,0,0,0,0,0,0,0,0,0,0,0,0,0,0,0,0,0,0,0,0,0,0,0,0],"id":44,"left_children":[1,3,5,7,9,11,13,15,17,19,21,23,25,27,29,-1,-1,-1,-1,-1,-1,-1,-1,-1,-1,-1,-1,-1,-1,-1,-1],"loss_changes":[7.9833047E3,2.7677664E3,3.752744E2,4.39125E2,4.1278055E2,1.4702783E2,3.1957031E1,2.525542E2,1.4656917E2,1.3515883E2,1.3997536E2,5.4535553E1,2.5591064E1,1.8889954E1,6.342041E0,0E0,0E0,0E0,0E0,0E0,0E0,0E0,0E0,0E0,0E0,0E0,0E0,0E0,0E0,0E0,0E0],"parents":[2147483647,0,0,1,1,2,2,3,3,4,4,5,5,6,6,7,7,8,8,9,9,10,10,11,11,12,12,13,13,14,14],"right_children":[2,4,6,8,10,12,14,16,18,20,22,24,26,28,30,-1,-1,-1,-1,-1,-1,-1,-1,-1,-1,-1,-1,-1,-1,-1,-1],"split_conditions":[2E0,2.291544E-1,5E0,1.1895922E0,7.951717E-1,1.0095183E-2,1.1033529E-2,4.1244923E-5,4.9636364E-1,1.4614838E0,1.2018984E-2,1.0228099E0,1.3354347E0,7E0,1E1,-1.5689034E-2,-4.844874E-3,2.7720463E-3,-1.0849509E-2,-5.636279E-3,4.4429214E-3,2.5874774E-3,1.0285997E-2,8.555298E-3,-3.3954596E-3,1.3624235E-2,1.8849764E-2,1.3441763E-2,1.8712124E-2,1.9599073E-2,2.191991E-2],"split_indices":[1,13,1,7,13,11,11,11,6,7,11,6,13,1,1,0,0,0,0,0,0,0,0,0,0,0,0,0,0,0,0],"split_type":[0,0,0,0,0,0,0,0,0,0,0,0,0,0,0,0,0,0,0,0,0,0,0,0,0,0,0,0,0,0,0],"sum_hessian":[3.2001062E4,2.2313283E4,9.687778E3,1.1570897E4,1.0742386E4,5.112991E3,4.5747866E3,1.0240706E4,1.3301912E3,4.151174E3,6.591212E3,2.2810122E3,2.8319792E3,1.3045974E3,3.2701892E3,9.285568E3,9.551376E2,8.2023126E2,5.0995987E2,3.5283257E3,6.2284814E2,5.445661E3,1.1455511E3,2.1199658E3,1.6104626E2,2.3341917E3,4.9778757E2,5.30067E2,7.7453046E2,1.9920679E3,1.2781215E3],"tree_param":{"num_deleted":"0","num_feature":"18","num_nodes":"31","size_leaf_vector":"1"}},{"base_weights":[1.3278897E-3,-3.2679716E-1,