{"learner":{"attributes":{"best_iteration":"286","best_score":"0.8581261665138958","scikit_learn":"{\"_estimator_type\": \"classifier\"}"},"feature_names":["DelinquencyScore","HasMajorDelinquency","LatePaymentsPerCreditLine","TotalPastDueCapped","UtilizationTimesDelinquency","UtilizationPerAge","RevolvingUtilizationCappedLog","DebtToIncomeAgeRisk","UtilizationPerCreditLine","IncomePerCreditLine","HighAgeRiskFlag","HasAnyDelinquency","DelinquencyBucket","UtilizationBucketLateBucket","WasLatePaymentsPerCreditLineImputed","WasUtilizationTimesDelinquencyImputed","WasUtilizationPerAgeImputed","WasRevolvingUtilizationCappedLogImputed","WasUtilizationPerCreditLineImputed","WasIncomePerCreditLineImputed"],"feature_types":["float","float","float","float","float","float","float","float","float","float","float","float","float","float","float","float","float","float","float","float"],"gradient_booster":{"model":{"cats":{"enc":[],"feature_segments":[],"sorted_idx":[]},"gbtree_model_param":{"num_parallel_tree":"1","num_trees":"387"},"iteration_indptr":[0,1,2,3,4,5,6,7,8,9,10,11,12,13,14,15,16,17,18,19,20,21,22,23,24,25,26,27,28,29,30,31,32,33,34,35,36,37,38,39,40,41,42,43,44,45,46,47,48,49,50,51,52,53,54,55,56,57,58,59,60,61,62,63,64,65,66,67,68,69,70,71,72,73,74,75,76,77,78,79,80,81,82,83,84,85,86,87,88,89,90,91,92,93,94,95,96,97,98,99,100,101,102,103,104,105,106,107,108,109,110,111,112,113,114,115,116,117,118,119,120,121,122,123,124,125,126,127,128,129,130,131,132,133,134,135,136,137,138,139,140,141,142,143,144,145,146,147,148,149,150,151,152,153,154,155,156,157,158,159,160,161,162,163,164,165,166,167,168,169,170,171,172,173,174,175,176,177,178,179,180,181,182,183,184,185,186,187,188,189,190,191,192,193,194,195,196,197,198,199,200,201,202,203,204,205,206,207,208,209,210,211,212,213,214,215,216,217,218,219,220,221,222,223,224,225,226,227,228,229,230,231,232,233,234,235,236,237,238,239,240,241,242,243,244,245,246,247,248,249,250,251,252,253,254,255,256,257,258,259,260,261,262,263,264,265,266,267,268,269,270,271,272,273,274,275,276,277,278,279,280,281,282,283,284,285,286,287,288,289,290,291,292,293,294,295,296,297,298,299,300,301,302,303,304,305,306,307,308,309,310,311,312,313,314,315,316,317,318,319,320,321,322,323,324,325,326,327,328,329,330,331,332,333,334,335,336,337,338,339,340,341,342,343,344,345,346,347,348,349,350,351,352,353,354,355,356,357,358,359,360,361,362,363,364,365,366,367,368,369,370,371,372,373,374,375,376,377,378,379,380,381,382,383,384,385,386,387],"tree_info":[0,0,0,0,0,0,0,0,0,0,0,0,0,0,0,0,0,0,0,0,0,0,0,0,0,0,0,0,0,0,0,0,0,0,0,0,0,0,0,0,0,0,0,0,0,0,0,0,0,0,0,0,0,0,0,0,0,0,0,0,0,0,0,0,0,0,0,0,0,0,0,0,0,0,0,0,0,0,0,0,0,0,0,0,0,0,0,0,0,0,0,0,0,0,0,0,0,0,0,0,0,0,0,0,0,0,0,0,0,0,0,0,0,0,0,0,0,0,0,0,0,0,0,0,0,0,0,0,0,0,0,0,0,0,0,0,0,0,0,0,0,0,0,0,0,0,0,0,0,0,0,0,0,0,0,0,0,0,0,0,0,0,0,0,0,0,0,0,0,0,0,0,0,0,0,0,0,0,0,0,0,0,0,0,0,0,0,0,0,0,0,0,0,0,0,0,0,0,0,0,0,0,0,0,0,0,0,0,0,0,0,0,0,0,0,0,0,0,0,0,0,0,0,0,0,0,0,0,0,0,0,0,0,0,0,0,0,0,0,0,0,0,0,0,0,0,0,0,0,0,0,0,0,0,0,0,0,0,0,0,0,0,0,0,0,0,0,0,0,0,0,0,0,0,0,0,0,0,0,0,0,0,0,0,0,0,0,0,0,0,0,0,0,0,0,0,0,0,0,0,0,0,0,0,0,0,0,0,0,0,0,0,0,0,0,0,0,0,0,0,0,0,0,0,0,0,0,0,0,0,0,0,0,0,0,0,0,0,0,0,0,0,0,0,0,0,0,0,0,0,0,0,0,0,0,0,0,0,0,0,0,0,0,0,0,0,0,0,0,0,0,0,0,0,0,0,0,0,0,0,0,0,0,0,0,0,0],"trees":[{"base_weights":[1.2048276E-3,-8.7083226E-1,1.1922811E0,-1.3247477E0,2.7819708E-2,3.19403E-1,1.4657197E0,-1.3979974E0,-4.0299833E-1,-3.061488E-1,3.048262E-1,-3.2917786E-1,8.8008994E-1,1.1778051E0,1.7343237E0,-4.871987E-2,-3.3165663E-2,-9.206471E-3,-3.9117903E-2,-1.7171752E-2,6.807555E-4,1.4394334E-2,-9.0285705E-4,-1.75046E-2,1.4268812E-3,1.3646371E-2,3.2264497E-2,2.1641754E-2,4.1771792E-2,4.904571E-2,5.4397177E-2],"categories":[],"categories_nodes":[],"categories_segments":[],"categories_sizes":[],"default_left":[0,0,0,0,0,0,0,0,0,0,0,0,0,0,0,0,0,0,0,0,0,0,0,0,0,0,0,0,0,0,0],"id":0,"left_children":[1,3,5,7,9,11,13,15,17,19,21,23,25,27,29,-1,-1,-1,-1,-1,-1,-1,-1,-1,-1,-1,-1,-1,-1,-1,-1],"loss_changes":[3.1445236E4,7.129589E3,3.0540234E3,7.837754E2,5.427277E2,1.1104005E3,7.5252734E2,7.101621E2,7.3889496E1,2.3288E2,1.8794275E2,1.3567386E2,1.3581543E2,4.602578E2,3.808008E1,0E0,0E0,0E0,0E0,0E0,0E0,0E0,0E0,0E0,0E0,0E0,0E0,0E0,0E0,0E0,0E0],"parents":[2147483647,0,0,1,1,2,2,3,3,4,4,5,5,6,6,7,7,8,8,9,9,10,10,11,11,12,12,13,13,14,14],"right_children":[2,4,6,8,10,12,14,16,18,20,22,24,26,28,30,-1,-1,-1,-1,-1,-1,-1,-1,-1,-1,-1,-1,-1,-1,-1,-1],"split_conditions":[1E0,4.6651492E-1,2E0,1.4614838E0,1.0191402E0,5.4975307E-1,5E0,-1.5894124E-1,1.806E0,5.9345835E-1,8.913191E-1,3.5278627E-3,1.1907227E-2,5.651812E-1,8E0,-4.871987E-2,-3.3165663E-2,-9.206471E-3,-3.9117903E-2,-1.7171752E-2,6.807555E-4,1.4394334E-2,-9.0285705E-4,-1.75046E-2,1.4268812E-3,1.3646371E-2,3.2264497E-2,2.1641754E-2,4.1771792E-2,4.904571E-2,5.4397177E-2],"split_indices":[0,6,0,7,6,6,0,6,9,7,10,4,4,6,0,0,0,0,0,0,0,0,0,0,0,0,0,0,0,0,0],"split_type":[0,0,0,0,0,0,0,0,0,0,0,0,0,0,0,0,0,0,0,0,0,0,0,0,0,0,0,0,0,0,0],"sum_hessian":[3.0273738E4,1.7477707E4,1.279603E4,1.161211E4,5.8655967E3,3.0525818E3,9.743449E3,1.0757013E4,8.550978E2,2.6593457E3,3.2062507E3,1.4154503E3,1.6371315E3,4.70398E3,5.0394688E3,6.066836E3,4.690177E3,7.7327155E2,8.1826195E1,1.4693384E3,1.1900074E3,2.1058171E3,1.1004336E3,8.448692E2,5.7058105E2,5.159644E2,1.121167E3,1.5050433E3,3.198937E3,2.2342415E3,2.8052273E3],"tree_param":{"num_deleted":"0","num_feature":"20","num_nodes":"31","size_leaf_vector":"1"}},{"base_weights":[-2.6164942E-3,-8.4191877E-1,1.1530089E0,-1.3376201E0,-6.2238956E-3,2.9725397E-1,1.422026E0,-1.4277872E0,-6.112066E-1,-3.6961704E-1,3.0326763E-1,-1.8743357E-1,9.9655074E-1,1.089486E0,1.634316E0,-4.6669148E-2,-3.4319904E-2,-1.3055303E-2,-3.9729964E-2,-1.6825586E-3,-1.8993523E-2,2.2451233E-2,6.276952E-3,-1.9331975E-2,4.123295E-3,1.1523549E-2,3.2219227E-2,1.7759796E-2,4.0206652E-2,4.5828506E-2,5.1426534E-2],"categories":[],"categories_nodes":[],"categories_segments":[],"categories_sizes":[],"default_left":[0,0,0,0,0,0,0,0,0,0,0,0,0,0,0,0,0,0,0,0,0,0,0,0,0,0,0,0,0,0,0],"id":1,"left_children":[1,3,5,7,9,11,13,15,17,19,21,23,25,27,29,-1,-1,-1,-1,-1,-1,-1,-1,-1,-1,-1,-1,-1,-1,-1,-1],"loss_changes":[2.934327E4,7.2598975E3,2.929963E3,7.2006445E2,7.3395233E2,1.0321255E3,6.827324E2,3.5414844E2,1.522984E2,2.4795999E2,1.4743698E2,2.6709216E2,5.8901367E1,4.7045898E2,4.9073242E1,0E0,0E0,0E0,0E0,0E0,0E0,0E0,0E0,0E0,0E0,0E0,0E0,0E0,0E0,0E0,0E0],"parents":[2147483647,0,0,1,1,2,2,3,3,4,4,5,5,6,6,7,7,8,8,9,9,10,10,11,11,12,12,13,13,14,14],"right_children":[2,4,6,8,10,12,14,16,18,20,22,24,26,28,30,-1,-1,-1,-1,-1,-1,-1,-1,-1,-1,-1,-1,-1,-1,-1,-1],"split_conditions":[1E0,3.6338457E-1,2E0,1.1112695E0,9.7892195E-1,1.1179793E-2,3E0,-6.0736157E-2,1.0408363E0,-9.568595E-2,6.672225E-1,2.9479295E-3,9.1446954E-1,5.815829E-1,1.2192893E0,-4.6669148E-2,-3.4319904E-2,-1.3055303E-2,-3.9729964E-2,-1.6825586E-3,-1.8993523E-2,2.2451233E-2,6.276952E-3,-1.9331975E-2,4.123295E-3,1.1523549E-2,3.2219227E-2,1.7759796E-2,4.0206652E-2,4.5828506E-2,5.1426534E-2],"split_indices":[11,5,12,7,5,4,12,5,9,9,8,4,6,6,6,0,0,0,0,0,0,0,0,0,0,0,0,0,0,0,0],"split_type":[0,0,0,0,0,0,0,0,0,0,0,0,0,0,0,0,0,0,0,0,0,0,0,0,0,0,0,0,0,0,0],"sum_hessian":[3.0252318E4,1.7524697E4,1.272762E4,1.0999767E4,6.5249307E3,3.0443774E3,9.683243E3,9.784741E3,1.2150256E3,3.0010798E3,3.5238506E3,1.798317E3,1.2460603E3,3.7742173E3,5.909026E3,6.7441665E3,3.0405745E3,9.751276E2,2.3989796E2,1.370713E3,1.6303668E3,6.1401416E2,2.9098364E3,7.470453E2,1.0512719E3,1.4018158E2,1.1058787E3,1.2653251E3,2.508892E3,2.5345276E3,3.374498E3],"tree_param":{"num_deleted":"0","num_feature":"20","num_nodes":"31","size_leaf_vector":"1"}},{"base_weights":[-7.5106374E-3,-8.4111875E-1,1.1260383E0,-1.3287913E0,-2.1376712E-2,2.4573632E-1,1.3880633E0,-1.4888127E0,-1.0155668E0,-4.031197E-1,2.755896E-1,-2.619852E-1,9.55951E-1,1.131055E0,1.6353896E0,-4.590869E-2,-2.2215689E-2,-3.3631325E-2,-1.5942708E-2,-4.616955E-3,-2.1170424E-2,4.0068617E-3,1.5360667E-2,-2.309542E-2,2.6018508E-3,3.370297E-2,2.5539367E-2,2.2029903E-2,3.8794298E-2,4.4501305E-2,5.0509036E-2],"categories":[],"categories_nodes":[],"categories_segments":[],"categories_sizes":[],"default_left":[0,0,0,0,0,0,0,0,0,0,0,0,0,0,0,0,0,0,0,0,0,0,0,0,0,0,0,0,0,0,0],"id":2,"left_children":[1,3,5,7,9,11,13,15,17,19,21,23,25,27,29,-1,-1,-1,-1,-1,-1,-1,-1,-1,-1,-1,-1,-1,-1,-1,-1],"loss_changes":[2.850288E4,6.9485195E3,2.948209E3,5.454844E2,7.351023E2,1.0575924E3,6.252051E2,2.2327148E2,1.8796362E2,2.1388437E2,1.2243851E2,3.0295563E2,2.0948364E1,3.1025586E2,3.555664E1,0E0,0E0,0E0,0E0,0E0,0E0,0E0,0E0,0E0,0E0,0E0,0E0,0E0,0E0,0E0,0E0],"parents":[2147483647,0,0,1,1,2,2,3,3,4,4,5,5,6,6,7,7,8,8,9,9,10,10,11,11,12,12,13,13,14,14],"right_children":[2,4,6,8,10,12,14,16,18,20,22,24,26,28,30,-1,-1,-1,-1,-1,-1,-1,-1,-1,-1,-1,-1,-1,-1,-1,-1],"split_conditions":[1E0,3.6338457E-1,2E0,-6.862852E-2,9.46152E-1,1.1103692E-2,5E0,1.4094816E0,1.0596385E0,3.593583E-2,1.6767426E0,2.9479295E-3,-1.17669635E-1,6.839044E-3,1.030353E-2,-4.590869E-2,-2.2215689E-2,-3.3631325E-2,-1.5942708E-2,-4.616955E-3,-2.1170424E-2,4.0068617E-3,1.5360667E-2,-2.309542E-2,2.6018508E-3,3.370297E-2,2.5539367E-2,2.2029903E-2,3.8794298E-2,4.4501305E-2,5.0509036E-2],"split_indices":[0,5,0,5,5,4,0,7,7,9,5,4,7,4,4,0,0,0,0,0,0,0,0,0,0,0,0,0,0,0,0],"split_type":[0,0,0,0,0,0,0,0,0,0,0,0,0,0,0,0,0,0,0,0,0,0,0,0,0,0,0,0,0,0,0],"sum_hessian":[3.0162832E4,1.7381018E4,1.2781813E4,1.0897612E4,6.483406E3,2.9320925E3,9.849722E3,7.211496E3,3.6861165E3,2.8367078E3,3.646698E3,1.709974E3,1.2221185E3,4.831682E3,5.018039E3,6.832267E3,3.7922867E2,3.026166E3,6.599504E2,1.5558776E3,1.2808302E3,2.2786638E3,1.3680342E3,6.9588776E2,1.0140862E3,4.68071E2,7.540475E2,1.4022703E3,3.4294119E3,1.212742E3,3.8052974E3],"tree_param":{"num_deleted":"0","num_feature":"20","num_nodes":"31","size_leaf_vector":"1"}},{"base_weights":[-9.798274E-3,-6.599885E-1,1.345298E0,-1.2031817E0,1.2271921E-1,1.1005497E0,1.5844752E0,-1.2769415E0,-2.6109666E-1,-2.0970422E-1,5.112969E-1,7.3618793E-1,1.2886932E0,1.5041715E0,1.67485E0,-4.070516E-2,-1.5443332E-2,-1.0782424E-2,2.6392952E-2,-9.4706835E-3,9.707223E-3,1.0816753E-2,2.926371E-2,1.093834E-2,2.9670907E-2,3.6245164E-2,4.179752E-2,4.1449267E-2,4.716336E-2,4.893137E-2,5.1826265E-2],"categories":[],"categories_nodes":[],"categories_segments":[],"categories_sizes":[],"default_left":[0,0,0,0,0,0,0,0,0,0,0,0,0,0,0,0,0,0,0,0,0,0,0,0,0,0,0,0,0,0,0],"id":3,"left_children":[1,3,5,7,9,11,13,15,17,19,21,23,25,27,29,-1,-1,-1,-1,-1,-1,-1,-1,-1,-1,-1,-1,-1,-1,-1,-1],"loss_changes":[2.6472021E4,8.632323E3,5.693965E2,8.326914E2,1.0745538E3,3.2970654E2,3.4490234E1,6.765078E2,9.7843666E1,2.5345456E2,2.6817383E2,1.5402124E2,2.5894531E1,2.066748E1,3.9301758E0,0E0,0E0,0E0,0E0,0E0,0E0,0E0,0E0,0E0,0E0,0E0,0E0,0E0,0E0,0E0,0E0],"parents":[2147483647,0,0,1,1,2,2,3,3,4,4,5,5,6,6,7,7,8,8,9,9,10,10,11,11,12,12,13,13,14,14],"right_children":[2,4,6,8,10,12,14,16,18,20,22,24,26,28,30,-1,-1,-1,-1,-1,-1,-1,-1,-1,-1,-1,-1,-1,-1,-1,-1],"split_conditions":[2E0,3.494449E-1,5E0,6.63051E-4,1.1339931E0,6.036916E-1,9E0,1.2293277E0,2.0108795E0,1.4354786E0,3.846154E-2,3E0,1.540327E-2,1.157655E-2,1.3E1,-4.070516E-2,-1.5443332E-2,-1.0782424E-2,2.6392952E-2,-9.4706835E-3,9.707223E-3,1.0816753E-2,2.926371E-2,1.093834E-2,2.9670907E-2,3.6245164E-2,4.179752E-2,4.1449267E-2,4.716336E-2,4.893137E-2,5.1826265E-2],"split_indices":[0,5,0,4,5,5,0,7,7,7,2,0,4,4,0,0,0,0,0,0,0,0,0,0,0,0,0,0,0,0,0],"split_type":[0,0,0,0,0,0,0,0,0,0,0,0,0,0,0,0,0,0,0,0,0,0,0,0,0,0,0,0,0,0,0],"sum_hessian":[3.0044291E4,2.030296E4,9.741329E3,1.1985114E4,8.317847E3,4.8159756E3,4.925354E3,1.1114718E4,8.703964E2,4.48296E3,3.8348867E3,1.6408102E3,3.1751653E3,2.6126616E3,2.3126921E3,1.005977E4,1.0549487E3,8.016538E2,6.874266E1,3.739888E3,7.4307184E2,2.895459E3,9.394276E2,6.648981E2,9.759121E2,1.7973108E3,1.3778544E3,9.3574207E2,1.6769197E3,1.2715752E3,1.0411171E3],"tree_param":{"num_deleted":"0","num_feature":"20","num_nodes":"31","size_leaf_vector":"1"}},{"base_weights":[-1.2404197E-2,-7.911959E-1,1.0582249E0,-1.2584589E0,-1.3913078E-2,2.567451E-1,1.3069146E0,-1.4221041E0,-9.3252426E-1,-3.4616375E-1,2.5208038E-1,-3.181018E-1,7.5561845E-1,9.861697E-1,1.5030733E0,-4.136273E-2,-4.9233597E-2,-1.9423118E-2,-3.0826796E-2,-1.873924E-3,-1.5780026E-2,1.3048115E-2,-4.8491047E-4,-2.4103012E-2,-2.9760976E-3,1.3848894E-2,2.9758088E-2,1.50052905E-2,3.6611002E-2,4.2852152E-2,4.8584595E-2],"categories":[],"categories_nodes":[],"categories_segments":[],"categories_sizes":[],"default_left":[0,0,0,0,0,0,0,0,0,0,0,0,0,0,0,0,0,0,0,0,0,0,0,0,0,0,0,0,0,0,0],"id":4,"left_children":[1,3,5,7,9,11,13,15,17,19,21,23,25,27,29,-1,-1,-1,-1,-1,-1,-1,-1,-1,-1,-1,-1,-1,-1,-1,-1],"loss_changes":[2.5016719E4,6.3083076E3,2.518123E3,5.779336E2,5.76404E2,8.5831714E2,6.059258E2,6.7421875E1,9.7946045E1,1.4793509E2,1.7767613E2,1.4771277E2,1.1109094E2,4.163391E2,5.0844727E1,0E0,0E0,0E0,0E0,0E0,0E0,0E0,0E0,0E0,0E0,0E0,0E0,0E0,0E0,0E0,0E0],"parents":[2147483647,0,0,1,1,2,2,3,3,4,4,5,5,6,6,7,7,8,8,9,9,10,10,11,11,12,12,13,13,14,14],"right_children":[2,4,6,8,10,12,14,16,18,20,22,24,26,28,30,-1,-1,-1,-1,-1,-1,-1,-1,-1,-1,-1,-1,-1,-1,-1,-1],"split_conditions":[1E0,3.6338457E-1,2E0,-6.0736157E-2,9.46152E-1,5.4975307E-1,3E0,8.7618184E-1,-2.4307368E-2,4.3320632E-1,2.2060606E-1,1.1250504E-3,1.1644138E0,5.651812E-1,5E0,-4.136273E-2,-4.9233597E-2,-1.9423118E-2,-3.0826796E-2,-1.873924E-3,-1.5780026E-2,1.3048115E-2,-4.8491047E-4,-2.4103012E-2,-2.9760976E-3,1.3848894E-2,2.9758088E-2,1.50052905E-2,3.6611002E-2,4.2852152E-2,4.8584595E-2],"split_indices":[3,5,12,5,5,6,12,9,8,8,9,4,6,6,3,0,0,0,0,0,0,0,0,0,0,0,0,0,0,0,0],"split_type":[0,0,0,0,0,0,0,0,0,0,0,0,0,0,0,0,0,0,0,0,0,0,0,0,0,0,0,0,0,0,0],"sum_hessian":[3.0002363E4,1.7368434E4,1.263393E4,1.0847287E4,6.521146E3,2.9920708E3,9.641859E3,7.220391E3,3.626896E3,2.8993884E3,3.6217576E3,1.3902642E3,1.6018065E3,3.6601133E3,5.981746E3,6.030514E3,1.1898767E3,9.077486E2,2.7191475E3,1.1251295E3,1.774259E3,2.153469E3,1.4682887E3,4.3172583E2,9.5853827E2,7.144632E2,8.873434E2,1.1907338E3,2.4693796E3,3.6483235E3,2.3334226E3],"tree_param":{"num_deleted":"0","num_feature":"20","num_nodes":"31","size_leaf_vector":"1"}},{"base_weights":[-5.403473E-3,-7.5209767E-1,1.0303262E0,-1.1864603E0,4.3373894E-2,4.488643E-1,1.3810118E0,-1.359571E0,-8.737784E-1,-2.8642234E-1,2.6650083E-1,-1.428071E-1,8.840219E-1,1.132461E0,1.5229065E0,-3.910841E-2,-4.7285754E-2,-1.6466508E-2,-2.9299578E-2,-3.6938433E-3,-2.0894106E-2,1.9896775E-2,5.406003E-3,-9.059459E-3,6.675799E-3,1.651511E-2,3.0920379E-2,2.5138244E-2,3.8617376E-2,4.225733E-2,4.7465414E-2],"categories":[],"categories_nodes":[],"categories_segments":[],"categories_sizes":[],"default_left":[0,0,0,0,0,0,0,0,0,0,0,0,0,0,0,0,0,0,0,0,0,0,0,0,0,0,0,0,0,0,0],"id":5,"left_children":[1,3,5,7,9,11,13,15,17,19,21,23,25,27,29,-1,-1,-1,-1,-1,-1,-1,-1,-1,-1,-1,-1,-1,-1,-1,-1],"loss_changes":[2.316408E4,6.0136797E3,2.5582568E3,6.087549E2,4.5241348E2,1.2156506E3,2.7517285E2,8.6793945E1,1.3385815E2,1.6608249E2,1.25490295E2,1.16410095E2,1.3278516E2,1.292168E2,3.263965E1,0E0,0E0,0E0,0E0,0E0,0E0,0E0,0E0,0E0,0E0,0E0,0E0,0E0,0E0,0E0,0E0],"parents":[2147483647,0,0,1,1,2,2,3,3,4,4,5,5,6,6,7,7,8,8,9,9,10,10,11,11,12,12,13,13,14,14],"right_children":[2,4,6,8,10,12,14,16,18,20,22,24,26,28,30,-1,-1,-1,-1,-1,-1,-1,-1,-1,-1,-1,-1,-1,-1,-1,-1],"split_conditions":[1E0,4.3104944E-1,3E0,-6.0736157E-2,9.46152E-1,5.651812E-1,5E0,6.834546E-1,-2.4307368E-2,3.4777272E-1,6.672225E-1,2E0,1.0351573E0,7.3136836E-1,1.1484967E0,-3.910841E-2,-4.7285754E-2,-1.6466508E-2,-2.9299578E-2,-3.6938433E-3,-2.0894106E-2,1.9896775E-2,5.406003E-3,-9.059459E-3,6.675799E-3,1.651511E-2,3.0920379E-2,2.5138244E-2,3.8617376E-2,4.225733E-2,4.7465414E-2],"split_indices":[0,5,0,5,5,6,0,9,8,9,8,0,6,6,6,0,0,0,0,0,0,0,0,0,0,0,0,0,0,0,0],"split_type":[0,0,0,0,0,0,0,0,0,0,0,0,0,0,0,0,0,0,0,0,0,0,0,0,0,0,0,0,0,0,0],"sum_hessian":[2.9951002E4,1.7403988E4,1.2547014E4,1.125695E4,6.1470376E3,4.7207725E3,7.826241E3,7.244493E3,4.0124568E3,2.480522E3,3.6665159E3,2.0007479E3,2.7200244E3,2.845825E3,4.980416E3,5.760066E3,1.4844268E3,9.657182E2,3.0467388E3,1.7745066E3,7.060154E2,6.5448785E2,3.012028E3,1.3936327E3,6.071152E2,8.314883E2,1.888536E3,9.8148846E2,1.8643364E3,1.7047122E3,3.275704E3],"tree_param":{"num_deleted":"0","num_feature":"20","num_nodes":"31","size_leaf_vector":"1"}},{"base_weights":[-5.367672E-4,-5.9735185E-1,1.256388E0,-1.0982172E0,1.2256211E-1,1.0353434E0,1.4767523E0,-1.167819E0,-1.0023038E-1,-6.5909172E-3,8.648079E-1,7.305543E-1,1.2259076E0,1.2584653E0,1.5104185E0,-3.903117E-2,-2.7004255E-2,-8.759954E-3,6.9563836E-3,-5.7692253E-3,9.726655E-3,8.341365E-3,2.8335672E-2,1.3867029E-2,2.798535E-2,3.500395E-2,4.4194423E-2,3.4525633E-2,4.534785E-2,4.362658E-2,4.714135E-2],"categories":[],"categories_nodes":[],"categories_segments":[],"categories_sizes":[],"default_left":[0,0,0,0,0,0,0,0,0,0,0,0,0,0,0,0,0,0,0,0,0,0,0,0,0,0,0,0,0,0,0],"id":6,"left_children":[1,3,5,7,9,11,13,15,17,19,21,23,25,27,29,-1,-1,-1,-1,-1,-1,-1,-1,-1,-1,-1,-1,-1,-1,-1,-1],"loss_changes":[2.2412557E4,7.3048022E3,4.6778418E2,8.297793E2,7.9682715E2,2.7856592E2,3.4439453E1,3.9765625E2,4.9673336E1,4.350463E2,5.7492004E1,1.0016058E2,4.2325684E1,1.6740173E1,1.3142578E1,0E0,0E0,0E0,0E0,0E0,0E0,0E0,0E0,0E0,0E0,0E0,0E0,0E0,0E0,0E0,0E0],"parents":[2147483647,0,0,1,1,2,2,3,3,4,4,5,5,6,6,7,7,8,8,9,9,10,10,11,11,12,12,13,13,14,14],"right_children":[2,4,6,8,10,12,14,16,18,20,22,24,26,28,30,-1,-1,-1,-1,-1,-1,-1,-1,-1,-1,-1,-1,-1,-1,-1,-1],"split_conditions":[2E0,3.494449E-1,5E0,1.1250504E-3,1.1103692E-2,9.393758E-3,7.4306657E-3,-6.862852E-2,4.2966995E-3,1.1952962E0,9.328519E-1,3E0,1.3354347E0,8.75E-1,9E0,-3.903117E-2,-2.7004255E-2,-8.759954E-3,6.9563836E-3,-5.7692253E-3,9.726655E-3,8.341365E-3,2.8335672E-2,1.3867029E-2,2.798535E-2,3.500395E-2,4.4194423E-2,3.4525633E-2,4.534785E-2,4.362658E-2,4.714135E-2],"split_indices":[0,5,0,4,4,4,4,5,4,5,6,0,6,2,0,0,0,0,0,0,0,0,0,0,0,0,0,0,0,0,0],"split_type":[0,0,0,0,0,0,0,0,0,0,0,0,0,0,0,0,0,0,0,0,0,0,0,0,0,0,0,0,0,0,0],"sum_hessian":[2.987637E4,2.0257793E4,9.618576E3,1.1946203E4,8.31159E3,4.8032993E3,4.815277E3,1.1167287E4,7.789157E2,7.0801226E3,1.2314673E3,1.8487767E3,2.9545227E3,6.4598615E2,4.1692905E3,7.455057E3,3.7122297E3,4.9382806E2,2.8508765E2,4.534619E3,2.5455032E3,1.4755905E2,1.0839083E3,7.953976E2,1.0533792E3,2.386764E3,5.677587E2,4.5523108E2,1.907551E2,2.1758196E3,1.9934711E3],"tree_param":{"num_deleted":"0","num_feature":"20","num_nodes":"31","size_leaf_vector":"1"}},{"base_weights":[-5.1065153E-3,-5.847321E-1,1.2117202E0,-9.9360734E-1,2.416396E-1,9.6305865E-1,1.4486697E0,-1.2016448E0,-5.6209767E-1,1.1795528E-1,8.052436E-1,6.166038E-1,1.1502761E0,1.2929609E0,1.4868866E0,-3.8483575E-2,-1.5470729E-2,-1.964356E-2,3.8723063E-3,9.293938E-3,-2.5988244E-3,8.498068E-3,2.6330357E-2,9.856957E-3,2.5232289E-2,3.3178914E-2,4.1545752E-2,3.3009637E-2,4.3345965E-2,4.31399E-2,4.632504E-2],"categories":[],"categories_nodes":[],"categories_segments":[],"categories_sizes":[],"default_left":[0,0,0,0,0,0,0,0,0,0,0,0,0,0,0,0,0,0,0,0,0,0,0,0,0,0,0,0,0,0,0],"id":7,"left_children":[1,3,5,7,9,11,13,15,17,19,21,23,25,27,29,-1,-1,-1,-1,-1,-1,-1,-1,-1,-1,-1,-1,-1,-1,-1,-1],"loss_changes":[2.1017543E4,6.820127E3,5.658047E2,1.2118652E3,4.6572144E2,3.0403955E2,2.8330078E1,5.0674902E2,2.815011E2,2.1508224E2,4.5335083E1,1.0637726E2,3.0896973E1,2.7703613E1,9.948242E0,0E0,0E0,0E0,0E0,0E0,0E0,0E0,0E0,0E0,0E0,0E0,0E0,0E0,0E0,0E0,0E0],"parents":[2147483647,0,0,1,1,2,2,3,3,4,4,5,5,6,6,7,7,8,8,9,9,10,10,11,11,12,12,13,13,14,14],"right_children":[2,4,6,8,10,12,14,16,18,20,22,24,26,28,30,-1,-1,-1,-1,-1,-1,-1,-1,-1,-1,-1,-1,-1,-1,-1,-1],"split_conditions":[2E0,6.1820036E-1,5E0,2E0,1.1103692E-2,6.2406677E-1,4.3320632E-1,1.1112695E0,1.4614838E0,5.090909E-2,9.1446954E-1,3E0,1.3354347E0,8E0,9E0,-3.8483575E-2,-1.5470729E-2,-1.964356E-2,3.8723063E-3,9.293938E-3,-2.5988244E-3,8.498068E-3,2.6330357E-2,9.856957E-3,2.5232289E-2,3.3178914E-2,4.1545752E-2,3.3009637E-2,4.3345965E-2,4.31399E-2,4.632504E-2],"split_indices":[0,5,0,13,4,6,8,7,7,9,6,0,6,0,0,0,0,0,0,0,0,0,0,0,0,0,0,0,0,0,0],"split_type":[0,0,0,0,0,0,0,0,0,0,0,0,0,0,0,0,0,0,0,0,0,0,0,0,0,0,0,0,0,0,0],"sum_hessian":[2.9798268E4,2.0184027E4,9.614239E3,1.3502908E4,6.6811196E3,4.692416E3,4.921823E3,9.109964E3,4.392944E3,5.479282E3,1.2018375E3,1.6468984E3,3.0455173E3,9.7337646E2,3.948447E3,8.145948E3,9.640158E2,3.8735242E3,5.1941986E2,2.8275535E3,2.6517288E3,1.4675552E2,1.055082E3,7.2185736E2,9.25041E2,2.5640332E3,4.814843E2,4.3096536E2,5.4241113E2,2.1373008E3,1.8111461E3],"tree_param":{"num_deleted":"0","num_feature":"20","num_nodes":"31","size_leaf_vector":"1"}},{"base_weights":[-5.31496E-3,-6.956682E-1,9.4947195E-1,-1.0650408E0,9.3812935E-2,4.3300965E-1,1.2724794E0,-1.1615535E0,-3.2383898E-1,-1.6522273E-1,3.251893E-1,2.8110214E-3,8.649556E-1,1.059758E0,1.3991901E0,-3.9217792E-2,-2.725633E-2,-1.3451453E-2,2.3685682E-3,-7.821499E-3,1.6418431E-2,7.4681323E-3,2.32227E-2,-1.32089965E-2,6.3016987E-3,2.1542368E-2,3.1868454E-2,2.6909625E-2,3.8430505E-2,3.9182603E-2,4.418633E-2],"categories":[],"categories_nodes":[],"categories_segments":[],"categories_sizes":[],"default_left":[0,0,0,0,0,0,0,0,0,0,0,0,0,0,0,0,0,0,0,0,0,0,0,0,0,0,0,0,0,0,0],"id":8,"left_children":[1,3,5,7,9,11,13,15,17,19,21,23,25,27,29,-1,-1,-1,-1,-1,-1,-1,-1,-1,-1,-1,-1,-1,-1,-1,-1],"loss_changes":[1.954612E4,5.0187666E3,2.0756045E3,8.3854004E2,3.2883093E2,8.8986725E2,2.0560352E2,3.8183203E2,6.781476E1,1.76202E2,9.909671E1,2.2042271E2,6.8874146E1,1.0242163E2,3.1941406E1,0E0,0E0,0E0,0E0,0E0,0E0,0E0,0E0,0E0,0E0,0E0,0E0,0E0,0E0,0E0,0E0],"parents":[2147483647,0,0,1,1,2,2,3,3,4,4,5,5,6,6,7,7,8,8,9,9,10,10,11,11,12,12,13,13,14,14],"right_children":[2,4,6,8,10,12,14,16,18,20,22,24,26,28,30,-1,-1,-1,-1,-1,-1,-1,-1,-1,-1,-1,-1,-1,-1,-1,-1],"split_conditions":[1E0,5.614794E-1,3E0,1.1694773E0,1.1339931E0,7.4787766E-1,5E0,-6.0736157E-2,6E0,1.7629597E0,1.4614838E0,-1.4661482E-1,2E0,1.2449976E0,8E0,-3.9217792E-2,-2.725633E-2,-1.3451453E-2,2.3685682E-3,-7.821499E-3,1.6418431E-2,7.4681323E-3,2.32227E-2,-1.32089965E-2,6.3016987E-3,2.1542368E-2,3.1868454E-2,2.6909625E-2,3.8430505E-2,3.9182603E-2,4.418633E-2],"split_indices":[0,5,0,7,5,6,0,5,13,7,7,6,0,6,0,0,0,0,0,0,0,0,0,0,0,0,0,0,0,0,0],"split_type":[0,0,0,0,0,0,0,0,0,0,0,0,0,0,0,0,0,0,0,0,0,0,0,0,0,0,0,0,0,0,0],"sum_hessian":[2.9652959E4,1.720971E4,1.2443248E4,1.1724175E4,5.4855356E3,4.7883076E3,7.65494E3,1.0373188E4,1.3509873E3,2.5881428E3,2.8973928E3,2.399258E3,2.3890493E3,2.8593528E3,4.7955874E3,6.581094E3,3.7920938E3,1.0318754E3,3.191119E2,2.2825405E3,3.056024E2,2.477359E3,4.200339E2,7.6437946E2,1.6348787E3,1.3709353E3,1.0181141E3,1.6488748E3,1.210478E3,2.1228113E3,2.6727761E3],"tree_param":{"num_deleted":"0","num_feature":"20","num_nodes":"31","size_leaf_vector":"1"}},{"base_weights":[8.228418E-3,-6.790818E-1,9.433114E-1,-1.0796126E0,-1.8222502E-2,4.5054525E-1,1.2539009E0,-1.2531027E0,-8.028762E-1,-3.4171826E-1,2.1486256E-1,-7.204147E-2,8.406726E-1,1.0189176E0,1.3913815E0,-3.8659826E-2,-1.634114E-2,-2.6928332E-2,-8.355435E-3,1.5566128E-3,-1.6354349E-2,4.8877974E-3,2.3498144E-2,-7.848683E-3,9.845792E-3,2.0893758E-2,3.131164E-2,2.5034443E-2,3.674925E-2,3.851823E-2,4.3382842E-2],"categories":[],"categories_nodes":[],"categories_segments":[],"categories_sizes":[],"default_left":[0,0,0,0,0,0,0,0,0,0,0,0,0,0,0,0,0,0,0,0,0,0,0,0,0,0,0,0,0,0,0],"id":9,"left_children":[1,3,5,7,9,11,13,15,17,19,21,23,25,27,29,-1,-1,-1,-1,-1,-1,-1,-1,-1,-1,-1,-1,-1,-1,-1,-1],"loss_changes":[1.9126068E4,4.5400537E3,1.9292295E3,5.1223047E2,4.8812122E2,9.939076E2,2.4910352E2,1.6497559E2,2.0436987E2,2.1708319E2,1.1101135E2,1.5818431E2,8.1370605E1,1.08034424E2,2.774121E1,0E0,0E0,0E0,0E0,0E0,0E0,0E0,0E0,0E0,0E0,0E0,0E0,0E0,0E0,0E0,0E0],"parents":[2147483647,0,0,1,1,2,2,3,3,4,4,5,5,6,6,7,7,8,8,9,9,10,10,11,11,12,12,13,13,14,14],"right_children":[2,4,6,8,10,12,14,16,18,20,22,24,26,28,30,-1,-1,-1,-1,-1,-1,-1,-1,-1,-1,-1,-1,-1,-1,-1,-1],"split_conditions":[1E0,3.6338457E-1,3E0,-1.1766962E-1,9.145146E-1,5.651812E-1,5E0,1.4614838E0,1.1694773E0,3.5081393E-1,1.9376829E0,2E0,2E0,1.1780306E0,7E0,-3.8659826E-2,-1.634114E-2,-2.6928332E-2,-8.355435E-3,1.5566128E-3,-1.6354349E-2,4.8877974E-3,2.3498144E-2,-7.848683E-3,9.845792E-3,2.0893758E-2,3.131164E-2,2.5034443E-2,3.674925E-2,3.851823E-2,4.3382842E-2],"split_indices":[0,5,0,5,5,6,0,7,7,8,7,0,0,6,0,0,0,0,0,0,0,0,0,0,0,0,0,0,0,0,0],"split_type":[0,0,0,0,0,0,0,0,0,0,0,0,0,0,0,0,0,0,0,0,0,0,0,0,0,0,0,0,0,0,0],"sum_hessian":[2.9758307E4,1.7151584E4,1.2606723E4,1.0678989E4,6.472595E3,4.874425E3,7.7322974E3,6.5628696E3,4.11612E3,2.7104973E3,3.7620977E3,2.0836816E3,2.7907432E3,2.8556287E3,4.876669E3,6.2488003E3,3.1406958E2,3.4859648E3,6.30155E2,9.2367456E2,1.7868229E3,3.44772E3,3.1437753E2,1.4140527E3,6.696289E2,1.633077E3,1.1576663E3,1.5082042E3,1.3474243E3,1.6495939E3,3.227075E3],"tree_param":{"num_deleted":"0","num_feature":"20","num_nodes":"31","size_leaf_vector":"1"}},{"base_weights":[-8.7466283E-4,-6.663917E-1,9.102814E-1,-1.0820055E0,-5.4276157E-2,2.3756939E-1,1.1252433E0,-1.1460289E0,-3.2631695E-1,-3.7148693E-1,1.8782863E-1,-3.2598764E-1,6.1439073E-1,8.544718E-1,1.3009565E0,-3.793916E-2,-2.5910744E-2,-1.4401053E-2,1.6188506E-2,-1.4364965E-2,3.2731579E-3,3.7909022E-3,2.3596385E-2,-1.836847E-2,1.8453117E-3,9.85961E-3,2.5088044E-2,1.4010766E-2,3.085702E-2,3.667362E-2,4.2662255E-2],"categories":[],"categories_nodes":[],"categories_segments":[],"categories_sizes":[],"default_left":[0,0,0,0,0,0,0,0,0,0,0,0,0,0,0,0,0,0,0,0,0,0,0,0,0,0,0,0,0,0,0],"id":10,"left_children":[1,3,5,7,9,11,13,15,17,19,21,23,25,27,29,-1,-1,-1,-1,-1,-1,-1,-1,-1,-1,-1,-1,-1,-1,-1,-1],"loss_changes":[1.787775E4,4.3344346E3,1.7994375E3,4.9077344E2,5.292202E2,6.4020483E2,4.4814258E2,3.1273047E2,1.05722496E2,1.539079E2,1.4377577E2,1.3405151E2,1.14396484E2,2.5020654E2,5.350293E1,0E0,0E0,0E0,0E0,0E0,0E0,0E0,0E0,0E0,0E0,0E0,0E0,0E0,0E0,0E0,0E0],"parents":[2147483647,0,0,1,1,2,2,3,3,4,4,5,5,6,6,7,7,8,8,9,9,10,10,11,11,12,12,13,13,14,14],"right_children":[2,4,6,8,10,12,14,16,18,20,22,24,26,28,30,-1,-1,-1,-1,-1,-1,-1,-1,-1,-1,-1,-1,-1,-1,-1,-1],"split_conditions":[1E0,2.746596E-1,2E0,1.3790632E0,8.6440426E-1,2.6148707E-1,3E0,-6.0736157E-2,3.224669E0,1.2991257E0,1.3354347E0,4.9849135E-1,1.0687652E0,4.530389E-1,5E0,-3.793916E-2,-2.5910744E-2,-1.4401053E-2,1.6188506E-2,-1.4364965E-2,3.2731579E-3,3.7909022E-3,2.3596385E-2,-1.836847E-2,1.8453117E-3,9.85961E-3,2.5088044E-2,1.4010766E-2,3.085702E-2,3.667362E-2,4.2662255E-2],"split_indices":[3,6,12,7,6,8,12,5,7,7,6,7,6,6,3,0,0,0,0,0,0,0,0,0,0,0,0,0,0,0,0],"split_type":[0,0,0,0,0,0,0,0,0,0,0,0,0,0,0,0,0,0,0,0,0,0,0,0,0,0,0,0,0,0,0],"sum_hessian":[2.948127E4,1.7037242E4,1.2444027E4,1.0147151E4,6.8900913E3,3.0137385E3,9.430289E3,9.354374E3,7.927775E2,2.9823225E3,3.907769E3,1.2076697E3,1.806069E3,3.712426E3,5.7178633E3,6.5858975E3,2.768476E3,6.734512E2,1.1932636E2,2.4378135E3,5.4450916E2,3.5444917E3,3.6327716E2,6.943637E2,5.1330597E2,7.899719E2,1.0160971E3,1.1515392E3,2.560887E3,3.4726406E3,2.2452224E3],"tree_param":{"num_deleted":"0","num_feature":"20","num_nodes":"31","size_leaf_vector":"1"}},{"base_weights":[2.394428E-3,-5.1080644E-1,1.0995103E0,-8.7086356E-1,2.0081715E-1,8.858383E-1,1.3139657E0,-1.1077191E0,-5.639366E-1,-2.781139E-1,2.8206033E-1,5.294327E-1,1.0578572E0,1.2106997E0,1.3954227E0,-3.4982923E-2,-5.9151626E-3,-2.0065488E-2,1.3697477E-3,1.1024908E-2,-1.2578142E-2,5.3500556E-3,1.8945815E-2,7.97004E-3,2.1951774E-2,2.9957494E-2,4.0360015E-2,2.883752E-2,3.8126886E-2,4.101353E-2,4.3286227E-2],"categories":[],"categories_nodes":[],"categories_segments":[],"categories_sizes":[],"default_left":[0,0,0,0,0,0,0,0,0,0,0,0,0,0,0,0,0,0,0,0,0,0,0,0,0,0,0,0,0,0,0],"id":11,"left_children":[1,3,5,7,9,11,13,15,17,19,21,23,25,27,29,-1,-1,-1,-1,-1,-1,-1,-1,-1,-1,-1,-1,-1,-1,-1,-1],"loss_changes":[1.6479107E4,5.1093315E3,4.268379E2,9.622783E2,2.607309E2,2.8626758E2,3.8305176E1,3.971289E2,3.6893225E2,8.865349E1,2.0759082E2,8.113962E1,5.303589E1,3.026416E1,2.503418E0,0E0,0E0,0E0,0E0,0E0,0E0,0E0,0E0,0E0,0E0,0E0,0E0,0E0,0E0,0E0,0E0],"parents":[2147483647,0,0,1,1,2,2,3,3,4,4,5,5,6,6,7,7,8,8,9,9,10,10,11,11,12,12,13,13,14,14],"right_children":[2,4,6,8,10,12,14,16,18,20,22,24,26,28,30,-1,-1,-1,-1,-1,-1,-1,-1,-1,-1,-1,-1,-1,-1,-1,-1],"split_conditions":[2E0,6.036916E-1,5E0,-7.598612E-2,6.822251E-1,5.815829E-1,8E0,1.4094816E0,2.3809524E-2,2.0480579E-1,3.846154E-2,3E0,1.3354347E0,3.9206323E-1,1.3E1,-3.4982923E-2,-5.9151626E-3,-2.0065488E-2,1.3697477E-3,1.1024908E-2,-1.2578142E-2,5.3500556E-3,1.8945815E-2,7.97004E-3,2.1951774E-2,2.9957494E-2,4.0360015E-2,2.883752E-2,3.8126886E-2,4.101353E-2,4.3286227E-2],"split_indices":[0,5,0,5,6,6,0,7,2,8,2,0,6,8,0,0,0,0,0,0,0,0,0,0,0,0,0,0,0,0,0],"split_type":[0,0,0,0,0,0,0,0,0,0,0,0,0,0,0,0,0,0,0,0,0,0,0,0,0,0,0,0,0,0,0],"sum_hessian":[2.9267049E4,1.9939951E4,9.327098E3,1.3240567E4,6.6993843E3,4.673366E3,4.6537314E3,7.472633E3,5.7679346E3,9.7144916E2,5.727935E3,1.5219924E3,3.151374E3,2.055646E3,2.5980854E3,7.022269E3,4.5036365E2,4.920972E3,8.469624E2,1.7414804E2,7.9730115E2,4.417526E3,1.310409E3,6.611251E2,8.608673E2,2.614528E3,5.36846E2,4.012769E2,1.654369E3,1.6367E3,9.6138556E2],"tree_param":{"num_deleted":"0","num_feature":"20","num_nodes":"31","size_leaf_vector":"1"}},{"base_weights":[4.8689106E-3,-6.398914E-1,8.8035804E-1,-1.0045788E0,6.42594E-3,4.031393E-1,1.1760194E0,-1.0761993E0,-3.9673698E-1,-3.1071213E-1,1.95454E-1,6.4752335E-3,7.982699E-1,9.6134496E-1,1.3049709E0,-3.6349032E-2,-2.5902828E-2,1.050883E-2,-1.5982652E-2,-1.1795731E-2,1.1216572E-2,3.907386E-3,2.4530603E-2,-1.5574096E-2,2.9905012E-3,2.0406136E-2,2.8987406E-2,2.3575919E-2,3.46303E-2,3.56216E-2,4.0931173E-2],"categories":[],"categories_nodes":[],"categories_segments":[],"categories_sizes":[],"default_left":[0,0,0,0,0,0,0,0,0,0,0,0,0,0,0,0,0,0,0,0,0,0,0,0,0,0,0,0,0,0,0],"id":12,"left_children":[1,3,5,7,9,11,13,15,17,19,21,23,25,27,29,-1,-1,-1,-1,-1,-1,-1,-1,-1,-1,-1,-1,-1,-1,-1,-1],"loss_changes":[1.6537814E4,3.9767832E3,1.7529365E3,4.6933984E2,3.6490417E2,7.4512054E2,2.1175098E2,2.7752246E2,1.15695755E2,1.284296E2,1.5468965E2,1.1627877E2,4.6904297E1,9.711572E1,3.265674E1,0E0,0E0,0E0,0E0,0E0,0E0,0E0,0E0,0E0,0E0,0E0,0E0,0E0,0E0,0E0,0E0],"parents":[2147483647,0,0,1,1,2,2,3,3,4,4,5,5,6,6,7,7,8,8,9,9,10,10,11,11,12,12,13,13,14,14],"right_children":[2,4,6,8,10,12,14,16,18,20,22,24,26,28,30,-1,-1,-1,-1,-1,-1,-1,-1,-1,-1,-1,-1,-1,-1,-1,-1],"split_conditions":[1E0,4.1439816E-1,3E0,1.1895922E0,8.8123554E-1,7.4787766E-1,5E0,-1.2737751E-1,-2.2072728E-1,1.8148918E0,1.3354347E0,-3.400435E-1,2E0,1.1780306E0,7E0,-3.6349032E-2,-2.5902828E-2,1.050883E-2,-1.5982652E-2,-1.1795731E-2,1.1216572E-2,3.907386E-3,2.4530603E-2,-1.5574096E-2,2.9905012E-3,2.0406136E-2,2.8987406E-2,2.3575919E-2,3.46303E-2,3.56216E-2,4.0931173E-2],"split_indices":[0,6,0,7,6,6,0,6,9,7,6,6,0,6,0,0,0,0,0,0,0,0,0,0,0,0,0,0,0,0,0],"split_type":[0,0,0,0,0,0,0,0,0,0,0,0,0,0,0,0,0,0,0,0,0,0,0,0,0,0,0,0,0,0,0],"sum_hessian":[2.92964E4,1.687144E4,1.242496E4,1.0785434E4,6.0860063E3,4.7535576E3,7.671402E3,9.648225E3,1.1372098E3,2.2727026E3,3.8133037E3,2.3724294E3,2.3811282E3,2.8804092E3,4.7909927E3,5.894109E3,3.7541152E3,1.7504573E2,9.621642E2,2.0285233E3,2.4417937E2,3.4521367E3,3.6116702E2,3.5699686E2,2.0154326E3,1.3997885E3,9.813399E2,1.5099996E3,1.3704095E3,1.6115201E3,3.1794727E3],"tree_param":{"num_deleted":"0","num_feature":"20","num_nodes":"31","size_leaf_vector":"1"}},{"base_weights":[-5.00373E-3,-4.9579927E-1,1.0552834E0,-8.462199E-1,1.8987171E-1,8.2984275E-1,1.2781224E0,-1.0885211E0,-5.9891474E-1,-6.0701113E-2,3.4502268E-1,5.118849E-1,1.0057306E0,1.132757E0,1.3243331E0,-3.4557644E-2,-1.1716886E-2,-2.0372208E-2,8.569774E-5,1.2287361E-2,-5.792729E-3,6.527185E-3,2.200269E-2,7.3283925E-3,2.1513304E-2,2.8339949E-2,3.8543347E-2,2.9758064E-2,3.68102E-2,3.7426393E-2,4.0841967E-2],"categories":[],"categories_nodes":[],"categories_segments":[],"categories_sizes":[],"default_left":[0,0,0,0,0,0,0,0,0,0,0,0,0,0,0,0,0,0,0,0,0,0,0,0,0,0,0,0,0,0,0],"id":13,"left_children":[1,3,5,7,9,11,13,15,17,19,21,23,25,27,29,-1,-1,-1,-1,-1,-1,-1,-1,-1,-1,-1,-1,-1,-1,-1,-1],"loss_changes":[1.4991505E4,4.7317563E3,4.5741113E2,7.806162E2,2.5896057E2,2.5323853E2,3.0037598E1,2.910454E2,3.111704E2,1.5865126E2,2.0355783E2,8.8629944E1,4.9114502E1,1.411084E1,9.040527E0,0E0,0E0,0E0,0E0,0E0,0E0,0E0,0E0,0E0,0E0,0E0,0E0,0E0,0E0,0E0,0E0],"parents":[2147483647,0,0,1,1,2,2,3,3,4,4,5,5,6,6,7,7,8,8,9,9,10,10,11,11,12,12,13,13,14,14],"right_children":[2,4,6,8,10,12,14,16,18,20,22,24,26,28,30,-1,-1,-1,-1,-1,-1,-1,-1,-1,-1,-1,-1,-1,-1,-1,-1],"split_conditions":[2E0,5.952853E-1,5E0,-1.5141144E-1,1.0276824E0,6.522555E-1,8.3310866E-1,3.125E-2,1.4614838E0,3.5081393E-1,3.846154E-2,3E0,1.3354347E0,7E0,7E0,-3.4557644E-2,-1.1716886E-2,-2.0372208E-2,8.569774E-5,1.2287361E-2,-5.792729E-3,6.527185E-3,2.200269E-2,7.3283925E-3,2.1513304E-2,2.8339949E-2,3.8543347E-2,2.9758064E-2,3.68102E-2,3.7426393E-2,4.0841967E-2],"split_indices":[0,6,0,5,5,6,5,2,7,8,2,0,6,0,0,0,0,0,0,0,0,0,0,0,0,0,0,0,0,0,0],"split_type":[0,0,0,0,0,0,0,0,0,0,0,0,0,0,0,0,0,0,0,0,0,0,0,0,0,0,0,0,0,0,0],"sum_hessian":[2.880753E4,1.9692396E4,9.115133E3,1.3032076E4,6.6603203E3,4.5322896E3,4.5828433E3,6.581774E3,6.4503022E3,2.5470586E3,4.1132617E3,1.6149152E3,2.9173743E3,1.1085182E3,3.4743252E3,6.0333945E3,5.483797E2,5.6920317E3,7.5827026E2,5.592884E2,1.9877701E3,3.0975955E3,1.01566614E3,7.0140594E2,9.135092E2,2.3953726E3,5.220016E2,4.4676086E2,6.6175726E2,1.136747E3,2.3375784E3],"tree_param":{"num_deleted":"0","num_feature":"20","num_nodes":"31","size_leaf_vector":"1"}},{"base_weights":[9.5567275E-3,-5.9816074E-1,8.4456354E-1,-8.94983E-1,1.3352528E-1,3.8165328E-1,1.137786E0,-9.5944554E-1,-1.873472E-1,-1.9148697E-1,2.3657338E-1,1.6612074E-4,7.6816386E-1,9.4028264E-1,1.257063E0,-3.515469E-2,-2.3263887E-2,8.887095E-3,-1.0586332E-2,1.2825053E-3,-1.7414883E-2,1.7050885E-2,4.3927985E-3,-2.169089E-2,3.5187579E-3,2.0959454E-2,3.1785656E-2,2.4783742E-2,3.424544E-2,3.2676168E-2,3.904794E-2],"categories":[],"categories_nodes":[],"categories_segments":[],"categories_sizes":[],"default_left":[0,0,0,0,0,0,0,0,0,0,0,0,0,0,0,0,0,0,0,0,0,0,0,0,0,0,0,0,0,0,0],"id":14,"left_children":[1,3,5,7,9,11,13,15,17,19,21,23,25,27,29,-1,-1,-1,-1,-1,-1,-1,-1,-1,-1,-1,-1,-1,-1,-1,-1],"loss_changes":[1.4724779E4,3.647474E3,1.6588721E3,5.4491406E2,1.6236478E2,6.9901227E2,1.756836E2,4.2740527E2,7.995068E1,1.06364235E2,1.1004266E2,2.0217882E2,4.7324707E1,6.429736E1,3.4154785E1,0E0,0E0,0E0,0E0,0E0,0E0,0E0,0E0,0E0,0E0,0E0,0E0,0E0,0E0,0E0,0E0],"parents":[2147483647,0,0,1,1,2,2,3,3,4,4,5,5,6,6,7,7,8,8,9,9,10,10,11,11,12,12,13,13,14,14],"right_children":[2,4,6,8,10,12,14,16,18,20,22,24,26,28,30,-1,-1,-1,-1,-1,-1,-1,-1,-1,-1,-1,-1,-1,-1,-1,-1],"split_conditions":[1E0,6.9632167E-1,3E0,1.4614838E0,9.46152E-1,7.7889663E-1,5E0,-2.1779126E-1,-5.818182E-2,1.077863E0,7.4684924E-1,-3.400435E-1,1E0,1.2903984E0,7.4124706E-1,-3.515469E-2,-2.3263887E-2,8.887095E-3,-1.0586332E-2,1.2825053E-3,-1.7414883E-2,1.7050885E-2,4.3927985E-3,-2.169089E-2,3.5187579E-3,2.0959454E-2,3.1785656E-2,2.4783742E-2,3.424544E-2,3.2676168E-2,3.904794E-2],"split_indices":[0,5,0,7,5,6,0,5,9,8,8,6,1,6,5,0,0,0,0,0,0,0,0,0,0,0,0,0,0,0,0],"split_type":[0,0,0,0,0,0,0,0,0,0,0,0,0,0,0,0,0,0,0,0,0,0,0,0,0,0,0,0,0,0,0],"sum_hessian":[2.9016307E4,1.6793875E4,1.2222432E4,1.1947169E4,4.846706E3,4.7402114E3,7.4822197E3,1.0949536E4,9.97633E2,1.166657E3,3.680049E3,2.38586E3,2.3543513E3,2.8189465E3,4.663273E3,5.0813135E3,5.8682227E3,2.5430556E2,7.4332745E2,7.2846545E2,4.381916E2,7.856766E2,2.8943726E3,3.3218576E2,2.0536746E3,1.9022023E3,4.5214908E2,1.8002349E3,1.0187117E3,9.8047687E2,3.6827964E3],"tree_param":{"num_deleted":"0","num_feature":"20","num_nodes":"31","size_leaf_vector":"1"}},{"base_weights":[-8.932011E-3,-4.7926223E-1,1.009671E0,-9.861108E-1,7.155263E-3,7.259741E-1,1.1874576E0,-1.0357097E0,-3.4948993E-1,-2.67585E-1,3.6262274E-1,3.4714463E-1,8.992614E-1,1.0924892E0,1.2617958E0,-3.4869093E-2,-2.5455154E-2,2.650616E-2,-1.2289232E-2,-1.0816351E-3,-1.22732995E-2,7.448633E-3,2.124068E-2,1.196168E-2,-1.4928852E-2,2.1481441E-2,2.8859932E-2,3.0305099E-2,3.7405703E-2,3.6630254E-2,3.979277E-2],"categories":[],"categories_nodes":[],"categories_segments":[],"categories_sizes":[],"default_left":[0,0,0,0,0,0,0,0,0,0,0,0,0,0,0,0,0,0,0,0,0,0,0,0,0,0,0,0,0,0,0],"id":15,"left_children":[1,3,5,7,9,11,13,15,17,19,21,23,25,27,29,-1,-1,-1,-1,-1,-1,-1,-1,-1,-1,-1,-1,-1,-1,-1,-1],"loss_changes":[1.3780346E4,4.8514287E3,4.5785254E2,3.0410352E2,9.8075323E2,2.297196E2,3.873877E1,2.1137012E2,5.18966E1,1.8560016E2,1.7280493E2,4.8022324E1,2.7268555E1,3.0578613E1,7.4399414E0,0E0,0E0,0E0,0E0,0E0,0E0,0E0,0E0,0E0,0E0,0E0,0E0,0E0,0E0,0E0,0E0],"parents":[2147483647,0,0,1,1,2,2,3,3,4,4,5,5,6,6,7,7,8,8,9,9,10,10,11,11,12,12,13,13,14,14],"right_children":[2,4,6,8,10,12,14,16,18,20,22,24,26,28,30,-1,-1,-1,-1,-1,-1,-1,-1,-1,-1,-1,-1,-1,-1,-1,-1],"split_conditions":[2E0,1.0048772E-1,3E0,2.658036E-4,1.0276824E0,4.6651492E-1,1.2192893E0,-2.1779126E-1,-3.7823516E-1,-1.9472727E-1,1E0,1.12E0,9.849878E-1,7.058824E-1,5E0,-3.4869093E-2,-2.5455154E-2,2.650616E-2,-1.2289232E-2,-1.0816351E-3,-1.22732995E-2,7.448633E-3,2.124068E-2,1.196168E-2,-1.4928852E-2,2.1481441E-2,2.8859932E-2,3.0305099E-2,3.7405703E-2,3.6630254E-2,3.979277E-2],"split_indices":[12,5,12,4,5,6,6,5,5,9,3,9,6,2,3,0,0,0,0,0,0,0,0,0,0,0,0,0,0,0,0],"split_type":[0,0,0,0,0,0,0,0,0,0,0,0,0,0,0,0,0,0,0,0,0,0,0,0,0,0,0,0,0,0,0],"sum_hessian":[2.8763197E4,1.9677545E4,9.085654E3,9.636141E3,1.0041403E4,3.5012295E3,5.5844243E3,8.939364E3,6.9677655E2,5.6639043E3,4.377499E3,1.0993668E3,2.4018625E3,2.455425E3,3.1289995E3,5.3314634E3,3.607901E3,3.209159E1,6.6468494E2,2.1489368E3,3.5149673E3,3.2894714E3,1.0880278E3,1.0363556E3,6.3011204E1,6.1424554E2,1.7876171E3,1.6038927E3,8.5153235E2,1.924449E3,1.2045505E3],"tree_param":{"num_deleted":"0","num_feature":"20","num_nodes":"31","size_leaf_vector":"1"}},{"base_weights":[-1.459938E-4,-4.618632E-1,9.9610436E-1,-8.4502536E-1,1.16566844E-1,7.820138E-1,1.210657E0,-9.1641104E-1,-1.8247044E-1,2.3999956E-1,-3.0453908E-1,5.207725E-1,9.3631506E-1,1.1365621E0,1.2989926E0,-2.9538047E-2,-1.0604308E-2,-7.851895E-3,2.6069812E-2,4.6429895E-3,1.8043036E-2,-1.6698547E-2,1.2772346E-4,1.2960885E-2,2.3819484E-2,2.6455775E-2,3.597761E-2,2.6976269E-2,3.575034E-2,3.7856046E-2,4.0355273E-2],"categories":[],"categories_nodes":[],"categories_segments":[],"categories_sizes":[],"default_left":[0,0,0,0,0,0,0,0,0,0,0,0,0,0,0,0,0,0,0,0,0,0,0,0,0,0,0,0,0,0,0],"id":16,"left_children":[1,3,5,7,9,11,13,15,17,19,21,23,25,27,29,-1,-1,-1,-1,-1,-1,-1,-1,-1,-1,-1,-1,-1,-1,-1,-1],"loss_changes":[1.3124768E4,4.321218E3,4.1458203E2,5.546221E2,4.0387317E2,1.821289E2,2.879541E1,4.0623926E2,9.523172E1,1.8505334E2,1.371049E2,4.0587677E1,4.0188477E1,3.161792E1,2.6745605E0,0E0,0E0,0E0,0E0,0E0,0E0,0E0,0E0,0E0,0E0,0E0,0E0,0E0,0E0,0E0,0E0],"parents":[2147483647,0,0,1,1,2,2,3,3,4,4,5,5,6,6,7,7,8,8,9,9,10,10,11,11,12,12,13,13,14,14],"right_children":[2,4,6,8,10,12,14,16,18,20,22,24,26,28,30,-1,-1,-1,-1,-1,-1,-1,-1,-1,-1,-1,-1,-1,-1,-1,-1],"split_conditions":[2E0,4.1439816E-1,5E0,4.1244923E-5,5E0,6.522555E-1,9E0,1.1895922E0,2.0108795E0,1.1103692E-2,5.7440245E-1,3.125E-1,1.3354347E0,4.6382797E-1,1.3E1,-2.9538047E-2,-1.0604308E-2,-7.851895E-3,2.6069812E-2,4.6429895E-3,1.8043036E-2,-1.6698547E-2,1.2772346E-4,1.2960885E-2,2.3819484E-2,2.6455775E-2,3.597761E-2,2.6976269E-2,3.575034E-2,3.7856046E-2,4.0355273E-2],"split_indices":[0,6,0,4,13,6,0,7,7,4,7,2,6,8,0,0,0,0,0,0,0,0,0,0,0,0,0,0,0,0,0],"split_type":[0,0,0,0,0,0,0,0,0,0,0,0,0,0,0,0,0,0,0,0,0,0,0,0,0,0,0,0,0,0,0],"sum_hessian":[2.8531979E4,1.9496498E4,9.03548E3,1.1727659E4,7.768838E3,4.5237734E3,4.5117075E3,1.0586813E4,1.1408462E3,6.0080107E3,1.7608268E3,1.6806016E3,2.8431719E3,2.4574011E3,2.0543062E3,9.442615E3,1.1441975E3,1.0612266E3,7.961974E1,4.8621396E3,1.1458712E3,9.692225E2,7.9160425E2,1.269529E3,4.1107254E2,2.3571682E3,4.860038E2,4.647302E2,1.992671E3,1.1466947E3,9.076114E2],"tree_param":{"num_deleted":"0","num_feature":"20","num_nodes":"31","size_leaf_vector":"1"}},{"base_weights":[1.3973624E-2,-5.402324E-1,7.8254044E-1,-8.21625E-1,1.427987E-1,3.7230942E-1,1.057402E0,-1.0579058E0,-6.2544656E-1,3.2025868E-1,-2.831232E-2,4.72875E-2,7.090198E-1,8.677078E-1,1.1743721E0,-3.3357173E-2,-5.033617E-3,-2.1064937E-2,-6.854093E-3,8.188656E-3,2.9664947E-2,1.0244399E-2,-5.972218E-3,-3.6586637E-3,1.1569894E-2,1.9168418E-2,3.2504223E-2,2.1662332E-2,3.1049257E-2,3.3017833E-2,3.7785497E-2],"categories":[],"categories_nodes":[],"categories_segments":[],"categories_sizes":[],"default_left":[0,0,0,0,0,0,0,0,0,0,0,0,0,0,0,0,0,0,0,0,0,0,0,0,0,0,0,0,0,0,0],"id":17,"left_children":[1,3,5,7,9,11,13,15,17,19,21,23,25,27,29,-1,-1,-1,-1,-1,-1,-1,-1,-1,-1,-1,-1,-1,-1,-1,-1],"loss_changes":[1.2127163E4,3.1795376E3,1.3448413E3,5.427417E2,1.4658105E2,5.238201E2,1.5797363E2,2.553335E2,1.9490723E2,7.48065E1,1.552457E2,1.3953384E2,6.134131E1,6.603662E1,2.7052246E1,0E0,0E0,0E0,0E0,0E0,0E0,0E0,0E0,0E0,0E0,0E0,0E0,0E0,0E0,0E0,0E0],"parents":[2147483647,0,0,1,1,2,2,3,3,4,4,5,5,6,6,7,7,8,8,9,9,10,10,11,11,12,12,13,13,14,14],"right_children":[2,4,6,8,10,12,14,16,18,20,22,24,26,28,30,-1,-1,-1,-1,-1,-1,-1,-1,-1,-1,-1,-1,-1,-1,-1,-1],"split_conditions":[1E0,6.9632167E-1,3E0,-2.0213857E-1,2.6958678E-2,7.4787766E-1,5E0,1.3790632E0,1.1694773E0,1.3542013E0,-1.287063E-1,2E0,1.3354347E0,1.1644138E0,9E0,-3.3357173E-2,-5.033617E-3,-2.1064937E-2,-6.854093E-3,8.188656E-3,2.9664947E-2,1.0244399E-2,-5.972218E-3,-3.6586637E-3,1.1569894E-2,1.9168418E-2,3.2504223E-2,2.1662332E-2,3.1049257E-2,3.3017833E-2,3.7785497E-2],"split_indices":[0,5,0,5,9,6,0,7,7,6,7,0,6,6,0,0,0,0,0,0,0,0,0,0,0,0,0,0,0,0,0],"split_type":[0,0,0,0,0,0,0,0,0,0,0,0,0,0,0,0,0,0,0,0,0,0,0,0,0,0,0,0,0,0,0],"sum_hessian":[2.847024E4,1.6542066E4,1.1928175E4,1.1715471E4,4.826596E3,4.786098E3,7.1420767E3,5.313545E3,6.401926E3,2.3691277E3,2.4574685E3,2.4356084E3,2.3504895E3,2.7257864E3,4.41629E3,5.0095127E3,3.040323E2,5.3647695E3,1.0371561E3,2.2132388E3,1.5588907E2,7.7615924E2,1.6813092E3,1.6237758E3,8.118327E2,1.9811127E3,3.6937677E2,1.4585608E3,1.2672255E3,2.369814E3,2.0464762E3],"tree_param":{"num_deleted":"0","num_feature":"20","num_nodes":"31","size_leaf_vector":"1"}},{"base_weights":[-7.951515E-3,-5.441926E-1,7.529042E-1,-8.7017214E-1,-2.700983E-2,4.63832E-1,1.1091912E0,-9.539001E-1,-3.1406245E-1,-2.3079951E-1,2.7228138E-1,2.0168678E-1,8.35292E-1,9.6676004E-1,1.1772211E0,-3.3645622E-2,-2.2896849E-2,1.6702162E-2,-1.2848014E-2,-5.933877E-4,-1.3864243E-2,2.0230882E-2,5.783272E-3,-1.4104682E-3,1.3806463E-2,2.3236433E-2,3.24736E-2,2.675642E-2,3.3334002E-2,3.377889E-2,3.7740536E-2],"categories":[],"categories_nodes":[],"categories_segments":[],"categories_sizes":[],"default_left":[0,0,0,0,0,0,0,0,0,0,0,0,0,0,0,0,0,0,0,0,0,0,0,0,0,0,0,0,0,0,0],"id":18,"left_children":[1,3,5,7,9,11,13,15,17,19,21,23,25,27,29,-1,-1,-1,-1,-1,-1,-1,-1,-1,-1,-1,-1,-1,-1,-1,-1],"loss_changes":[1.1467256E4,2.779454E3,1.196459E3,4.707085E2,3.8882355E2,6.246504E2,4.98584E1,2.8047217E2,1.317955E2,1.8513795E2,8.248859E1,2.4189067E2,3.943042E1,1.7720703E1,1.3868164E1,0E0,0E0,0E0,0E0,0E0,0E0,0E0,0E0,0E0,0E0,0E0,0E0,0E0,0E0,0E0,0E0],"parents":[2147483647,0,0,1,1,2,2,3,3,4,4,5,5,6,6,7,7,8,8,9,9,10,10,11,11,12,12,13,13,14,14],"right_children":[2,4,6,8,10,12,14,16,18,20,22,24,26,28,30,-1,-1,-1,-1,-1,-1,-1,-1,-1,-1,-1,-1,-1,-1,-1,-1],"split_conditions":[1E0,3.6338457E-1,3E0,1.0429785E0,1.1952962E0,1.0515578E0,1.1237584E-2,-2.1779126E-1,-3.0044848E-1,2.6958678E-2,7.6811945E-1,2E0,1.3354347E0,5E0,5E0,-3.3645622E-2,-2.2896849E-2,1.6702162E-2,-1.2848014E-2,-5.933877E-4,-1.3864243E-2,2.0230882E-2,5.783272E-3,-1.4104682E-3,1.3806463E-2,2.3236433E-2,3.24736E-2,2.675642E-2,3.3334002E-2,3.377889E-2,3.7740536E-2],"split_indices":[3,5,12,7,5,6,4,5,9,9,8,12,6,3,3,0,0,0,0,0,0,0,0,0,0,0,0,0,0,0,0],"split_type":[0,0,0,0,0,0,0,0,0,0,0,0,0,0,0,0,0,0,0,0,0,0,0,0,0,0,0,0,0,0,0],"sum_hessian":[2.8104877E4,1.6485943E4,1.1618934E4,1.0112015E4,6.3739287E3,6.4151646E3,5.203769E3,8.788464E3,1.3235503E3,3.7920244E3,2.5819043E3,3.7614329E3,2.6537314E3,1.6845369E3,3.5192324E3,4.6756406E3,4.112823E3,1.5323201E2,1.1703184E3,1.9833986E3,1.808626E3,4.2563132E2,2.156273E3,1.9173589E3,1.8440741E3,2.1318572E3,5.2187415E2,1.1115962E3,5.729407E2,2.1577854E3,1.361447E3],"tree_param":{"num_deleted":"0","num_feature":"20","num_nodes":"31","size_leaf_vector":"1"}},{"base_weights":[-6.945584E-3,-4.3579E-1,9.3173504E-1,-7.8507435E-1,9.33032E-2,7.3207325E-1,1.142528E0,-9.198366E-1,-4.474099E-1,-2.1104757E-1,2.6603743E-1,4.2912245E-1,8.971464E-1,1.0546005E0,1.2421347E0,-2.9095264E-2,-4.6128295E-3,-7.177748E-3,-2.246699E-2,4.9956017E-3,-1.0968259E-2,5.4620393E-3,2.6690433E-2,1.0042129E-2,2.4797134E-2,2.5436372E-2,3.5252042E-2,2.6128512E-2,3.3424627E-2,3.5999276E-2,3.8633324E-2],"categories":[],"categories_nodes":[],"categories_segments":[],"categories_sizes":[],"default_left":[0,0,0,0,0,0,0,0,0,0,0,0,0,0,0,0,0,0,0,0,0,0,0,0,0,0,0,0,0,0,0],"id":19,"left_children":[1,3,5,7,9,11,13,15,17,19,21,23,25,27,29,-1,-1,-1,-1,-1,-1,-1,-1,-1,-1,-1,-1,-1,-1,-1,-1],"loss_changes":[1.1225471E4,3.5374082E3,3.6762744E2,5.2445166E2,4.0019913E2,2.2446753E2,3.6592773E1,3.1559912E2,2.0637103E2,1.608779E2,2.5422064E2,5.9336243E1,3.9311768E1,2.425708E1,3.058838E0,0E0,0E0,0E0,0E0,0E0,0E0,0E0,0E0,0E0,0E0,0E0,0E0,0E0,0E0,0E0,0E0],"parents":[2147483647,0,0,1,1,2,2,3,3,4,4,5,5,6,6,7,7,8,8,9,9,10,10,11,11,12,12,13,13,14,14],"right_children":[2,4,6,8,10,12,14,16,18,20,22,24,26,28,30,-1,-1,-1,-1,-1,-1,-1,-1,-1,-1,-1,-1,-1,-1,-1,-1],"split_conditions":[2E0,4.27182E-1,5E0,4.9849135E-1,9.145146E-1,6.036916E-1,9E0,1.1250504E-3,3.6922488E-1,3.242553E-1,1.3354347E0,4E0,1.3542013E0,7.4124706E-1,1.3E1,-2.9095264E-2,-4.6128295E-3,-7.177748E-3,-2.246699E-2,4.9956017E-3,-1.0968259E-2,5.4620393E-3,2.6690433E-2,1.0042129E-2,2.4797134E-2,2.5436372E-2,3.5252042E-2,2.6128512E-2,3.3424627E-2,3.5999276E-2,3.8633324E-2],"split_indices":[0,6,0,7,5,5,0,4,9,8,6,0,6,5,0,0,0,0,0,0,0,0,0,0,0,0,0,0,0,0,0],"split_type":[0,0,0,0,0,0,0,0,0,0,0,0,0,0,0,0,0,0,0,0,0,0,0,0,0,0,0,0,0,0,0],"sum_hessian":[2.7885043E4,1.914071E4,8.744332E3,1.1529315E4,7.611395E3,4.4918853E3,4.2524473E3,8.2399E3,3.2894148E3,2.755755E3,4.85564E3,1.5849332E3,2.906952E3,2.261716E3,1.9907313E3,7.7348735E3,5.050265E2,1.9464573E3,1.3429575E3,8.0042E2,1.955335E3,4.280011E3,5.75629E2,1.2815226E3,3.0341068E2,2.4709502E3,4.3600174E2,5.5574335E2,1.7059725E3,1.0419565E3,9.4877484E2],"tree_param":{"num_deleted":"0","num_feature":"20","num_nodes":"31","size_leaf_vector":"1"}},{"base_weights":[1.2342449E-2,-3.98456E-1,9.175217E-1,-7.841839E-1,1.19212046E-1,7.134135E-1,1.1296949E0,-8.543351E-1,-1.554591E-1,-1.1305445E-1,3.253785E-1,4.3301633E-1,8.6795896E-1,9.9261075E-1,1.1956875E0,-2.7920805E-2,-1.085504E-2,-1.0859199E-2,5.3442237E-3,-5.5431603E-3,1.4166448E-2,6.638257E-3,1.9098975E-2,5.906628E-3,1.819142E-2,2.1208238E-2,2.7540155E-2,2.3775602E-2,3.2251425E-2,3.4944296E-2,3.7816584E-2],"categories":[],"categories_nodes":[],"categories_segments":[],"categories_sizes":[],"default_left":[0,0,0,0,0,0,0,0,0,0,0,0,0,0,0,0,0,0,0,0,0,0,0,0,0,0,0,0,0,0,0],"id":20,"left_children":[1,3,5,7,9,11,13,15,17,19,21,23,25,27,29,-1,-1,-1,-1,-1,-1,-1,-1,-1,-1,-1,-1,-1,-1,-1,-1],"loss_changes":[1.0428069E4,3.8518066E3,3.787129E2,4.8746094E2,3.9443686E2,1.932251E2,3.822998E1,3.7378857E2,7.651311E1,1.6263232E2,1.413226E2,6.490274E1,2.2858398E1,2.2625854E1,5.0634766E0,0E0,0E0,0E0,0E0,0E0,0E0,0E0,0E0,0E0,0E0,0E0,0E0,0E0,0E0,0E0,0E0],"parents":[2147483647,0,0,1,1,2,2,3,3,4,4,5,5,6,6,7,7,8,8,9,9,10,10,11,11,12,12,13,13,14,14],"right_children":[2,4,6,8,10,12,14,16,18,20,22,24,26,28,30,-1,-1,-1,-1,-1,-1,-1,-1,-1,-1,-1,-1,-1,-1,-1,-1],"split_conditions":[2E0,3.6338457E-1,5E0,4.1244923E-5,1.0276824E0,5.89772E-1,7E0,1.0259382E0,4.813917E-1,1.7629597E0,1E0,3E0,9.5932674E-1,8.3310866E-1,1.3E1,-2.7920805E-2,-1.085504E-2,-1.0859199E-2,5.3442237E-3,-5.5431603E-3,1.4166448E-2,6.638257E-3,1.9098975E-2,5.906628E-3,1.819142E-2,2.1208238E-2,2.7540155E-2,2.3775602E-2,3.2251425E-2,3.4944296E-2,3.7816584E-2],"split_indices":[0,5,0,4,5,5,0,7,7,7,0,0,5,5,0,0,0,0,0,0,0,0,0,0,0,0,0,0,0,0,0],"split_type":[0,0,0,0,0,0,0,0,0,0,0,0,0,0,0,0,0,0,0,0,0,0,0,0,0,0,0,0,0,0,0],"sum_hessian":[2.8043047E4,1.9289262E4,8.753786E3,1.1053073E4,8.236188E3,4.4628022E3,4.290984E3,9.943435E3,1.109638E3,3.873049E3,4.363139E3,1.5864154E3,2.8763867E3,1.3970206E3,2.8939631E3,8.608334E3,1.3351007E3,6.853383E2,4.2429956E2,3.4505667E3,4.2248236E2,3.2702227E3,1.0929165E3,6.720821E2,9.143333E2,6.8382556E2,2.1925613E3,4.0917545E2,9.8784515E2,1.967066E3,9.2689703E2],"tree_param":{"num_deleted":"0","num_feature":"20","num_nodes":"31","size_leaf_vector":"1"}},{"base_weights":[1.2663947E-3,-4.9426886E-1,7.0483756E-1,-8.5984766E-1,-5.951898E-3,1.7417258E-1,8.8744134E-1,-9.182994E-1,-1.334015E-1,-2.7252606E-1,1.6386044E-1,-1.4492035E-1,5.397521E-1,6.478967E-1,1.0516593E0,-3.1245913E-2,-2.0099677E-2,-8.009643E-3,1.5352283E-2,-1.3517024E-3,-1.7121809E-2,1.1799206E-2,9.6909003E-4,-6.0851746E-3,1.760378E-2,1.3672471E-2,3.0421263E-2,7.6879147E-3,2.465685E-2,2.7595408E-2,3.3986732E-2],"categories":[],"categories_nodes":[],"categories_segments":[],"categories_sizes":[],"default_left":[0,0,0,0,0,0,0,0,0,0,0,0,0,0,0,0,0,0,0,0,0,0,0,0,0,0,0,0,0,0,0],"id":21,"left_children":[1,3,5,7,9,11,13,15,17,19,21,23,25,27,29,-1,-1,-1,-1,-1,-1,-1,-1,-1,-1,-1,-1,-1,-1,-1,-1],"loss_changes":[9.670467E3,2.9053445E3,1.1106611E3,3.9513525E2,3.1545737E2,3.424357E2,3.3512695E2,2.6323145E2,5.9851982E1,1.8392984E2,1.2849214E2,6.649483E1,5.427411E1,2.3633691E2,5.3643066E1,0E0,0E0,0E0,0E0,0E0,0E0,0E0,0E0,0E0,0E0,0E0,0E0,0E0,0E0,0E0,0E0],"parents":[2147483647,0,0,1,1,2,2,3,3,4,4,5,5,6,6,7,7,8,8,9,9,10,10,11,11,12,12,13,13,14,14],"right_children":[2,4,6,8,10,12,14,16,18,20,22,24,26,28,30,-1,-1,-1,-1,-1,-1,-1,-1,-1,-1,-1,-1,-1,-1,-1,-1],"split_conditions":[1E0,2.7521482E-1,2E0,1.4614838E0,7.951717E-1,7.4787766E-1,3E0,-9.173954E-2,3.224669E0,5.424458E-1,1.1032927E0,1.9376829E0,1.3354347E0,4.530389E-1,1.1484967E0,-3.1245913E-2,-2.0099677E-2,-8.009643E-3,1.5352283E-2,-1.3517024E-3,-1.7121809E-2,1.1799206E-2,9.6909003E-4,-6.0851746E-3,1.760378E-2,1.3672471E-2,3.0421263E-2,7.6879147E-3,2.465685E-2,2.7595408E-2,3.3986732E-2],"split_indices":[3,5,12,7,6,6,12,5,7,8,8,7,6,6,6,0,0,0,0,0,0,0,0,0,0,0,0,0,0,0,0],"split_type":[0,0,0,0,0,0,0,0,0,0,0,0,0,0,0,0,0,0,0,0,0,0,0,0,0,0,0,0,0,0,0],"sum_hessian":[2.7736344E4,1.6274282E4,1.1462062E4,9.306549E3,6.9677334E3,2.9346501E3,8.527412E3,8.613363E3,6.931856E2,2.7112566E3,4.2564766E3,1.567112E3,1.3675382E3,3.4692666E3,5.058145E3,5.7554546E3,2.8579087E3,5.745166E2,1.18669044E2,1.5383616E3,1.172895E3,1.5507874E3,2.7056895E3,1.4525006E3,1.1461142E2,1.1626057E3,2.0493256E2,1.0675892E3,2.4016772E3,1.9309739E3,3.1271714E3],"tree_param":{"num_deleted":"0","num_feature":"20","num_nodes":"31","size_leaf_vector":"1"}},{"base_weights":[1.0188578E-2,-4.815449E-1,7.035558E-1,-8.137276E-1,-4.1414987E-2,3.2119706E-1,9.644447E-1,-8.5030246E-1,1.951175E-1,-3.276845E-1,1.436704E-1,-6.0837433E-2,6.153391E-1,7.614144E-1,1.09164E0,-3.0629028E-2,-2.1155717E-2,4.0295828E-2,-4.873948E-3,-6.081313E-3,-2.1749599E-2,1.1089863E-2,6.2894425E-4,-2.7703235E-4,-2.8145561E-2,1.3559038E-2,2.2570845E-2,1.7856076E-2,2.9598359E-2,3.0420406E-2,3.5481915E-2],"categories":[],"categories_nodes":[],"categories_segments":[],"categories_sizes":[],"default_left":[0,0,0,0,0,0,0,0,0,0,0,0,0,0,0,0,0,0,0,0,0,0,0,0,0,0,0,0,0,0,0],"id":22,"left_children":[1,3,5,7,9,11,13,15,17,19,21,23,25,27,29,-1,-1,-1,-1,-1,-1,-1,-1,-1,-1,-1,-1,-1,-1,-1,-1],"loss_changes":[9.390692E3,2.355958E3,1.1398472E3,3.3893213E2,3.6728622E2,5.209569E2,1.7500781E2,2.1911523E2,1.3217403E2,1.350774E2,1.1674412E2,9.131622E1,5.8463196E1,9.77041E1,2.892334E1,0E0,0E0,0E0,0E0,0E0,0E0,0E0,0E0,0E0,0E0,0E0,0E0,0E0,0E0,0E0,0E0],"parents":[2147483647,0,0,1,1,2,2,3,3,4,4,5,5,6,6,7,7,8,8,9,9,10,10,11,11,12,12,13,13,14,14],"right_children":[2,4,6,8,10,12,14,16,18,20,22,24,26,28,30,-1,-1,-1,-1,-1,-1,-1,-1,-1,-1,-1,-1,-1,-1,-1,-1],"split_conditions":[1E0,2.5157776E-1,3E0,2.0821002E0,7.951717E-1,5.4975307E-1,5E0,-2.7811652E-1,-1.7538182E-1,4.1411364E-1,1.0483053E0,1.2663636E0,1.1780306E0,1.2318449E0,9E0,-3.0629028E-2,-2.1155717E-2,4.0295828E-2,-4.873948E-3,-6.081313E-3,-2.1749599E-2,1.1089863E-2,6.2894425E-4,-2.7703235E-4,-2.8145561E-2,1.3559038E-2,2.2570845E-2,1.7856076E-2,2.9598359E-2,3.0420406E-2,3.5481915E-2],"split_indices":[0,6,0,7,6,6,0,6,9,9,8,9,6,6,0,0,0,0,0,0,0,0,0,0,0,0,0,0,0,0,0],"split_type":[0,0,0,0,0,0,0,0,0,0,0,0,0,0,0,0,0,0,0,0,0,0,0,0,0,0,0,0,0,0,0],"sum_hessian":[2.7541576E4,1.6113848E4,1.1427729E4,9.18281E3,6.931038E3,4.63532E3,6.7924087E3,8.861617E3,3.2119208E2,2.7214368E3,4.209601E3,2.0165726E3,2.618747E3,2.6176243E3,4.1747847E3,4.0708718E3,4.7907456E3,7.595335E1,2.4523875E2,2.070806E3,6.506308E2,1.4809926E3,2.7286086E3,1.9050297E3,1.1154298E2,1.1955033E3,1.4232439E3,1.5070991E3,1.110525E3,2.257249E3,1.9175356E3],"tree_param":{"num_deleted":"0","num_feature":"20","num_nodes":"31","size_leaf_vector":"1"}},{"base_weights":[5.7258294E-3,-4.759706E-1,6.840558E-1,-7.680975E-1,-2.3690214E-2,3.1758478E-1,9.407199E-1,-8.4198356E-1,-2.3774113E-1,-7.183888E-2,7.327783E-1,3.6255725E-2,6.780736E-1,7.326292E-1,1.0699041E0,-3.0149667E-2,-1.9859422E-2,-1.2390168E-2,1.3027243E-2,-5.0938698E-3,1.0287304E-2,2.6981244E-2,-4.8816346E-2,-1.1592036E-3,1.583962E-2,1.9172182E-2,3.2845583E-2,1.8338453E-2,2.715089E-2,3.0121854E-2,3.545839E-2],"categories":[],"categories_nodes":[],"categories_segments":[],"categories_sizes":[],"default_left":[0,0,0,0,0,0,0,0,0,0,0,0,0,0,0,0,0,0,0,0,0,0,0,0,0,0,0,0,0,0,0],"id":23,"left_children":[1,3,5,7,9,11,13,15,17,19,21,23,25,27,29,-1,-1,-1,-1,-1,-1,-1,-1,-1,-1,-1,-1,-1,-1,-1,-1],"loss_changes":[8.952189E3,2.1167302E3,1.0699526E3,3.813291E2,2.2903914E2,4.7530063E2,1.7946289E2,2.5034375E2,1.4035217E2,2.4021063E2,1.4867911E2,9.6977684E1,3.3042603E1,5.3367676E1,2.9851074E1,0E0,0E0,0E0,0E0,0E0,0E0,0E0,0E0,0E0,0E0,0E0,0E0,0E0,0E0,0E0,0E0],"parents":[2147483647,0,0,1,1,2,2,3,3,4,4,5,5,6,6,7,7,8,8,9,9,10,10,11,11,12,12,13,13,14,14],"right_children":[2,4,6,8,10,12,14,16,18,20,22,24,26,28,30,-1,-1,-1,-1,-1,-1,-1,-1,-1,-1,-1,-1,-1,-1,-1,-1],"split_conditions":[1E0,3.6338457E-1,3E0,1.1112695E0,1.3354347E0,1.0985986E-2,5E0,-2.1779126E-1,2.5313725E0,1.2758383E0,4.139011E0,1.4354786E0,1.49798565E1,1.2192893E0,1E1,-3.0149667E-2,-1.9859422E-2,-1.2390168E-2,1.3027243E-2,-5.0938698E-3,1.0287304E-2,2.6981244E-2,-4.8816346E-2,-1.1592036E-3,1.583962E-2,1.9172182E-2,3.2845583E-2,1.8338453E-2,2.715089E-2,3.0121854E-2,3.545839E-2],"split_indices":[0,5,0,7,6,4,0,5,7,7,6,7,8,6,0,0,0,0,0,0,0,0,0,0,0,0,0,0,0,0,0],"split_type":[0,0,0,0,0,0,0,0,0,0,0,0,0,0,0,0,0,0,0,0,0,0,0,0,0,0,0,0,0,0,0],"sum_hessian":[2.7396748E4,1.6020442E4,1.1376305E4,9.733346E3,6.2870967E3,4.6862646E3,6.6900405E3,8.542907E3,1.1904392E3,5.9112993E3,3.7579733E2,2.6324358E3,2.0538286E3,2.56372E3,4.126321E3,4.481918E3,4.060989E3,9.443336E2,2.461056E2,4.7821343E3,1.1291649E3,3.5130728E2,2.4490051E1,2.2848848E3,3.4755103E2,1.8792421E3,1.7458658E2,1.5059801E3,1.0577399E3,2.602139E3,1.5241818E3],"tree_param":{"num_deleted":"0","num_feature":"20","num_nodes":"31","size_leaf_vector":"1"}},{"base_weights":[-2.527556E-3,-3.7324053E-1,8.409643E-1,-7.325095E-1,1.0227962E-1,6.470786E-1,1.0491062E0,-8.0270565E-1,-2.5255963E-1,-1.7080556E-1,2.5625756E-1,3.3732882E-1,8.0764574E-1,9.533146E-1,1.1314148E0,-2.5825646E-2,-7.893964E-3,-1.0604764E-2,2.604325E-3,2.8221145E-2,-6.171825E-3,5.99255E-3,2.221029E-2,-5.8333087E-3,1.2141542E-2,2.1872977E-2,2.7577175E-2,2.0348601E-2,3.005546E-2,3.270508E-2,3.5892367E-2],"categories":[],"categories_nodes":[],"categories_segments":[],"categories_sizes":[],"default_left":[0,0,0,0,0,0,0,0,0,0,0,0,0,0,0,0,0,0,0,0,0,0,0,0,0,0,0,0,0,0,0],"id":24,"left_children":[1,3,5,7,9,11,13,15,17,19,21,23,25,27,29,-1,-1,-1,-1,-1,-1,-1,-1,-1,-1,-1,-1,-1,-1,-1,-1],"loss_changes":[8.524798E3,3.2355486E3,3.3556494E2,3.6335986E2,3.427716E2,2.1425842E2,3.1104004E1,2.9517773E2,4.7191147E1,1.141856E2,1.4250613E2,5.2808746E1,2.4546387E1,2.4460938E1,5.1276855E0,0E0,0E0,0E0,0E0,0E0,0E0,0E0,0E0,0E0,0E0,0E0,0E0,0E0,0E0,0E0,0E0],"parents":[2147483647,0,0,1,1,2,2,3,3,4,4,5,5,6,6,7,7,8,8,9,9,10,10,11,11,12,12,13,13,14,14],"right_children":[2,4,6,8,10,12,14,16,18,20,22,24,26,28,30,-1,-1,-1,-1,-1,-1,-1,-1,-1,-1,-1,-1,-1,-1,-1,-1],"split_conditions":[2E0,3.7593925E-1,5E0,1.0925115E0,8.6440426E-1,5.815829E-1,8E0,4.1244923E-5,2.2749176E0,-7.494391E-2,1.3354347E0,-3.4546673E-1,1.3311212E0,1.12236634E-1,1.3E1,-2.5825646E-2,-7.893964E-3,-1.0604764E-2,2.604325E-3,2.8221145E-2,-6.171825E-3,5.99255E-3,2.221029E-2,-5.8333087E-3,1.2141542E-2,2.1872977E-2,2.7577175E-2,2.0348601E-2,3.005546E-2,3.270508E-2,3.5892367E-2],"split_indices":[0,5,0,7,6,6,0,4,7,8,6,5,6,8,0,0,0,0,0,0,0,0,0,0,0,0,0,0,0,0,0],"split_type":[0,0,0,0,0,0,0,0,0,0,0,0,0,0,0,0,0,0,0,0,0,0,0,0,0,0,0,0,0,0,0],"sum_hessian":[2.7261477E4,1.8938377E4,8.3231E3,1.0787696E4,8.15068E3,4.3101846E3,4.0129153E3,9.410941E3,1.3767549E3,2.938714E3,5.211966E3,1.472035E3,2.8381494E3,1.8574661E3,2.1554492E3,8.495133E3,9.15809E2,1.0611395E3,3.156154E2,8.91223E1,2.8495918E3,4.667812E3,5.4415375E2,1.654575E2,1.3065775E3,1.6679253E3,1.1702242E3,2.797416E2,1.5777244E3,1.3241029E3,8.313463E2],"tree_param":{"num_deleted":"0","num_feature":"20","num_nodes":"31","size_leaf_vector":"1"}},{"base_weights":[-1.2060971E-2,-4.764675E-1,6.4115536E-1,-7.727485E-1,-3.265166E-2,2.8441426E-1,8.964781E-1,-8.4954447E-1,-2.308432E-1,-2.571176E-1,1.4258207E-1,-3.619036E-2,5.5215776E-1,6.838716E-1,1.0307422E0,-2.9704006E-2,-2.0822654E-2,-1.069372E-2,8.6468365E-3,-1.3105075E-2,-2.2178285E-3,2.1378957E-3,1.7020354E-2,-3.403092E-3,1.6885972E-2,1.30722625E-2,2.1260729E-2,1.6332708E-2,2.4000198E-2,2.8648542E-2,3.3726178E-2],"categories":[],"categories_nodes":[],"categories_segments":[],"categories_sizes":[],"default_left":[0,0,0,0,0,0,0,0,0,0,0,0,0,0,0,0,0,0,0,0,0,0,0,0,0,0,0,0,0,0,0],"id":25,"left_children":[1,3,5,7,9,11,13,15,17,19,21,23,25,27,29,-1,-1,-1,-1,-1,-1,-1,-1,-1,-1,-1,-1,-1,-1,-1,-1],"loss_changes":[8.162962E3,2.068035E3,1.01831836E3,3.923921E2,2.4768832E2,4.004572E2,1.8567285E2,1.8019043E2,7.6425186E1,9.08728E1,1.0711017E2,9.829284E1,4.6170593E1,4.065747E1,2.7750977E1,0E0,0E0,0E0,0E0,0E0,0E0,0E0,0E0,0E0,0E0,0E0,0E0,0E0,0E0,0E0,0E0],"parents":[2147483647,0,0,1,1,2,2,3,3,4,4,5,5,6,6,7,7,8,8,9,9,10,10,11,11,12,12,13,13,14,14],"right_children":[2,4,6,8,10,12,14,16,18,20,22,24,26,28,30,-1,-1,-1,-1,-1,-1,-1,-1,-1,-1,-1,-1,-1,-1,-1,-1],"split_conditions":[1E0,3.6338457E-1,3E0,1.1112695E0,9.46152E-1,5.89772E-1,5E0,-2.1779126E-1,2.5313725E0,4.1683397E-1,1.4614838E0,1.4946371E0,2E0,1.0759341E-2,9E0,-2.9704006E-2,-2.0822654E-2,-1.069372E-2,8.6468365E-3,-1.3105075E-2,-2.2178285E-3,2.1378957E-3,1.7020354E-2,-3.403092E-3,1.6885972E-2,1.30722625E-2,2.1260729E-2,1.6332708E-2,2.4000198E-2,2.8648542E-2,3.3726178E-2],"split_indices":[0,5,0,7,5,5,0,5,7,7,7,7,0,4,0,0,0,0,0,0,0,0,0,0,0,0,0,0,0,0,0],"split_type":[0,0,0,0,0,0,0,0,0,0,0,0,0,0,0,0,0,0,0,0,0,0,0,0,0,0,0,0,0,0,0],"sum_hessian":[2.6907678E4,1.5726793E4,1.1180885E4,9.430705E3,6.2960874E3,4.664553E3,6.516332E3,8.259876E3,1.1708296E3,2.7601875E3,3.5359001E3,2.1229258E3,2.5416272E3,2.523473E3,3.9928591E3,4.3359263E3,3.9239495E3,9.4282465E2,2.2800496E2,1.3929468E3,1.3672406E3,3.0280637E3,5.078363E2,1.880808E3,2.4211784E2,1.4586804E3,1.0829467E3,1.1479395E3,1.3755336E3,2.207986E3,1.7848729E3],"tree_param":{"num_deleted":"0","num_feature":"20","num_nodes":"31","size_leaf_vector":"1"}},{"base_weights":[-1.0495948E-2,-4.634172E-1,6.291582E-1,-7.9300714E-1,-4.5950513E-2,2.5827652E-1,8.899603E-1,-8.382534E-1,-9.2936374E-2,-2.8358796E-1,1.4760059E-1,-3.6976635E-2,5.61792E-1,6.8084174E-1,1.0233715E0,-2.8270291E-2,-1.7973198E-2,8.057197E-3,-1.8721381E-2,-1.0050396E-2,1.2214237E-2,9.658792E-3,-2.8924062E-3,-1.5387363E-2,1.4433884E-3,1.5215496E-2,2.6355695E-2,8.344156E-3,2.213465E-2,2.7968323E-2,3.3007957E-2],"categories":[],"categories_nodes":[],"categories_segments":[],"categories_sizes":[],"default_left":[0,0,0,0,0,0,0,0,0,0,0,0,0,0,0,0,0,0,0,0,0,0,0,0,0,0,0,0,0,0,0],"id":26,"left_children":[1,3,5,7,9,11,13,15,17,19,21,23,25,27,29,-1,-1,-1,-1,-1,-1,-1,-1,-1,-1,-1,-1,-1,-1,-1,-1],"loss_changes":[7.7468794E3,2.1539949E3,1.0720874E3,2.7706592E2,3.1772064E2,4.1019934E2,1.8121826E2,2.042622E2,1.0215998E2,1.1020766E2,1.619917E2,9.3993866E1,3.881659E1,5.809546E1,2.7311035E1,0E0,0E0,0E0,0E0,0E0,0E0,0E0,0E0,0E0,0E0,0E0,0E0,0E0,0E0,0E0,0E0],"parents":[2147483647,0,0,1,1,2,2,3,3,4,4,5,5,6,6,7,7,8,8,9,9,10,10,11,11,12,12,13,13,14,14],"right_children":[2,4,6,8,10,12,14,16,18,20,22,24,26,28,30,-1,-1,-1,-1,-1,-1,-1,-1,-1,-1,-1,-1,-1,-1,-1,-1],"split_conditions":[1E0,2.5157776E-1,3E0,1.627927E0,8.8123554E-1,7.4787766E-1,5E0,-6.0736157E-2,4.9636364E-1,2.0821002E0,1.9636364E-1,-3.375324E-1,1.3354347E0,-2.2308016E-2,8E0,-2.8270291E-2,-1.7973198E-2,8.057197E-3,-1.8721381E-2,-1.0050396E-2,1.2214237E-2,9.658792E-3,-2.8924062E-3,-1.5387363E-2,1.4433884E-3,1.5215496E-2,2.6355695E-2,8.344156E-3,2.213465E-2,2.7968323E-2,3.3007957E-2],"split_indices":[0,6,0,7,6,6,0,5,9,7,9,6,6,5,0,0,0,0,0,0,0,0,0,0,0,0,0,0,0,0,0],"split_type":[0,0,0,0,0,0,0,0,0,0,0,0,0,0,0,0,0,0,0,0,0,0,0,0,0,0,0,0,0,0,0],"sum_hessian":[2.6738842E4,1.56544795E4,1.1084362E4,8.747712E3,6.9067676E3,4.57679E3,6.5075723E3,8.216568E3,5.3114343E2,3.1001924E3,3.8065752E3,2.3201948E3,2.256595E3,2.5358093E3,3.971763E3,5.723793E3,2.4927756E3,3.161781E2,2.1496532E2,2.885614E3,2.1457843E2,2.220073E3,1.5865023E3,3.5151816E2,1.9686768E3,1.925852E3,3.3074298E2,3.1469012E2,2.2211194E3,1.8210171E3,2.1507458E3],"tree_param":{"num_deleted":"0","num_feature":"20","num_nodes":"31","size_leaf_vector":"1"}},{"base_weights":[-1.7688606E-2,-3.9453617E-1,7.194841E-1,-7.77322E-1,-8.640963E-2,4.959786E-1,9.701149E-1,-8.4291065E-1,-2.6537147E-1,6.722092E-2,-3.5643637E-1,3.20616E-1,6.877309E-1,8.544649E-1,1.0681173E0,-2.9028904E-2,-1.938177E-2,1.9453121E-2,-1.3470741E-2,3.2201989E-4,2.3033243E-2,-1.4433449E-2,1.0400442E-2,6.203661E-3,1.581486E-2,1.882297E-2,2.723897E-2,2.019555E-2,2.7825808E-2,3.5781441E-3,3.217562E-2],"categories":[],"categories_nodes":[],"categories_segments":[],"categories_sizes":[],"default_left":[0,0,0,0,0,0,0,0,0,0,0,0,0,0,0,0,0,0,0,0,0,0,0,0,0,0,0,0,0,0,0],"id":27,"left_children":[1,3,5,7,9,11,13,15,17,19,21,23,25,27,29,-1,-1,-1,-1,-1,-1,-1,-1,-1,-1,-1,-1,-1,-1,-1,-1],"loss_changes":[7.3535977E3,2.0659446E3,5.0136328E2,2.6218945E2,4.026206E2,1.5908875E2,4.7379395E1,1.696875E2,1.491508E2,2.4479497E2,3.0860925E2,5.8106094E1,2.9741821E1,2.5362183E1,9.472656E0,0E0,0E0,0E0,0E0,0E0,0E0,0E0,0E0,0E0,0E0,0E0,0E0,0E0,0E0,0E0,0E0],"parents":[2147483647,0,0,1,1,2,2,3,3,4,4,5,5,6,6,7,7,8,8,9,9,10,10,11,11,12,12,13,13,14,14],"right_children":[2,4,6,8,10,12,14,16,18,20,22,24,26,28,30,-1,-1,-1,-1,-1,-1,-1,-1,-1,-1,-1,-1,-1,-1,-1,-1],"split_conditions":[3.3611548E-3,2E0,4E0,1.1306884E0,5E0,1.1338285E0,7E0,-2.1779126E-1,-2.2072728E-1,4E0,1.4614838E0,1.8518518E-1,1.3354347E0,1.0191402E0,-5.3947542E-2,-2.9028904E-2,-1.938177E-2,1.9453121E-2,-1.3470741E-2,3.2201989E-4,2.3033243E-2,-1.4433449E-2,1.0400442E-2,6.203661E-3,1.581486E-2,1.882297E-2,2.723897E-2,2.019555E-2,2.7825808E-2,3.5781441E-3,3.217562E-2],"split_indices":[4,13,0,7,13,6,0,5,9,0,7,2,6,6,8,0,0,0,0,0,0,0,0,0,0,0,0,0,0,0,0],"split_type":[0,0,0,0,0,0,0,0,0,0,0,0,0,0,0,0,0,0,0,0,0,0,0,0,0,0,0,0,0,0,0],"sum_hessian":[2.6469658E4,1.7515732E4,8.953926E3,7.8111606E3,9.704571E3,4.733876E3,4.2200493E3,6.923794E3,8.873663E2,6.185649E3,3.5189226E3,2.4733071E3,2.260569E3,1.9379658E3,2.2820835E3,4.2372417E3,2.6865525E3,1.4828331E2,7.39083E2,5.7245737E3,4.6107504E2,2.989054E3,5.298688E2,1.5951968E3,8.781104E2,1.7761876E3,4.8438144E2,5.5816547E2,1.3798003E3,1.0606495E1,2.271477E3],"tree_param":{"num_deleted":"0","num_feature":"20","num_nodes":"31","size_leaf_vector":"1"}},{"base_weights":[1.34848235E-2,-3.5248116E-1,7.22675E-1,-7.1546394E-1,-6.1677296E-2,4.2870954E-1,9.026226E-1,-7.8906775E-1,-1.7533521E-1,9.123499E-2,-3.3348238E-1,1.4292032E-1,5.743849E-1,7.3109055E-1,1.0062128E0,-2.696632E-2,-1.6583333E-2,4.0141892E-4,-3.1925865E-2,1.197148E-3,2.271177E-2,-1.2746982E-2,6.4692274E-3,1.364641E-2,-2.7432517E-4,1.5657125E-2,2.6164625E-2,2.046597E-2,3.1748403E-2,2.7562108E-2,3.2317504E-2],"categories":[],"categories_nodes":[],"categories_segments":[],"categories_sizes":[],"default_left":[0,0,0,0,0,0,0,0,0,0,0,0,0,0,0,0,0,0,0,0,0,0,0,0,0,0,0,0,0,0,0],"id":28,"left_children":[1,3,5,7,9,11,13,15,17,19,21,23,25,27,29,-1,-1,-1,-1,-1,-1,-1,-1,-1,-1,-1,-1,-1,-1,-1,-1],"loss_changes":[6.902285E3,1.8516631E3,4.786582E2,3.101294E2,4.0482898E2,1.4309796E2,9.939844E1,1.7792285E2,1.5708086E2,2.1302995E2,1.7608444E2,5.5100956E1,3.5358093E1,3.348633E1,2.1249756E1,0E0,0E0,0E0,0E0,0E0,0E0,0E0,0E0,0E0,0E0,0E0,0E0,0E0,0E0,0E0,0E0],"parents":[2147483647,0,0,1,1,2,2,3,3,4,4,5,5,6,6,7,7,8,8,9,9,10,10,11,11,12,12,13,13,14,14],"right_children":[2,4,6,8,10,12,14,16,18,20,22,24,26,28,30,-1,-1,-1,-1,-1,-1,-1,-1,-1,-1,-1,-1,-1,-1,-1,-1],"split_conditions":[3.3611548E-3,2E0,3E0,1.1112695E0,5E0,7.4787766E-1,5E0,-1.5894124E-1,1.0584E0,4E0,1.4614838E0,-3.1676766E-1,1.3354347E0,1.3354347E0,8E0,-2.696632E-2,-1.6583333E-2,4.0141892E-4,-3.1925865E-2,1.197148E-3,2.271177E-2,-1.2746982E-2,6.4692274E-3,1.364641E-2,-2.7432517E-4,1.5657125E-2,2.6164625E-2,2.046597E-2,3.1748403E-2,2.7562108E-2,3.2317504E-2],"split_indices":[4,13,0,7,13,6,0,6,9,0,7,9,6,6,0,0,0,0,0,0,0,0,0,0,0,0,0,0,0,0,0],"split_type":[0,0,0,0,0,0,0,0,0,0,0,0,0,0,0,0,0,0,0,0,0,0,0,0,0,0,0,0,0,0,0],"sum_hessian":[2.6593363E4,1.7541574E4,9.05179E3,7.8021553E3,9.739418E3,3.43766E3,5.6141304E3,6.866255E3,9.3590063E2,6.2331187E3,3.5062998E3,1.1609915E3,2.2766685E3,2.1153743E3,3.4987563E3,4.686789E3,2.1794656E3,7.7240265E2,1.6349799E2,5.7874775E3,4.4564124E2,3.0059824E3,5.003174E2,3.8013974E2,7.808517E2,1.9367072E3,3.399612E2,1.8417119E3,2.7366232E2,1.5710812E3,1.927675E3],"tree_param":{"num_deleted":"0","num_feature":"20","num_nodes":"31","size_leaf_vector":"1"}},{"base_weights":[4.555508E-4,-3.3033264E-1,7.681953E-1,-6.082353E-1,1.576766E-1,5.814019E-1,9.7909355E-1,-6.7520225E-1,3.2979656E-2,1.077427E-1,7.172621E-1,3.5627735E-1,7.0734686E-1,8.3762246E-1,1.0371499E0,-2.5299318E-2,-1.3542253E-2,1.2180298E-2,-5.2807345E-3,9.54479E-3,-3.6321533E-5,2.4918357E-2,-2.9663973E-2,8.456677E-3,2.1040365E-2,1.976517E-2,3.0575551E-2,2.0736631E-2,3.0725043E-2,2.9811392E-2,3.3087183E-2],"categories":[],"categories_nodes":[],"categories_segments":[],"categories_sizes":[],"default_left":[0,0,0,0,0,0,0,0,0,0,0,0,0,0,0,0,0,0,0,0,0,0,0,0,0,0,0,0,0,0,0],"id":29,"left_children":[1,3,5,7,9,11,13,15,17,19,21,23,25,27,29,-1,-1,-1,-1,-1,-1,-1,-1,-1,-1,-1,-1,-1,-1,-1,-1],"loss_changes":[6.684621E3,2.494852E3,3.119536E2,5.0331787E2,1.8647794E2,1.1908301E2,3.0135498E1,3.990791E2,8.648675E1,1.4050705E2,1.0614319E2,3.8643967E1,4.0439453E1,2.9294312E1,6.9838867E0,0E0,0E0,0E0,0E0,0E0,0E0,0E0,0E0,0E0,0E0,0E0,0E0,0E0,0E0,0E0,0E0],"parents":[2147483647,0,0,1,1,2,2,3,3,4,4,5,5,6,6,7,7,8,8,9,9,10,10,11,11,12,12,13,13,14,14],"right_children":[2,4,6,8,10,12,14,16,18,20,22,24,26,28,30,-1,-1,-1,-1,-1,-1,-1,-1,-1,-1,-1,-1,-1,-1,-1,-1],"split_conditions":[2E0,5.952853E-1,5E0,1.4614838E0,1.3354347E0,5.651812E-1,1.0191402E0,-6.0736157E-2,7.509091E-2,-1.9472727E-1,4.139011E0,4E0,1.3542013E0,6.923077E-1,1E1,-2.5299318E-2,-1.3542253E-2,1.2180298E-2,-5.2807345E-3,9.54479E-3,-3.6321533E-5,2.4918357E-2,-2.9663973E-2,8.456677E-3,2.1040365E-2,1.976517E-2,3.0575551E-2,2.0736631E-2,3.0725043E-2,2.9811392E-2,3.3087183E-2],"split_indices":[0,6,0,7,6,6,6,5,9,9,6,0,6,2,0,0,0,0,0,0,0,0,0,0,0,0,0,0,0,0,0],"split_type":[0,0,0,0,0,0,0,0,0,0,0,0,0,0,0,0,0,0,0,0,0,0,0,0,0,0,0,0,0,0,0],"sum_hessian":[2.6320629E4,1.8395172E4,7.9254556E3,1.1720609E4,6.674563E3,4.203913E3,3.7215427E3,1.0612264E4,1.1083458E3,6.1283076E3,5.462556E2,1.5088258E3,2.6950872E3,1.0850983E3,2.6364446E3,6.059291E3,4.552973E3,3.978293E2,7.105165E2,2.0903486E3,4.037959E3,5.1246436E2,3.3791294E1,1.241992E3,2.6683395E2,2.333636E3,3.6145114E2,6.092838E2,4.7581442E2,1.5925225E3,1.043922E3],"tree_param":{"num_deleted":"0","num_feature":"20","num_nodes":"31","size_leaf_vector":"1"}},{"base_weights":[5.743093E-3,-3.132217E-1,7.490077E-1,-5.6751716E-1,1.9103532E-1,5.632972E-1,9.590145E-1,-7.8818977E-1,-3.8412768E-1,1.3739082E-1,7.2625756E-1,3.3174962E-1,6.957747E-1,7.9551893E-1,1.0136142E0,-2.5299791E-2,-4.7008263E-5,-1.3144524E-2,1.280096E-3,2.2163517E-3,1.5252426E-2,2.5283009E-2,-3.8405236E-2,-6.414495E-2,1.0334709E-2,1.9417807E-2,2.8535726E-2,1.8386826E-2,2.737669E-2,2.7611222E-2,3.1816527E-2],"categories":[],"categories_nodes":[],"categories_segments":[],"categories_sizes":[],"default_left":[0,0,0,0,0,0,0,0,0,0,0,0,0,0,0,0,0,0,0,0,0,0,0,0,0,0,0,0,0,0,0],"id":30,"left_children":[1,3,5,7,9,11,13,15,17,19,21,23,25,27,29,-1,-1,-1,-1,-1,-1,-1,-1,-1,-1,-1,-1,-1,-1,-1,-1],"loss_changes":[6.196281E3,2.3451506E3,3.058125E2,4.918474E2,1.7598917E2,1.2768335E2,3.246924E1,2.3929565E2,1.5312036E2,1.313145E2,1.3108215E2,4.8110535E1,3.252417E1,1.9474548E1,1.1584961E1,0E0,0E0,0E0,0E0,0E0,0E0,0E0,0E0,0E0,0E0,0E0,0E0,0E0,0E0,0E0,0E0],"parents":[2147483647,0,0,1,1,2,2,3,3,4,4,5,5,6,6,7,7,8,8,9,9,10,10,11,11,12,12,13,13,14,14],"right_children":[2,4,6,8,10,12,14,16,18,20,22,24,26,28,30,-1,-1,-1,-1,-1,-1,-1,-1,-1,-1,-1,-1,-1,-1,-1,-1],"split_conditions":[2E0,6.822251E-1,5E0,-1.6531482E-1,1.3354347E0,8.271399E-3,1.0496417E-2,1.4614838E0,2.9479295E-3,1.4354786E0,4.139011E0,-4.376924E-1,1.3354347E0,7E0,7E0,-2.5299791E-2,-4.7008263E-5,-1.3144524E-2,1.280096E-3,2.2163517E-3,1.5252426E-2,2.5283009E-2,-3.8405236E-2,-6.414495E-2,1.0334709E-2,1.9417807E-2,2.8535726E-2,1.8386826E-2,2.737669E-2,2.7611222E-2,3.1816527E-2],"split_indices":[0,6,0,6,6,4,4,7,4,7,6,6,6,0,0,0,0,0,0,0,0,0,0,0,0,0,0,0,0,0,0],"split_type":[0,0,0,0,0,0,0,0,0,0,0,0,0,0,0,0,0,0,0,0,0,0,0,0,0,0,0,0,0,0,0],"sum_hessian":[2.613535E4,1.8287666E4,7.8476846E3,1.2156907E4,6.1307583E3,4.1657363E3,3.6819485E3,5.516841E3,6.6400664E3,5.5728306E3,5.579278E2,1.5166489E3,2.6490872E3,9.237172E2,2.7582312E3,5.1554453E3,3.6139572E2,5.894003E3,7.460637E2,4.758809E3,8.140216E2,5.2758215E2,3.0345636E1,7.3552E0,1.5092937E3,2.2277158E3,4.2137134E2,3.6198935E2,5.6172784E2,9.270145E2,1.8312168E3],"tree_param":{"num_deleted":"0","num_feature":"20","num_nodes":"31","size_leaf_vector":"1"}},{"base_weights":[5.3931996E-3,-3.1029034E-1,7.4073803E-1,-6.6119325E-1,-4.0958181E-4,5.5808437E-1,9.4518685E-1,-7.74034E-1,-3.4072E-1,-1.5078658E-1,2.4922344E-1,2.759256E-1,6.629916E-1,7.86522E-1,1.025627E0,-2.6799735E-2,-1.761761E-2,-2.8441744E-3,-2.0368913E-2,-6.5791104E-3,4.9623554E-3,7.9315705E-3,-4.897963E-2,-2.2569776E-2,9.491473E-3,1.8346697E-2,2.9137293E-2,1.209477E-2,2.5383176E-2,2.9692275E-2,3.318753E-2],"categories":[],"categories_nodes":[],"categories_segments":[],"categories_sizes":[],"default_left":[0,0,0,0,0,0,0,0,0,0,0,0,0,0,0,0,0,0,0,0,0,0,0,0,0,0,0,0,0,0,0],"id":31,"left_children":[1,3,5,7,9,11,13,15,17,19,21,23,25,27,29,-1,-1,-1,-1,-1,-1,-1,-1,-1,-1,-1,-1,-1,-1,-1,-1],"loss_changes":[6.0245615E3,1.9744254E3,2.9083008E2,3.0779834E2,3.6200565E2,1.21809204E2,4.6531006E1,1.4004956E2,1.8448892E2,1.3040138E2,1.0365814E2,4.6586853E1,4.729431E1,2.8137695E1,6.5075684E0,0E0,0E0,0E0,0E0,0E0,0E0,0E0,0E0,0E0,0E0,0E0,0E0,0E0,0E0,0E0,0E0],"parents":[2147483647,0,0,1,1,2,2,3,3,4,4,5,5,6,6,7,7,8,8,9,9,10,10,11,11,12,12,13,13,14,14],"right_children":[2,4,6,8,10,12,14,16,18,20,22,24,26,28,30,-1,-1,-1,-1,-1,-1,-1,-1,-1,-1,-1,-1,-1,-1,-1,-1],"split_conditions":[2E0,1.0048772E-1,5E0,4.9849135E-1,1.1339931E0,2.8689042E-1,7E0,-2.2209312E-1,3.6113638E-1,2.7777778E-2,4.139011E0,-4.2397743E-1,1.3354347E0,6.0070353E-3,1.3E1,-2.6799735E-2,-1.761761E-2,-2.8441744E-3,-2.0368913E-2,-6.5791104E-3,4.9623554E-3,7.9315705E-3,-4.897963E-2,-2.2569776E-2,9.491473E-3,1.8346697E-2,2.9137293E-2,1.209477E-2,2.5383176E-2,2.9692275E-2,3.318753E-2],"split_indices":[0,5,0,7,5,6,0,5,9,2,6,8,6,4,0,0,0,0,0,0,0,0,0,0,0,0,0,0,0,0,0],"split_type":[0,0,0,0,0,0,0,0,0,0,0,0,0,0,0,0,0,0,0,0,0,0,0,0,0,0,0,0,0,0,0],"sum_hessian":[2.59517E4,1.815713E4,7.794568E3,8.514693E3,9.642438E3,4.117699E3,3.6768684E3,6.29683E3,2.217863E3,6.0176504E3,3.624788E3,1.1165192E3,3.0011802E3,1.2387922E3,2.4380762E3,3.8414995E3,2.4553306E3,1.2845752E3,9.332877E2,4.9460444E3,1.0716062E3,3.596243E3,2.854515E1,4.1933754E1,1.0745854E3,2.573292E3,4.278882E2,1.6716101E2,1.0716312E3,1.6917435E3,7.4633276E2],"tree_param":{"num_deleted":"0","num_feature":"20","num_nodes":"31","size_leaf_vector":"1"}},{"base_weights":[-2.3796856E-3,-3.1234664E-1,7.2212136E-1,-5.9084386E-1,4.8520338E-2,5.399967E-1,9.319847E-1,-6.419072E-1,-3.7089158E-2,-8.581921E-2,2.2943968E-1,3.2008803E-1,6.5897506E-1,8.5122114E-1,1.031022E0,-2.1180028E-2,-4.8019676E-3,1.031279E-2,-7.1066977E-3,6.225944E-3,-7.940047E-3,-1.0029257E-2,8.828367E-3,1.0004714E-2,-7.855411E-2,1.8314095E-2,2.8917992E-2,1.7397959E-2,2.743211E-2,2.919962E-2,3.2197736E-2],"categories":[],"categories_nodes":[],"categories_segments":[],"categories_sizes":[],"default_left":[0,0,0,0,0,0,0,0,0,0,0,0,0,0,0,0,0,0,0,0,0,0,0,0,0,0,0,0,0,0,0],"id":32,"left_children":[1,3,5,7,9,11,13,15,17,19,21,23,25,27,29,-1,-1,-1,-1,-1,-1,-1,-1,-1,-1,-1,-1,-1,-1,-1,-1],"loss_changes":[5.7864165E3,1.813629E3,2.9484155E2,2.8799658E2,1.9106735E2,1.0807605E2,2.8248047E1,2.8794067E2,6.551643E1,2.3672928E2,1.2249742E2,5.7645676E1,3.9386597E1,3.364514E1,3.3979492E0,0E0,0E0,0E0,0E0,0E0,0E0,0E0,0E0,0E0,0E0,0E0,0E0,0E0,0E0,0E0,0E0],"parents":[2147483647,0,0,1,1,2,2,3,3,4,4,5,5,6,6,7,7,8,8,9,9,10,10,11,11,12,12,13,13,14,14],"right_children":[2,4,6,8,10,12,14,16,18,20,22,24,26,28,30,-1,-1,-1,-1,-1,-1,-1,-1,-1,-1,-1,-1,-1,-1,-1,-1],"split_conditions":[2E0,3.7593925E-1,5E0,1.4614838E0,1.1484967E0,5.651812E-1,9E0,3.125E-2,7.509091E-2,-1.825091E-1,9.145146E-1,5.4975307E-1,1.3542013E0,3.776508E-1,9.285714E-1,-2.1180028E-2,-4.8019676E-3,1.031279E-2,-7.1066977E-3,6.225944E-3,-7.940047E-3,-1.0029257E-2,8.828367E-3,1.0004714E-2,-7.855411E-2,1.8314095E-2,2.8917992E-2,1.7397959E-2,2.743211E-2,2.919962E-2,3.2197736E-2],"split_indices":[0,5,0,7,6,6,0,2,9,9,5,6,6,8,2,0,0,0,0,0,0,0,0,0,0,0,0,0,0,0,0],"split_type":[0,0,0,0,0,0,0,0,0,0,0,0,0,0,0,0,0,0,0,0,0,0,0,0,0,0,0,0,0,0,0],"sum_hessian":[2.5765488E4,1.8045342E4,7.720146E3,1.018489E4,7.8604536E3,4.134184E3,3.585962E3,9.32493E3,8.599596E2,4.5110723E3,3.349381E3,1.4521003E3,2.6820835E3,1.9778484E3,1.6081135E3,8.229963E3,1.0949668E3,2.95787E2,5.641726E2,1.7085707E3,2.8025017E3,3.452767E2,3.0041045E3,1.4459489E3,6.151565E0,2.3153206E3,3.6676312E2,3.7458197E2,1.6032665E3,6.8471027E2,9.234032E2],"tree_param":{"num_deleted":"0","num_feature":"20","num_nodes":"31","size_leaf_vector":"1"}},{"base_weights":[1.5636193E-2,-2.7537817E-1,7.0487607E-1,-5.989008E-1,5.638608E-2,5.143172E-1,9.1959345E-1,-7.0713216E-1,-3.1516692E-1,1.6603272E-1,-1.9954516E-1,3.1442806E-1,6.573509E-1,7.9480404E-1,9.87555E-1,-2.4792574E-2,-1.6377166E-2,1.567138E-2,-1.3339231E-2,8.881523E-3,1.7740853E-3,-1.1266732E-2,1.3956152E-3,1.0686064E-2,-1.3527792E-2,1.8243838E-2,2.6749363E-2,1.50783975E-2,2.620034E-2,2.8668081E-2,3.1919498E-2],"categories":[],"categories_nodes":[],"categories_segments":[],"categories_sizes":[],"default_left":[0,0,0,0,0,0,0,0,0,0,0,0,0,0,0,0,0,0,0,0,0,0,0,0,0,0,0,0,0,0,0],"id":33,"left_children":[1,3,5,7,9,11,13,15,17,19,21,23,25,27,29,-1,-1,-1,-1,-1,-1,-1,-1,-1,-1,-1,-1,-1,-1,-1,-1],"loss_changes":[5.1697065E3,1.9451411E3,3.1284204E2,2.8164746E2,2.5110526E2,1.1583374E2,3.0114258E1,1.2750073E2,2.7494684E2,8.705513E1,1.1624866E2,5.4187073E1,2.6982971E1,2.8945496E1,5.173828E0,0E0,0E0,0E0,0E0,0E0,0E0,0E0,0E0,0E0,0E0,0E0,0E0,0E0,0E0,0E0,0E0],"parents":[2147483647,0,0,1,1,2,2,3,3,4,4,5,5,6,6,7,7,8,8,9,9,10,10,11,11,12,12,13,13,14,14],"right_children":[2,4,6,8,10,12,14,16,18,20,22,24,26,28,30,-1,-1,-1,-1,-1,-1,-1,-1,-1,-1,-1,-1,-1,-1,-1,-1],"split_conditions":[2E0,2.1728931E-1,5E0,4.9849135E-1,5E0,7.4787766E-1,7E0,-2.1779126E-1,-3.0643356E-1,-1.8512396E-2,6.1149406E-1,1.2315757E0,1.3354347E0,3.9206323E-1,1.3E1,-2.4792574E-2,-1.6377166E-2,1.567138E-2,-1.3339231E-2,8.881523E-3,1.7740853E-3,-1.1266732E-2,1.3956152E-3,1.0686064E-2,-1.3527792E-2,1.8243838E-2,2.6749363E-2,1.50783975E-2,2.620034E-2,2.8668081E-2,3.1919498E-2],"split_indices":[0,6,0,7,13,6,0,5,9,9,7,9,6,8,0,0,0,0,0,0,0,0,0,0,0,0,0,0,0,0,0],"split_type":[0,0,0,0,0,0,0,0,0,0,0,0,0,0,0,0,0,0,0,0,0,0,0,0,0,0,0,0,0,0,0],"sum_hessian":[2.5772969E4,1.8121793E4,7.6511753E3,9.174653E3,8.947141E3,4.0545305E3,3.596645E3,6.6407627E3,2.5338904E3,6.2637754E3,2.683365E3,1.6918182E3,2.3627122E3,1.2703696E3,2.3262754E3,3.8156257E3,2.8251372E3,3.3905872E2,2.1948315E3,2.8258337E3,3.4379417E3,1.5642107E3,1.1191543E3,1.6045093E3,8.730899E1,1.9539951E3,4.0871704E2,2.6991568E2,1.000454E3,1.6452144E3,6.81061E2],"tree_param":{"num_deleted":"0","num_feature":"20","num_nodes":"31","size_leaf_vector":"1"}},{"base_weights":[7.5832573E-3,-2.7679193E-1,6.935984E-1,-6.5047735E-1,3.2921474E-2,4.6029034E-1,8.659067E-1,-7.192877E-1,-1.820366E-1,-1.0701884E-1,2.6790124E-1,-3.896528E-1,5.1250005E-1,7.1707433E-1,9.367972E-1,-2.7200619E-2,-1.8485157E-2,-2.8661327E-4,-2.7572569E-2,-5.0880695E-3,7.489453E-3,6.6588316E-3,2.0133331E-2,-6.572755E-3,-5.2210223E-2,1.038285E-2,1.9642767E-2,1.9115916E-2,2.620663E-2,2.629896E-2,3.0997105E-2],"categories":[],"categories_nodes":[],"categories_segments":[],"categories_sizes":[],"default_left":[0,0,0,0,0,0,0,0,0,0,0,0,0,0,0,0,0,0,0,0,0,0,0,0,0,0,0,0,0,0,0],"id":34,"left_children":[1,3,5,7,9,11,13,15,17,19,21,23,25,27,29,-1,-1,-1,-1,-1,-1,-1,-1,-1,-1,-1,-1,-1,-1,-1,-1],"loss_changes":[4.994741E3,2.0948042E3,3.0142627E2,2.6433984E2,3.2547693E2,1.4158472E2,4.519214E1,1.3792578E2,1.3364201E2,1.3849493E2,6.835962E1,4.23832E1,7.1000854E1,1.714972E1,1.649707E1,0E0,0E0,0E0,0E0,0E0,0E0,0E0,0E0,0E0,0E0,0E0,0E0,0E0,0E0,0E0,0E0],"parents":[2147483647,0,0,1,1,2,2,3,3,4,4,5,5,6,6,7,7,8,8,9,9,10,10,11,11,12,12,13,13,14,14],"right_children":[2,4,6,8,10,12,14,16,18,20,22,24,26,28,30,-1,-1,-1,-1,-1,-1,-1,-1,-1,-1,-1,-1,-1,-1,-1,-1],"split_conditions":[2E0,9.057581E-2,3E0,1.0429785E0,1.1339931E0,-3.1111404E-1,1.0191402E0,-3.3887568E-1,1.0584E0,1.4614838E0,1.3542013E0,-3.482434E-1,8.8632655E-1,5E0,5E0,-2.7200619E-2,-1.8485157E-2,-2.8661327E-4,-2.7572569E-2,-5.0880695E-3,7.489453E-3,6.6588316E-3,2.0133331E-2,-6.572755E-3,-5.2210223E-2,1.038285E-2,1.9642767E-2,1.9115916E-2,2.620663E-2,2.629896E-2,3.0997105E-2],"split_indices":[12,5,12,7,5,5,6,5,9,7,6,6,5,3,3,0,0,0,0,0,0,0,0,0,0,0,0,0,0,0,0],"split_type":[0,0,0,0,0,0,0,0,0,0,0,0,0,0,0,0,0,0,0,0,0,0,0,0,0,0,0,0,0,0,0],"sum_hessian":[2.5601812E4,1.8099352E4,7.502461E3,8.202299E3,9.897052E3,3.1878708E3,4.3145903E3,7.1515273E3,1.0507719E3,6.2031113E3,3.6939412E3,1.8430269E2,3.0035684E3,1.3938352E3,2.920755E3,2.5369856E3,4.6145415E3,8.5191486E2,1.9885701E2,5.2773677E3,9.2574365E2,3.3168118E3,3.771294E2,1.641548E2,2.0147888E1,1.3850929E3,1.6184753E3,9.24466E2,4.6936917E2,1.8017524E3,1.1190024E3],"tree_param":{"num_deleted":"0","num_feature":"20","num_nodes":"31","size_leaf_vector":"1"}},{"base_weights":[1.0732663E-2,-3.6413428E-1,5.5062425E-1,-6.4847463E-1,-9.597848E-2,3.3740035E-1,8.57815E-1,-6.9315934E-1,7.7421464E-2,5.782527E-2,-2.8979272E-1,-2.1783922E-2,4.667575E-1,7.544722E-1,9.5708656E-1,-2.3495758E-2,-1.5843138E-2,-2.2421912E-3,1.6257297E-2,7.973766E-3,-2.1007624E-3,-1.4951398E-2,-1.6474422E-3,-5.811044E-3,5.293059E-3,8.685497E-3,1.6832503E-2,1.7673565E-2,2.4516016E-2,2.7526768E-2,3.140593E-2],"categories":[],"categories_nodes":[],"categories_segments":[],"categories_sizes":[],"default_left":[0,0,0,0,0,0,0,0,0,0,0,0,0,0,0,0,0,0,0,0,0,0,0,0,0,0,0,0,0,0,0],"id":35,"left_children":[1,3,5,7,9,11,13,15,17,19,21,23,25,27,29,-1,-1,-1,-1,-1,-1,-1,-1,-1,-1,-1,-1,-1,-1,-1,-1],"loss_changes":[5.1640103E3,1.1482001E3,6.847407E2,2.37104E2,2.310544E2,2.868178E2,4.3586426E1,1.0210913E2,3.0007494E1,1.1492213E2,1.6800247E2,5.5732143E1,7.579468E1,2.1553833E1,7.2667236E0,0E0,0E0,0E0,0E0,0E0,0E0,0E0,0E0,0E0,0E0,0E0,0E0,0E0,0E0,0E0,0E0],"parents":[2147483647,0,0,1,1,2,2,3,3,4,4,5,5,6,6,7,7,8,8,9,9,10,10,11,11,12,12,13,13,14,14],"right_children":[2,4,6,8,10,12,14,16,18,20,22,24,26,28,30,-1,-1,-1,-1,-1,-1,-1,-1,-1,-1,-1,-1,-1,-1,-1,-1],"split_conditions":[1E0,2E0,4E0,1.7133583E0,5E0,4.029462E-3,7E0,1.9852856E-1,3.224669E0,1.1032927E0,4.2426598E-1,2E0,1.0173284E-2,8.6977E-3,1.3E1,-2.3495758E-2,-1.5843138E-2,-2.2421912E-3,1.6257297E-2,7.973766E-3,-2.1007624E-3,-1.4951398E-2,-1.6474422E-3,-5.811044E-3,5.293059E-3,8.685497E-3,1.6832503E-2,1.7673565E-2,2.4516016E-2,2.7526768E-2,3.140593E-2],"split_indices":[0,13,0,7,13,4,0,7,7,8,7,0,4,4,0,0,0,0,0,0,0,0,0,0,0,0,0,0,0,0,0],"split_type":[0,0,0,0,0,0,0,0,0,0,0,0,0,0,0,0,0,0,0,0,0,0,0,0,0,0,0,0,0,0,0],"sum_hessian":[2.5514463E4,1.5058763E4,1.04557E4,7.308475E3,7.750288E3,6.1724185E3,4.2832817E3,6.88469E3,4.2378506E2,4.3213647E3,3.428923E3,1.6344578E3,4.5379604E3,2.1007136E3,2.182568E3,4.4535396E3,2.4311506E3,3.1953015E2,1.0425492E2,1.6450016E3,2.6763633E3,1.815806E3,1.6131171E3,8.753067E2,7.5915106E2,1.57692E3,2.9610405E3,5.7917926E2,1.5215344E3,1.5192706E3,6.632976E2],"tree_param":{"num_deleted":"0","num_feature":"20","num_nodes":"31","size_leaf_vector":"1"}},{"base_weights":[-2.9366037E-3,-3.433148E-1,5.7508326E-1,-6.632716E-1,-7.83371E-2,3.8063508E-1,8.405374E-1,-6.9236165E-1,1.438194E-1,7.686843E-2,-3.196562E-1,1.9165456E-1,6.0663027E-1,7.573823E-1,9.865086E-1,-2.4986206E-2,-1.6559377E-2,2.9092813E-2,-6.362181E-3,1.2703567E-3,2.2288507E-2,-1.4394669E-2,-1.8053675E-3,4.4796243E-3,2.1342099E-2,1.6674323E-2,2.4805555E-2,1.8859703E-2,2.5436576E-2,2.7367428E-2,3.0469686E-2],"categories":[],"categories_nodes":[],"categories_segments":[],"categories_sizes":[],"default_left":[0,0,0,0,0,0,0,0,0,0,0,0,0,0,0,0,0,0,0,0,0,0,0,0,0,0,0,0,0,0,0],"id":36,"left_children":[1,3,5,7,9,11,13,15,17,19,21,23,25,27,29,-1,-1,-1,-1,-1,-1,-1,-1,-1,-1,-1,-1,-1,-1,-1,-1],"loss_changes":[4.966431E3,1.346927E3,4.827478E2,1.6902222E2,3.255213E2,2.3060828E2,4.763501E1,1.367959E2,7.382159E1,1.21618935E2,1.4136417E2,6.468098E1,2.729419E1,2.9113892E1,2.6401367E0,0E0,0E0,0E0,0E0,0E0,0E0,0E0,0E0,0E0,0E0,0E0,0E0,0E0,0E0,0E0,0E0],"parents":[2147483647,0,0,1,1,2,2,3,3,4,4,5,5,6,6,7,7,8,8,9,9,10,10,11,11,12,12,13,13,14,14],"right_children":[2,4,6,8,10,12,14,16,18,20,22,24,26,28,30,-1,-1,-1,-1,-1,-1,-1,-1,-1,-1,-1,-1,-1,-1,-1,-1],"split_conditions":[8.7561755E-4,2E0,4E0,2.167703E0,5E0,1.0515578E0,9E0,-2.7811652E-1,-5.818182E-2,4E0,6.1149406E-1,1.9376829E0,1.3354347E0,1.1644138E0,1.2343787E-2,-2.4986206E-2,-1.6559377E-2,2.9092813E-2,-6.362181E-3,1.2703567E-3,2.2288507E-2,-1.4394669E-2,-1.8053675E-3,4.4796243E-3,2.1342099E-2,1.6674323E-2,2.4805555E-2,1.8859703E-2,2.5436576E-2,2.7367428E-2,3.0469686E-2],"split_indices":[4,13,0,7,13,6,0,6,9,0,7,7,6,6,4,0,0,0,0,0,0,0,0,0,0,0,0,0,0,0,0],"split_type":[0,0,0,0,0,0,0,0,0,0,0,0,0,0,0,0,0,0,0,0,0,0,0,0,0,0,0,0,0,0,0],"sum_hessian":[2.524194E4,1.5886858E4,9.355081E3,7.19647E3,8.690388E3,5.4004263E3,3.9546553E3,6.9461797E3,2.5029019E2,5.2890503E3,3.4013376E3,2.9415679E3,2.4588584E3,2.5213923E3,1.433263E3,3.4702554E3,3.4759246E3,7.5111595E1,1.751786E2,5.028931E3,2.601191E2,2.1028796E3,1.2984579E3,2.7206162E3,2.2095172E2,1.9992609E3,4.5959753E2,1.042538E3,1.4788542E3,4.0854288E2,1.0247201E3],"tree_param":{"num_deleted":"0","num_feature":"20","num_nodes":"31","size_leaf_vector":"1"}},{"base_weights":[4.280992E-3,-2.9442233E-1,6.013565E-1,-6.213991E-1,-4.782921E-2,4.3337965E-1,8.858621E-1,-8.04378E-1,-3.7863016E-1,9.319659E-2,-3.0872613E-1,2.524305E-1,5.6036824E-1,7.870284E-1,9.6585387E-1,-2.2384461E-2,-3.3245914E-2,-6.84059E-3,-2.1248987E-2,1.5336951E-3,1.97779E-2,-3.9362293E-3,-1.2850237E-2,2.5698578E-3,1.1582794E-2,1.387889E-2,2.0557385E-2,2.001698E-2,2.7718859E-2,2.7806228E-2,3.0966729E-2],"categories":[],"categories_nodes":[],"categories_segments":[],"categories_sizes":[],"default_left":[0,0,0,0,0,0,0,0,0,0,0,0,0,0,0,0,0,0,0,0,0,0,0,0,0,0,0,0,0,0,0],"id":37,"left_children":[1,3,5,7,9,11,13,15,17,19,21,23,25,27,29,-1,-1,-1,-1,-1,-1,-1,-1,-1,-1,-1,-1,-1,-1,-1,-1],"loss_changes":[4.476537E3,1.3489459E3,3.9980127E2,3.193601E2,3.509474E2,1.2087836E2,2.4180664E1,7.213745E1,1.5345474E2,1.4744693E2,7.10372E1,4.8388428E1,3.7587463E1,2.2532227E1,3.9578857E0,0E0,0E0,0E0,0E0,0E0,0E0,0E0,0E0,0E0,0E0,0E0,0E0,0E0,0E0,0E0,0E0],"parents":[2147483647,0,0,1,1,2,2,3,3,4,4,5,5,6,6,7,7,8,8,9,9,10,10,11,11,12,12,13,13,14,14],"right_children":[2,4,6,8,10,12,14,16,18,20,22,24,26,28,30,-1,-1,-1,-1,-1,-1,-1,-1,-1,-1,-1,-1,-1,-1,-1,-1],"split_conditions":[3.28008E-3,2E0,5E0,-2.1779126E-1,5E0,1.0985986E-2,8E0,8.7618184E-1,9.37467E-2,4E0,-9.568595E-2,1.3333334E-1,1E0,1.4876419E-2,1.3E1,-2.2384461E-2,-3.3245914E-2,-6.84059E-3,-2.1248987E-2,1.5336951E-3,1.97779E-2,-3.9362293E-3,-1.2850237E-2,2.5698578E-3,1.1582794E-2,1.387889E-2,2.0557385E-2,2.001698E-2,2.7718859E-2,2.7806228E-2,3.0966729E-2],"split_indices":[4,13,0,5,13,4,0,9,8,0,9,2,1,4,0,0,0,0,0,0,0,0,0,0,0,0,0,0,0,0,0],"split_type":[0,0,0,0,0,0,0,0,0,0,0,0,0,0,0,0,0,0,0,0,0,0,0,0,0,0,0,0,0,0,0],"sum_hessian":[2.5098953E4,1.6729713E4,8.369241E3,7.1922266E3,9.537485E3,5.2630874E3,3.1061538E3,4.100475E3,3.0917515E3,6.191201E3,3.3462844E3,2.171029E3,3.0920586E3,1.3918611E3,1.7142927E3,3.4424338E3,6.580414E2,2.1227927E3,9.689587E2,5.7633784E3,4.2782318E2,1.3475135E3,1.9987708E3,9.662615E2,1.2047676E3,1.7358265E3,1.3562319E3,7.439531E2,6.4790796E2,1.0847168E3,6.295759E2],"tree_param":{"num_deleted":"0","num_feature":"20","num_nodes":"31","size_leaf_vector":"1"}},{"base_weights":[1.930603E-2,-2.3435414E-1,6.4414364E-1,-5.2202266E-1,6.634009E-2,4.7573295E-1,8.4978896E-1,-6.26314E-1,-2.6072973E-1,7.1534626E-3,4.1275862E-1,2.6768884E-1,6.0954934E-1,6.758314E-1,8.980911E-1,-2.3025863E-2,-1.351296E-2,-9.834516E-3,7.4741086E-3,-7.6020937E-3,3.5904427E-3,1.4139504E-2,-7.991681E-3,6.3528875E-3,1.8906532E-2,1.7237587E-2,2.5473667E-2,1.6190458E-2,2.6418887E-2,2.3927702E-2,2.8453013E-2],"categories":[],"categories_nodes":[],"categories_segments":[],"categories_sizes":[],"default_left":[0,0,0,0,0,0,0,0,0,0,0,0,0,0,0,0,0,0,0,0,0,0,0,0,0,0,0,0,0,0,0],"id":38,"left_children":[1,3,5,7,9,11,13,15,17,19,21,23,25,27,29,-1,-1,-1,-1,-1,-1,-1,-1,-1,-1,-1,-1,-1,-1,-1,-1],"loss_changes":[3.9709927E3,1.5414492E3,2.5033911E2,2.4809717E2,1.7864761E2,1.10673035E2,2.7058594E1,1.6148901E2,8.8938644E1,2.1822081E2,5.0627243E1,3.1524185E1,2.0031982E1,1.9551392E1,1.2509033E1,0E0,0E0,0E0,0E0,0E0,0E0,0E0,0E0,0E0,0E0,0E0,0E0,0E0,0E0,0E0,0E0],"parents":[2147483647,0,0,1,1,2,2,3,3,4,4,5,5,6,6,7,7,8,8,9,9,10,10,11,11,12,12,13,13,14,14],"right_children":[2,4,6,8,10,12,14,16,18,20,22,24,26,28,30,-1,-1,-1,-1,-1,-1,-1,-1,-1,-1,-1,-1,-1,-1,-1,-1],"split_conditions":[2E0,2.5157776E-1,5E0,4.9849135E-1,1.4354786E0,6.522555E-1,9.481176E-3,-2.1779126E-1,2.2749176E0,6.9632167E-1,1.4427565E0,1.2523963E0,1.3542013E0,7.058824E-1,7E0,-2.3025863E-2,-1.351296E-2,-9.834516E-3,7.4741086E-3,-7.6020937E-3,3.5904427E-3,1.4139504E-2,-7.991681E-3,6.3528875E-3,1.8906532E-2,1.7237587E-2,2.5473667E-2,1.6190458E-2,2.6418887E-2,2.3927702E-2,2.8453013E-2],"split_indices":[0,6,0,7,7,6,4,5,7,5,8,7,6,2,0,0,0,0,0,0,0,0,0,0,0,0,0,0,0,0,0],"split_type":[0,0,0,0,0,0,0,0,0,0,0,0,0,0,0,0,0,0,0,0,0,0,0,0,0,0,0,0,0,0,0],"sum_hessian":[2.5053172E4,1.7819463E4,7.2337085E3,9.106795E3,8.712669E3,3.9777974E3,3.255911E3,6.5083745E3,2.5984207E3,7.4417363E3,1.2709323E3,1.5576392E3,2.4201584E3,7.092129E2,2.546698E3,3.609024E3,2.8993503E3,2.2964375E3,3.0198322E2,2.2443518E3,5.1973843E3,1.1701881E3,1.00744125E2,1.3501489E3,2.0749016E2,2.113426E3,3.067323E2,4.270973E2,2.8211563E2,8.527479E2,1.6939502E3],"tree_param":{"num_deleted":"0","num_feature":"20","num_nodes":"31","size_leaf_vector":"1"}},{"base_weights":[-8.982205E-3,-2.765973E-1,6.3737E-1,-6.096554E-1,-1.1669467E-3,4.6206167E-1,8.4624535E-1,-6.8029803E-1,-1.635311E-1,-1.6008335E-1,2.4646054E-1,2.6648164E-1,6.1970127E-1,7.6303244E-1,9.537803E-1,-2.1974696E-2,-7.6128743E-3,-6.9240965E-3,1.3264507E-2,-6.287232E-3,7.838208E-3,5.5377986E-3,1.9574482E-2,2.3669675E-3,1.2343682E-2,1.6894674E-2,2.5876839E-2,1.5527985E-2,2.4825137E-2,2.6783297E-2,3.0723542E-2],"categories":[],"categories_nodes":[],"categories_segments":[],"categories_sizes":[],"default_left":[0,0,0,0,0,0,0,0,0,0,0,0,0,0,0,0,0,0,0,0,0,0,0,0,0,0,0,0,0,0,0],"id":39,"left_children":[1,3,5,7,9,11,13,15,17,19,21,23,25,27,29,-1,-1,-1,-1,-1,-1,-1,-1,-1,-1,-1,-1,-1,-1,-1,-1],"loss_changes":[4.27248E3,1.6023972E3,2.6463647E2,2.4912866E2,3.7628708E2,1.2118378E2,2.916211E1,1.5185913E2,4.4118088E1,1.2148357E2,9.3830734E1,4.774463E1,2.9659668E1,2.926001E1,5.7106934E0,0E0,0E0,0E0,0E0,0E0,0E0,0E0,0E0,0E0,0E0,0E0,0E0,0E0,0E0,0E0,0E0],"parents":[2147483647,0,0,1,1,2,2,3,3,4,4,5,5,6,6,7,7,8,8,9,9,10,10,11,11,12,12,13,13,14,14],"right_children":[2,4,6,8,10,12,14,16,18,20,22,24,26,28,30,-1,-1,-1,-1,-1,-1,-1,-1,-1,-1,-1,-1,-1,-1,-1,-1],"split_conditions":[2E0,1.0048772E-1,5E0,1.0259382E0,1.1179377E0,1.0095183E-2,9E0,2.7027028E-2,3.224669E0,1.7629597E0,1.3354347E0,3E0,1.3354347E0,4.197662E-1,1.3E1,-2.1974696E-2,-7.6128743E-3,-6.9240965E-3,1.3264507E-2,-6.287232E-3,7.838208E-3,5.5377986E-3,1.9574482E-2,2.3669675E-3,1.2343682E-2,1.6894674E-2,2.5876839E-2,1.5527985E-2,2.4825137E-2,2.6783297E-2,3.0723542E-2],"split_indices":[0,5,0,7,5,4,0,2,7,7,6,0,6,8,0,0,0,0,0,0,0,0,0,0,0,0,0,0,0,0,0],"split_type":[0,0,0,0,0,0,0,0,0,0,0,0,0,0,0,0,0,0,0,0,0,0,0,0,0,0,0,0,0,0,0],"sum_hessian":[2.4699178E4,1.7467312E4,7.2318647E3,7.906249E3,9.561064E3,3.9327388E3,3.299126E3,6.8252285E3,1.0810205E3,5.8237896E3,3.7372747E3,1.7557559E3,2.176983E3,1.8621783E3,1.4369475E3,6.0808086E3,7.4442004E2,9.7323425E2,1.07786224E2,5.2118735E3,6.1191614E2,3.2437402E3,4.9353455E2,7.6573804E2,9.9001776E2,1.7671862E3,4.0979684E2,3.8834372E2,1.4738347E3,7.732004E2,6.637472E2],"tree_param":{"num_deleted":"0","num_feature":"20","num_nodes":"31","size_leaf_vector":"1"}},{"base_weights":[-5.9824335E-5,-2.5337303E-1,6.214319E-1,-5.545786E-1,-8.865475E-3,4.5026097E-1,8.3644336E-1,-6.6981167E-1,-2.4079438E-1,-2.2117364E-1,1.1764918E-1,2.5486612E-1,5.909914E-1,6.635051E-1,9.056316E-1,-2.453634E-2,-1.3220264E-2,1.6321579E-2,-1.2146014E-2,-2.4158948E-3,-1.4132829E-2,7.2611324E-3,-2.0547048E-3,5.4739267E-3,1.459705E-2,2.0125957E-2,1.4584564E-2,1.5385252E-2,2.5224216E-2,2.6404494E-2,3.0333724E-2],"categories":[],"categories_nodes":[],"categories_segments":[],"categories_sizes":[],"default_left":[0,0,0,0,0,0,0,0,0,0,0,0,0,0,0,0,0,0,0,0,0,0,0,0,0,0,0,0,0,0,0],"id":40,"left_children":[1,3,5,7,9,11,13,15,17,19,21,23,25,27,29,-1,-1,-1,-1,-1,-1,-1,-1,-1,-1,-1,-1,-1,-1,-1,-1],"loss_changes":[3.8633035E3,1.2839385E3,2.6133105E2,2.823589E2,2.5848816E2,1.0874286E2,3.737793E1,1.9364136E2,2.7038315E2,1.26286804E2,1.3962823E2,2.7765396E1,1.9097534E1,2.3871399E1,5.59729E0,0E0,0E0,0E0,0E0,0E0,0E0,0E0,0E0,0E0,0E0,0E0,0E0,0E0,0E0,0E0,0E0],"parents":[2147483647,0,0,1,1,2,2,3,3,4,4,5,5,6,6,7,7,8,8,9,9,10,10,11,11,12,12,13,13,14,14],"right_children":[2,4,6,8,10,12,14,16,18,20,22,24,26,28,30,-1,-1,-1,-1,-1,-1,-1,-1,-1,-1,-1,-1,-1,-1,-1,-1],"split_conditions":[2E0,9.057581E-2,5E0,4.9849135E-1,6.9632167E-1,7.3136836E-1,1.0191402E0,-2.1779126E-1,-2.4139394E-1,4.801197E-1,2.1424243E-1,3.125E-1,9.719008E-2,8E0,1.3E1,-2.453634E-2,-1.3220264E-2,1.6321579E-2,-1.2146014E-2,-2.4158948E-3,-1.4132829E-2,7.2611324E-3,-2.0547048E-3,5.4739267E-3,1.459705E-2,2.0125957E-2,1.4584564E-2,1.5385252E-2,2.5224216E-2,2.6404494E-2,3.0333724E-2],"split_indices":[0,5,0,7,5,6,6,5,9,8,9,2,9,0,0,0,0,0,0,0,0,0,0,0,0,0,0,0,0,0,0],"split_type":[0,0,0,0,0,0,0,0,0,0,0,0,0,0,0,0,0,0,0,0,0,0,0,0,0,0,0,0,0,0,0],"sum_hessian":[2.4538496E4,1.7433207E4,7.105288E3,7.81069E3,9.622518E3,3.956812E3,3.1484758E3,5.7123413E3,2.0983486E3,3.5928574E3,6.02966E3,1.6572439E3,2.299568E3,9.011976E2,2.2472783E3,3.4692498E3,2.2430916E3,3.626143E2,1.7357343E3,2.2994783E3,1.2933793E3,3.6142612E3,2.4153987E3,1.263364E3,3.938799E2,1.3036538E3,9.9591437E2,4.882506E2,4.1294693E2,1.8138201E3,4.334583E2],"tree_param":{"num_deleted":"0","num_feature":"20","num_nodes":"31","size_leaf_vector":"1"}},{"base_weights":[-1.0864261E-2,-2.987712E-1,4.9577308E-1,-5.861163E-1,-6.7666486E-2,3.1016436E-1,7.617352E-1,-6.5530896E-1,-1.19723424E-1,-2.0940816E-1,1.2985726E-1,1.5417404E-1,4.659288E-1,6.3897353E-1,8.751674E-1,-2.3921298E-2,-1.3473492E-2,4.733159E-4,-2.1763442E-2,-8.090701E-3,1.4407628E-2,1.5410158E-2,1.3706736E-3,5.4687127E-3,-1.9416582E-2,1.2008813E-2,2.3358444E-2,4.984518E-3,2.0947592E-2,8.632249E-3,2.6465775E-2],"categories":[],"categories_nodes":[],"categories_segments":[],"categories_sizes":[],"default_left":[0,0,0,0,0,0,0,0,0,0,0,0,0,0,0,0,0,0,0,0,0,0,0,0,0,0,0,0,0,0,0],"id":41,"left_children":[1,3,5,7,9,11,13,15,17,19,21,23,25,27,29,-1,-1,-1,-1,-1,-1,-1,-1,-1,-1,-1,-1,-1,-1,-1,-1],"loss_changes":[3.5544465E3,1.0318245E3,4.3577026E2,2.2347803E2,2.4113954E2,1.2634656E2,5.0254883E1,1.7649902E2,7.349836E1,2.0853632E2,1.16237885E2,5.863321E1,5.3252563E1,4.8843384E1,7.651123E0,0E0,0E0,0E0,0E0,0E0,0E0,0E0,0E0,0E0,0E0,0E0,0E0,0E0,0E0,0E0,0E0],"parents":[2147483647,0,0,1,1,2,2,3,3,4,4,5,5,6,6,7,7,8,8,9,9,10,10,11,11,12,12,13,13,14,14],"right_children":[2,4,6,8,10,12,14,16,18,20,22,24,26,28,30,-1,-1,-1,-1,-1,-1,-1,-1,-1,-1,-1,-1,-1,-1,-1,-1],"split_conditions":[8.7561755E-4,2E0,4E0,1.1306884E0,9.46152E-1,8.8632655E-1,7E0,-2.1779126E-1,1.0584E0,3E0,6.672225E-1,1.6827272E0,1.3354347E0,6.0070353E-3,-1.5199117E-1,-2.3921298E-2,-1.3473492E-2,4.733159E-4,-2.1763442E-2,-8.090701E-3,1.4407628E-2,1.5410158E-2,1.3706736E-3,5.4687127E-3,-1.9416582E-2,1.2008813E-2,2.3358444E-2,4.984518E-3,2.0947592E-2,8.632249E-3,2.6465775E-2],"split_indices":[4,13,0,7,5,5,0,5,9,0,8,9,6,4,8,0,0,0,0,0,0,0,0,0,0,0,0,0,0,0,0],"split_type":[0,0,0,0,0,0,0,0,0,0,0,0,0,0,0,0,0,0,0,0,0,0,0,0,0,0,0,0,0,0,0],"sum_hessian":[2.436715E4,1.5537727E4,8.829423E3,6.9257695E3,8.611957E3,5.200912E3,3.6285105E3,6.0308486E3,8.94921E2,5.0139507E3,3.5980063E3,2.5990686E3,2.6018438E3,1.7441864E3,1.8843242E3,3.569804E3,2.461045E3,7.317218E2,1.631992E2,4.6112E3,4.027505E2,6.4665356E2,2.9513528E3,2.511346E3,8.772271E1,2.1513914E3,4.5045227E2,1.9452516E2,1.5496611E3,2.2516577E1,1.8618077E3],"tree_param":{"num_deleted":"0","num_feature":"20","num_nodes":"31","size_leaf_vector":"1"}},{"base_weights":[-1.2576863E-2,-3.0309394E-1,5.0159824E-1,-5.904037E-1,-7.4249305E-2,3.464519E-1,8.1381416E-1,-7.511131E-1,-3.8044223E-1,-1.3461214E-1,2.961346E-1,1.9351931E-1,4.959998E-1,7.239336E-1,9.2352194E-1,-2.485212E-2,-7.159566E-3,-6.2581054E-3,-1.953377E-2,-9.3946524E-5,-1.0294085E-2,1.4864162E-2,-1.1074821E-3,5.1528245E-4,1.0335874E-2,1.3009751E-2,2.0335691E-2,1.4871703E-2,2.383732E-2,2.4917673E-2,2.8374467E-2],"categories":[],"categories_nodes":[],"categories_segments":[],"categories_sizes":[],"default_left":[0,0,0,0,0,0,0,0,0,0,0,0,0,0,0,0,0,0,0,0,0,0,0,0,0,0,0,0,0,0,0],"id":42,"left_children":[1,3,5,7,9,11,13,15,17,19,21,23,25,27,29,-1,-1,-1,-1,-1,-1,-1,-1,-1,-1,-1,-1,-1,-1,-1,-1],"loss_changes":[3.6145725E3,1.0165692E3,4.2302734E2,2.3116626E2,1.9245158E2,1.3344635E2,2.8258179E1,1.536792E2,1.3822351E2,2.0291853E2,8.00954E1,7.6866325E1,3.33067E1,2.553595E1,2.30896E0,0E0,0E0,0E0,0E0,0E0,0E0,0E0,0E0,0E0,0E0,0E0,0E0,0E0,0E0,0E0,0E0],"parents":[2147483647,0,0,1,1,2,2,3,3,4,4,5,5,6,6,7,7,8,8,9,9,10,10,11,11,12,12,13,13,14,14],"right_children":[2,4,6,8,10,12,14,16,18,20,22,24,26,28,30,-1,-1,-1,-1,-1,-1,-1,-1,-1,-1,-1,-1,-1,-1,-1,-1],"split_conditions":[8.7561755E-4,2E0,5E0,-2.1779126E-1,1.4354786E0,9.145146E-1,9E0,8.2636523E-1,1.640404E-1,5E0,4.1411364E-1,2E0,1.9804204E-2,1.0095183E-2,1.0985986E-2,-2.485212E-2,-7.159566E-3,-6.2581054E-3,-1.953377E-2,-9.3946524E-5,-1.0294085E-2,1.4864162E-2,-1.1074821E-3,5.1528245E-4,1.0335874E-2,1.3009751E-2,2.0335691E-2,1.4871703E-2,2.383732E-2,2.4917673E-2,2.8374467E-2],"split_indices":[4,13,0,5,7,5,0,7,9,13,9,0,4,4,4,0,0,0,0,0,0,0,0,0,0,0,0,0,0,0,0],"split_type":[0,0,0,0,0,0,0,0,0,0,0,0,0,0,0,0,0,0,0,0,0,0,0,0,0,0,0,0,0,0,0],"sum_hessian":[2.4196701E4,1.5461126E4,8.735575E3,6.854567E3,8.606559E3,5.836404E3,2.8991714E3,3.881946E3,2.9726208E3,7.4007495E3,1.2058093E3,2.8861147E3,2.950289E3,1.5956764E3,1.303495E3,3.3729233E3,5.0902277E2,1.8188441E3,1.1537767E3,4.5391733E3,2.861576E3,7.54176E2,4.516333E2,1.331638E3,1.5544768E3,2.1983687E3,7.519203E2,3.781374E2,1.2175391E3,2.5589674E2,1.0475981E3],"tree_param":{"num_deleted":"0","num_feature":"20","num_nodes":"31","size_leaf_vector":"1"}},{"base_weights":[3.6238853E-3,-2.3469347E-1,5.9136397E-1,-5.346658E-1,9.015718E-3,4.273777E-1,8.004074E-1,-6.4649767E-1,-2.3488021E-1,-1.5598212E-1,1.7177851E-1,2.5296247E-1,5.9381926E-1,6.715563E-1,8.7469256E-1,-1.5710281E-2,-2.3182554E-2,1.3860961E-2,-1.0569892E-2,-3.7252882E-3,-2.84761E-2,1.546498E-2,2.8120617E-3,1.1848759E-2,4.1261907E-3,1.4702425E-2,2.1037312E-2,1.1436293E-2,2.2638092E-2,2.4745986E-2,2.950809E-2],"categories":[],"categories_nodes":[],"categories_segments":[],"categories_sizes":[],"default_left":[0,0,0,0,0,0,0,0,0,0,0,0,0,0,0,0,0,0,0,0,0,0,0,0,0,0,0,0,0,0,0],"id":43,"left_children":[1,3,5,7,9,11,13,15,17,19,21,23,25,27,29,-1,-1,-1,-1,-1,-1,-1,-1,-1,-1,-1,-1,-1,-1,-1,-1],"loss_changes":[3.3907703E3,1.2591768E3,2.3924146E2,2.587671E2,2.5523953E2,1.13572754E2,2.9088013E1,8.698926E1,1.7184216E2,1.1901464E2,1.2831973E2,3.1318016E1,2.214795E1,2.6975067E1,1.0151245E1,0E0,0E0,0E0,0E0,0E0,0E0,0E0,0E0,0E0,0E0,0E0,0E0,0E0,0E0,0E0,0E0],"parents":[2147483647,0,0,1,1,2,2,3,3,4,4,5,5,6,6,7,7,8,8,9,9,10,10,11,11,12,12,13,13,14,14],"right_children":[2,4,6,8,10,12,14,16,18,20,22,24,26,28,30,-1,-1,-1,-1,-1,-1,-1,-1,-1,-1,-1,-1,-1,-1,-1,-1],"split_conditions":[2E0,1.0048772E-1,5E0,4.9849135E-1,9.145146E-1,8.8632655E-1,7E0,-1.4E-1,-2.6727274E-1,1.2581367E0,6.672225E-1,-1.6587879E-1,1.3308682E0,4.197662E-1,1.3E1,-1.5710281E-2,-2.3182554E-2,1.3860961E-2,-1.0569892E-2,-3.7252882E-3,-2.84761E-2,1.546498E-2,2.8120617E-3,1.1848759E-2,4.1261907E-3,1.4702425E-2,2.1037312E-2,1.1436293E-2,2.2638092E-2,2.4745986E-2,2.950809E-2],"split_indices":[0,5,0,7,5,5,0,9,9,6,8,9,6,8,0,0,0,0,0,0,0,0,0,0,0,0,0,0,0,0,0],"split_type":[0,0,0,0,0,0,0,0,0,0,0,0,0,0,0,0,0,0,0,0,0,0,0,0,0,0,0,0,0,0,0],"sum_hessian":[2.4206922E4,1.7223445E4,6.983477E3,7.7202656E3,9.503179E3,3.9143494E3,3.0691277E3,5.622335E3,2.0979307E3,4.7191978E3,4.7839805E3,1.9120057E3,2.0023436E3,1.1241881E3,1.9449397E3,2.8512124E3,2.7711228E3,3.0235785E2,1.7955728E3,4.5378228E3,1.8137506E2,8.847082E2,3.8992725E3,8.5677155E2,1.0552341E3,1.02006335E3,9.822802E2,2.5065361E2,8.735345E2,1.3373789E3,6.0756085E2],"tree_param":{"num_deleted":"0","num_feature":"20","num_nodes":"31","size_leaf_vector":"1"}},{"base_weights":[5.2988874E-3,-2.2364038E-1,5.755241E-1,-4.8766625E-1,3.4003135E-2,4.049667E-1,7.198963E-1,-5.4753804E-1,-6.7940906E-2,-6.191583E-2,2.0177867E-1,2.1363504E-1,5.2332944E-1,5.62192E-1,8.002784E-1,-1.7653568E-2,-5.2211657E-3,7.348001E-3,-1.1041026E-2,4.04248E-3,-5.502901E-3,6.490998E-3,-3.7976682E-2,7.361048E-3,-1.6167426E-2,1.3227216E-2,1.9453155E-2,1.4286888E-2,2.231685E-2,1.787792E-2,2.5522327E-2],"categories":[],"categories_nodes":[],"categories_segments":[],"categories_sizes":[],"default_left":[0,0,0,0,0,0,0,0,0,0,0,0,0,0,0,0,0,0,0,0,0,0,0,0,0,0,0,0,0,0,0],"id":44,"left_children":[1,3,5,7,9,11,13,15,17,19,21,23,25,27,29,-1,-1,-1,-1,-1,-1,-1,-1,-1,-1,-1,-1,-1,-1,-1,-1],"loss_changes":[3.134982E3,1.1655948E3,1.6925171E2,2.1264417E2,1.3957443E2,7.139075E1,4.6996216E1,1.1312451E2,9.929053E1,1.3188828E2,6.7682144E1,2.888087E1,1.9952148E1,1.9493103E1,2.517981E1,0E0,0E0,0E0,0E0,0E0,0E0,0E0,0E0,0E0,0E0,0E0,0E0,0E0,0E0,0E0,0E0],"parents":[2147483647,0,0,1,1,2,2,3,3,4,4,5,5,6,6,7,7,8,8,9,9,10,10,11,11,12,12,13,13,14,14],"right_children":[2,4,6,8,10,12,14,16,18,20,22,24,26,28,30,-1,-1,-1,-1,-1,-1,-1,-1,-1,-1,-1,-1,-1,-1,-1,-1],"split_conditions":[2E0,2.291544E-1,3E0,1.1895922E0,1.1644138E0,7.899906E-3,1.1237584E-2,8.0534024E-5,2.6727274E-1,-1.825091E-1,4.139011E0,7.2729103E-3,1.540327E-2,5E0,3E0,-1.7653568E-2,-5.2211657E-3,7.348001E-3,-1.1041026E-2,4.04248E-3,-5.502901E-3,6.490998E-3,-3.7976682E-2,7.361048E-3,-1.6167426E-2,1.3227216E-2,1.9453155E-2,1.4286888E-2,2.231685E-2,1.787792E-2,2.5522327E-2],"split_indices":[12,6,12,7,6,4,4,4,9,9,6,4,4,3,3,0,0,0,0,0,0,0,0,0,0,0,0,0,0,0,0],"split_type":[0,0,0,0,0,0,0,0,